 0.176321,-0.676771,-0.00231654,-0.00803517,0.00604443,-0.00452474,-0.00727998,-0.00135339,0.00684468,0.00427416
limited -0.115605,0.0354634,0.00663499,-0.0264702,-0.0229072,0.000403543,-0.00266859,0.0491233,0.0516909,-0.0240385
raining 1.39307,0.262093,0.21926,0.154453,0.082303,-0.0749797,0.0957305,-0.0622139,0.0456138,0.131831
hats -0.127759,-0.0473001,0.0290423,0.000434715,0.0192704,-0.00054113,0.02007,-0.00572832,0.0152431,0.00244785
personally -0.13437,0.0276176,-0.0241021,0.0111722,0.0224802,-0.0303278,-0.0183554,0.0175936,0.00105549,0.0247689
sleep -0.142048,-0.0827377,0.00209551,-0.00369685,0.000730495,-0.00597697,-0.0025564,0.000598071,0.00150965,-0.00228436
hanging -0.130492,0.0106373,-0.0298995,-0.0541993,0.0447476,0.0146786,0.011656,-0.010701,-0.0224967,-0.00930131
francesca -0.143014,0.0987598,0.000921596,-0.00131826,-0.00258298,0.00509942,0.0162288,0.00868668,0.00325988,0.00561657
hate -0.143282,-0.0703233,-0.00799986,-0.00131693,-0.000462644,-0.00244562,-0.00165906,0.00242409,-0.00271111,1.9032e-05
trolley -0.0793614,-0.0548706,0.062462,-0.025836,0.0272217,0.0537955,0.0201974,0.0402118,0.0248183,0.0510035
looking -0.134912,-0.118346,-0.00371662,-0.0106893,0.000345007,-0.00147527,0.00547241,0.00118746,-0.00247291,0.0112455
gmic -0.134917,-0.0434422,-0.0130137,-0.00277668,-0.0214129,0.0101072,0.00532754,0.00354122,-0.0133035,-0.0113519
buddy -0.143151,-0.022011,0.0106243,-0.0100689,0.00373667,-0.00148335,0.00536978,-0.0118402,0.00927345,-0.00784504
snowing -0.0317467,0.15658,-0.0104613,0.0209824,-0.0221833,0.00314869,0.019405,0.0860188,-0.00266861,0.0894099
tweet -0.147646,-0.0119023,0.00502306,-0.000975213,0.00423929,0.0114435,-0.00108335,-0.00125245,-0.00891225,0.00159068
ttyl -0.109523,0.0801102,0.0287733,0.0201685,-0.00665279,0.0532109,-0.00359973,-0.0100103,0.0340349,0.0243474
bike -0.144656,0.0163959,-0.00881031,-0.00288555,0.00183398,-0.0212508,0.0165216,-0.00491544,-0.00378031,0.00142888
under -0.133489,0.0122898,0.00759616,0.0273912,-0.00678802,0.0153656,-0.0050831,-0.0316757,0.0129295,-0.00808024
sorry -0.149906,-0.00107728,-0.000395651,0.00290921,0.00119511,-0.00527079,-0.00512624,0.00315838,0.00521486,0.000173151
pride -0.143494,0.00209982,0.00370692,0.0105048,-0.00698252,0.0118177,-0.0123883,0.00217874,-0.00179822,-0.00414823
whack -0.120158,-0.177295,-0.00122825,0.00337666,-0.0189488,-0.000279915,-0.00236111,0.00633596,0.0141343,-0.0055486
updated -0.149922,0.0253646,0.00712341,-0.0051363,-0.00809722,0.00876816,-0.000338432,-0.00273955,-0.00166577,0.00352666
callin -0.143071,-0.0332126,0.0197874,0.00756542,-0.00266619,-0.00104241,-0.00433544,0.0108306,0.0133887,0.00497001
regional -0.144805,-0.0376451,-0.0139267,-0.0101805,0.00533242,-0.00702984,-0.0066676,-0.0058243,0.00131993,0.00354174
suggesting -0.104446,-0.056104,0.0347711,-0.0282339,0.0459412,0.0106621,0.02841,-0.0288266,-0.00754014,-0.0276144
indowebster -0.144478,0.110525,-0.00718652,0.0153143,-0.020455,0.0150256,0.0023218,0.0122866,0.0104616,-0.0232235
every -0.148977,0.00483339,-0.0120293,-0.000116435,-0.00355144,0.00249578,0.0091942,-0.00959268,0.00844572,-0.0161623
calcio -0.133917,-0.0712325,-0.00417256,0.00148604,0.012539,-0.0115651,-0.0268434,0.00211995,-0.0089133,0.00265102
kick -0.0891817,0.104485,0.0277848,0.0141479,-0.0374399,-0.0165816,0.0364434,0.0711139,-0.0902394,0.0338051
screaming -0.11778,0.0376284,-0.0377478,0.00162758,-0.00206879,-0.0148545,-0.00558092,-0.0158659,-0.0182141,0.0394096
monkeys 0.128586,0.0580316,-0.199951,0.0401501,-0.0328499,0.193297,-0.129309,-0.265583,0.0308811,0.116893
tagging -0.142953,-0.0395016,-0.00324417,0.00173879,0.0150043,-0.00496036,0.00223922,0.00693136,0.00295323,-0.0185887
school -0.150392,-0.00297216,-0.00171127,0.000793511,-0.0012766,0.00392935,0.00205865,0.00122807,0.000104627,0.00166605
bestfriend 0.617764,-0.84018,-0.0820207,-0.0510932,0.0319341,-0.0633498,0.0107634,-0.0184738,0.0449269,0.0625523
cause -0.123993,0.0744339,-0.00328988,0.0151841,-0.0331694,0.0535042,0.00817112,0.0416353,-0.0168569,-0.037859
venue -0.117354,-0.0382542,0.01952,0.00798403,-0.00138177,0.0296193,0.00605875,-0.000108449,-0.0213367,-0.0250476
wednesday -0.146725,0.0212891,-0.0121553,-0.00860707,-0.0023575,0.0193423,-0.00808582,-0.00372457,-0.00828709,-0.0216173
carrie -0.0988035,-0.100706,0.00655922,-0.0100568,0.0267763,0.0624947,0.020832,0.00471036,-0.00614792,-0.0181062
crotch -0.137298,0.104952,0.0115716,-0.0217167,-0.0248188,0.00313262,-0.00795269,0.00294691,0.00378574,0.0107745
heading -0.148868,0.0630211,0.0189602,-0.0106845,0.00293705,-0.000203541,-0.0155873,-0.0110694,-0.0149603,0.00458301
clothes -0.110294,-0.151306,0.0422701,-0.0121356,0.0179757,0.0242762,-0.0333252,0.0107878,0.013768,-0.0119951
enjoy -0.148235,0.0409592,0.0142626,0.010466,-0.00375854,-0.0107427,0.000121643,-0.0090347,0.00447128,-0.0141908
tired -0.149458,-0.00909895,-0.00730327,-0.00088675,0.00991806,-0.00134326,-0.00668327,-0.00485154,-0.00139215,-0.00522304
direct -0.123056,0.0719301,-0.00021937,-0.0138823,-0.0208967,-0.00226284,0.014062,-0.0114943,-0.0199584,-0.00353354
talks -0.144499,0.0810452,-0.00368301,-0.00664585,0.00595004,0.0210798,-0.00702506,0.00649007,-0.0131259,-0.0222731
second -0.138417,-0.0508239,-0.0183535,0.0308043,0.00781205,0.00660325,0.0115713,0.012496,0.00069077,-0.00734461
street -0.144419,-0.0347455,0.0128669,-0.00526764,-0.0139587,-0.00598349,-0.00420187,0.00685045,0.0120954,-0.00952568
chucklin -0.144578,-0.0517846,-0.0103864,-0.0081754,0.00681886,0.00170798,-0.000316308,-0.00260742,0.00175603,0.00547014
even -0.152746,0.0637558,0.000921424,-4.3408e-05,0.00261999,-0.00340683,0.000401207,0.00101606,-0.00187103,0.00240112
errors -0.106997,0.128269,0.0350425,0.0348655,0.00226687,-0.0144964,0.0374091,-0.0262333,-0.0116901,0.036554
saved -0.113355,-0.106514,0.0180427,-0.0163732,-0.0256542,-0.00459003,-0.0126519,0.0277306,0.024967,0.0345962
panama -0.13792,-0.000920186,0.000192479,-0.0155965,0.00205432,-0.0168081,0.0121324,-0.026228,-0.0114422,0.00724494
cooking -0.144395,-0.0344408,0.00464592,0.000463726,-0.0107069,0.00412847,-0.0041571,0.0209611,-0.00257968,-0.0021865
fingers -0.133245,-0.12252,0.0145785,-0.000471073,-0.0136457,0.0047019,-0.0011566,0.00784659,0.00269418,-0.00820353
lights 1.67265,0.351548,0.0389759,0.0116412,-0.063158,-0.00582091,0.0771431,0.0890837,-0.0433888,0.0165287
above -0.0825225,-0.17399,0.00601422,0.01144,0.0179891,-0.0264605,0.00573649,0.0379384,0.00473395,-0.0010287
new -0.147007,-0.0455012,-0.001753,-0.0015769,0.000528824,-0.00348581,0.000156504,0.00197036,-0.00145785,0.000121115
net -0.140549,-0.0653117,-0.019226,-0.0166375,-0.00836976,-0.00843349,0.00163202,0.0148561,0.00639597,-0.0125406
emily -0.0153589,0.00600859,-0.0585147,-0.0151905,0.0413637,-0.142157,0.0283029,-0.0737145,0.0412837,-0.00853089
ever -0.146496,-0.047862,0.000580085,-0.00259296,0.00244453,-0.00575757,-0.000298713,0.000897137,-0.00068352,-0.00243546
told -0.151975,0.0718648,0.00300837,-0.000649767,-0.00298147,0.00359748,-0.00381183,-0.000485679,0.000281149,-0.00121505
poohpot -0.137833,-0.0404707,0.00538063,0.00970713,0.0257957,0.0110329,-0.0164461,0.00888762,-0.00849027,0.00426087
kicked -0.148261,0.0426309,0.00147231,0.0209357,0.00908064,0.014955,-0.00085649,-0.00343777,-0.00506792,0.00262678
mea -0.104172,0.0786261,0.0408408,0.0433909,0.0309024,-0.0411584,0.0145824,-0.0246731,-0.0254579,-0.0666955
pancakes -0.150815,0.0385495,-0.0127564,-0.00173187,0.00905897,-0.00522606,0.00447971,0.0046463,-0.00636702,0.00305015
aja -0.14829,0.00369651,-0.000253093,0.00519469,-0.0155875,0.00330708,0.0149982,0.00991627,-0.00102649,0.00274529
men -0.146829,-0.0255714,-0.00327967,0.0023242,-0.0132447,0.00699813,0.00479259,0.00458736,-0.00866458,-0.00433792
kindred 0.133807,-0.329528,-0.0962121,0.0111118,0.0982945,-0.110963,-0.0553209,-0.195272,-0.0187824,0.0178557
here -0.142747,-0.0782476,-0.00261621,-0.00199303,-0.00120713,-0.00277844,-0.00177313,0.00464417,0.00156249,0.00187209
met -0.14988,0.081556,-0.00502129,-0.00842844,0.0134807,0.00179267,0.00340581,-0.00578502,-0.00222838,-0.00166394
china -0.147945,-0.0340014,0.00218778,-0.00366315,-0.000759937,0.00180379,-0.00449103,0.00118297,0.000216537,-0.0020856
undo -0.143269,-0.0435046,-0.0012188,-0.0104492,-0.00272232,-0.0202965,1.47521e-05,-0.00199969,-0.00878787,0.00319716
aud -0.130755,0.0333217,-0.0186969,0.0140074,0.00815149,0.00753332,0.00140134,0.00111471,-0.00206453,-0.0110895
dry -0.147739,0.033022,-0.00263081,0.00142473,0.00184281,-0.00288512,0.00123293,0.013837,0.00547686,0.0106302
anoop -0.133011,0.00430103,0.00384562,-0.0193403,0.00175882,0.00474966,-0.0201169,-0.0284513,-0.00140359,-0.0184603
kids -0.145422,-0.0542669,0.00161408,-0.00195456,0.0052924,0.0050293,-0.00374491,-0.000814441,5.49848e-05,-0.00673127
luggage -0.109443,0.11685,0.0146904,0.0172284,0.0552654,0.0244179,-0.050672,0.00230663,0.0217656,-0.0316657
study -0.131874,-0.109937,-0.00556973,-0.00775788,-0.00374855,-0.00434066,-0.0125172,-0.00615911,-9.4922e-05,-0.00113383
changed 1.48361,0.420735,0.151733,-0.0581629,0.0746276,0.047906,0.238006,0.0115261,0.0542501,0.0749611
piercing -0.131831,0.180385,-0.0158222,-0.0219857,-0.0106833,-0.0394696,-0.011201,-0.0182124,0.0151162,-0.0143048
itunes -0.146515,-0.00536339,-0.00304844,0.00421975,-0.000969128,0.0133814,-0.00451637,-0.00362656,-0.00288705,-0.00147536
paris -0.0924753,-0.0170315,-0.096485,0.00352796,-0.0290086,0.0105289,0.0433552,0.0161179,0.0323595,0.0178431
crap 0.0229497,-0.37625,-0.0227031,0.0165637,0.0259827,-0.00201295,0.0120157,0.0104889,-0.0529696,0.0680922
ako -0.136701,-0.00689317,0.00918324,-0.00103876,0.00709014,-0.0106136,0.0101579,-0.0100405,-0.0148777,-0.0027121
mentor -0.135343,-0.0665543,-0.00350328,0.0262329,0.00320198,0.00119718,-0.00926879,0.0042115,0.00359234,0.0085254
lonesome 0.0952972,0.118634,0.0454628,-0.0103636,-0.0749041,-0.0781254,0.0707376,-0.101676,-0.0141216,-0.000267124
aka -0.143193,0.0173674,0.0225558,-0.00763848,0.00950558,0.018864,0.00434286,0.0040756,0.0045173,-0.0198437
pack -0.144916,0.077142,-0.0191169,0.000436967,-0.0279525,0.0146022,0.0202814,0.00532393,-0.0127855,6.43581e-05
eyebrows -0.107403,0.0325463,0.0147232,-0.0188452,0.0117957,0.0239883,0.0331829,0.00604251,-0.0252108,0.0381478
golden -0.144807,0.053982,0.00867098,0.00179718,0.00149972,0.00665825,-0.00295883,-0.0164512,-0.00884876,0.0241463
daaang -0.125753,-0.0406124,0.00750969,0.0170083,0.0481062,0.0248082,0.000541243,-0.00792296,-0.00667126,0.00414031
hunch 0.957038,0.473749,0.0908375,-0.114042,-0.136534,0.0693438,-0.177265,-0.00751463,-0.0640034,0.0605647
stray 0.118096,-0.291873,0.021902,-0.112968,-0.000905518,-0.0177315,0.0832041,-0.12812,-0.072374,-0.148109
bro -0.141725,0.0789634,-0.00249303,0.00552097,0.0116559,0.0168311,0.013684,0.00580697,-0.00660642,-0.00085105
stern -0.0696136,-0.260698,0.0162713,0.0596419,-0.00671166,-0.0242206,0.00922789,0.0581459,0.00836581,0.0392329
cheating -0.111072,0.163668,0.00312971,0.0425439,0.0209441,0.0506007,0.000161268,-0.0282012,0.0138935,-0.0271733
spoke -0.145709,0.0361849,0.00254051,-0.0132215,-0.0179756,-0.008143,0.00258487,0.00956032,-0.00541857,-0.00809261
would -0.151558,0.0368614,-0.00414175,-0.00150183,-0.00412103,0.00106098,0.00706653,0.00186498,0.000989049,-0.00729326
arms -0.0735229,0.318697,0.0472717,-0.0203549,0.0381146,0.0382851,-0.0507573,0.0334137,0.0128937,-0.000919954
princess -0.145946,0.148733,-0.012865,0.00757238,0.00137981,0.00479833,0.0033613,-0.00845441,-0.00356307,-0.000823547
cali -0.0503868,0.000959532,-0.0134088,-0.0135733,-0.0926202,0.0121917,-0.0346314,-0.00968292,-0.0510747,0.0547973
edward -0.127958,0.0414364,-0.0153811,-0.00284779,-0.0466757,-0.0100923,-0.00294435,-0.0157422,-0.0250436,-0.0351766
music -0.148617,-0.00845446,0.00154976,-0.0175532,-0.00596314,0.00450685,-0.00426082,0.0109433,-0.000265198,-0.00486456
passport 0.0855454,-0.345845,-0.00565944,0.0657134,0.0599138,-0.0291309,-0.0295046,-0.0779827,0.0849383,-0.00898
spike -0.149258,0.0235914,-0.0150832,0.00286271,0.00184845,-0.0112386,-0.0165629,0.0115599,-0.00744273,-0.00873354
strike -0.147987,0.0236193,0.00906058,0.00822884,-0.00360686,0.00078125,-0.0116265,-0.0129521,-0.00844787,0.00988535
survive -0.142947,-0.0190897,-0.0219348,-0.010404,-0.00802868,0.0105986,-0.0231622,0.0045365,-0.000696755,0.0287186
straiiight -0.0871085,0.187192,0.00419596,-0.00528701,-0.0403274,0.00776914,-0.0195667,0.0128825,0.0459115,-0.040296
preview 0.612882,0.365926,-0.141353,0.374561,-0.190252,-0.0533133,0.156401,-0.00270727,-0.0811234,-0.200606
musik -0.135306,-0.0340047,0.0186719,-0.00796703,0.00854379,0.0107302,0.0100856,0.0179655,0.0244412,-0.0189402
tell -0.145947,-0.0517294,0.00479819,-0.00197326,-0.000850189,-0.00072513,0.00333346,0.00050075,0.004424,-0.00781439
sushi 1.28207,-0.35654,-0.0978968,-0.251318,-0.0699322,0.140269,0.0328916,-0.162549,0.0852398,-0.143399
posting -0.121366,-0.0495921,-0.00801551,-0.0482247,-0.0302263,-0.00822167,0.0227632,-0.0105299,0.0257611,0.0351577
holy -0.132512,-0.00886256,-0.0142693,0.011436,0.0254824,0.00796992,0.0192431,-0.00275849,0.00731697,0.00582729
successful -0.112384,0.00994847,-0.0131925,0.000179721,0.00271798,0.0464628,-0.00391861,0.0375845,0.0296819,-0.0260908
haha -0.145443,-0.0553082,8.67213e-06,-0.0037108,-0.00232092,-0.000120971,0.00654116,0.0015993,0.00148162,0.00323661
hurt -0.11453,-0.175419,0.0032922,0.000131626,-0.00398619,0.019246,-0.00537858,-0.000894171,-0.000367729,-0.00172192
warn -0.124899,-0.016213,-0.0126287,-0.0117823,-0.0161369,0.00753699,-0.0121581,0.00318237,-0.0032337,-0.00975378
phone -0.15028,0.00270091,0.0030153,0.00495632,-0.00583539,0.00286374,0.00276523,0.00291002,0.00212739,0.00337981
warm -0.150899,0.0901359,-0.00487543,-0.00565528,-0.0012384,0.00292437,-0.00420034,0.000677187,0.0021822,0.00893614
excellent -0.147287,-0.0211256,0.00451236,-0.00789595,0.00635346,0.0120799,-0.00426922,-0.00569778,-0.00662448,-0.000261346
hold 0.42251,-0.222892,-0.0361312,0.142001,0.27875,-0.065125,0.0504079,0.0216024,-0.205611,0.0731488
unpack -0.121136,-0.0472868,0.00712731,-0.0176003,-0.0293385,0.0457261,0.0152367,0.000463094,0.0125476,0.00215325
must -0.151365,0.0159505,0.00420325,0.00332452,-0.000686429,0.0030852,-0.000881049,0.0049512,0.00165046,-0.00178686
me -0.10599,-0.239041,-0.00157975,-0.0019828,0.00230332,-0.00198603,-0.00178255,0.000139384,0.00179676,0.00208014
ineptness -0.134808,0.00892535,0.0269419,-0.0201071,0.0341843,-0.00440221,-0.00320403,0.00212967,0.00708123,-0.0364849
join -0.14136,-0.0330256,-0.00391671,-0.00413929,0.00560498,0.0203403,0.00364831,0.0114944,0.0221254,-0.000750549
room -0.149174,0.0262184,-0.00189627,0.00762528,-0.0119718,0.00638968,-0.000707684,-0.00782099,-0.00947759,-0.00552624
mm -0.148429,0.0219846,-0.010056,-0.0206975,0.00969783,0.00856623,-0.00675228,0.00502356,0.00023081,-0.000414431
ml 1.46527,-0.244194,-0.0856225,0.147274,-0.0272165,-0.0310513,0.132044,-0.150761,0.0805061,-0.151608
mo -0.152274,0.0412997,-0.000554364,-0.00399907,0.000963931,-0.00275054,0.000552332,0.000608666,-0.00142544,-0.0027796
work -0.145538,-0.0580574,-0.000247733,0.000707963,0.00138521,0.00470966,-0.00184139,0.00124191,0.00205907,-0.00121991
worn -0.125522,0.123442,0.0019254,-0.0198491,-0.0428401,0.0307222,-0.0050813,-0.0452752,0.00418686,-0.011254
worth -0.12218,-0.0598801,0.00114457,-0.0112657,-0.0125689,-0.0436284,-0.00473403,-0.00516014,0.00142299,-0.00544665
movies -0.148818,0.026702,-0.00751312,0.00352266,-0.00849835,0.000812219,0.0113081,8.89581e-05,-0.00375951,-0.0083571
shoog -0.103577,-0.000118641,-0.0411536,-0.0204146,0.0462578,0.00862801,0.00127657,0.0476439,-0.0132413,0.0308885
writerreviewed -0.13085,-0.0945694,0.0154803,-0.0365695,0.00715229,-0.0149758,-0.00567267,-0.0204119,0.0262246,0.0226915
mp -0.145527,0.0217474,-0.00426814,-0.00766744,0.0208465,0.00809299,-0.00526933,-0.0118693,0.00654034,0.016613
ms -0.151562,0.0367699,-0.00480075,-0.00485378,0.00752618,-0.00134167,-0.00157976,0.00641065,-0.00314458,0.00458407
henry -0.133813,0.127176,-0.0396432,-0.0175556,0.00867932,-0.0155448,0.00638532,-0.030118,0.0120805,0.0178963
appraisal -0.110127,-0.0348897,0.0115989,0.00486324,-0.0139813,0.00427326,-0.02076,-0.0777238,-0.0233928,-0.0139273
example -0.109642,0.0157898,0.0191421,0.00848175,-6.83088e-05,0.0154998,-0.0127799,0.00768885,0.0176176,0.0426091
girlyvue 0.258937,0.102275,-0.0249847,0.13251,0.0225847,0.0236501,-0.0791217,-0.0133877,0.0542728,-0.0955754
wana -0.146426,0.0479394,0.0138923,-0.00733119,-0.0156752,0.0172528,-0.0026813,-0.0185034,0.00613732,-0.0227274
bell -0.143603,0.0249769,0.00901008,0.02091,0.0243264,-0.00342266,0.0136726,0.0170885,-0.0175274,-0.0119882
give -0.14609,-0.0150661,-0.00915601,-0.0155801,-0.0153177,-0.00419902,0.00448515,-0.0010228,0.00871531,0.00697215
muahaha -0.132483,0.139195,-0.0108348,-0.00796189,-0.0319594,0.00516415,-0.0139085,-0.0229958,-0.0168001,0.018093
programming -0.14344,-0.0378074,0.0112892,0.0159532,0.0066941,-0.00288484,-0.00322349,-0.00735319,0.00978485,0.00324773
unreadable -0.142018,-0.0434252,-0.00402593,-0.0153806,-0.0103874,-0.00186419,-0.00130659,0.0199708,0.0051704,0.0221413
megafast 0.0974109,0.00551916,0.0123106,0.067972,0.064596,0.138727,-0.0694664,0.0695525,0.0143649,-0.00993856
stressing -0.145447,-0.0317844,0.0120292,0.00213425,-0.00307713,-0.0074498,0.00425381,0.0037524,-0.00409532,0.0024339
honey 0.145451,0.36283,-0.0115074,0.0886543,0.0307667,-0.0420453,0.029345,-0.081735,-0.00619679,0.00206458
want -0.146046,-0.0513495,-0.000183596,-0.000698328,0.00527126,-0.00332965,-0.00410783,0.00386769,-0.00288511,0.00162748
premium -0.146508,0.0288913,0.00983713,-0.00287314,0.00331678,-0.00825384,0.00323233,-0.00125147,0.0042083,-0.0037821
story 1.67544,0.129983,0.0867673,-0.049211,0.0633678,-0.0889141,0.0736442,-0.0134394,-0.0399325,-0.0257451
end -0.145726,0.0494383,0.00912468,0.00654884,-0.00567149,0.00958669,-0.00474716,-0.00559953,0.00915837,0.00329753
hypnosis -0.124549,0.161054,0.00749521,-0.0186708,-0.0151461,0.0118456,0.0151112,-0.0331676,-0.0284275,0.0251579
hon -0.112632,0.122745,-0.0163881,0.0164053,-0.00158113,-0.00642826,-0.0595993,0.00354353,-0.0333239,-0.0181687
soma 1.63674,0.367849,0.0358446,-0.0504543,0.0491897,-0.0337786,0.0251362,0.0212421,-0.075641,-0.0434559
drying -0.140982,-0.0342195,-0.00938162,-0.0152096,0.00392623,-0.000506009,-0.0141912,0.0114706,-0.0031732,0.0034149
nuts -0.133902,0.168523,-0.00280021,0.0315843,0.00767991,-0.0184397,0.0186878,-0.00341685,-0.0139964,0.0236347
feature -0.146185,-0.0245301,0.0114849,0.00760362,-0.00153146,0.00400551,0.00321814,-0.0125197,0.00729102,-0.00534394
yema 1.786,-0.104841,-0.0533059,-0.0494719,-0.0116185,0.0291875,0.001622,0.0283211,0.0447042,-0.0135861
how -0.147761,-0.0383808,-0.000883784,-6.84792e-05,0.00175429,-0.00055424,0.000195435,-0.0011015,0.00185205,-0.00176591
amazing -0.15037,0.0274295,0.00998705,0.00282518,0.00196973,-0.00508045,-0.000676019,-0.00257867,0.00337376,0.00403405
interview -0.144879,-0.0441027,-0.0025102,0.000784011,0.00193464,0.00584796,0.00383617,-0.00410744,0.00590818,-0.00206814
cooool -0.0626678,-0.165666,-0.011424,-0.0321975,-0.0230441,-0.0295996,-0.0149642,-0.0715756,-0.0163775,0.0047023
beach 0.103351,-0.479124,-0.0252873,-0.0254427,-0.0253488,-0.00595162,-0.0504254,0.00373019,-0.0338388,-0.0395493
pizza -0.133834,-0.0868754,0.00764407,0.016573,-0.00860668,0.00991577,-0.00122024,0.0139378,0.0127731,-0.00890999
untill 0.0810607,0.305046,-0.0214907,-0.133612,0.12156,0.129409,-0.0226988,-0.0244286,-0.00406382,-0.138298
aches -0.0932589,-0.0082141,-0.0127472,0.00180159,-0.0436212,0.0103834,0.012015,0.0105238,-0.0116557,-0.0168718
cadillac -0.0884962,0.128673,-0.00938629,0.0104251,-0.0097037,0.0547967,-0.0338842,0.00907866,-0.068295,-0.0341802
earlier -0.137115,0.152514,0.0248753,0.0141297,0.0095903,0.0235377,-0.0251195,0.0404918,0.0129203,-0.0125602
wrong -0.13705,-0.013253,0.0129398,0.0261424,-0.0219178,0.00431298,0.022732,-0.0216801,-0.0272123,0.0114872
president -0.147976,0.131943,-0.00126146,0.00851929,-0.00474382,0.0032245,-0.00847849,0.00827592,-0.00275636,0.00447187
mesa -0.133415,0.157862,-0.0263532,0.0145977,0.0294501,-0.00976379,-0.00868003,-0.0203824,0.027092,0.0157906
law -0.106462,0.0389518,0.0495123,0.0127664,0.0151734,-0.00019385,-0.0253565,-0.0446585,-0.056056,0.000526312
constants -0.111037,0.0130387,-0.00501556,-0.0398427,0.00620409,0.0147337,-0.00424491,-0.0134415,-0.0236186,0.0582165
danny -0.118931,0.198572,-0.00334893,-0.0259631,-0.0212069,0.00386777,0.0259662,-0.00224666,-0.0474239,0.0129958
padre -0.125076,-0.054875,0.0248269,0.004704,0.0099757,0.00840223,-0.00145876,0.0078854,0.0185571,-0.0221256
third -0.102379,0.00547642,0.0207643,0.0240283,0.00690114,0.00731354,0.00648783,0.0158312,-0.020748,0.0103177
moviess -0.140325,0.0631068,-0.0177273,-0.00206691,0.000674034,-0.00181963,-0.0316692,-0.0122937,-0.00415927,-0.00366619
wins -0.143433,-0.00153201,-0.00686884,0.0142293,-0.00759335,0.00376851,0.0225929,0.0280988,-0.00514796,0.00175286
appreciate -0.14463,-0.0263913,0.0101149,0.0007739,-0.00406308,-0.0114338,-0.00478214,0.0119702,-0.00684635,0.0116316
cigarettes -0.115015,-0.100639,0.0265556,0.0151436,0.00358425,0.0298578,0.0387679,0.0332181,0.0089908,-0.000538742
green -0.125611,-0.0484589,0.0244727,0.0215649,0.00604909,0.00741452,0.0181195,-0.00260487,-0.0114339,0.0108672
ultimate -0.000838991,-0.00955854,0.0812197,-0.0311082,-0.0419667,-0.0133984,0.072747,0.0680961,-0.0121761,-0.0233866
keeps -0.143073,-0.0296832,0.014249,0.00278334,0.000238066,-0.0112168,-0.018106,-0.00675758,0.016719,0.00498508
fan -0.136192,-0.0365017,0.0325225,-0.0174816,0.0158985,0.0100323,-0.0128327,0.0269095,0.0142558,-0.0275285
wind -0.141384,0.0677406,0.00181963,-0.00237149,0.0141535,-0.00114299,-0.0101764,0.0195229,-0.0072521,-0.0117261
updates -0.143802,-0.0466056,0.00527332,0.000535795,0.000507432,-0.00273425,0.015971,-0.00136002,-0.00252462,-0.00925226
office 0.187306,0.450631,-0.0752362,-0.12347,-0.0225622,0.104889,0.000753373,0.0976325,-0.140515,0.193042
over -0.147956,-0.0358018,0.00143082,0.00131072,0.0025288,-0.000848222,0.000130564,0.00240775,-0.00141229,-0.0019307
fall -0.139902,-0.0915204,0.00599777,0.000227343,-0.00497213,-0.00829766,0.00173301,0.00378043,-0.00162415,-0.00253083
expects -0.148033,-0.0155314,0.00686021,-0.00199949,-0.00823716,0.000705245,0.000437874,0.00389367,-0.0112605,-0.00378902
tethering -0.136638,0.00145736,0.0348495,-0.02044,0.0288481,0.00320206,-0.0138751,0.0033661,0.0308197,-0.0032675
diddy -0.130717,0.0860969,0.0223225,-0.0254734,-0.0331808,0.00575389,-0.0209952,-0.00593082,-0.00164982,0.000219207
london -0.116327,-0.10507,0.0271936,-0.00893837,0.00269932,-0.0169298,-0.00736754,0.0222281,-0.0215783,-0.0149807
oven -0.146442,0.0153258,0.00483189,-0.0247781,0.00206717,0.00686804,0.00186136,0.00754688,-0.00338889,-0.00729513
japan -0.145158,-0.0340085,0.00644519,-0.00241118,0.00943943,-0.00132592,0.0127947,-0.00967754,0.00265055,0.00764416
before -0.1475,-0.0369696,0.0003345,0.00188026,-0.00399109,0.00723125,0.004146,-0.000503463,-0.00147356,0.000377631
submitted -0.148175,-0.00869749,0.00762408,-0.0140038,-0.00683978,-0.0154651,0.00331734,0.0019307,-0.00201435,0.002656
fit -0.141695,-0.0153881,-0.0144292,0.0178669,-0.00492997,0.00504952,-0.00309014,-0.00664114,0.00096601,0.0128905
somewhere -0.0854186,-0.170842,0.0317596,-0.0112001,0.00108305,0.0114343,0.0136794,-0.0129399,0.0410014,0.0105097
ticker -0.139752,-0.0333273,0.03658,0.0287179,-0.00517695,0.0017729,0.00653053,0.00350969,-0.0159648,0.0019306
writing -0.0995763,-0.0133675,-0.0328575,0.0159879,0.0547573,-0.0166539,-0.0336912,-0.000761645,-0.00709459,-0.0264198
better -0.143351,-0.0741198,-0.000337007,-0.00104283,0.00227079,-0.00304525,-8.39084e-05,0.00133123,-0.00155156,-0.00242287
cantu -0.149096,-0.00149925,-0.00606838,-0.000935785,-0.000596453,-0.00807584,-0.00314773,0.00823548,-0.0118059,-0.00332603
weeks -0.146269,0.0237186,0.0235221,0.00990382,0.0194368,0.0206375,-0.00549375,-0.00266257,0.00258946,-0.0143066
easier -0.149582,0.0536749,-0.00680091,-0.00625172,-0.000490033,-0.00454479,-0.00855354,-0.00930599,-0.000159321,-0.0121347
split -0.119739,-0.0251678,0.00542743,-0.00232306,-0.0229868,-0.0110548,-0.0189268,-0.00435001,-0.00561446,0.0557259
versus -0.136365,-0.0733145,-0.0161865,0.00602506,-3.95407e-05,0.00273587,0.0295574,-0.00870475,0.000711113,-0.00868389
then -0.140741,-0.0917484,-0.000917375,-0.00204844,-0.00226953,-0.0021321,5.15664e-05,-0.0020834,-0.00189248,0.00294066
them -0.149908,-0.0122274,-0.000797067,0.000526472,0.00423857,-0.00471212,4.94015e-05,-0.00170671,-0.00335808,-7.60723e-05
iowa -0.134574,-0.00709801,-0.0183333,0.0171053,0.00948434,-0.00337214,0.0152864,-0.016177,0.00699512,-0.003014
combination -0.0593691,-0.111839,0.00559199,0.0280416,-0.0733899,-0.0467565,-0.0230024,-0.00971579,-0.0062298,-0.035803
workout 0.0169244,0.163223,-0.0073809,0.0154296,-0.00992256,-0.0850018,0.0480666,-0.111983,0.0243791,-0.0320975
bouts -0.121724,-0.0546828,0.0274091,-0.020025,-0.0126776,0.0128045,0.0111962,-0.00512812,0.010156,0.0157681
break -0.148904,0.0138333,-0.0123239,-0.0145637,-0.00376766,0.00285627,0.00991992,0.00925148,-0.00842952,-0.00317687
band -0.140603,-0.0469524,0.0209198,-0.00322022,0.0118769,-0.00115853,0.000529676,-0.0174513,0.0126821,0.00613367
giraffe -0.1289,0.111908,-0.0446164,0.00847459,0.0400557,0.00214037,-0.0100943,-0.0270492,-0.0126514,-0.00280218
shameful 1.82089,0.11564,-0.0129135,0.0359584,-0.03484,-0.00649036,-0.0185182,0.0308104,0.0558181,0.0263781
they -0.147111,-0.0449153,-6.316e-05,-0.00145744,0.000323366,-0.000802523,-0.0027831,-0.000544231,-0.000675157,0.000763273
one -0.14844,-0.0317803,6.91414e-05,0.000764773,-0.000766848,0.000506128,-0.000261371,-0.00100311,-0.000395762,-0.000211708
tourism -0.129636,0.112017,0.00487684,0.0327718,0.0285583,0.000577522,-0.0104196,-0.000142301,-0.0176492,0.0110812
silver -0.141489,-0.013511,0.0070391,0.0171081,0.0128918,-0.0122881,-0.00561591,-0.00129808,-0.00806098,0.0135939
bank -0.137428,0.0405314,-0.00283177,0.0153749,-0.0298693,0.0212161,0.0104799,0.0121395,-0.00684411,0.00173128
alex -0.124197,-0.0344899,0.000307309,-0.005813,-0.00508627,-0.015759,0.0091975,-0.00717386,-0.0400111,0.0140339
meat -0.135102,0.00465414,-0.00202315,0.0346972,-0.008904,-0.0150576,-0.0117553,0.00706273,-0.00327915,-0.00791071
chuck 1.81616,0.0589047,0.0286616,0.00746204,0.016084,0.016966,0.0169521,0.0138065,-0.0197672,-0.0151051
rocks 1.67972,0.284263,0.0286374,-0.0522418,-0.0552708,0.00307384,-0.140093,0.0316482,-0.0229026,-0.113335
dyeing 0.309508,0.284827,-0.0549845,0.0887366,-0.0553884,0.364461,-0.116501,-0.0256796,-0.194678,0.0590984
filling -0.0742353,-0.0438748,-0.0242252,-0.0378813,-0.0125395,0.0214829,0.0540586,-0.0682987,-0.0514134,0.0328241
rocko -0.142998,0.0273313,3.43691e-05,0.015518,0.00694151,-0.0254749,-0.0223217,0.0041582,-0.0113884,-0.00627713
anastasia -0.0745589,0.291911,-0.00597444,0.0230344,0.023194,-0.0272876,-0.0140849,0.00872269,-0.0481213,0.0157315
victory -0.143379,-0.0208888,-0.00253878,-0.000526349,-0.0115675,-0.000370342,0.0244094,-0.0197796,-0.00528947,-0.00982355
each -0.148323,0.0605899,0.00720445,0.0113191,-0.0195161,0.0164477,0.00920667,0.00346909,-0.0127161,0.000994752
addicted -0.139004,0.0222598,-0.0101778,-0.0280218,-0.0162397,-0.025307,0.00485898,-0.0343018,-0.00333511,0.0193608
went -0.150988,0.059297,-0.00712738,0.00902053,-0.0107655,-0.00362076,-0.00627107,-0.00588735,-0.000565336,0.00827213
side -0.141416,-0.0583178,0.0105641,0.000678632,-0.00494035,-0.0182157,-0.000497205,-0.00827813,0.00947551,-0.00281783
luck -0.151237,0.0612695,0.00822212,0.000531415,-0.00581482,0.00101208,-0.00882704,0.00219058,-0.00162549,-0.00999984
cuuute -0.11594,0.03192,0.011898,0.00566486,0.0394875,0.0569293,-0.0436665,0.00747224,0.0096262,-0.016566
adobe -0.137557,-0.000214857,-0.0343684,0.00616802,0.011593,-0.0112816,0.0232218,0.000436766,0.0187087,-0.0001402
diana -0.146828,-0.00289119,-0.0103465,0.00800504,-0.000119815,-0.0057909,-0.00608177,0.00828543,0.00341801,-0.00313501
series -0.108412,0.159284,0.00717221,0.0228092,-0.00707878,0.0136969,0.044248,-0.0412677,0.0245539,-0.0272217
allan -0.107015,0.0103607,0.0160065,-0.0152426,0.0146766,-0.0355647,0.0333604,-0.070052,0.0629384,-0.0281151
upload -0.151453,0.0438065,0.000168758,0.00175666,-0.000525433,-0.0056618,-0.000613156,0.00407162,0.00389745,0.0018221
carry -0.0904409,0.0372569,-0.0492817,-2.67569e-05,-0.0482954,-0.041219,0.00805496,0.0490016,-0.0497908,0.0359672
practising -0.146267,0.0153813,0.000395459,-0.00931128,0.000360182,-0.00367211,-0.0194417,0.0159572,-0.013701,0.00884611
forgot -0.133076,0.20889,-0.00500905,-0.00814948,-0.0147944,-0.0148928,-0.00576871,-0.00270907,-0.000516056,0.0346428
logo -0.0939399,0.0445983,-0.00953608,0.0286237,-0.052395,-0.0431851,0.000353867,-0.0401595,0.00705632,-0.0172865
saturday -0.149171,0.0321058,-0.00103233,0.00354951,0.00677418,-0.0143337,-0.00536797,-0.00570406,-0.00940407,0.00455328
rt -0.148548,-0.0291319,-0.00311867,0.000864379,0.00247165,-0.00281749,0.000485656,-0.000393409,0.00295348,-0.000537553
whining -0.0985493,0.0198324,0.00652672,-0.0326778,-0.023309,0.0255376,0.0595696,-0.0193254,0.0385461,-0.0109982
velvet -0.133564,0.0814271,-0.000749713,-0.00916149,-0.0175164,-0.00526626,-0.00888754,0.00134347,-0.0106111,0.00672213
network 0.75406,-0.0734715,0.158886,0.0708323,-0.265464,-0.399139,-0.0970891,0.0180309,0.145033,-0.0568144
driving -0.147892,0.00336373,0.00202329,-0.00392478,0.00493789,0.0141467,-0.00789766,0.010855,-0.0161597,0.00798954
tianjin -0.14292,-0.028953,-0.00176966,-0.0117685,0.00604452,0.000141333,0.0090097,-0.0107873,0.00850929,-0.00232379
god -0.14816,0.111616,-0.00758252,-0.0072189,0.00202534,0.0203411,0.00616038,0.00358851,-0.0143194,-0.00886065
george -0.107417,-0.0874334,0.0338155,-0.00688166,0.0201539,-0.0455611,0.0611385,0.00621002,-0.0336831,-0.016952
rd -0.147672,0.0856777,-0.00655626,0.0159996,0.00774368,-0.00305417,-0.0135355,0.0152172,-0.0175843,-0.00524625
re -0.149012,-0.0244522,-0.0014912,-0.00240675,0.0017195,-0.00129484,-6.22394e-05,-0.00154793,0.00263754,-0.000879759
laid 0.0278034,0.102085,-0.0799867,0.062383,0.0655786,-0.0387059,-0.0499418,0.017978,0.092041,0.0640787
grebel -0.142171,0.0924757,0.0117282,0.0274708,-0.00465729,0.00719426,0.000450864,0.00196427,-0.00243448,-0.0302882
nite -0.146503,0.0453909,-0.0072179,0.0104294,-0.0104249,-0.0118541,0.0203057,-0.000868354,0.004121,-0.00736868
debit -0.14317,0.00264668,0.020262,-0.00350869,-0.0120354,-0.00371653,0.00454853,0.00884104,-0.00235399,0.00607592
medicine -0.124648,-0.0176404,-0.00969111,-0.0199419,0.0302875,0.0346013,0.0217004,0.000986191,-0.00868092,-0.0222729
got -0.144714,-0.0649313,-0.0015842,-0.00214251,-0.000934427,-0.00157455,-0.00299789,0.0010532,-0.000490753,0.00188171
smart -0.141585,-0.0235201,0.0188582,0.000227194,0.0212641,-0.00540666,0.002377,-0.00808704,-0.0172717,0.00126036
softball -0.124091,0.00355344,-0.00120142,-0.00596135,-0.0267084,0.0240909,-0.00965614,-0.00370821,0.0214691,-0.0389436
rail 1.05235,0.382718,0.123872,0.00233677,-0.00912997,-0.220962,-0.0715587,0.0451174,-0.138683,0.0848999
teusday 0.230363,-0.504388,-0.0776272,0.00117649,0.034825,0.0316217,-0.0333797,0.0905041,0.0680239,-0.136626
sana -0.146029,-0.0260808,0.00775457,0.0104491,0.00723384,-0.00729197,-0.00224241,0.00289163,-0.00128978,-0.000693691
little -0.148734,-0.0213209,-0.0061407,-0.00378134,-0.00301998,0.0043138,0.00652598,0.00196862,0.00182026,-0.000677553
free -0.149103,-0.010374,0.00158502,-0.00063891,-0.00228181,0.00472668,-0.00568978,-0.00523873,-0.00551341,0.0013589
fred -0.145309,0.0143577,0.000381316,0.00615048,0.0234885,-0.00480355,0.0152953,-0.00868607,-0.0144582,0.0195775
devunity -0.0722634,0.0393616,0.0238389,0.0311633,-0.0282294,0.00256672,-0.0295186,-0.0277397,0.0353213,0.0163992
struggle -0.122468,0.0754644,0.0106921,-0.00844626,0.0328146,0.0163691,0.0221284,-0.0173148,-0.0125449,-0.0360554
checked -0.119924,0.0273274,-0.0244202,0.0402027,0.0226004,0.00379151,-0.0156449,0.0272323,-0.00723469,-0.000605159
wanted -0.136189,-0.106476,-0.00669901,-0.000393091,0.00256866,-0.00756871,0.000917221,-0.00486152,-0.00723308,0.00178552
fret -0.142008,0.160003,0.00199103,-0.00777827,-0.00732792,-0.00528525,-0.00282293,-0.0198459,-0.00327392,-0.000495654
dammit -0.0629406,-0.00688005,-0.0317546,0.0214592,0.0374976,0.0452205,0.016152,-0.033742,-0.0375185,-0.0378453
ate -0.15107,0.0224038,-0.00371679,-0.00196954,-0.00618219,-0.0039898,-0.00392461,-0.0036637,0.00511947,-0.00248326
created -0.146876,0.0354377,0.00728717,0.00100788,-0.00222052,0.00117689,0.0295176,0.00410686,-0.00328827,0.00802542
messages -0.145025,0.0804155,-0.00344609,-0.00812041,-0.0106302,0.000861207,-0.0185678,-0.00492301,0.00712096,-0.0161922
days -0.148414,-0.030884,0.000752172,3.30834e-05,0.00208009,0.0006669,-0.000519061,0.00221352,-5.08782e-06,-0.000735893
filter -0.131494,-0.0258842,0.0160208,-0.00536576,-0.0222246,0.0042693,-0.0208705,0.0176794,-0.01942,-0.0463496
att -0.145725,-0.0303233,-0.0118194,-0.00537527,-0.00464163,-0.00567204,-0.0165076,-0.00292702,-0.00827659,-0.00276802
ish 1.67774,-0.124271,0.0679101,-0.0111042,-0.050241,-0.0736855,-0.150173,-0.0291307,0.0521198,0.0892348
isn -0.149059,-0.0169775,0.00397966,0.00246725,-0.00465651,-0.000726829,0.00571488,0.000527387,0.00198458,-0.00335943
loud -0.132088,0.0284481,-0.00887896,-0.0296236,0.00367386,0.00456537,0.00989117,-0.014671,-0.0213242,-0.00752794
already -0.144186,-0.0676769,-0.00263536,-0.000358148,-0.000807025,-0.00417816,-0.00109623,0.00247321,-0.00114204,0.0014972
features -0.149618,0.0380385,0.00682919,0.00642684,0.0101992,0.00520804,-0.00720941,-0.0097513,-0.0130596,-0.00172821
reconnected 1.53406,0.203908,0.0976414,0.106474,-0.0147367,0.190475,-0.212554,0.128053,0.129692,-0.0587374
primary -0.137112,-0.0227944,-0.0046501,-0.0246746,0.00312695,-0.00821535,0.0150226,-0.00221338,-0.0239907,0.010872
hearing -0.138387,-0.0222977,-0.00694309,-0.020714,0.0170363,-0.0224528,0.0261033,0.00326155,0.00073399,-0.00740852
channels -0.132038,-0.0409101,0.0150436,-0.007908,0.00721867,0.0036313,0.00833573,0.000763469,-0.00968558,-0.011723
hook -0.148673,0.0617834,-0.0120346,-0.00717251,0.00324833,0.0181642,0.00316726,0.00509802,0.00653656,0.00710319
spinning -0.134668,0.0761464,-0.0203463,-0.023262,0.0372106,-0.0172928,0.0429219,-0.0104627,0.00756523,-0.0201696
another -0.149617,-0.00962316,0.00366479,-0.00156796,0.00218502,0.00319688,-0.000337031,-0.00190517,-0.00528243,-0.00447044
comin -0.125859,0.0315601,0.0176108,-0.000688709,-0.0233143,-0.00206336,0.0437997,-0.00743924,-0.0150313,-0.00427813
calorie -0.147731,0.0409472,0.00940348,-0.00604936,-0.0114711,0.0106074,-0.00229488,0.00697316,-0.00184755,-0.0021328
electronic -0.142503,0.0127542,-0.0117957,-0.0169659,0.00304507,-0.0136351,-0.018926,0.00932191,-0.00689768,-0.0182976
brock -0.129679,-0.0806567,-0.00568644,-0.0161806,-0.00679243,-0.0179209,-0.0190369,0.00171056,-0.0304246,-0.0113849
basketball -0.150771,0.0468634,-0.00526958,-0.000781715,0.0024131,0.00290344,0.000594452,0.012293,-0.0021895,0.00443351
top -0.149783,-0.0088411,-0.00169228,-0.0036752,0.000149175,-0.00882726,-0.000385841,-0.00572617,-0.00585289,0.00171983
crunches -0.120135,-0.0426665,-0.0298224,0.00785196,-0.00111244,0.00932319,-0.0228682,-0.00862138,-0.0035877,-0.0245672
girls -0.131796,-0.0949355,0.0120804,0.00183744,-0.0290267,-0.00311357,-0.0189323,0.0170059,0.0199267,-0.0137733
fiction -0.146532,-0.00481206,-0.0122907,0.00945077,-0.000406683,-0.00987521,-0.00555205,-0.0117444,0.017692,-0.000908182
needed -0.0782102,0.154043,0.0166347,-0.0275822,-0.0399343,0.0658839,0.0111059,-0.0146261,0.0674261,0.0160635
too -0.133262,-0.133872,-0.00155465,0.000139825,0.00169231,-0.00191849,-0.000903002,0.000661004,0.000569672,0.000637701
tom -0.141254,-0.0491286,-0.0112438,0.00309137,-0.00828041,0.00770717,0.00144604,-0.00187625,-0.00520399,-0.0024498
john -0.021541,0.200814,0.0113991,0.0383712,-0.000196021,-0.0435449,0.061587,0.00893058,0.0666127,-0.0291721
dogs 1.64815,-0.42654,-0.0505579,0.0399292,-0.0403697,0.0954879,0.000848979,-0.0196815,0.0214552,0.0249341
selfcontrol -0.125956,-0.0321849,-0.00162704,-0.0233912,0.0184761,-0.00466146,-0.00474945,-0.0204184,0.0349703,-0.00027084
enhancing -0.115391,-0.127957,-0.0114475,0.0352772,-0.004626,0.0126571,-0.028538,0.0182343,-0.0304849,0.0199131
kno -0.14887,0.0230148,-0.00781794,-0.00207556,0.0030614,0.00633963,-0.00791143,0.000807185,-0.00624917,0.00552478
toon -0.141662,-0.0518357,-0.00651352,0.00267765,0.0079306,0.00108076,0.00953017,0.00257808,-0.00119858,0.00710675
tooo -0.138631,0.0381998,0.0481048,0.00528539,0.00747233,-0.0120598,-0.0130326,0.00727397,0.0010882,-0.0332579
gym -0.145634,0.00567171,0.00245004,-0.0100379,0.00318872,0.00416622,-0.000719269,0.00662747,-0.0105301,-0.0112716
japanese -0.0447143,-0.0632916,-0.0177089,-0.0522404,-0.00373975,-0.00599034,0.032863,0.00892873,0.100545,0.00770185
wiggety 0.161969,-0.477714,0.0976178,-0.0301991,0.0419546,0.0927166,0.0114126,0.000922672,0.0260638,-0.00247938
nurse -0.131325,0.0411435,0.0164743,-0.0173357,-0.0140037,0.0110551,0.0184276,-0.00915599,-0.0201119,-0.0188278
scowls -0.111682,0.0112399,-0.0149188,0.0682426,-0.00109771,0.0330506,-0.00343667,0.0380838,-0.0029615,-0.00240428
stocking -0.130762,-0.0929405,-0.0414538,-0.0116535,-0.0174625,0.00589977,0.00343906,0.0163705,0.00286691,-0.0122052
trek -0.134742,-0.0966444,0.0109997,-0.0139033,0.00889853,-0.00478119,0.00529774,0.0105343,0.0015086,0.00102118
hike -0.044666,0.0447366,-0.0227236,-0.0509037,0.0696127,0.113895,-0.0533982,-0.000813222,-0.0853612,0.0992136
whinging -0.137577,-0.0267891,0.0299355,-0.00832382,0.00580586,-0.011677,0.00244505,-0.00821432,-0.00154707,-0.00637107
nations -0.138196,0.00143164,-0.00313026,-0.0167431,0.00266074,-0.0101269,-0.0132779,0.0021956,0.0361768,0.0115922
project -0.0998706,-0.0476654,0.0953396,0.0664818,-0.0311625,0.0280577,-0.0248091,0.00164405,0.0276625,-0.0156749
matter -0.142712,-0.0103387,0.0100108,-0.000164789,0.0187981,-0.00341852,-0.0164466,0.0130732,0.0118323,0.00483717
classes 0.162537,-0.31412,0.209762,0.0278447,-0.0553563,0.120052,-0.0605487,0.0321237,0.0452882,-0.0722218
guilt -0.147679,-0.0202728,-0.00361781,0.00338201,0.0137179,0.00140632,0.00855912,0.00180602,0.0101495,-0.00377088
feeling -0.142377,-0.0783339,-0.000974219,-0.000375387,0.00448603,-0.00333332,-0.00335496,-0.0054953,0.00212278,-0.00383608
powers 0.138731,-0.29218,-0.0660264,-0.09633,-0.0731615,-0.0432393,-0.0362917,0.0288331,0.0209361,0.109459
telll -0.137933,0.0146101,-0.00456801,-0.0247041,0.00893957,-0.0161849,-0.0328178,-0.000253589,-0.0141156,-0.0105588
longs -0.126277,0.10205,0.00739084,-0.00967142,-0.0231936,-0.0298306,0.00663384,-0.0598753,-0.00868921,0.0318032
boston -0.151367,0.0741175,0.00151372,0.00322254,-0.00168669,-0.00501622,0.00409467,-0.00093488,-0.00559619,-0.00236019
aapl -0.149873,-0.0042784,-0.0013804,-0.000621227,-0.00273167,0.00252363,0.000266479,0.00613281,0.004999,-0.00168008
modern -0.14329,0.0708914,-0.00438909,0.0366152,-0.0268292,0.019231,-0.0104882,0.00994459,-0.00219347,-0.0178096
mind -0.132881,-0.0877511,-0.0136136,0.0186453,0.0176591,-0.000222478,-0.00493805,0.00147639,-0.0250806,0.026806
mine -0.126189,-0.142517,-0.015631,-0.00113024,-0.00316968,-0.00505476,-0.00911029,0.00635843,0.010978,-0.00383407
raw -0.132506,-0.0116095,-0.0135609,0.0217846,0.0451847,0.00355827,0.00329706,-0.0157303,-0.0101792,-0.0216726
aprs -0.121127,0.0273451,0.0252522,-0.0412633,-0.000851911,0.0167236,-0.0111415,-0.0489057,-0.000857063,0.00547374
seen -0.138875,0.130778,-0.0297677,-0.00512441,-0.0140364,-0.0014734,0.0225406,0.01063,0.0145025,0.013748
seem -0.147328,0.0213016,-0.00575976,0.0215931,-0.00932754,-0.0125821,-0.000181776,-0.0207208,-0.0155521,0.00759738
tells -0.145897,-0.00316242,-0.00226076,0.000667484,-0.000386278,0.00377251,0.000230507,-0.0115479,0.00637938,-0.00882662
flippin -0.139189,0.01109,-0.00137839,0.00376312,-0.0075807,0.0129092,-0.0176644,-0.0121044,-0.00879962,0.0110388
climate -0.110969,-0.0377627,-0.0214243,0.00294612,0.052449,-0.0402131,0.0201095,-0.00553763,0.0048761,0.0191521
dunno 0.0931199,0.0629877,-0.0941231,0.0552432,-0.00230655,0.0945918,0.0854863,0.120554,0.0377755,-0.0492421
snow -0.141169,-0.0665883,0.0026357,0.00295788,0.00121947,-0.0100899,0.0155318,-0.00191785,0.00840086,0.00711951
poots 0.125764,-0.145461,0.0794394,0.138181,-0.0464916,-0.0839055,-0.00293634,0.0272328,0.0874971,-0.151611
chest -0.144314,0.0483876,-0.0149545,-0.0242842,-0.004619,-0.0191974,0.00672642,-0.00240748,-0.0130552,-4.54704e-05
snoo -0.151079,0.0175673,-0.00112059,0.000712382,0.00323059,-0.00222405,0.00749601,0.00708587,-0.000891085,-0.00592956
season -0.12926,-0.129997,-0.00785278,0.00914165,0.00833863,-0.0109003,0.0102687,0.00978829,0.00115315,0.00865965
snob -0.0445172,-0.0345366,0.0406188,-0.0277006,0.0451469,0.0183672,0.0132609,-0.0180851,-0.0920563,0.0120775
yucky -0.142984,0.0270551,-0.0206855,0.0204382,0.0128896,0.00386769,0.0139202,-0.00308484,0.0116467,0.0315335
rider -0.142254,-0.025367,-0.00553819,-0.00873989,0.00471102,-0.0210849,-0.0111553,0.00873777,-0.0179098,0.0135463
babiiesss 1.33835,-0.536081,0.0528225,-0.106127,-0.0669224,0.0283174,-0.0373512,-0.0573924,-0.083021,-0.0587679
greatest -0.134443,0.043164,-0.00100323,0.00816337,-0.0191313,-0.0367701,0.0146039,-0.00692895,-0.00318868,0.0152101
blue 0.38919,0.466864,0.134723,0.189989,-0.0517256,0.0314376,0.108141,-0.172115,0.0231615,-0.0924646
exactly -0.0863557,-0.0410357,0.0497525,-0.0262816,0.0394114,-0.00504002,-0.00300718,0.0141774,0.0202762,0.00917942
though -0.148413,-0.0232639,-0.00609266,-0.0017736,0.00937924,0.00793248,0.00200207,-0.000679548,-0.00422766,0.0118759
phantasy -0.136656,0.0066572,-0.0115766,-0.0098151,0.00811802,0.0140742,-0.00982128,0.0150732,-0.000355653,0.0189954
crippe -0.0918233,-0.194807,0.0114462,0.0257183,0.0230438,-0.0167532,-0.0206567,-0.0201058,0.0365401,0.0271842
philosophy -0.136826,-0.0191999,-0.00537548,-0.00677767,-0.0014508,0.0162126,0.0191131,-0.00715977,-0.0160844,0.00319539
wells -0.143576,-0.0363207,-0.000905901,0.0270738,0.0200208,-6.2576e-05,-0.00499809,-0.0145524,-0.0185195,-0.00065379
regular -0.0381572,-0.111567,0.000878694,0.0277256,0.0885705,0.00995782,-0.0607436,0.0106758,0.0283417,0.0394474
germany -0.137463,-0.0409969,0.000577384,-0.0102353,-0.00296077,0.00803191,-0.0190869,-0.0077279,-0.00759047,-0.0103538
mannerisms -0.142863,-0.0426582,-0.00764241,-0.0104403,-0.00163342,-0.0034379,0.0128043,0.023848,0.00659244,0.0024629
doggies 1.78715,-0.0439004,-0.00423416,-0.0699445,-0.0379012,-0.0442029,-0.00642481,0.0438343,-0.03056,-0.0824545
fuckkkkkkkkkkkkk 0.432443,-0.125758,-0.0414286,0.186082,-0.0106341,0.158679,0.111964,-0.0342838,0.105542,-0.0454821
nonprofits -0.0481431,0.0521764,0.016696,0.0141556,0.0319066,-0.0155939,0.092867,-0.0776352,0.0142134,0.011623
depressing -0.0299011,0.0990963,0.0153386,0.0029076,-0.0513478,-0.0503276,-0.00203025,-0.0749493,-0.0545542,-0.0364045
don -0.14327,-0.075481,-0.00067698,-0.00185733,-0.00056745,0.000418829,-0.00228789,-0.000443686,0.00193335,0.000337488
doc -0.147051,-0.00339217,-0.00288645,0.0202911,-0.00241204,-0.00415905,0.00809498,0.00531732,-0.00553997,0.00739363
doa 0.630579,-0.710682,0.0563428,-0.00241583,0.120799,0.0337821,-0.0899124,-0.00512235,-0.00597694,0.0265149
nighttime -0.13683,-0.0114339,-0.0274643,0.00887025,-0.00109952,-0.00733457,-0.0005781,0.00939168,-0.021903,0.000754539
dog -0.121199,0.00891975,0.0463127,-0.0237166,0.0444314,-0.0407387,-0.00197023,0.0228352,0.0341751,0.015529
treaty -0.0936427,-0.00393909,-0.0650862,-0.020603,-0.0352088,-0.0099414,-0.014466,-0.0227623,0.0354638,-0.028038
points -0.10049,-0.0315014,-0.013645,-0.029268,0.0193106,-0.0143922,0.0130659,-0.0562946,0.0190075,-0.035462
tech -0.144483,0.0514456,0.000508884,0.0278294,0.00813344,0.00572017,-0.00640238,-0.020032,0.00294208,0.00601751
thunder -0.131542,-0.113374,0.0164925,0.00998613,0.00707481,-0.0144803,-0.00867044,-0.0162492,0.0162682,0.00454339
voting 1.27944,-0.592481,-0.00212175,0.0589709,-0.00161773,-0.0873796,0.173914,0.0838471,-0.0101016,-0.00929381
annoyed -0.150525,0.0160475,0.000362511,-0.000875881,-0.00585206,-0.000924636,-0.00389743,0.00342133,0.000755483,9.21967e-05
came -0.137648,-0.0114242,-0.00723742,0.0117483,0.0152685,-0.0147179,0.0203647,0.00799374,-0.0110236,-0.00538941
renting -0.145661,0.0406075,-0.00681508,0.0135487,-0.00621966,-0.030908,-0.0143846,-0.00410135,-0.00264233,-0.00158439
saying -0.145737,0.00327177,-0.00722149,-0.000936104,-0.0136843,-0.0257329,-0.0146263,0.00733142,-0.00423545,-0.00486281
beaten -0.145802,-0.0137957,-0.00877709,0.0148144,-0.00299001,-0.015752,0.00813262,0.00619478,-0.00549137,-0.0135261
meetings -0.152209,0.0611125,-0.00187177,0.000891652,0.000549723,-0.00333755,-0.0071724,-0.00106228,-0.00599271,0.00142494
random -0.14518,-0.0482035,0.00420198,-0.0027174,0.00622769,-0.00995702,-7.85263e-05,0.00228627,-0.0134474,-0.00132234
sexist 0.211559,0.584337,0.0178021,-0.0525399,0.0991373,0.0300548,0.0483117,0.0322834,-0.033658,0.114515
attempts -0.131716,-0.0976168,-0.0106198,0.000350032,-0.00534126,0.00773322,0.00511043,-0.03016,-0.00908414,-0.011241
radio -0.140733,-0.0683459,0.00294564,5.56228e-05,-0.00225285,0.018975,-0.0112468,0.00359422,0.015275,0.00372298
keywords -0.13718,0.0234419,0.00221272,-0.0129512,0.00837697,-0.0167032,0.0382274,0.00563334,0.0140634,0.011296
earth -0.146469,0.00872475,0.000558056,-0.0165819,-0.004672,-0.00276881,0.00495063,0.00982212,-0.00589966,-0.00681203
tempted 0.509243,0.131114,0.140325,-0.0279914,-0.101177,-0.0229367,0.0479343,0.0944923,-0.0457474,0.154972
enjoyed -0.140597,0.126323,-0.0195502,0.00217599,0.0265383,-0.00426062,0.0236269,0.0109309,0.000531427,0.00431604
pick -0.143647,-0.054171,-0.00288222,0.00381951,0.00249868,0.0101122,0.00315251,0.00621287,0.0088042,-0.00213656
applepears -0.128975,0.00372346,-0.0223693,0.00417112,-0.0336673,0.00474471,0.0174888,0.000928666,0.0192937,0.00312637
busy -0.151051,0.0738773,0.00434449,0.0123971,-0.00556657,-0.000936328,-0.00480307,0.00289248,-0.00971239,0.00227904
headline -0.0715986,-0.0394547,-0.0148556,0.106068,-0.0140429,0.0313891,-0.0989707,0.0357111,-0.0100207,-0.0562067
cousins 0.264727,-0.570536,-0.01117,0.00562449,0.0360893,-0.0198498,0.0869968,0.0247782,-0.0442398,0.0230979
explain -0.148989,0.0248401,0.0068383,-0.0150672,-0.00308863,-0.00687665,-0.00628935,0.000391137,-0.00931694,0.00525301
sheldawg -0.0113577,-0.0543646,0.0229323,0.0572307,-0.0198458,-0.028126,-0.039179,0.0529154,-0.0411889,0.0170085
hrs -0.133875,-0.0210064,0.031274,-0.00222777,0.03761,0.00983026,-0.0188824,-0.0160769,-0.0269133,-0.00369361
rich -0.0693523,0.19318,-0.0187926,0.00934362,-0.0307778,-0.00505168,-0.0339805,-0.0723707,0.0354924,-0.0300166
tropic -0.124143,-0.147856,-0.00461951,-0.0106135,-0.00272178,-0.0231312,0.0283557,-0.00309906,0.0183221,-0.00175504
inventor -0.136019,-0.0211247,-0.00124762,0.0120491,0.00552381,-0.0198747,-0.00276391,-0.0359456,-0.00244678,-0.00831292
clubzone -0.106288,-0.0186281,-0.011331,0.0588905,-0.0379284,0.0852883,-0.0300909,0.0377924,0.0203304,0.00407574
kutner -0.122216,-0.0458498,0.00788429,-0.0217698,-0.0272787,-0.0168732,0.0345549,0.00630793,-0.0054661,0.00363823
dm -0.121597,-0.131981,-0.0038202,0.00793264,-0.0120883,-0.00976793,0.0141921,0.00983402,-0.0189229,0.0115899
di -0.149452,-0.00218673,0.0032895,-0.00447617,-0.0126288,0.00551482,0.00591905,0.00958768,0.0118696,-0.00971548
stou -0.0188334,0.00368885,-0.0654236,-0.0246825,-0.0451982,0.0483614,0.053347,0.0851381,-0.115444,-0.0174737
uhhh -0.141748,0.149251,-0.00852099,-0.00387107,-0.0121262,0.00175517,-0.0211597,0.00339996,0.00773331,0.00669813
watch -0.15086,0.0333377,-0.00296218,-0.00462345,-0.00348019,-0.000637589,-0.00172109,0.00648054,0.00284275,-0.00198001
dc -0.123465,-0.0057934,-0.0294666,0.0011072,-0.00682826,0.0214714,-0.00986476,0.00299318,0.00434624,0.00237664
cardinals -0.135028,-0.00482526,-0.00379854,0.00302282,-0.0210182,-0.004377,0.00513135,0.0279195,-0.0366669,-0.0118023
amazon -0.14564,-0.0171089,-0.00326388,0.0138875,-0.000889293,0.0109164,0.00952553,-0.0134776,0.00465847,0.015282
dx -0.144067,-0.0103396,-0.00221658,-0.0107528,0.00495196,-0.010122,0.0119242,0.0130615,0.0116637,-0.00532722
wedding -0.129898,0.0196617,0.0159892,-0.0107466,-0.00344028,0.0321683,0.00350118,0.00154916,0.0210918,0.0216358
nasty -0.114139,-0.0660013,-0.0178373,0.0182554,-0.0318757,0.0283448,-0.0343157,-0.00505976,-0.0345926,-0.0214464
du -0.0963926,0.317728,-0.0264248,0.0333069,-0.0218291,0.0300334,-0.00976399,-0.0222216,-0.00338327,0.00702584
ds -0.105917,0.14784,0.0115149,-0.016258,-0.0806611,0.0235972,-0.0149762,0.0519721,-0.0354799,0.0290918
unfortunately -0.110124,0.0135484,-0.0482716,0.0135406,-0.0585247,-0.0263754,0.0116731,0.00115862,0.0115227,-0.0167785
bar -0.0849098,0.0233289,-0.0114125,0.087792,0.00730978,-0.0414073,0.0696504,-0.0118629,-0.0308183,-0.003412
uncapped 1.50824,-0.441133,-0.130946,0.00218112,-0.058943,-0.0868789,-0.0122239,-0.0290631,0.014899,-0.0620621
officially -0.0873445,-0.161662,0.00435927,0.00434927,0.011413,0.0477983,-0.0289435,0.0375355,-0.0130878,0.0169189
lexington -0.144746,0.0223719,-0.0169851,0.0129664,-0.0035942,-0.00352298,0.00921057,0.0103806,0.000362708,0.0107223
bay 0.415895,-0.243803,-0.0428192,0.117277,0.0641961,0.188812,0.00885717,0.0459875,0.125618,0.093507
bag 0.0300503,0.306842,0.0349447,0.0724529,-0.0230192,-0.0582647,0.0439947,0.0272795,0.0395069,-0.0859738
bad -0.146002,-0.0500443,0.00209556,-0.000562035,-0.000736875,0.00199656,-0.0053108,0.001224,0.000934872,0.00109897
binhai -0.147856,0.00810804,0.00116189,0.0132994,0.000767454,-0.00899197,0.000788666,0.00747567,-0.00499136,-0.00179848
release 0.0185257,-0.250628,0.13194,0.0396175,-0.0112998,-0.0261079,0.0212936,0.0329645,0.0973725,0.0501126
effing 0.0634262,0.318668,-0.0266409,0.0483191,-0.039567,-0.0788556,-0.0217865,-0.098311,0.0093043,0.00949941
besties -0.0352103,0.311874,-0.00115578,-0.0144135,-0.00981121,0.0108803,0.0628212,-0.0187597,-0.0201512,-0.0702275
disaster -0.104216,-0.0144418,0.0115868,-0.0219172,-0.0419809,-0.0135984,0.00693701,-0.00451555,-0.0532497,0.0081904
reference -0.144031,-0.0493972,-0.00685429,-0.0127688,0.00764342,0.00020114,-0.00708942,0.00439121,-0.00974374,-0.0012868
branding -0.131103,-0.0991053,-0.0204548,0.0123581,-0.0128925,-0.0120356,-0.0228912,0.00834132,0.00315997,0.0141093
testing -0.147821,0.00811499,-0.00699875,0.00582395,-0.020601,-0.00755925,0.00763054,-0.0108435,-0.00379783,-0.00119547
twitterpeeps 0.630148,-0.302954,0.304541,-0.134835,-0.0879219,0.0476867,0.134329,-0.0352051,-0.106116,-0.0567027
observed -0.0659269,0.0931847,-0.0628548,-0.00301794,-0.0569689,-0.0158848,0.0216207,-0.00630014,-0.039764,-0.0164879
goodnight -0.0921364,-0.213286,-0.0307975,0.0587217,-0.0268254,-0.0256456,-0.00943612,-0.0101862,-0.00738315,-0.0259648
torrents -0.142309,0.087683,0.0289143,0.00875997,-0.00984939,0.00185248,0.00246549,0.0176016,-0.00434966,0.0288245
fail -0.145042,-0.0449285,0.00120129,0.00316535,0.00486687,-0.00575905,-0.000184367,0.0025812,-0.00201608,0.00573005
miserable 1.65411,0.0278758,0.0965265,0.0348719,-0.124912,-0.0436341,0.0976149,0.0770046,0.0156805,0.0359197
kok -0.151059,0.0419592,-0.00836206,-0.00177432,0.00290863,0.000437985,0.0122417,-0.00590602,0.00888104,0.00630351
best -0.147544,-0.0397611,0.00272027,-0.00454133,0.00329859,-0.00129094,-0.00505507,0.000234762,-0.00404058,-0.00244827
techniques -0.145347,-0.0441207,-0.0109247,0.00431894,-0.00174664,0.00485927,-0.00721771,-0.00788058,-0.00368366,-0.00498519
said -0.136854,-0.111865,0.000900091,-0.00193013,0.000480635,-0.00186372,-0.000967942,0.00270092,-0.00357556,0.00315534
capacity -0.129159,0.026014,0.0739863,0.000193829,0.002883,0.0406691,-0.0090688,0.00552935,0.0019187,-0.0418973
lots -0.149425,0.0115926,0.00829782,-0.00321051,0.00339714,0.00799182,0.00106586,0.000758267,0.00600709,-0.00909656
away -0.148698,-0.0217263,-0.000337498,0.00312335,0.0016041,0.00148895,0.000609443,0.00406866,0.00774793,0.00235234
clamped -0.125708,0.203774,-0.00817181,-0.0224392,0.0181233,0.00369662,-0.00881024,0.0220657,-0.0122243,0.0158367
brutha -0.108528,0.0944212,0.0114248,0.045638,0.02062,-0.016321,-0.0647972,-0.00754472,0.0337993,0.00448703
mug -0.146295,0.0541354,0.0181943,-0.00681411,-0.0138739,-0.00576733,-0.00503647,0.00410122,-0.0231565,-0.00505722
hopefully -0.144205,-0.0515641,0.00123732,0.0010568,0.0061955,-0.000509408,-0.011249,-0.00355111,0.00839811,0.00104381
rundown -0.107311,0.103505,0.0785543,0.00121791,-0.00912509,-0.107011,0.0407266,-0.0563571,0.013141,-0.0119952
lazy -0.145515,-0.0201448,-0.0017268,0.00146419,0.00645205,-0.000680451,0.00755224,-0.010038,0.00462054,3.87956e-05
never -0.151046,0.0355266,0.00369636,-0.00223104,0.00540072,-0.0106317,0.00655584,-0.00299679,-0.000171774,0.000100925
omg -0.152181,0.0314487,0.000331112,0.00622976,0.00432943,-0.00774385,0.00116314,0.00120819,0.00305679,0.000356998
extend 0.0851682,0.464953,-0.0148459,0.030608,-0.104346,0.0137849,-0.0292692,0.020184,0.00655176,0.055317
nature -0.121216,0.015512,0.00497782,0.0187412,-0.00601558,-0.00919941,-0.0472454,0.0346246,-0.0263873,0.0106683
weak -0.14044,0.00333389,-0.0369775,0.00323042,0.00421954,0.000902019,0.0132005,0.0235599,0.0106155,-0.0155838
however -0.0911305,0.0725067,-0.0424614,-0.049848,-0.0342347,-0.0190451,-0.055679,0.0760867,-0.020834,0.00407174
boss -0.0873021,0.16347,0.000613919,0.0646586,-0.0518873,-0.0159266,0.0120703,0.0123076,-0.00226517,-0.0207528
nightmares -0.116058,0.0626756,-0.0329152,0.00512361,0.00911794,-0.0247195,-0.0179335,0.0181436,0.0102904,-2.92016e-06
harvard -0.145877,-0.0115043,-0.00284464,-0.00111081,-0.00854454,0.000556416,-0.00562177,-0.0157252,0.000669903,-0.0170129
wear -0.10062,0.238124,-0.00627206,-0.0432419,0.00609132,0.0137433,0.0218885,0.00328822,0.0403293,-0.0277219
wtf 1.58033,0.0646735,0.18747,-0.0409141,-0.0414477,0.102879,0.011141,0.116152,0.019593,-0.00960391
news -0.145938,-0.0462034,-0.00282429,0.00076702,0.00957809,-0.0031795,-0.00253705,0.00222709,-0.0135897,0.00202217
picking -0.133184,-0.0780937,-0.00198964,-0.0216747,0.00845763,0.00234731,0.0188524,-0.000207109,-0.027927,0.029273
pity -0.147308,0.00895706,0.00265466,-0.0167956,0.0113965,-0.00321588,-0.00713099,-0.00235872,-0.0188558,-0.00836268
cos 0.0544365,0.123735,0.111072,0.07795,-0.0244362,-0.0979694,-0.0648907,-0.0192034,-0.0537609,0.0381327
accident -0.14766,-0.0261006,-0.00454812,-0.00253566,-0.00505987,0.00378127,-0.00374927,-0.00368395,-0.00713408,0.00846645
country -0.121518,-0.0974801,0.025533,-0.0140803,0.00717386,-0.00186285,-0.00572887,-0.0426182,-0.0312833,-0.02619
ill -0.13599,0.126337,-0.00761272,-0.0449851,-0.0152195,0.00279522,-0.0127076,-0.0229832,0.00496372,-0.0174173
puter -0.135763,0.0036573,-0.00431642,0.0195378,-0.014968,-0.00566224,0.00767762,0.02362,0.0186866,0.0137824
negative 0.405391,0.603133,-0.0167741,-0.0122414,-0.0145299,0.151611,-0.0521403,0.114196,0.169661,0.0627363
unc 1.03383,-0.46825,0.0358656,0.0894251,-0.0424241,-0.0947007,-0.219496,0.0692408,-0.0556595,0.0138824
games -0.143136,0.0435703,0.00779317,-0.0139975,-0.0101065,7.01882e-05,0.0135741,-0.0200787,-0.00706803,0.0105312
planned -0.0150604,0.13724,-0.0404984,0.022612,-0.0715116,0.0551524,0.116117,-0.00339042,-0.00484677,0.0315769
ung -0.150507,0.0292606,0.00752944,0.00642178,-0.00286899,0.00914222,0.00190297,0.00678789,0.00331807,0.00812564
uni -0.140447,-0.0117853,0.00445524,0.00242892,-0.0269537,-0.0139499,-0.0148822,0.00432252,0.0141621,-0.0134128
browser 0.0887637,0.121421,0.139511,0.0591284,-0.038815,0.188628,0.0523986,0.096051,-0.00838533,0.020022
com -0.149134,0.0138947,0.00800549,0.00383629,0.00970073,-0.00671571,-0.00790283,0.0128587,-0.0126754,0.00978013
asked 0.113414,-0.196193,-0.0670926,0.0642563,0.00997115,0.0288658,0.0989228,0.0196667,0.0780649,0.0148123
tough 0.284062,0.0827785,0.263458,0.034509,-0.235734,0.00198297,-0.00356903,0.145336,0.0273366,0.0527547
bacn -0.138892,0.0803013,0.00414781,0.0187551,-0.00995056,-0.00524985,-0.0109952,0.017554,-0.0160719,-0.00999379
royal -0.139043,0.00734652,0.024587,0.00818557,-0.00484375,-0.00550747,-0.00299068,0.0126495,-0.0192203,0.00902841
niqqa -0.138197,0.0913387,0.0212753,0.0119951,0.0144909,-0.00643122,-0.0189074,-0.0157355,-0.0171151,0.0163398
tons -0.112153,0.299806,-0.0358539,0.00615829,0.00788068,0.0129479,0.00509572,-0.013564,-0.0260501,0.0174543
trust -0.0993717,-0.0595582,-0.000366442,-0.0378993,-0.0160109,0.0574939,0.00144883,0.0538854,-0.0431832,-0.0146969
buzzing -0.12963,0.113454,0.0188947,-0.0237495,-0.0167884,0.0066658,0.00612905,-0.00773616,0.0162669,-0.0210876
hitler -0.014062,0.0141042,-0.00737789,-0.0239092,0.00439664,0.121259,-0.0241751,-0.0599627,-0.0450123,-0.0845795
buttload -0.0569043,-0.0524179,-0.0791778,-0.0386918,-0.0395108,0.0202672,-0.000696393,0.00777856,0.0885615,-0.0547791
bathroom 1.82047,0.211336,0.0322026,0.00127275,-0.00822882,-0.02457,-0.00794628,0.00259046,-0.00844713,0.020573
sam -0.145868,0.00450903,0.00394391,-0.0156745,-0.0035433,-0.00919022,-0.0252003,0.00178019,0.0102201,0.0118414
beef -0.117798,-0.120019,0.0193637,-0.00968732,-0.00884062,0.0145411,-0.025674,-0.021772,0.00442516,-0.0480165
hay -0.149885,0.0712435,0.00496695,0.013138,0.0046814,-0.0066379,0.0110384,-0.0103381,0.00400726,0.00843224
buffett -0.142234,-0.064896,0.00675255,-0.00437724,-0.0203731,0.0119973,0.00211645,-6.22077e-06,0.00493082,0.00620756
shout -0.133383,-0.0466318,-0.0177991,-0.0174414,0.00076602,0.0174452,-0.0281356,0.00324175,0.0222997,-0.00710358
been -0.149775,-0.0148796,0.000463768,0.00261875,-0.00155234,-0.00189747,-0.000995778,-0.000457701,-0.00129374,0.00129236
quickly -0.13829,0.121963,0.00274935,0.0159129,0.000261743,0.00400775,0.00440983,-0.01761,-0.00804086,0.00456666
beer -0.14086,0.0242294,0.0236094,0.0234024,-0.00428973,-0.0134051,-0.00789405,0.0146939,-0.003323,0.00223576
much -0.144295,-0.066831,-0.000971374,-0.00212273,0.000570794,-0.00146218,-0.00197112,0.000312528,0.00118013,0.00290442
tina -0.14399,-0.0157411,-0.00877505,-0.00620638,-0.00204968,-0.0105369,-0.0139186,0.000242173,-0.000204914,0.017734
correction -0.0830044,0.171625,-0.0316793,-0.0371512,-0.0173671,-0.0314639,0.0273772,-0.0894168,-0.0661414,-0.043089
gladly -0.129958,-0.0173851,-0.025371,0.0135614,-0.0408102,-0.0354533,-0.0347564,0.0352938,0.0394999,-0.0243966
threw 0.665063,-0.335424,-0.114736,0.0718375,-0.153741,0.168776,0.24245,-0.136943,-0.0755075,-0.145746
website -0.145481,-0.0517006,0.000334794,-0.000745518,0.000608005,-0.000716091,-0.0040695,0.00884832,-0.00163191,0.00268035
bakeries -0.138203,0.124768,-0.0213698,-0.00566792,0.0123171,0.018241,-0.00397424,0.00444035,-0.0115755,0.00485644
life -0.144648,-0.0645568,-0.000666979,0.00193061,0.0028251,-0.00509821,-0.00225322,0.00146943,0.000579171,-0.0012956
sydney -0.14112,0.118015,-0.0139976,-0.00252331,-0.00546758,-0.00163324,-0.0108352,-0.00151451,0.000906458,0.00596997
holidayholiday 0.631229,-0.60207,0.119423,0.0250366,0.0481252,-0.0934768,0.0263167,-0.143173,0.00727923,-0.1209
xxx 0.426447,-0.567212,0.0124397,0.0441164,-0.0433598,-0.21055,-0.0694013,-0.153786,-0.0455471,-0.130647
sooooo -0.0278982,0.0497114,-0.0987484,0.0447595,0.0658097,0.106283,-0.0289376,0.00883316,-0.00844791,0.0773668
moneys -0.144633,0.0192311,0.00898009,-0.0179901,0.00665526,-0.00712,-0.00839079,0.0236989,0.0163145,-0.0140413
child -0.15137,0.0526867,-0.00937095,0.00656231,-0.0107507,0.00327907,0.00441597,-0.00470393,-0.00443523,0.00412622
catch -0.137466,-0.071423,-0.02241,-0.0115329,0.0146667,-0.0255034,-0.0141356,0.0155079,0.00386188,-0.0152596
worked -0.144104,-0.0212856,0.0134891,-0.00170289,-0.0036422,0.00429936,-0.00712484,-0.0201338,0.00545521,0.0156308
sad -0.119416,-0.190652,-0.0013811,0.000359322,-0.00284333,0.00275241,-0.00783979,-0.00408226,0.000802157,0.00540796
chill -0.126094,-0.114733,-0.00192678,-0.00942412,-0.00758266,-0.00250581,-0.014946,-0.0338099,0.0197551,-0.00728423
east -0.144416,-0.0514889,0.00610447,-0.000147684,0.0110867,-0.00454805,0.000625847,-0.00317026,0.00603457,0.00392157
gyal 0.0531461,-0.430645,0.0310625,-0.0660988,0.0179892,0.0351933,0.0378065,-0.0308579,0.0690308,0.0167412
roflmao -0.124665,-0.0419627,0.0617404,0.00626799,0.018288,-0.0123779,-0.0247821,0.0295481,0.00253733,0.0354635
air -0.143713,0.057552,-0.0136937,-0.0211919,-0.00245797,-0.00385885,-0.00132949,-0.00406583,-0.016162,0.0231896
ugly -0.124608,-0.146577,0.0099902,0.00690021,-0.0110705,0.0262753,0.00749619,0.0031653,0.00224887,-0.0080759
ain -0.100847,-0.146406,0.00734089,0.000556398,0.0180644,0.00152527,0.00362587,-0.00360113,0.0218453,-0.0228675
neat -0.123693,0.11092,0.00659753,-0.00120128,-0.0106579,-0.0317656,0.012529,-0.00271215,-0.0274703,-0.011609
hates -0.14638,-0.016147,0.00118431,0.0105723,-0.00532777,-0.00680213,-0.0053423,0.00335542,-0.00424107,0.00446416
aid -0.101063,0.0897919,0.00548834,0.0518174,-0.0860229,0.00593751,0.00494666,0.00320491,0.0223213,0.0195079
voice 1.70364,-0.0852891,0.0721464,-0.0124456,0.0266772,0.0220329,-0.026703,-0.0939344,-0.0112819,-0.0293777
launched -0.133039,0.11022,0.0075823,0.0294076,0.0177839,0.0256842,-0.0335668,-0.0186756,-0.0127955,0.0056264
seven -0.125027,0.0176943,0.0106292,0.0136597,0.0129209,0.0166793,-0.00946337,-0.0533311,-0.00560408,0.0248645
iz -0.147808,-0.0156547,0.00317048,0.0101068,-0.00198391,0.00211994,0.00526338,0.00340763,0.00327641,-0.00175614
rulesss 0.263733,-0.553706,-0.00748138,0.0451273,-0.00305064,0.0183095,0.107494,0.0249119,0.0725772,0.00275294
is -0.129094,-0.153637,-0.000284486,-0.00152818,0.000903603,0.00070048,-0.000159348,0.000944739,0.0018623,0.00192741
ir -0.122742,0.0196639,-0.0262599,-0.0376603,0.0112097,-0.0607495,0.0157931,-0.0105583,0.0240936,0.0220696
it -0.13057,-0.146858,-0.00209172,-0.00181691,0.00322728,-0.00211358,-0.00100776,0.000983566,0.000333854,0.000885053
shame -0.136948,-0.0348786,0.00880153,-0.0296006,-0.0162169,0.00707009,0.0238275,0.00432134,0.00651635,-0.040971
cant -0.149778,-0.00966842,0.000182866,-0.00185164,-0.00198864,-5.86738e-05,-0.000260987,0.00202773,-0.00535272,-0.0009204
dizzy -0.139574,0.0184911,0.00536771,-0.0178059,0.037098,0.00441855,0.0205439,0.00798933,0.0141163,-0.0145307
im -0.150602,-0.00488922,-0.00182659,-0.000330828,0.00232637,-0.000660387,0.000404799,-0.00211022,-0.000768336,-0.000379872
tweetland -0.141889,0.0831029,-0.0132743,0.00889386,0.0117108,-0.0213988,-0.0176683,-0.00754652,0.0136307,-0.00869421
in -0.139463,-0.100447,-0.00162782,0.000730067,-0.000267405,-0.0023295,-0.000640511,0.000215809,0.00044778,0.000321483
ic 1.83449,0.0762492,0.00638882,-0.0109863,0.00636066,0.0441241,0.0117664,0.0159324,-0.0200324,-0.000955198
udah -0.150883,0.0346599,-0.0159994,-0.00563739,-0.0056968,-0.00975089,-0.00211518,0.00181384,-0.00736044,-0.00220374
if -0.149591,-0.0193777,0.000983528,-0.000387099,0.00144563,0.000123696,-0.00102924,-0.000494951,-0.000755455,0.000223551
hong -0.120885,0.122849,0.0364383,-0.0438724,0.0101262,-0.00560068,0.00570949,0.0363885,0.033761,-0.00127193
emmylou -0.147014,0.019192,0.0164352,-0.00814208,0.00415733,-0.00135189,0.00950616,0.00358941,0.0135867,-0.01593
nike -0.147488,-0.0405567,-0.00561001,-0.00340453,-0.000227997,0.000249352,-0.000811566,-0.0007045,0.00103029,-0.00171442
things -0.150541,0.00453621,0.0025735,-0.00112557,0.00258222,0.00137121,-0.00693621,-0.00689699,0.00123923,-0.00249621
make -0.144726,-0.0628534,0.000846108,-0.00121778,-0.00307035,-0.000176078,0.00119049,0.00218937,-0.00474869,-0.000906584
custom -0.0936034,-0.0279466,-0.0399263,-0.0866921,-0.0432514,-0.0305965,-0.053791,-0.0331645,-0.025082,-0.0215234
clearly 0.507453,-0.163646,0.0258606,-0.319334,0.0381061,-0.00676331,-0.0599852,-0.0747563,-0.148186,0.0712723
craigslist -0.133111,0.179519,0.00300377,-0.00746309,0.00210467,0.0135665,-0.0068359,-0.00471736,-0.0104843,0.00830882
bottled -0.147989,0.0194982,-0.00324728,0.00112994,-0.00855628,-0.0191333,0.00152349,0.00119825,0.0109501,-0.00656782
belly -0.031643,-0.0692775,-0.0231549,0.0427528,0.00598999,0.0625347,0.0967423,-0.00774567,-0.0126556,0.0726721
babies -0.12032,0.0166214,-0.0286226,-0.0350578,-0.0264836,0.0445791,-0.0306052,-0.00681011,0.0199199,0.0643106
esquire 0.216662,-0.156402,0.0345263,0.0498262,-0.0539521,-0.0801945,-0.0348619,-0.0309648,0.124869,-0.0995193
hahaa -0.139693,-0.00371314,-0.00401502,0.019301,0.0155334,0.0113327,-0.00798341,-0.00160082,0.0169452,-0.00287417
showing -0.139463,-0.0521132,-0.0012169,-0.00128208,0.0105563,-0.00359452,-0.00680521,0.00387258,0.000509085,0.0149039
european -0.113918,0.0395205,-0.0242935,0.00379527,-0.00874981,-0.044219,-0.00801334,-0.0216927,-0.0544512,-0.0238131
voiceover -0.12289,0.193871,-0.00332981,-0.0219791,0.0464545,-0.00333144,-0.00122152,-0.00642991,-0.0189644,0.00821059
nin -0.132836,-0.00328158,-0.0247897,0.0196303,-0.0346882,0.0173665,-0.00544349,-0.00702987,0.0146437,0.0103976
milky -0.0120685,0.135996,-0.0598868,0.00284752,-0.0599278,-0.00317317,-0.142598,0.0766108,-0.126294,0.0335015
hang -0.0485208,-0.307876,0.0542451,-0.0419636,0.0361991,0.0278403,-0.0364653,0.00586782,0.0414239,0.000688966
evil -0.145553,0.0703069,-0.0107376,-0.00523908,0.00790297,-0.00664532,-0.00824771,-0.0189989,-0.00348675,-0.0205673
hand -0.139387,0.0472159,-0.0108883,0.0214276,-0.00524851,-0.00896802,-0.046183,0.0170392,0.00750426,0.00709078
jealous -0.14322,0.10186,0.0118692,-0.00494967,0.00745492,-0.00332472,0.01693,-0.0045995,0.0086002,-0.0138662
nip -0.13041,0.185518,0.0243382,0.0207939,-0.0210918,-0.016453,-0.000558375,-0.0212627,-0.0067871,0.0293855
pullin -0.134161,-0.0372196,0.0228628,-0.0313025,0.015673,0.00779748,-0.0152284,-0.00986289,0.0143373,0.0342187
thoughts -0.0587948,0.142382,0.0174973,0.0107205,-0.0467291,-0.0265652,0.0473849,-0.0408805,0.0213284,-0.0155003
prescribed -0.142066,0.0596371,0.0167664,0.0013966,0.0114858,0.000312292,0.00594402,-0.00918183,-0.0194267,0.000882072
wasn -0.150718,0.102014,-0.0142309,-0.00531253,-0.0057355,-0.00892559,-0.0043839,0.000497765,0.00289962,-0.00126473
thx 0.91534,-0.282518,-0.159703,-0.118964,-0.15601,-0.09389,-0.00843357,-0.0601892,0.126008,-0.00695569
huuuge -0.106438,0.0760109,-0.0556391,0.0733397,-0.0130979,0.047049,-0.00944296,-0.0498817,0.0413321,0.00784633
min -0.138122,-0.000499173,0.0278928,-5.14053e-05,0.0133939,-0.000945873,0.0147612,0.00544051,-0.00834408,0.022941
mammy -0.134366,-0.0550455,0.00556712,-0.00735749,-0.00688669,-0.00232121,0.0174622,-0.00207074,0.00600864,-0.00097841
eps -0.145518,0.0124222,0.00053579,0.00496906,0.00192617,0.00320849,0.000595368,0.0102179,-0.0152405,0.00317535
tho 1.03477,-0.572245,0.00533748,-0.00609872,-0.139993,0.0448681,0.0187544,0.0644599,0.238606,-0.0111891
savings -0.127095,0.0661336,-0.00508041,-0.0379118,0.00196658,0.010373,-0.0470014,-0.0383118,-0.0155228,0.0235543
client -0.14731,0.0019092,-0.0115263,-0.00458922,0.00681072,-0.0149277,0.00730045,0.0172323,-0.00690857,0.00387285
reese -0.0775946,0.194928,-0.0594958,-0.0396569,0.00941806,-0.0107007,0.0136491,-0.0250946,0.0184594,-0.000950355
studying -0.146959,-0.0213604,-0.00364932,0.00199527,0.0147034,-0.00188093,-0.00594806,0.0113419,0.00230538,0.00465225
hearts -0.146012,0.0719648,0.00542715,-0.00275532,-0.00729081,-0.00211326,-0.00530742,-0.0112655,0.00231774,0.0127884
the -0.1398,-0.098522,-0.00148778,-0.0002965,0.00181092,-0.00122705,-0.00100067,0.000394057,-0.000629936,0.000788988
spencer 1.16875,-0.454562,0.000874259,-0.171561,-0.0345531,0.109704,-0.0191476,0.0636913,-0.0666203,0.0372591
tha -0.117727,-0.0991717,-0.0142371,-0.0164169,-0.0186828,-0.00743338,0.0208843,-0.00852362,-0.0178389,0.0271493
left -0.144157,-0.0322073,-0.0161146,-0.0150858,0.00388125,0.0130112,-0.00350709,0.0185217,0.00289803,-0.00637414
just -0.143179,-0.0761535,-0.000467573,0.000574252,-0.000188931,-0.00128287,-0.000720637,0.00127379,0.000124935,9.69786e-06
yen -0.0102727,0.0241822,0.0511985,0.0412385,-0.00363331,0.00328176,0.10558,0.0371162,0.04865,0.0245017
yea 0.0488487,-0.129134,-0.0779323,-0.0696158,-0.0335895,-0.0206715,-0.0907527,0.0415832,-0.133546,-0.0519282
photo 1.66161,0.402834,-0.0467674,0.100038,0.0259798,-0.055775,-0.0091133,0.0428077,0.0348134,0.158706
laptop -0.131358,-0.118452,0.00319338,0.0031808,0.00469027,-0.00111666,0.0154322,-0.00272923,0.0126897,0.0216596
sleepy -0.14261,0.00139051,0.00382809,-0.00116398,0.0320447,0.00396213,0.0170069,0.012177,-0.00297636,0.0218038
unfair -0.119316,-0.0754943,-0.0430909,-0.00145223,-0.0380158,-0.0159991,-0.0176663,0.00525001,-0.0159131,0.00672612
thanks -0.147471,-0.041051,-0.00133006,0.000646545,0.000966487,-0.00108356,0.00303318,0.00456688,-0.000790195,0.00581048
yep -0.14147,0.160747,0.00880022,0.020926,-0.00166236,0.0136433,0.00369475,-0.00313431,0.000795139,0.00341027
yes -0.149758,-0.000952592,-0.00935227,0.000513866,-0.00641578,-0.00807695,0.00203068,-0.00436675,0.00185999,-0.0025354
yet -0.149848,-0.0104287,-0.00130074,0.00339883,0.00680248,-0.00257479,-0.00138187,0.00296504,-0.00197108,-0.00074176
jose -0.127278,0.249579,0.0179501,0.00777108,-0.00875276,0.00385471,0.00876889,-0.00369342,0.00191625,-0.00357479
transformer -0.105271,0.111541,-0.0023478,0.0154764,0.0054235,0.019572,0.0349044,0.0443375,0.0244048,-0.0237492
hills -0.104528,-0.227533,0.00710408,0.00242665,0.014104,-0.00404551,0.00830031,-0.0136765,0.00933328,0.0147435
cherry -0.143624,0.0993793,0.00212397,0.0075176,0.0206237,0.0180814,-0.0107652,0.00225034,-0.0102606,-0.0171018
had -0.150441,-0.00806282,-0.00030798,0.0014992,-0.000140385,0.00152698,0.00140493,0.00301919,-0.00266826,0.00176232
refinnyj -0.104364,-0.0693751,0.0153934,0.0200985,-0.00365504,-0.0240879,-0.031727,0.0417613,0.0168275,0.00397761
haz -0.145892,0.0778889,0.0229747,0.013341,0.0169421,-0.00186821,0.015997,-0.000933212,-0.0234035,-0.00164204
janets -0.140424,0.0393137,0.014727,-0.0173792,0.00431733,-0.0296391,0.00250673,-0.00862177,-0.00918025,0.020265
easy -0.148933,-0.011394,-0.000891207,0.00598088,-0.00624418,0.00427544,0.00165039,-0.00134528,-0.0109,0.00104136
technological -0.141411,-0.0447824,-0.00904755,-0.00147299,0.0105258,0.00576129,0.0229672,0.0108812,-0.00582626,0.00180951
fares -0.131661,0.0148788,-0.0162204,-0.0075869,-0.0127706,-0.0194932,0.00267481,0.0181405,-0.0232869,-0.0126173
has -0.147882,-0.037586,-0.000987659,-0.000317971,-0.000613648,-0.00257373,0.00116474,0.00107496,-0.00275297,0.00121667
gave 0.160676,0.0958655,-0.077252,0.176564,0.217967,0.0690053,-0.0771659,0.0585477,0.0804146,-0.111224
thankfully -0.135372,0.0129428,-0.0208591,-0.00765379,0.0297684,-0.0261138,0.00133699,-0.00449959,0.022829,-0.0261833
casting -0.0662471,0.130096,-0.0363761,-0.0192397,-0.0108331,-0.0250697,0.0102106,0.00170175,0.00351459,0.019584
tromped 1.20991,-0.131233,0.0196484,0.209677,0.194155,0.094787,-0.00369925,0.109505,0.169992,-0.087065
melting -0.139431,0.0505627,0.0080907,-0.00483512,-0.00217905,-0.0311461,0.00901261,0.0186806,0.0285513,-0.0123826
bands -0.137645,0.0405536,0.0150419,0.00797377,-0.0147948,0.00598883,0.00749915,-0.0144484,0.0219621,0.00638886
possible -0.149835,0.0195256,-0.0075502,-0.00791935,0.00721023,-0.00330906,-0.00320588,0.00194254,-0.00422422,-0.00966308
possibly -0.139574,-0.0672746,0.000799747,0.0219879,-0.0213729,-0.0011252,0.0143878,0.0061482,-0.0109753,-0.00318639
whichever -0.138465,0.0466138,0.00511349,-0.00974657,0.0172224,0.00812444,0.0225779,0.0292143,-0.00987226,-0.0144934
background -0.0730769,-0.102185,-0.00496149,0.0270933,-0.0299206,0.0425362,-0.0404386,0.0516967,0.0176046,0.0103958
dreams -0.0734751,-0.253746,0.00053392,0.0338502,-0.00690408,-0.0135213,0.00849597,-0.0352861,-0.00683765,0.0198641
apart -0.00100653,0.0474245,0.0953937,0.0321406,-0.0494972,-0.121966,0.0760401,-0.02322,-0.0611384,-0.0430237
imiss 0.00896833,-0.369629,0.00831462,-0.00334325,0.0347829,0.0413857,-0.0187649,-0.00171843,0.00487191,0.0518469
county -0.12057,-0.0957571,-0.0156582,0.00702071,0.0199541,-0.00505396,-0.0187582,-0.0126289,0.000443209,-0.0303434
gift -0.146179,0.0177894,0.0147842,-0.00549211,0.00658616,0.00453454,-0.00863597,0.00429012,0.00117908,0.0109544
bobby -0.144023,-0.0253252,-0.0163627,-0.0133747,-0.0129583,0.00502704,-0.00583254,-0.000889093,0.00446271,0.0128593
cooler -0.131816,0.011783,0.022639,0.000705668,0.00671278,0.0671312,0.0104373,0.02283,-0.000291452,-0.0157265
manual -0.111121,-0.151374,0.00684028,-0.00378564,0.00695469,0.0457234,-0.00667622,0.00184868,-0.0350411,0.0200269
zoom -0.147741,-0.0167555,0.00291073,-0.000450178,0.00272618,0.00446303,0.00728134,-0.00645305,-0.0123711,-0.00253956
sell -0.14101,-0.045268,-0.00801858,0.00483137,0.00839909,0.00964914,0.00419934,0.0125748,0.00271461,-0.00250582
overrated 1.81095,0.258865,-0.00401566,-0.000702672,-0.00110951,0.0227941,-0.0105581,0.0171575,-0.020923,0.00111593
night -0.140358,-0.0948651,-0.000596667,0.00048089,0.00110301,-0.00366278,-0.00205317,-0.000357218,-0.00018059,-0.000336752
avlbl -0.13953,0.0949461,0.00750439,-0.0144596,-0.0018928,-0.0187892,0.00852964,0.00989655,-0.0335723,-0.011248
broadband 0.215122,-0.311966,-0.0690386,0.0268639,0.111218,0.103319,-0.20786,-0.00697098,0.0250778,-0.0511454
www -0.145784,-0.0210965,0.00914944,0.000620802,0.00186314,-0.0111164,0.0053897,-0.00260033,0.00581908,0.00652651
right -0.14863,-0.0270254,-0.00208524,-0.00014924,0.00243903,-0.00165716,-0.00681225,0.00462812,0.000837042,0.00168871
old -0.145876,-0.0535031,-0.00364558,0.00260045,0.00314739,-0.00106158,0.000531592,-0.00706651,-0.000806893,0.00235701
creek -0.138882,0.0828758,5.15478e-05,0.0106017,0.0113134,-0.0144947,0.0101117,0.0254692,-0.0399862,-0.0106028
deal 0.640625,0.178169,-0.0819008,-0.0305517,0.213052,-0.0855344,-0.120889,0.260952,0.0741152,-0.0502439
people -0.150491,-0.00377981,0.0017073,0.00219134,0.000935536,-0.00287874,0.00116252,0.00167672,0.00281656,0.00330035
sends -0.146494,-0.0223518,0.00629118,0.0153132,0.0125751,-0.00601267,0.0189905,0.0046184,-0.00260347,0.00330788
tremens 0.0068801,-0.0421968,-0.0282516,-0.0689327,-0.0413923,0.0127908,-0.00285095,-0.0379324,0.0297211,-0.0321908
dead -0.147904,0.0646357,0.000905533,0.00901125,-0.00359899,-0.00402811,0.0130881,0.00760951,-0.00627472,-0.00803134
jennifer 1.56711,-0.232913,0.000857636,-0.0151532,0.0690939,0.0383746,0.0452771,0.00644615,0.151384,-0.000146646
everbody -0.0687511,-0.00813311,0.0245296,0.00861165,-0.00186835,-0.0178024,-0.00090215,-0.153164,0.0499285,0.0392392
dear -0.106854,-0.0906681,0.0288514,-0.0261573,-0.000731789,0.00670958,0.0710676,-0.0073269,-0.0380414,-0.0348043
asssss -0.124862,0.0969545,0.00108761,-0.0132155,-0.01088,-0.00944376,0.0132919,-0.00507726,0.0191755,-0.0297828
sister -0.118433,0.175299,0.00027467,-0.00560106,-0.0180308,0.0106655,0.0012014,-0.0197645,-0.00955955,0.0162835
levon -0.0165846,0.143669,0.048454,-0.011084,-0.0195537,-0.0125523,0.0305929,0.018874,0.00850019,-0.0421688
humor 0.957073,0.608194,-0.112672,-0.058122,0.0364873,-0.0512944,0.0716731,-0.0231055,0.175861,-0.0202531
theatre 1.80062,0.200222,0.0632382,-0.00349195,-0.0145034,0.0637,-0.0133653,0.0166568,-0.0304209,0.0210138
for -0.135091,-0.124824,-0.0010373,0.00038384,0.00111795,-0.00191277,-0.00102508,0.00050518,0.00083179,0.000474521
purple -0.128617,-0.00882789,-0.0474794,-0.0040682,-0.0571933,-0.00659674,0.00492469,-0.00422926,0.0130792,-0.00466342
microwave -0.0938634,0.053197,0.0561712,-0.00156888,-0.00820653,0.0126299,-0.0231039,-0.000182231,0.0434525,-0.00210244
creative -0.143521,0.0377066,9.40859e-05,0.022685,-0.00770203,0.00319812,-0.00451388,-0.000692928,0.00225873,-0.0112498
everything -0.142439,-0.0229241,-0.010202,0.0290545,0.0265551,0.0113516,-0.0109372,0.00698255,0.0126107,-0.0121995
asking 1.7688,-0.143631,0.0188056,0.0352648,0.00637279,0.00755575,-0.0190568,-0.0126254,0.00839648,0.00845374
christmas -0.135618,0.0160181,0.000559071,0.00568625,-0.0260364,0.0271477,-0.0011024,0.030256,-0.000918394,-0.0091446
holiday -0.0798065,-0.223985,-0.0330193,0.0115402,0.0017224,0.0106149,-0.0206908,0.00170797,-0.0226572,0.0078326
columbus -0.120223,0.0326864,0.0290295,-0.0169036,-0.0139219,-0.00062492,0.0152386,-0.0170718,-0.00437392,0.0127726
khaki -0.140494,-0.0541089,0.00787779,0.0188684,-0.000328656,0.00844619,-0.00617602,0.00676766,0.0110831,0.00304101
pls -0.14162,-0.0724788,0.0164672,-0.0119309,-0.0130439,-0.00195713,0.000532399,0.000438217,-0.00942952,-0.0106871
geez -0.143372,0.0827908,0.00926999,0.00137515,-0.00191072,0.0117697,-0.00659116,0.00731765,0.0255092,-0.0124646
ankie 0.599153,-0.684296,0.0578211,0.0109697,0.0412681,-0.0291954,0.0861573,0.00498663,-0.0377912,0.0076187
deleted -0.147443,-0.0144919,0.00567501,-0.00597637,0.00312994,0.00562747,-0.00248908,0.0137548,-0.00618374,-0.00438435
marketing -0.150263,-0.00074496,-0.00713547,0.00147294,-0.00340285,-0.00190699,-0.00622265,0.00812031,-0.00116681,-0.00293125
burn -0.126773,-0.0865357,0.0181451,0.00284979,0.0220495,-0.00111585,-0.0350403,0.00287919,-0.00924794,-0.00306836
plz -0.14723,0.0659037,0.00108057,-0.00519674,0.0112381,-0.00506287,-0.00526441,0.0218798,0.00797215,-0.00690129
doesnt -0.124123,-0.132301,-0.034149,0.0251866,-0.0048981,-0.00283584,-0.00209645,-0.0196857,0.00183288,-0.00563887
phew -0.09624,-0.0796312,-0.0171167,-0.0431688,-0.00100379,-0.0118503,0.0111275,-0.0199686,0.00993638,0.059777
buffet -0.146452,-0.0330445,-0.00421379,-0.0101779,0.0072876,0.00458239,0.00820207,0.000806569,0.00887826,0.00284955
losing -0.149918,-0.00741399,0.000739035,0.00414275,0.003661,-0.00510973,0.00148134,0.00127221,-0.000813991,-0.0036134
mythic -0.141412,0.000626934,-0.0104951,-0.00521193,-0.0115933,-0.0160609,0.0126789,0.00659022,-0.00116288,-0.0120769
post -0.15099,0.00288373,0.00265073,0.0020685,-0.00239221,-0.00112822,-0.00460918,0.000937491,0.000296196,0.000487456
super -0.145841,-0.0524831,-0.00413673,0.000115453,-0.00342216,-0.00606458,-2.40961e-05,-0.00243916,0.000127886,0.00100033
plug -0.138832,-0.0337067,0.00146854,0.00786571,0.0169573,0.0161651,-0.0247232,-0.00377606,0.001619,0.00281627
coral -0.135551,0.0850831,-0.0251787,0.00200511,-0.0187601,-0.00233361,-0.00357813,-0.00529412,0.00093513,0.00952899
magazine 1.79041,0.0203594,-0.060927,0.00870895,-0.023987,-0.0205434,0.0250836,-0.0207307,-0.0149028,0.0576473
plus -0.149426,0.0572969,-0.00480345,0.00525374,-0.00333911,-0.010787,0.0162773,-0.00168916,0.00130493,-0.0160287
afternoon -0.138775,-0.046418,0.000597461,0.0105085,-0.00657281,-0.0133136,0.00785644,-0.00964883,0.0266488,-0.0179947
islands -0.140473,0.036887,0.00566502,0.0107737,-0.0190953,-0.00198719,0.00315203,0.00187157,-0.022722,-0.0185504
whats -0.103814,0.00302329,-0.00135498,5.9397e-05,0.037673,-0.0274855,0.0110924,0.0124346,-0.0326984,0.0331141
sod 0.139794,0.0446652,0.0988895,-0.11742,0.015949,0.140214,-0.00253,-0.0699323,0.18656,-0.00397369
wasting -0.0866087,0.0108336,0.0022657,0.00035765,0.0352889,-0.042389,0.00670731,-0.0375372,-0.0356692,-0.0463322
ahh -0.149243,-0.00688286,-0.0049431,0.00627251,0.00161739,-0.000907071,0.00353446,0.00791319,-0.00236398,-0.00245192
ugggggh -0.110148,-0.168311,-0.00540305,0.00306922,0.0171813,-0.00757267,-0.033077,-0.0317302,-0.0409472,0.00718781
mba -0.0887396,0.108494,0.0490933,-0.0481777,-0.0124011,-0.0905767,0.00289221,0.0353663,-0.00999407,-0.000212991
soo -0.12846,-0.0235826,0.0119471,0.0100148,0.00196946,0.0479597,-0.0436085,0.00916418,0.0257306,-0.00146572
son -0.102947,-0.117914,-0.00899625,0.0202737,0.014621,0.0220836,-0.0336046,-0.00719739,0.00226054,0.00153047
down -0.140697,-0.0825899,-0.00178277,-0.00925257,-0.00154769,-0.000173518,0.00310939,0.00113326,0.00636855,0.0034446
multiply -0.147273,-0.0137668,0.0111463,0.00377814,0.00265572,0.01063,-0.00850756,-0.000398041,-0.000544365,-0.00615222
magazines -0.146428,-0.0101159,0.012238,-0.00806678,0.0100078,0.00291746,-0.0208149,-0.00935539,0.00306523,0.000878911
paper 0.30327,-0.558774,-0.145333,-0.0454104,0.033653,-0.0489611,-0.0283808,-0.0562184,0.017839,0.0421329
cardiff -0.13398,-0.0203514,0.0296353,-0.00131273,-0.000602666,0.0112262,-0.0135634,0.0228929,-0.00735262,0.00501588
sox -0.135175,-0.0543651,-0.00295295,0.0117301,-0.0173692,-0.00484185,0.0264211,0.01832,-0.00929675,0.00695396
reducing -0.144979,-0.0488247,-0.00830447,-0.000821768,0.014292,0.0013159,-0.00450055,0.00105566,0.000822545,0.00523947
cubicle -0.0727223,-0.105395,-0.0275498,-0.00600066,-0.0568491,0.051218,-0.0413174,0.0367908,-0.0491343,-0.000329548
sunisa -0.132037,-0.0544991,-0.0075046,-0.0019845,-0.0106533,-0.015496,-0.0311715,-0.000114168,0.0157146,0.0204539
cleared 0.463063,-0.446596,0.209329,-0.0192961,0.103779,0.0367157,-0.08904,0.0212882,-0.0566648,0.0252999
tips -0.150008,0.0304767,-0.000883925,-0.00791687,0.00839865,0.0180563,0.0141209,0.00655222,0.00132267,0.00396294
wah -0.104296,-0.137308,-0.0154102,-0.0117136,-0.0161067,0.00577539,-0.0105183,-0.00933211,0.0179304,0.00342635
ihad -0.146283,-0.0269974,0.00399283,0.00511835,-0.0120988,-0.00607128,0.00620155,-0.00191537,-0.0162689,0.00466451
support -0.146736,-0.0164569,-0.0184752,0.0019661,0.00514405,-0.000550915,0.00510438,-0.00112869,-0.000896167,0.00106817
tennis 1.53724,-0.209395,-0.0725978,-0.0912947,0.0393409,0.127843,0.103259,-0.0472596,-0.00355836,0.0572443
fight -0.114998,-0.125085,-0.00594027,0.00794918,-0.00406819,0.00973195,-0.00226366,-0.00396461,0.0199243,-0.0229739
stuck -0.10433,0.274027,0.00439626,0.0218875,0.00952072,0.0597405,-0.0606434,0.00338704,0.0153408,-0.0239017
way -0.15125,0.00731566,-0.00102907,0.000780844,0.0030479,-0.00139599,0.00140616,0.000390377,-0.00482295,-0.00441789
macheist -0.13783,-0.0610805,0.0302174,0.00339692,0.00665501,-0.0139113,0.00265372,0.00862612,0.0037123,0.00386392
tweeps -0.140688,0.0274415,-0.0183779,-0.0157942,-0.00745363,-0.00536307,-0.0205903,0.00618721,0.0122544,0.0343001
wat -0.0833989,0.118447,-0.0778275,-0.0306696,-0.0337572,0.0157549,0.017055,-0.0286487,-0.0243262,-0.00485435
was -0.140948,-0.0911792,-0.000566623,-0.00169093,-0.000587305,-0.00102152,-0.00119446,0.00143603,-0.000775482,0.000736794
happy -0.14768,-0.030876,0.00400263,-0.00969372,0.00329343,0.00387378,0.00320615,0.00519665,-0.00541356,-0.00267275
colorway -0.108115,-0.0272994,-0.00971071,-5.99201e-05,-0.0284152,-0.00718707,0.0110237,0.0221161,0.0187234,-0.0120432
economics -0.105658,0.163071,-0.0329484,-0.0075141,-0.00947531,0.00738114,0.00152491,-0.0268679,0.0588284,-0.00890227
form -0.110721,0.0325622,-0.00954968,0.0105163,-0.0218486,-0.0269421,-0.0292149,0.0147852,0.0372333,0.0300923
badu -0.142379,0.0473839,-0.0350893,0.0137664,-0.0173854,-0.00384822,0.00636266,0.00413051,0.020312,0.0195873
heah -0.0592596,-0.241552,0.0102725,-0.0368795,-0.0211244,-0.00725057,-0.0147676,0.0224497,0.0122526,-0.020209
ford -0.130238,0.101239,-0.0223056,0.00712594,-0.00481924,0.0276414,0.0203652,-0.0153583,-0.0271975,-0.0334623
heat 0.069959,-0.504862,0.0276084,-0.0330305,-0.0227208,-0.0279808,-0.0120164,0.0198693,-0.0364364,-0.0151778
hear -0.143129,-0.0462007,-0.00395105,-0.00912793,0.00820012,-0.0110622,0.00204569,0.000632192,0.0167424,0.0126989
swithsonian -0.0377339,0.0239643,0.0220967,-0.0400205,0.0188469,0.0135922,-0.0657164,-0.0288507,-0.00651774,0.00944853
true -0.10777,-0.108575,0.00702398,-0.0268993,-0.0105021,-0.0150506,-0.0434483,0.00141849,-0.0357073,0.015342
cheeck -0.145295,0.0298702,-0.000344564,0.0215662,0.0029422,-0.00972326,-0.00104736,0.00232494,0.00598231,-0.00428176
injury 1.41684,0.621192,0.021795,0.0940728,-0.00350051,0.0695213,0.0661282,-0.00575835,0.0885036,0.0137243
paxil -0.144471,0.0482362,0.00777407,-0.00612695,-0.020304,0.0163852,0.0123184,-0.00702852,-0.00165951,0.0187639
mts -0.122976,-0.0714912,0.00503291,-0.00387447,-0.0279927,0.0258511,-0.0075568,-0.00676933,0.00994934,0.000174835
until -0.152036,0.0659885,-0.00322436,0.00264649,0.00202656,0.00141679,0.00260098,0.00654895,0.000243831,0.010737
faking -0.0947529,-0.117828,0.00482482,0.0613885,0.016822,-0.025252,-0.0189915,0.00124025,0.024748,0.000673129
emotional -0.121279,0.0647152,-0.0184399,-0.0310597,-0.0191265,-0.0183912,-0.0151291,-0.00605326,0.0550683,-0.00254009
daddy -0.0891434,0.0141936,0.0464884,0.0397547,-0.0154789,0.0144849,0.00926016,0.0344005,0.0439647,0.0114517
proud -0.139289,-0.0664046,0.000262324,0.0118795,0.0207537,0.0150823,0.0117637,0.0107994,-0.0233029,0.0043381
classic -0.149804,0.0694752,0.0212884,-0.00697799,-0.00245961,0.00367305,-0.000176701,-0.00980447,0.00273074,-0.00314141
request -0.120046,-0.0761523,0.0221419,-0.00809729,0.0276828,0.0149083,0.0369181,-0.00538195,0.0213372,-0.0116998
covers 0.888384,-0.384614,-0.154202,0.0397891,-0.00877976,0.0320198,-0.0277779,-0.0800387,-0.231818,0.0846933
hungry 0.45006,0.0905979,-0.122545,0.25882,-0.136549,-0.0753818,-0.0101732,0.271988,0.0891669,-0.320562
proves -0.145586,0.092937,0.00265739,0.0270314,0.00584528,0.0207756,0.0134412,0.00412325,0.000736756,-0.00119258
dierks -0.0758386,0.0695799,0.0227275,0.0467423,0.0400001,0.0288778,0.0478631,-0.0317354,-0.0352543,0.0484309
ship 0.117812,-0.203426,0.0287489,0.0856348,-0.109157,0.00757336,0.0530665,0.151024,0.08932,0.0897622
shiner -0.130868,0.0833839,-0.0383235,0.00356974,-0.039638,-0.00577847,-0.0277003,0.0518953,-0.0397772,0.0293427
trip -0.146487,-0.0488284,0.00347025,-0.00180725,0.00218529,-0.00591413,-0.00297799,0.0040943,0.00259054,0.00112755
shit -0.139698,-0.0947312,0.0027271,-0.00086387,0.000267236,0.00231578,-0.0025208,-0.00402617,-0.00597199,0.00137172
holla -0.147958,-0.0283876,-0.00675288,0.00338697,0.00385525,0.00029387,0.00141847,0.000122702,0.00258973,0.0023402
ehhh -0.0838354,0.019791,0.0248716,-0.0206685,0.0127345,0.0279328,0.0040695,0.0127581,0.0475804,0.004316
nm -0.12591,-0.0372388,0.0349358,0.0413893,-0.00341306,-0.00876505,0.0326426,-0.0434293,-0.00507708,-0.000492923
dying -0.150904,0.023333,-0.00815484,-0.00411645,-0.0041464,-0.00441603,0.000987134,-0.000916344,0.00247567,0.00176634
no -0.142325,-0.0819695,-0.000928482,0.000452586,0.000585971,-0.000258917,-5.89434e-05,0.00133617,0.00103464,0.00217754
na -0.151656,0.0238316,0.0015714,0.00229055,4.78481e-05,-0.00303267,0.00126966,-0.000714816,-0.00318197,-0.0050083
nd -0.0905345,-0.0329907,-0.07411,-0.0375372,0.031815,-0.0110456,0.000353167,0.0458072,-0.060934,-0.00887232
ng -0.149306,0.0474329,0.00832974,0.00966274,0.012407,-0.0047071,0.00927107,0.00951285,-0.00361842,0.0162644
til -0.134158,-0.0970934,-0.00978507,-0.0217163,-0.0232037,0.00523943,0.0163815,-0.00144158,-0.00146673,0.0031229
ny 1.79716,-0.025004,-0.0171546,0.0172495,-0.060139,-0.00731558,0.03776,0.0101213,0.0308549,0.0273873
interested -0.135461,0.0189399,-0.0162916,0.00743552,-0.0122998,-0.00201564,0.0257726,-0.042896,-0.0206167,-0.00472799
holding -0.101215,0.122803,-0.0422879,-0.035328,0.00961759,0.010959,0.0109758,-0.0281125,0.0327962,-0.0102289
test -0.150525,-0.00395327,-0.00317717,0.00171955,-0.00445284,0.00367302,-0.00155653,-0.000483688,-0.00329769,-0.0010143
smell -0.116393,0.0475627,0.0226854,0.0584707,0.0344647,-0.00160672,-0.0173867,0.0457615,0.0253495,0.0127374
company -0.065684,0.31941,0.0272393,0.0418149,0.0318451,-0.0402423,-0.00725294,0.018242,-0.0179982,-0.00187266
picture -0.148605,0.0106238,-0.0100176,0.00771122,0.00606983,-0.00271827,-0.0067562,-0.00771724,-0.00987439,-0.000618786
surprise 1.74333,0.267212,-0.0419751,-0.076863,-0.0561864,-0.0176702,0.0784083,-0.0444718,0.0417976,0.0413817
outage -0.142647,0.0739539,-0.00544814,0.00766097,-0.0137949,-0.0179653,-0.00800897,-0.0131041,-0.0147753,-0.0171685
update -0.147755,-0.0284069,0.000823724,-0.00140545,0.001701,-0.00302963,-0.000209614,-0.00392184,-0.00602792,-0.000693563
fell -0.135699,-0.0167531,0.00549344,-0.0067527,0.000815399,-0.014565,-0.00585363,-0.0021148,0.0409842,0.00195067
invested -0.132305,-0.000206186,-0.0301198,0.0158066,-0.0286343,-0.010249,-0.00503504,0.0302907,7.76895e-05,-0.0032259
reflexes -0.139231,0.0115089,0.00545285,0.00605925,0.0170256,0.00254236,0.0156721,0.0258228,-0.0268742,0.0206919
weekend -0.14215,-0.0183297,0.00395065,0.00791649,-0.0140637,0.00949068,0.00997765,0.00903387,-0.00981074,0.00758823
stinkin 1.63605,-0.0025936,0.121298,-0.10064,0.00849524,0.134495,0.131592,-0.0847326,0.0768127,-0.0115112
died -0.127641,-0.102526,-0.00535524,0.0103755,0.0149312,0.000196272,0.0122305,0.0109283,-0.0119157,0.00546801
longer -0.148057,0.0855653,-0.00516805,-0.00413783,0.00942328,-0.00501276,0.0129398,-0.00534121,0.00288345,-0.00808443
glass -0.114078,0.0355707,0.0463762,-0.0417941,0.0598781,0.0102051,-0.0271819,-0.0315684,0.0108851,-0.0236681
together -0.147648,-0.0122204,-0.0108251,0.00677849,0.000117784,-0.0014501,-0.00417895,0.00914084,-0.0129161,0.00010663
accosts -0.143618,-0.0337358,-0.000811078,0.000177124,-0.0122655,-0.0107812,0.00174787,0.0120597,-0.0125891,0.00198857
time -0.13987,-0.0976312,-0.000452063,0.000122428,0.00286422,-0.000609355,-0.000134801,0.00182554,-0.000910119,-0.000971409
serious 1.21289,-0.73925,0.00768099,0.015264,0.0680588,0.0306973,0.0783667,0.00601259,-0.068831,0.0464243
songs -0.146508,-0.0284233,-0.00712242,-3.68757e-05,0.0103783,0.010912,0.00896178,0.00305688,-0.000319955,-0.00395758
neighbors -0.148028,0.00191773,-0.00849777,0.0122883,0.0102583,-0.00355832,-0.00464353,0.00165854,-0.00953457,-0.0256025
coach -0.135052,-0.050399,0.0300286,-0.0266416,-0.0107094,0.018004,0.0047881,-0.0111295,-0.0267663,-0.0211276
activated -0.133344,-0.0473013,-0.00789964,0.0108945,-0.0159896,0.0171834,0.0162883,0.0196734,-0.0146983,0.0458671
focus -0.11502,-0.0836073,-7.26264e-05,0.0124266,0.00513861,0.0206918,-0.0254788,-0.00598344,0.0279545,-0.0111406
selection 0.206477,0.211929,0.0540535,0.0693741,-0.0537735,-0.101786,0.100461,0.123669,-0.00884961,-0.172936
skim -0.136716,-0.0292635,0.026279,0.0142893,0.0195919,-0.0253273,0.0167053,0.00920398,0.00819798,-0.0227685
comments -0.136663,-0.0278092,-0.0137444,0.00635406,0.0142422,0.00952036,0.000520096,0.0131108,-0.0254007,0.0169138
battle -0.143702,-0.0458024,0.00323596,0.00470375,-0.00753915,-0.0124171,0.00156794,0.0054495,-0.00206529,-0.005729
joshy -0.1368,0.0969997,0.0183041,-0.00437766,-0.0150954,-0.00930607,-0.0137203,0.0162974,-0.0145394,0.0505955
chair -0.107857,0.108456,0.0193714,0.0116237,-0.0245067,0.0410306,-0.0279207,0.0267614,0.0104038,-0.0302849
milk -0.125521,0.0449651,-0.0128433,-0.0541654,0.0223903,-0.0292505,-0.00728913,-0.00956523,-0.0203104,0.0750518
row -0.140415,-0.0336244,-0.0115526,0.00382041,-0.0092771,-0.00572011,-0.0058309,0.000646616,-0.0135597,0.00803376
suicide -0.120702,-0.059177,-0.0089923,-0.0236389,-0.0169257,0.0109678,-0.0363231,0.00538419,-0.00229272,-0.00804466
zone -0.147428,0.0652021,-0.00113314,0.0176346,-0.004315,-0.0127837,0.00776887,0.00808354,0.000389975,0.00307734
april -0.124428,-0.0249421,-0.0432146,0.0241061,0.0104933,-0.0169455,-0.022842,0.00645607,0.0034289,-0.00519422
netball -0.129901,0.00719895,0.00851563,-0.00851965,0.00343495,-0.0344465,0.0186429,-0.0246917,0.00438251,0.0290045
gigs -0.143619,0.128718,0.0124375,0.0125422,0.0203003,-0.0020586,-0.0118711,-0.0141506,-0.00224467,-0.0138076
cheat -0.112776,-0.0591719,-0.0623583,-0.00184158,-0.0584127,-0.0223302,-0.0307451,0.0107464,0.000224657,0.00797397
finally -0.150937,0.0287165,-0.00304143,0.00506495,-0.00645799,0.00525067,0.00164185,0.000631723,-0.00239779,0.00686916
knackered -0.140154,0.00258517,-0.00709475,0.00210978,0.0196213,0.0108553,-0.0087458,-0.00092275,0.0203147,-0.0227799
xblm -0.129376,-0.0368031,-0.0220601,-0.00278562,-0.0177534,-0.0240332,-0.0456774,0.00544438,0.0294356,-0.0348835
shoot -0.150348,0.0160795,-0.00366504,0.000358437,-0.00261254,-0.00661666,-0.0018212,-0.00147211,-0.000878349,0.0123228
downloading -0.145637,0.0667736,0.00387338,-0.0013329,-0.00341744,-0.0296067,-0.00669602,-0.0173966,0.00254971,0.0144445
string -0.116991,0.00592725,0.032221,0.0323082,0.0196757,-0.0340052,0.0105846,0.0522852,0.00748714,-0.00427719
jerk -0.116822,0.0939281,-0.0265586,-0.0384179,-0.0189517,-0.00130201,0.0351508,-0.032587,-0.00623306,0.0285504
wcdma -0.12217,-0.041088,0.0147545,-0.00632383,-0.010896,-0.0287466,-0.000661035,-0.0226769,-0.0363429,-0.0164219
tacos -0.141906,0.121876,-0.00501929,0.0124044,-0.0231783,-0.00505134,0.0209524,-0.00607678,0.00550984,-0.00787015
kitteh -0.0867773,0.0144372,-0.0246405,-0.0653539,0.0314484,-0.0211988,0.00885901,-0.000107484,0.0141443,0.0140866
vegas -0.0830655,0.324129,0.0186961,-0.0195897,-0.00641713,-0.036425,-0.0457673,-0.0013705,-0.0096987,-0.0135407
prof -0.143497,-0.0421983,0.00568893,-0.00524425,-0.0183308,-0.0204517,-0.00995301,0.00660003,0.00443985,0.0016657
cook -0.112792,0.123022,-0.017021,-0.0620479,0.0139494,-0.0632449,-0.0235963,0.00646373,0.00690583,0.0400032
trouble -0.125017,-0.0757953,0.0222478,0.0295522,0.0313936,0.00231808,0.0185947,-0.00986453,-0.0250308,-0.0112165
blast -0.118816,0.0442509,-0.0121785,-0.0540841,-0.00126392,0.00923248,0.0236726,-0.0466251,-0.0319675,0.0428826
cool -0.150034,0.0158966,-0.00526398,0.00627662,-0.00237185,0.00711253,-0.000520737,-0.000946348,-0.00394568,0.0122775
din -0.149331,-0.00927157,0.00433573,0.00065714,-0.0116066,0.000322556,-0.0022496,0.00159717,0.00229825,-0.00173572
staples 1.6499,0.225061,-0.108837,0.140471,0.0304219,0.0654454,0.0302348,0.00657907,-0.00313655,0.0230137
margarhitas -0.146087,0.0697643,0.00362352,0.00844735,0.0139036,-0.0169866,-0.00608694,-0.00688987,-0.00467542,-0.00678926
did -0.15151,0.00911461,0.000573539,0.000386884,-4.93065e-05,0.000615453,-0.00257287,-0.000340958,-0.00295175,-0.000761406
die -0.139278,0.0701664,0.000846006,-0.0114645,-0.00649232,0.0243933,0.00901855,0.0181753,-0.00793452,0.00192579
peeps -0.104915,0.142179,-0.0410569,-0.0274877,0.0095788,0.0412306,0.0701437,0.00751328,-0.00348746,-0.0314292
accidentally -0.143687,-0.0367647,-0.00899487,-0.00749657,0.0186493,-0.0100524,-0.0160357,0.0229664,-0.00292178,0.00790415
gum -0.148323,-0.00218541,0.00301017,-0.010576,0.00282445,-0.00155967,-0.0151059,-0.00657025,0.00677214,-0.000783237
leave -0.121138,-0.0255418,0.00315941,0.035402,0.00704344,0.0254742,0.0543079,0.0035453,0.03128,0.00798674
soooo -0.124875,-0.0819025,-0.0190195,-0.003388,-0.00597984,-0.0398377,-0.0157694,-0.0128384,-0.0254512,-0.00726296
teal -0.139108,0.0356763,-0.0260813,0.0148136,0.0314608,-0.0254294,0.0183783,-0.00643834,-0.00440903,-0.00104559
team -0.122263,-0.0515671,-0.0293469,-0.0168218,-0.0156873,0.020577,-0.0350476,0.0261541,-0.0119933,0.00148133
quick 0.0484539,0.0606745,0.0196603,-0.15431,0.0418852,-0.0359051,0.216902,-0.0052642,-0.0761626,-0.0766439
guy -0.136632,-0.108946,0.00234826,-0.00993928,-0.00139516,-0.0116377,-0.00174557,0.00655376,-0.00224461,-0.00099114
round -0.0701772,-0.261454,-0.0155815,0.0272722,-0.00584743,-0.0260495,-0.000100635,-0.00683602,0.0259536,0.039622
wellbutrin -0.135765,0.136457,-0.0243903,-0.032053,0.00667163,-0.0178418,-0.0123798,-0.0131961,0.00937715,-0.0150926
fletcher -0.149408,0.0380951,0.00579189,0.00927144,-0.00211627,0.00424141,-0.0117574,0.00805302,-0.00749925,-0.00265225
spiritual -0.133983,-0.0154543,-0.00695829,0.0177426,-0.00229023,-0.0127516,-0.00527846,0.00443884,0.00176162,0.00895557
talked -0.124874,-0.0378816,0.00874831,-0.0272095,-0.00496951,-0.0327502,-0.0124783,0.00921031,0.025772,0.00543623
says -0.147971,-0.027211,-0.00701152,-0.00535753,-0.00303777,-0.00458705,-0.00426748,0.005092,-0.00267353,-0.00368375
rents 1.16195,-0.511757,-0.104297,0.118323,-0.17481,-0.0597272,0.104946,-0.053452,-0.0469364,-0.148778
adorno -0.134753,-0.0157786,-0.00596961,0.0362423,0.00495836,0.0383306,-0.00113139,0.0107591,-0.00175203,-0.0121803
seasoning -0.150902,0.0834802,0.0109205,0.00747464,0.00835271,-0.0132424,-0.00324458,0.00109419,0.00349806,0.00378969
sigh -0.0780061,-0.0868189,0.0538636,-0.0841686,-0.0241679,-0.0114091,-0.0518434,0.0163923,0.0284781,-0.0380834
yoyoyo 0.12085,8.72039e-05,0.0318863,0.0231967,0.0978061,0.078783,-0.0146327,-0.0416316,-0.0379913,-0.0920438
geeking -0.125475,0.15512,-0.0115016,0.0132093,-0.0325976,-0.00557311,-0.00303667,-0.0109457,-0.0180199,0.0195797
roof -0.117773,0.0735898,0.0186507,0.0260879,0.0187067,0.00965538,-0.0105968,0.0318257,-0.000163361,-0.00043378
eating -0.148419,-0.0307473,0.00261329,-0.00156621,-0.000841657,0.000797943,-0.00202205,0.00267521,-0.00181811,-0.000144125
announcment -0.14828,-0.00929035,-0.00273373,0.00557663,-0.00331956,-0.00688793,-0.000633617,-0.00191173,-0.000915429,0.00345404
suspect 0.409956,0.411339,0.173422,-0.0763723,0.268585,0.0315178,-0.124995,0.137523,0.0274082,-0.152626
nightcard -0.112861,-0.0779039,0.0178383,0.000635856,-0.00283071,0.0217571,0.00838962,-0.0147148,-0.0311509,-0.013513
goes 0.0294353,-0.434295,-0.0152788,-0.019592,-0.0258051,-0.00340901,-0.0402303,-0.0305171,0.0369531,-0.0680842
reply -0.106898,-0.198938,0.0342273,-0.0302407,-0.0166226,0.0143692,0.0159063,0.0325084,-0.00212426,0.0138234
falling -0.0320388,0.217687,0.0269289,0.043153,0.00130267,-0.0347655,-0.00804858,0.0129003,0.0979763,-0.0389152
freaky -0.073247,-0.184971,-0.0278912,0.106998,0.0266378,-0.020441,-0.0375466,0.0530134,-0.0166294,0.0068074
filled -0.143493,-0.0141541,0.00618105,0.0063892,0.00125022,0.00327783,0.00024818,0.00326063,0.00695429,0.00452904
hummer -0.145536,0.00970347,-0.0155705,-0.00461414,-0.00731602,-0.00121972,-0.00326917,-0.00113201,-0.00859463,0.00170885
supporting -0.141965,0.0753582,0.0150082,0.0184774,0.0328274,-0.0124416,0.0158732,0.0292191,-0.026409,-0.0301906
install 1.83151,0.155545,-0.00366141,-0.00906117,0.000472918,0.00505535,-0.0106441,0.0114653,0.00580294,-0.0390152
mr -0.148518,0.0214881,0.00409418,0.00172074,0.00515071,-0.00716174,0.00800573,0.00633189,-0.00856181,-0.00725348
french -0.141795,-0.0710987,-0.00535128,-0.00463361,0.0164473,-0.0030014,-0.000722091,0.00297732,0.00374691,0.00524627
water -0.146731,0.0192413,-0.0191006,-0.0128365,-0.00484107,-0.0204059,-0.00640237,-0.0106358,0.0165659,0.000332648
slow 0.918706,-0.599517,0.122172,0.0439354,-0.0747044,-0.0539513,0.0732401,0.238131,-0.0799179,0.0372937
baseball -0.145558,-0.0561251,-0.0030614,-0.00224813,0.000447267,-6.32973e-05,-0.000645971,-0.000254367,-0.000138761,9.82657e-05
alone -0.147738,0.00555857,0.00298293,0.00124862,0.0153652,-0.0130794,0.000900796,-0.00469492,-0.0177772,0.00946136
laughin -0.148766,0.0336801,0.00497009,-0.00513411,-0.015595,-0.00220867,-0.0111947,0.0100966,-0.00246196,-0.000742417
along -0.149809,0.0176909,0.00666005,-0.00550062,-0.00857249,0.00687121,-0.00381009,-0.00197783,-0.00412454,-0.00419598
change -0.148898,0.0109991,0.0052069,0.00141103,0.00196474,0.00825193,-0.00444987,0.00271867,0.0163215,0.000114753
wait -0.148257,-0.0328674,-0.00296009,0.00185132,0.00321415,-0.00366444,-0.00407961,-0.00194271,-0.00258666,0.000129892
alto -0.130489,0.13123,0.0164655,0.0121045,0.000689872,0.00875518,-0.0212875,0.0243085,-0.0180781,0.0317142
buck -0.0763465,0.0393787,-0.0535689,-0.0806126,0.0362492,-0.0230036,-0.0011728,0.0539199,0.0134683,-0.0319442
healthy -0.147841,0.018666,0.00196536,0.00134796,0.0191367,-0.000185439,0.0160298,-0.000787248,0.0230247,0.00694758
my -0.130308,-0.148225,-0.000853106,-0.000967243,0.0017247,-0.00158745,-0.00285351,0.00205814,-7.44485e-05,0.000450048
culpa -0.110522,0.0952665,0.00229516,0.00155715,0.0170554,0.00818772,-0.0770362,-0.0336592,0.0133136,-0.00280846
franklin -0.143279,-0.0112745,0.00162585,0.0149278,0.0173338,-0.00589902,0.00219878,-0.000856246,0.0199019,0.00153899
boo 0.561098,-0.552537,-0.17848,-0.0534429,-0.150873,0.0303094,0.0887298,-0.0541889,0.0822705,-0.0195218
usually -0.128976,0.210576,-0.00978894,0.0418811,0.0103607,0.000127811,0.00815151,0.00798604,-0.00755725,0.000778483
weird -0.14776,-0.000472887,-0.00171643,-0.0134477,-0.00337704,0.00266795,0.00786046,-0.000848839,-0.00651942,0.00706592
love -0.145884,-0.0547995,-0.00253652,-0.000791092,-0.00139932,-0.00322379,-0.000636733,0.00136804,-0.000625749,-6.78091e-05
extra -0.146525,0.00269158,-0.00322247,-0.00327774,0.00386779,-0.00762319,-0.00456811,-0.00143047,0.00789992,0.0212371
paragon -0.116055,0.0685405,-0.00874401,0.00438546,0.0133967,-0.0137476,-0.00968407,0.0539046,0.0199659,0.0243153
bloody -0.143646,-0.00290941,-0.00280361,-0.0132125,-0.0037601,0.0178999,-0.0172427,-0.00224942,0.00658959,-0.0111357
