 0.0677522,0.0736168,0.0565719,0.129652,-0.0756793,-0.0654322,-0.0190941,-0.119713,0.0594932,0.135592,0.0420177,-0.0926455,-0.188694,-0.110727,-0.0103601,0.00137408,0.0088032,-0.0681075,0.172187,0.0252024,-0.170267,-0.016209,0.190136,0.206884,-0.0717947,-0.115647,0.0628327,0.0977673,-0.0245876,-0.130987,0.0503816,-0.120173,-0.0906745,0.137629,0.157713,0.0092889,-0.187223,0.231189,0.0306612,-0.0019018,-0.072985,-0.130321,-0.104422,0.0776915,-0.112232,0.0575784,-0.121917,0.0618395,0.00367507,-0.0523073,0.00848713,-0.115982,-0.0839815,-0.0824174,-0.0538527,-0.0718507,0.0549747,-0.0729602,-0.00298215,0.0828145,0.10379,0.207869,0.0182013,0.0691842,0.00470006,-0.0271926,0.0891702,0.0700387,0.132572,-0.189525,-0.0216397,0.119952,-0.157489,0.00453079,0.0105259,-0.12656,0.0109982,0.0147323,0.149951,-0.142508,0.0646141,0.119503,0.0950764,0.114598,-0.0224343,0.0805658,0.0661477,-0.13603,0.174446,0.0200572,-0.0478967,-0.00763417,0.050333,-0.0831203,-0.0991919,-0.0871946,-0.0530143,-0.103019,0.12459,-0.0395012
limited 0.0743798,0.219739,0.0120832,0.0731216,-0.0735959,-0.0600061,-0.0262107,-0.10956,-0.00814875,0.0347863,-0.0587217,-0.183224,-0.142644,-0.0750924,0.0763956,0.0477717,0.13448,-0.143553,0.107333,-0.0737229,-0.12833,-0.0941125,0.125944,0.130017,0.047474,-0.0173541,0.00162513,0.0903581,-0.110135,-0.154365,-0.0124475,-0.0273214,-0.0140506,0.133983,0.162206,-0.00368226,-0.0777541,0.190191,0.0886404,-0.0673828,-0.247652,-0.00211094,-0.175042,0.0206406,-0.0750473,-0.0829419,-0.0634343,0.0756979,0.131455,-0.0040282,0.0370369,-0.071088,-0.0252331,-0.10823,-0.0347884,-0.0480754,0.091773,-0.0329807,-0.207913,-0.0249111,0.0865853,0.258764,0.0134611,-0.0174098,0.0355977,-0.118522,0.00425951,0.122756,0.160244,-0.110626,0.012065,0.04062,-0.157813,-0.059636,-0.114777,-0.0711703,0.0355583,-0.0484954,0.15911,-0.014321,0.0189184,0.0826908,-0.000904708,0.11594,0.093564,-0.059543,-0.063146,-0.0958263,0.182383,-0.202475,-0.140938,-0.047928,0.0449254,0.0593019,0.0197777,-0.0455048,-0.00756284,0.059111,-0.0229492,0.0552914
raining -0.00866596,-0.118855,-0.161381,-0.130462,0.0812341,-0.0404768,0.0336297,0.0193897,0.0326853,-0.151104,0.113666,0.117228,0.00483752,0.0925513,0.0852764,-0.162089,0.0161645,0.162799,0.0696436,-0.0838569,0.142358,0.100112,-0.185708,-0.248907,-0.137863,0.0818385,-0.0164918,-0.067296,0.0923009,0.194335,-0.055114,0.14006,0.0668093,-0.0940913,0.04985,0.0688452,-0.00568814,-0.113591,-0.0598378,-0.0838452,0.101829,-0.0633543,-0.062651,0.0384919,-0.060814,-0.11491,0.135918,-0.161334,0.0677732,0.0669966,-0.00878682,0.0181514,0.0190256,0.112325,0.0846372,-0.0439868,-0.00134812,0.0433691,0.130396,-0.0511149,-0.180053,-0.121698,-0.0972764,0.0904861,-0.123607,0.0825604,-0.112541,0.0501569,-0.11281,0.174276,-0.0628243,0.0802678,0.156686,0.124196,-0.0607881,0.092761,-0.135815,-0.0324367,0.0247506,0.150271,-0.0540987,-0.0955815,-0.0833811,-0.0625437,-0.0824372,-0.0315425,0.0899265,-0.0227629,-0.220366,0.109374,-0.0155021,0.0727791,0.0602843,-0.143138,-0.0794637,-0.0710452,-0.0341015,-0.014753,-0.027196,0.0593769
hats 0.11588,0.193252,0.00131139,0.0691391,-0.102709,-0.0929242,-0.0436292,-0.0987284,-0.0103071,0.0662401,-0.0438753,-0.188279,-0.219878,-0.0845257,0.0684778,0.0558837,0.104668,-0.0800989,0.0750667,-0.0322127,-0.190593,-0.0922712,0.112758,0.223492,0.0632635,-0.0318345,-0.0323429,0.121564,-0.0947672,-0.188861,7.36283e-05,-0.00723398,-0.0417469,0.107512,0.0949294,-0.00765254,-0.156036,0.181758,0.0792881,-0.0304326,-0.254419,-0.0318145,-0.190732,-0.0138248,-0.102733,-0.0212579,-0.0463533,0.0703705,0.108206,0.00216399,0.0525276,-0.119165,-0.0440556,-0.0444308,-0.0590675,-0.0670092,0.0601296,-0.042211,-0.16769,-0.0400229,0.0982255,0.214054,-0.0216278,-0.0523705,0.0148009,-0.168913,0.000978599,0.0979527,0.109831,-0.128128,0.00680267,0.0273956,-0.154405,-0.0737631,-0.0791263,-0.116416,0.0430473,-0.0686548,0.188928,-0.0251073,0.0508176,0.0978289,0.0149621,0.068426,0.0131036,-0.0262201,-0.031639,-0.100799,0.168968,-0.177628,-0.115811,-0.059615,0.00378742,-0.00177253,0.00736886,-0.032136,-0.00970727,0.0238579,0.0452786,0.00522239
personally 0.107143,0.19749,0.0535881,0.0980086,-0.0639133,-0.0861445,-0.00806843,-0.120927,0.0323002,0.0334683,-0.0816596,-0.166184,-0.200847,-0.0590291,0.0471449,0.05413,0.150557,-0.0807531,0.0734246,-0.0817413,-0.153772,-0.0957077,0.147381,0.154182,0.0984821,-0.0578367,-0.0626205,0.108548,-0.0841099,-0.156826,-0.0407284,0.00340835,-0.0434354,0.0681325,0.130753,0.0332942,-0.102066,0.154664,0.0729349,0.00233056,-0.235437,-0.0562511,-0.192658,-0.0367988,-0.0575778,-0.0422236,-0.0300699,0.0602636,0.117532,-0.011354,0.0226362,-0.129178,-0.013414,-0.0751095,-0.00769839,-0.0790067,0.119954,-0.0247084,-0.2018,-0.0905318,0.0294835,0.251438,0.00211437,-0.0305885,0.0184887,-0.15936,-0.0648326,0.093454,0.13164,-0.161197,0.0141288,0.0539274,-0.144988,-0.0212958,-0.0442706,-0.11222,0.0759729,-0.0608866,0.169195,0.0100233,0.0586285,0.0722993,0.0470181,0.0863371,0.0586607,0.0120499,-0.0334467,-0.100326,0.176275,-0.197013,-0.127068,-0.107387,0.0255355,0.044206,0.0180894,-0.0730669,0.024294,0.0309883,0.0250451,-0.00411695
sleep 0.086017,0.188792,0.0308165,0.0813482,-0.0800209,-0.0792202,-0.0188017,-0.118261,0.0168473,0.0725506,-0.0431488,-0.16119,-0.196062,-0.0781657,0.0328349,0.0746958,0.131576,-0.102258,0.0871933,-0.0561633,-0.182516,-0.0638838,0.145914,0.201077,0.0643256,-0.0668085,-0.0191458,0.0979375,-0.0929385,-0.175384,-0.000851348,-0.0136829,-0.0516974,0.112466,0.135707,0.0258814,-0.139741,0.186672,0.0704976,-0.0177772,-0.226145,-0.0694061,-0.159753,0.00147047,-0.0799965,-0.0407886,-0.0573435,0.0855098,0.119531,0.00529993,0.0435461,-0.133954,-0.0589175,-0.0729308,-0.0371285,-0.0571147,0.091277,-0.0587204,-0.184516,-0.0489792,0.0712853,0.233764,-0.0195335,-0.0155733,0.0229825,-0.143701,-0.0208362,0.0969497,0.14142,-0.164568,-0.00671224,0.0480419,-0.161351,-0.0462431,-0.063387,-0.109087,0.0445622,-0.0377213,0.189788,-0.00404239,0.0670949,0.0978482,0.0438671,0.0919537,0.0393062,0.00420645,-0.0233948,-0.122359,0.166295,-0.175247,-0.12855,-0.0819219,0.00501648,0.0186665,-0.0172139,-0.0547609,-0.00480668,-0.00425083,0.0267257,0.00816829
hanging 0.0870971,0.168623,0.0427265,0.0674107,-0.0594256,-0.109442,-0.0339736,-0.0953873,-0.0128139,0.0895019,-0.0784489,-0.186117,-0.172467,-0.042529,0.0291245,0.0766705,0.155211,-0.115275,0.0783495,-0.0387942,-0.179637,-0.0762949,0.126732,0.178619,0.102331,-0.0586511,-0.0334866,0.0661005,-0.127311,-0.179095,-0.0121723,0.00130341,-0.0652096,0.130883,0.102806,0.00294975,-0.102328,0.177249,0.0901941,-0.000880878,-0.239848,-0.0324847,-0.194232,0.0130443,-0.042559,-0.0565161,-0.0117344,0.111887,0.110234,0.0226871,0.0216444,-0.136183,-0.0775594,-0.0546319,-0.0631679,-0.0584169,0.071615,-0.0672083,-0.185123,-0.0459491,0.0805884,0.244062,0.00181465,-0.0169458,0.0353664,-0.161109,-0.0212417,0.0676977,0.11749,-0.183601,-0.00326344,0.0378467,-0.179487,-0.0608983,-0.0408539,-0.0874314,0.0614453,-0.0483332,0.200684,0.025852,0.0471962,0.0711871,0.00263936,0.0502752,0.0698228,-0.0295614,-0.0380247,-0.0835531,0.172312,-0.181229,-0.111978,-0.0979671,-0.0216882,0.0459597,-0.0381713,-0.0219224,-0.0292266,0.00594083,0.0333396,-0.0202944
francesca 0.0712767,0.228134,0.0463691,0.0788632,-0.0671053,-0.0846859,-0.0155957,-0.0839325,0.0270768,0.0300142,-0.0765857,-0.149769,-0.195421,-0.0799599,0.0663247,0.0786381,0.157463,-0.100231,0.0729765,-0.0746258,-0.189433,-0.052448,0.124722,0.181764,0.108013,-0.0604259,-0.0415071,0.0814656,-0.100348,-0.171147,-0.0010048,-0.00261282,-0.0466955,0.077771,0.116695,0.0350114,-0.136029,0.145967,0.0671144,-0.0264833,-0.233309,-0.0652458,-0.163769,-0.0206502,-0.0526902,-0.0814809,-0.0323619,0.105351,0.123274,-0.00027448,0.0358821,-0.112072,-0.0516472,-0.0817616,-0.0363675,-0.0340371,0.0756756,-0.0374309,-0.20929,-0.0923657,0.0462931,0.235096,-0.0453307,-0.0471621,0.00448125,-0.166524,-0.0470181,0.0998785,0.1196,-0.162598,-0.00662759,0.00713076,-0.129899,-0.0473662,-0.0744987,-0.099254,0.0442798,-0.0677591,0.163386,0.0510818,0.0538915,0.0945007,0.0320252,0.0675212,0.0353491,-0.0155644,-0.0403218,-0.0871542,0.156615,-0.23737,-0.144315,-0.0988299,-0.00016976,0.0444146,0.0242565,-0.0293544,-0.00464878,0.0321798,0.00768888,0.0391082
hate 0.0834975,0.189989,0.0377299,0.0836459,-0.0767706,-0.083586,-0.0242726,-0.117126,0.0251766,0.0728126,-0.0487526,-0.159932,-0.193441,-0.0811992,0.0347471,0.0688421,0.125121,-0.106428,0.0828664,-0.060593,-0.190334,-0.0640901,0.149766,0.20291,0.0726419,-0.0705059,-0.0231557,0.0912595,-0.0955295,-0.171419,-0.00353201,-0.0144526,-0.048601,0.113806,0.131214,0.0260629,-0.1386,0.182202,0.079495,-0.0153911,-0.231303,-0.0694071,-0.161602,-0.000647855,-0.0753662,-0.0388094,-0.0484292,0.0935622,0.127313,-0.00140855,0.0435797,-0.134351,-0.0576695,-0.0748716,-0.0403997,-0.0565523,0.0901366,-0.0574791,-0.185159,-0.0435292,0.0692034,0.231643,-0.0217196,-0.0159673,0.0262066,-0.141098,-0.0269948,0.0901297,0.145347,-0.157305,-0.00937453,0.0537022,-0.158204,-0.0411919,-0.0666028,-0.104959,0.0442625,-0.0449641,0.184553,-0.00997059,0.0651776,0.100511,0.0381476,0.0885684,0.043296,0.00481511,-0.0321739,-0.118105,0.160091,-0.178713,-0.136179,-0.0795906,0.00597734,0.0242284,-0.0122721,-0.0605127,0.000311126,-0.00453394,0.0217608,0.0077278
trolley 0.0433571,0.206395,0.0878884,0.0218504,-0.109597,-0.0879279,-0.000578636,-0.0530538,-0.0354578,0.0936443,-0.0426531,-0.181073,-0.122972,-0.0953339,0.0856696,0.0322897,0.153839,-0.0602789,0.0540185,-0.0253654,-0.117231,-0.0772783,0.0907172,0.228718,0.110448,-0.04002,-0.0237763,0.141519,-0.147112,-0.195881,0.0226428,-0.0654581,-0.0876294,0.0444379,0.0616463,0.014147,-0.120636,0.18615,0.0179456,-0.0640165,-0.232407,-0.0987449,-0.141101,0.0270116,-0.0893734,-0.039363,-0.0977782,0.131264,0.130346,0.0499278,0.0778552,-0.122569,-0.051473,-0.114526,0.0127734,-0.0474595,0.0845689,-0.0960384,-0.158623,-0.0172712,0.0679871,0.181736,0.0387259,-0.0080302,0.0436614,-0.129152,-0.0291637,0.0645576,0.162812,-0.187856,-0.00332023,0.0390303,-0.166246,-0.080768,-0.0545087,-0.12335,0.0752406,-0.0370048,0.217539,-0.048947,0.0178218,0.0725313,-0.01672,0.0312944,-0.0205677,0.0437052,0.0107711,-0.148981,0.151468,-0.181566,-0.10577,-0.0758552,0.00543114,0.0710419,-0.0313319,0.00124301,0.0124528,-0.0351707,-0.00482768,-0.0395865
increase 0.110947,0.234572,0.0101774,0.0747327,-0.057471,-0.0724723,-0.0297992,-0.13833,-0.00763225,0.0549295,-0.0779211,-0.142888,-0.151415,-0.079458,0.0547558,0.0827768,0.177232,-0.115304,0.040195,-0.101078,-0.151328,-0.079317,0.160115,0.172888,0.0867922,-0.0860334,-0.0458052,0.113916,-0.0638783,-0.173573,0.0275996,-0.00333016,-0.00336722,0.0930735,0.123992,0.057306,-0.118216,0.151768,0.0788698,0.00956291,-0.250176,-0.0889025,-0.124785,0.00849638,-0.0290338,-0.0651455,-0.0118297,0.0625464,0.131118,-0.00909976,0.0161622,-0.156696,-0.0570601,-0.0454574,-0.0351239,-0.0451633,0.0728305,-0.0255954,-0.220154,-0.0610034,0.0409298,0.243142,-0.00992303,-0.00298011,0.0362572,-0.120173,-0.0307753,0.0870012,0.124316,-0.14845,-0.0220711,0.00182798,-0.109232,-0.0189162,-0.0604665,-0.0731953,0.0497306,-0.0531335,0.190261,0.0135161,0.0958896,0.0828402,0.0068355,0.0537236,0.02368,-0.0207365,-0.0116134,-0.120586,0.18841,-0.23389,-0.0990204,-0.127851,0.0340006,0.0187336,-0.0286068,-0.0724015,0.0391069,0.0431176,-0.0192314,0.016267
buddy 0.0922833,0.188453,0.0329521,0.064698,-0.0905391,-0.0923614,-0.0390147,-0.106342,0.0275381,0.0884116,-0.0310331,-0.14519,-0.186611,-0.0973925,0.0446928,0.0576297,0.145143,-0.101574,0.0871221,-0.0482346,-0.19109,-0.082685,0.140936,0.186672,0.076288,-0.0827445,-0.0203833,0.0933446,-0.110386,-0.155418,0.0113236,-0.00257281,-0.0509393,0.0986478,0.122908,0.0215768,-0.150645,0.177514,0.0792829,-0.0378512,-0.236711,-0.0724274,-0.169145,0.0195414,-0.0839916,-0.0571255,-0.0526808,0.103765,0.0989621,0.00628585,0.0277958,-0.113041,-0.0536144,-0.0820021,-0.0498624,-0.0767298,0.105111,-0.0455977,-0.174521,-0.0542387,0.0776592,0.227748,-0.035916,-0.033246,0.00830404,-0.139299,-0.0189907,0.113169,0.130008,-0.151792,-0.00494506,0.067678,-0.142729,-0.0408205,-0.046707,-0.128131,0.062084,-0.0493319,0.190305,0.0113173,0.0644411,0.0852679,0.0564348,0.0959821,0.0444088,0.0120173,-0.0309967,-0.11059,0.16368,-0.193155,-0.125333,-0.0842253,0.0158793,0.0301691,-0.0147371,-0.0495515,0.0120628,0.00392877,0.012307,0.0222469
snowing 0.0854863,0.251542,0.0713802,0.133025,-0.112214,-0.108082,0.0374025,-0.0610916,0.0293056,-0.00793727,-0.0809977,-0.168967,-0.210813,-0.00415943,-0.0230636,0.0643061,0.0731878,-0.0962019,0.00140666,-0.115281,-0.152756,-0.093802,0.029714,0.226542,0.155421,-0.107519,-0.0609027,0.0665153,-0.0533194,-0.108583,-0.00123648,0.101974,0.00526339,0.133804,0.0418307,-0.039677,-0.0320612,0.176376,0.0867781,-0.0189578,-0.300381,0.0249431,-0.225794,-0.0147976,-0.114488,-0.00953618,0.0133779,0.0779276,0.12068,0.0818612,0.0573633,-0.110942,-0.0535354,-0.0193899,-0.0477897,-0.0731294,0.024177,-0.0600164,-0.168792,-0.0466084,-0.00830583,0.15934,0.00908554,-0.0178906,0.0679705,-0.146168,-0.115274,0.119791,0.0871863,-0.176995,-0.052366,0.0344126,-0.0777113,-0.0360889,-0.0414905,-0.0898186,0.0214385,-0.0241979,0.145474,-0.0232123,-0.00885286,0.0184563,-0.0617352,0.00628008,0.0776083,-0.0884774,0.0281998,-0.151995,0.100314,-0.206965,-0.113409,-0.133597,-0.0237283,-0.0289096,0.0487219,-0.0392784,0.00760843,0.0915762,0.0558251,0.0291851
tweet 0.0777522,0.194881,0.0410279,0.0734037,-0.07698,-0.0909371,-0.030988,-0.119778,0.0103234,0.0553353,-0.044108,-0.14877,-0.192694,-0.0675117,0.0354581,0.0755317,0.144184,-0.0937291,0.0841168,-0.0489226,-0.180322,-0.0800941,0.138416,0.18396,0.0888764,-0.0699825,-0.0193083,0.0845806,-0.112589,-0.172688,-0.00456561,-0.00950397,-0.0387925,0.111211,0.131302,0.016739,-0.136878,0.182788,0.086251,-0.0108168,-0.245031,-0.0659747,-0.172852,-0.00691434,-0.0759816,-0.052536,-0.0517946,0.0808971,0.133657,0.0186808,0.0379924,-0.115777,-0.0623333,-0.0581701,-0.0354725,-0.0413905,0.0816315,-0.0500928,-0.210292,-0.0570149,0.0713555,0.231731,-0.0205451,-0.0245385,0.0167984,-0.145186,-0.0232487,0.0934628,0.137185,-0.162478,-0.0103386,0.0427481,-0.14141,-0.0350595,-0.0660127,-0.0943623,0.0553402,-0.0335506,0.184619,-0.00187395,0.0619893,0.102218,0.0304667,0.0813515,0.0341448,-0.014888,-0.0370564,-0.1226,0.153141,-0.194728,-0.148176,-0.0945525,-0.00616041,0.033673,-0.0159967,-0.0502326,0.0090322,-0.00643778,0.00876169,0.00767426
ttyl 0.0694801,0.163221,0.0766232,0.0892133,-0.079404,-0.0687382,-0.0135415,-0.153122,-0.0196802,0.0357764,-0.0171408,-0.184593,-0.162928,-0.0516475,0.0567337,0.0489292,0.123209,-0.0615615,0.084955,-0.0227349,-0.157971,-0.0637746,0.109951,0.201295,0.0900113,-0.100172,-0.03687,0.1008,-0.134884,-0.157632,0.0259255,0.0379921,-0.00967554,0.0896793,0.112388,-0.0266964,-0.166803,0.125923,0.127959,0.0291419,-0.221959,-0.0844859,-0.146177,-0.00835482,-0.0210526,-0.111602,-0.0771184,0.0669032,0.170102,0.00925891,0.0481259,-0.172722,-0.0226269,-0.017362,-0.0362521,-0.085058,0.0418029,-0.0464473,-0.175673,-0.0389529,0.0219209,0.242878,-0.00842784,-0.0719037,0.0701286,-0.19541,-0.0238331,0.103883,0.131425,-0.105515,-0.0147338,0.036813,-0.150116,-0.0537524,-0.110081,-0.0751828,0.0365822,-0.0340764,0.129315,0.012623,0.0758745,0.0427788,0.0546471,0.0584455,0.00655823,0.0181257,-0.0644995,-0.10278,0.133138,-0.257732,-0.15017,-0.104598,0.0140776,0.0615122,0.0414216,-0.0599985,0.0436407,0.0595814,-0.0496292,-0.00104847
list 0.0941436,0.179491,0.0274997,0.0784514,-0.0719441,-0.0753331,-0.0266659,-0.112106,0.0209536,0.0678091,-0.0399553,-0.156643,-0.208288,-0.0897731,0.0239472,0.0643906,0.132149,-0.0997794,0.0918648,-0.038663,-0.179231,-0.0519473,0.165785,0.195151,0.0553847,-0.0730313,-0.0146734,0.0927564,-0.0780442,-0.181266,0.00864655,-0.0271491,-0.0399798,0.109937,0.14531,0.0113193,-0.145349,0.196533,0.0816497,-0.0164671,-0.228149,-0.0872788,-0.149835,-0.00485974,-0.0698788,-0.0442125,-0.0490951,0.0820177,0.122107,-0.00167792,0.0440468,-0.129277,-0.0619105,-0.0685661,-0.0315251,-0.0697115,0.0951134,-0.052578,-0.184613,-0.0399939,0.0762183,0.248512,-0.00389843,-0.0121266,0.00852027,-0.125766,-0.0170622,0.108413,0.136562,-0.165139,-0.0117831,0.0677363,-0.150831,-0.0466701,-0.0610331,-0.101369,0.0463279,-0.0467855,0.174117,-0.0105949,0.0722398,0.105125,0.0460769,0.0912974,0.0424508,-0.000186156,-0.0276214,-0.1153,0.168768,-0.16257,-0.139944,-0.0892306,0.00577172,0.0203471,-0.0333165,-0.0549325,-0.0108704,-0.0129579,0.0266211,-0.00454711
bike 0.0985413,0.197206,0.031843,0.0783107,-0.0602197,-0.0844681,-0.0143597,-0.112759,0.0208883,0.0668815,-0.0517871,-0.15594,-0.189317,-0.0685505,0.0549773,0.09088,0.157964,-0.108257,0.0693466,-0.0468723,-0.188969,-0.0861372,0.118507,0.172942,0.100257,-0.0436459,-0.0329316,0.0913107,-0.0956541,-0.173555,3.16286e-05,-0.0167309,-0.0457385,0.0898469,0.117562,0.0234907,-0.135616,0.169186,0.0824165,-0.0194161,-0.253761,-0.0656105,-0.180576,0.00216768,-0.0650617,-0.038324,-0.0520602,0.0695299,0.138958,0.0256787,0.0601561,-0.13886,-0.0510885,-0.0478943,-0.0544008,-0.0368389,0.109183,-0.066275,-0.206774,-0.0822141,0.0677034,0.217375,-0.0210271,-0.042479,0.0071866,-0.151527,-0.0523603,0.108523,0.148522,-0.138456,-0.00765097,0.0178602,-0.145214,-0.0306164,-0.088033,-0.0861803,0.0409501,-0.0427485,0.185557,-0.00446416,0.0586878,0.0856997,0.0388999,0.0604084,0.0449495,0.00967354,-0.0576722,-0.0939763,0.169786,-0.198563,-0.12215,-0.0861572,0.0185209,0.0167234,-0.0119422,-0.0435228,-0.0170781,0.0220143,0.0279478,0.0231993
under 0.0863835,0.218098,0.0534766,0.0883006,-0.0797984,-0.0751269,-0.0321231,-0.126963,0.00128817,0.0684741,-0.0787907,-0.163659,-0.173757,-0.0647046,0.0474976,0.0465503,0.158062,-0.0770793,0.0433799,-0.0866162,-0.168687,-0.0506762,0.144703,0.214604,0.109362,-0.0684006,-0.0172833,0.0664343,-0.104465,-0.161859,0.0141182,0.0226145,-0.0253822,0.0943773,0.149178,0.0252626,-0.107024,0.146429,0.0597554,-0.00634267,-0.226275,-0.0632739,-0.158263,0.0242819,-0.0603317,-0.0444132,-0.0415476,0.0682876,0.138349,0.0419544,0.0631715,-0.156422,-0.0519686,-0.0554769,-0.00557185,-0.0387841,0.118633,-0.0565064,-0.227527,-0.0426564,0.0870166,0.234712,-0.0407428,-0.0545032,0.0410274,-0.159409,-0.0209419,0.114642,0.166365,-0.160512,0.0115833,0.0612783,-0.129823,-0.0306861,-0.0604541,-0.0986058,0.0671834,-0.0514459,0.188603,0.0404632,0.0650741,0.0766456,0.017822,0.0949771,0.0580598,-0.0280888,-0.052143,-0.0991806,0.122223,-0.158439,-0.112052,-0.0576353,-0.0143205,0.00398163,-0.0272148,-0.0599692,0.0223076,0.0205462,0.0425316,0.0404788
sorry 0.091727,0.193415,0.0280748,0.0704313,-0.0790489,-0.080289,-0.0167836,-0.111855,0.0125494,0.0629116,-0.0561442,-0.158291,-0.196043,-0.0756787,0.0458612,0.0828208,0.13927,-0.0943218,0.0789178,-0.0609661,-0.174529,-0.0761095,0.134426,0.197243,0.0877754,-0.056785,-0.03339,0.0985759,-0.0972173,-0.176091,-0.00873054,0.00213641,-0.0459011,0.106041,0.130492,0.0204123,-0.135831,0.173417,0.0754087,-0.0209396,-0.24576,-0.0580294,-0.158727,-0.00226501,-0.066813,-0.050574,-0.0388496,0.0945917,0.130502,0.013946,0.0470435,-0.124834,-0.0452347,-0.0709795,-0.038118,-0.0608249,0.0837797,-0.0462014,-0.208295,-0.067207,0.0600867,0.22696,-0.0195531,-0.0336035,0.0234903,-0.144159,-0.0405355,0.0996447,0.132063,-0.155799,0.00375603,0.0368985,-0.150779,-0.0504817,-0.0709409,-0.109862,0.0501786,-0.0524098,0.188892,0.00943537,0.0695618,0.0935056,0.0317045,0.0895416,0.0495038,-0.00475045,-0.0330447,-0.117636,0.15062,-0.192469,-0.134744,-0.0938155,-0.00405268,0.0322841,-0.0114491,-0.0537198,-0.00493367,0.00985999,0.0194641,0.0142423
pride 0.105774,0.199839,0.029034,0.0555541,-0.0899812,-0.0858807,-0.00919158,-0.0964342,0.0180163,0.082981,-0.0496352,-0.175014,-0.18192,-0.0760198,0.0362959,0.0720657,0.141086,-0.100415,0.0932693,-0.048952,-0.200151,-0.0533707,0.141002,0.189326,0.103059,-0.0714291,-0.0137515,0.0710271,-0.109672,-0.157593,-0.00197248,-0.00400088,-0.0472427,0.102923,0.141569,0.0107404,-0.149281,0.177147,0.0709871,-0.00728661,-0.255302,-0.0412751,-0.150501,0.00921421,-0.0617184,-0.051053,-0.0442439,0.070279,0.136875,0.0114588,0.0242507,-0.117838,-0.0519831,-0.0781944,-0.0486073,-0.0637228,0.094398,-0.0445105,-0.185714,-0.0424564,0.0603559,0.219811,-0.0186103,-0.0402262,0.00934082,-0.145672,-0.0372726,0.115225,0.150436,-0.170261,-0.0203635,0.0238681,-0.137041,-0.0616756,-0.0500016,-0.0963479,0.0452606,-0.0618994,0.180661,0.00864495,0.0516996,0.0802139,0.0308055,0.0961234,0.0516497,0.00825888,-0.0568807,-0.133792,0.139703,-0.201378,-0.129724,-0.0789533,-0.0164844,0.0458078,-0.00505999,-0.0383801,0.00886865,0.023461,0.0112944,-0.00464176
whack 0.0977121,0.181081,0.0329622,0.10681,-0.0860609,-0.0883612,-0.0222744,-0.109808,0.0215777,0.0859707,-0.0296172,-0.160582,-0.202057,-0.0885303,0.0335815,0.0685086,0.118249,-0.107667,0.10034,-0.0555281,-0.172768,-0.0713028,0.151815,0.211493,0.0548575,-0.0894796,0.00654546,0.109192,-0.0910199,-0.182965,0.0159233,-0.0369076,-0.0597039,0.115575,0.154359,0.0118318,-0.145581,0.192538,0.0586325,-0.0240039,-0.220111,-0.0740441,-0.141311,0.00266696,-0.0853141,-0.0274802,-0.0749,0.0843083,0.102926,-0.0185814,0.0438054,-0.120195,-0.0704306,-0.0610622,-0.0413398,-0.0581826,0.0867631,-0.0559742,-0.166303,-0.0258487,0.0703789,0.223716,-0.00526523,-0.00490304,0.00974131,-0.125227,-0.00913797,0.099111,0.140637,-0.166989,-0.0224801,0.0602283,-0.170412,-0.0429105,-0.0605383,-0.11124,0.0352465,-0.0217852,0.176176,-0.0306296,0.0815107,0.111794,0.0419335,0.088688,0.0396026,0.0139328,-0.0192449,-0.137592,0.184888,-0.135323,-0.128554,-0.0633261,0.021211,-0.00467771,-0.0271939,-0.0621883,-0.011008,-0.0201455,0.0325691,0.00470856
updated 0.075446,0.2029,0.0194498,0.0759607,-0.0772687,-0.0704616,-0.0208467,-0.112802,0.0182871,0.0588383,-0.0461749,-0.164719,-0.180408,-0.0630133,0.051045,0.0838365,0.155505,-0.0952311,0.058816,-0.0780101,-0.16895,-0.0807046,0.124751,0.180016,0.0874138,-0.0588856,-0.0303674,0.0875322,-0.10597,-0.183371,-0.0136927,-0.0026026,-0.0369265,0.0963127,0.129446,0.0161816,-0.134992,0.18238,0.0703881,-0.014619,-0.254503,-0.0562625,-0.165289,-0.00188126,-0.0698141,-0.0613976,-0.0439797,0.0956763,0.134164,0.0144277,0.0346014,-0.13921,-0.0435005,-0.0624128,-0.0418581,-0.0545894,0.0811541,-0.0607646,-0.205893,-0.0571792,0.0681616,0.220758,-0.0353905,-0.0275489,0.0119246,-0.158749,-0.0341106,0.0855212,0.138418,-0.156701,0.000850315,0.0363583,-0.143226,-0.0577938,-0.0664203,-0.113806,0.0386088,-0.0566507,0.187747,0.0235462,0.0720392,0.0931643,0.0299205,0.0858121,0.0439375,-0.0158032,-0.0455835,-0.108966,0.153943,-0.193813,-0.138316,-0.0933287,-0.0131212,0.0397806,-0.0132145,-0.0478535,-0.00692742,0.0250644,-0.00404538,0.0180689
callin 0.0927428,0.19698,0.031508,0.0794526,-0.0834358,-0.0962651,-0.0322211,-0.102079,0.0134,0.0510544,-0.0441457,-0.160555,-0.201814,-0.0929799,0.0466096,0.0588472,0.146643,-0.0855037,0.0812685,-0.0580683,-0.164959,-0.073737,0.154487,0.201751,0.0818767,-0.0709967,-0.0366506,0.105093,-0.102797,-0.177076,0.00946144,-0.0188815,-0.0289787,0.120384,0.110979,0.0311678,-0.148278,0.166061,0.0585985,-0.024607,-0.244307,-0.0766822,-0.160365,-0.00744656,-0.079797,-0.0436818,-0.0583581,0.0879515,0.117581,-0.00201681,0.0519536,-0.127321,-0.0436188,-0.0579991,-0.0350109,-0.0488786,0.0963234,-0.0598035,-0.183645,-0.0710972,0.0480656,0.238414,-0.00996126,-0.0360187,0.0216194,-0.128822,-0.038945,0.0855989,0.134041,-0.141764,0.00646507,0.0554792,-0.145435,-0.0565512,-0.0777001,-0.118142,0.0487855,-0.0425251,0.182072,-0.00316712,0.0509468,0.106159,0.0342376,0.0989498,0.0268217,-0.000848761,-0.0284865,-0.130065,0.150539,-0.184372,-0.147013,-0.0986547,0.00658288,0.0296198,-0.00612947,-0.0388535,0.0145121,0.00303701,0.00647835,-0.000876168
regional 0.091813,0.186871,0.0308201,0.0889443,-0.0679796,-0.0858552,-0.0235509,-0.103817,0.0111264,0.0619477,-0.0350595,-0.163735,-0.197441,-0.088238,0.0291934,0.0697491,0.137746,-0.0949011,0.0724497,-0.0595927,-0.181255,-0.0562862,0.149503,0.204925,0.0745212,-0.0576446,-0.0301418,0.0830175,-0.110138,-0.167107,-0.00640365,-0.012476,-0.0550145,0.11729,0.116226,0.0106344,-0.13415,0.18315,0.0673519,-0.0268581,-0.235063,-0.054912,-0.168554,-0.0161071,-0.062867,-0.0559959,-0.0588971,0.0849551,0.124588,0.0164519,0.0353157,-0.135546,-0.0633065,-0.065735,-0.026787,-0.0610206,0.0992256,-0.0549914,-0.207561,-0.0559408,0.0566954,0.241055,-0.0288738,-0.0143341,0.0323243,-0.133854,-0.0340864,0.095082,0.144054,-0.141876,-0.00863294,0.0466825,-0.157842,-0.0437916,-0.0597498,-0.105423,0.0424986,-0.0302275,0.188403,0.000304042,0.07063,0.104546,0.0362441,0.0947568,0.0511505,-0.00648522,-0.0442926,-0.115117,0.165427,-0.175953,-0.135442,-0.0804791,-0.000239531,0.04212,-0.0166125,-0.049234,-0.0104039,0.00406444,0.0221193,-0.00357728
copout 0.0785247,0.205423,0.0189346,0.0639695,-0.0808352,-0.0859952,0.0037778,-0.0810958,0.0129634,0.105613,-0.0599622,-0.201773,-0.14759,-0.119788,0.020512,0.0616985,0.10283,-0.108143,0.11823,-0.0968635,-0.145872,-0.0432375,0.107986,0.194226,0.0755078,-0.0694999,0.012124,0.114011,-0.0952422,-0.20674,-0.0356477,0.0314045,-0.045305,0.135664,0.108817,0.045091,-0.143289,0.16589,0.113912,-0.0223214,-0.253873,-0.100309,-0.12853,-0.0183694,-0.0613021,-0.0782185,-0.021857,0.045188,0.106111,0.0216024,0.0438264,-0.121418,-0.0109859,-0.0371033,-0.0396123,-0.0640726,0.0437959,-0.0180212,-0.190591,-0.0759337,0.0305851,0.205247,0.0175118,-0.0532172,0.000548574,-0.184609,-0.0338166,0.109516,0.0999661,-0.125254,-0.00572948,0.0852913,-0.144521,-0.0626151,-0.0804514,-0.0704378,0.0844098,-0.0389878,0.139901,-0.00978414,0.022195,0.0764058,0.0059972,0.11638,0.00974053,-0.0214894,-0.00824304,-0.107288,0.183648,-0.21379,-0.164725,-0.117266,0.0355513,-0.00256645,-0.04697,-0.0556048,0.0386053,-0.0345374,0.00602616,0.0513086
stolen 0.0811865,0.196204,0.0143184,0.0799965,-0.0659826,-0.0855013,-0.0177181,-0.101628,0.0152143,0.0434456,-0.0610687,-0.171158,-0.188476,-0.0597464,0.0314236,0.0815216,0.161136,-0.0926691,0.0703356,-0.0770442,-0.181386,-0.073105,0.122939,0.194482,0.104704,-0.0544253,-0.0389525,0.0759361,-0.115465,-0.163217,-0.0135409,0.0128853,-0.0258891,0.0974509,0.125664,0.037099,-0.110802,0.158764,0.0820953,-0.0184366,-0.251683,-0.0570978,-0.170938,-0.0104082,-0.0652056,-0.0607382,-0.0370676,0.0809771,0.151138,0.0231256,0.0509584,-0.125673,-0.0524559,-0.0692661,-0.0462538,-0.0551665,0.0870869,-0.0373986,-0.228341,-0.0737181,0.0604279,0.226104,-0.020816,-0.0470644,0.012934,-0.171305,-0.0365783,0.0857096,0.130104,-0.145949,0.0101543,0.0238169,-0.139941,-0.0525418,-0.0751468,-0.108434,0.0429922,-0.0462377,0.172289,0.0191647,0.0485958,0.0912036,0.0154897,0.0730179,0.0532041,-0.0197155,-0.0415615,-0.106455,0.159637,-0.207596,-0.133989,-0.0976946,-0.0118086,0.0465704,-0.00506809,-0.0415259,0.00288576,0.0142784,0.00512089,0.00403827
every 0.0969656,0.189955,0.0341693,0.0658305,-0.0680117,-0.0774113,-0.0264873,-0.119756,0.0113679,0.0699482,-0.0419565,-0.166948,-0.185707,-0.0680836,0.0374928,0.0710362,0.138358,-0.110296,0.0787996,-0.0559588,-0.186882,-0.0797021,0.142165,0.202074,0.0954914,-0.0504944,-0.0363839,0.0982092,-0.110944,-0.165662,0.00201436,0.00915449,-0.0493955,0.104974,0.130338,0.0152678,-0.130074,0.184714,0.0719369,-0.0220076,-0.242,-0.0650083,-0.16163,-0.0186548,-0.062972,-0.0662938,-0.0501781,0.0770308,0.123383,0.0177654,0.0420589,-0.127867,-0.0417915,-0.061938,-0.034306,-0.0483302,0.0980463,-0.0481419,-0.209327,-0.062234,0.0557674,0.227462,-0.0122662,-0.0182127,0.0334632,-0.147066,-0.0295164,0.103342,0.142999,-0.158964,0.00144314,0.0480032,-0.152582,-0.0489617,-0.0727613,-0.108201,0.0397471,-0.0393236,0.177708,0.00930721,0.0624597,0.0939367,0.0403928,0.0842342,0.0398651,0.000244212,-0.0272919,-0.104503,0.151571,-0.193674,-0.137134,-0.0876161,-0.000888591,0.0407291,-0.00353341,-0.0501432,-0.00931773,0.0179213,0.00586523,0.020456
calcio 0.100221,0.214083,0.0264126,0.0929891,-0.0608776,-0.099492,8.32134e-05,-0.10059,0.0421763,0.0647878,-0.0459724,-0.138204,-0.197465,-0.0934089,0.0570077,0.0946023,0.11569,-0.118185,0.0701537,-0.0300993,-0.190087,-0.0495282,0.165702,0.202415,0.0486808,-0.0791683,-0.00748396,0.079398,-0.105923,-0.186163,-0.0151574,-0.00835016,-0.0729609,0.109408,0.124865,0.0233033,-0.150504,0.202158,0.076221,-0.00591869,-0.217236,-0.0521526,-0.163579,-0.00380709,-0.0581322,-0.05791,-0.058861,0.091109,0.115706,0.0111471,0.0178267,-0.148378,-0.0404619,-0.0878435,-0.0570797,-0.0370038,0.10813,-0.0306048,-0.214627,-0.066621,0.0692072,0.210309,-0.0244496,-0.0447556,0.0415569,-0.13108,-0.0438685,0.0830681,0.147061,-0.145323,0.0132818,0.0625411,-0.162395,-0.0277838,-0.0440949,-0.0828335,0.0637711,-0.0251519,0.185561,-0.0183798,0.0545327,0.0757522,0.0404572,0.111451,0.0111123,-0.0188796,-0.0272068,-0.109986,0.158077,-0.164916,-0.1121,-0.0574761,0.0106555,0.0366421,-0.0140033,-0.0614641,-0.0104721,0.0161527,0.0062293,0.00771555
screaming 0.0857187,0.234272,0.0315048,0.100911,-0.044047,-0.11588,-0.0490153,-0.106714,-0.0237135,0.0567463,-0.0732717,-0.178672,-0.19763,-0.10269,0.0492436,0.062347,0.132042,-0.121106,0.081471,-0.0693374,-0.155912,-0.0476606,0.158765,0.156994,0.0863918,-0.0283788,-0.0690793,0.117352,-0.0590565,-0.191013,-0.0496073,0.0261982,-0.0627249,0.0990048,0.140242,0.031591,-0.118483,0.133059,0.0922262,-0.0158726,-0.213258,-0.0804756,-0.20139,-0.0164882,-0.0758287,-0.0415073,-0.0526985,0.0827484,0.162375,0.000605999,0.0303359,-0.0972146,-0.0439283,-0.0310021,-0.0551337,-0.0840275,0.075734,-0.0883805,-0.184003,-0.0956238,0.0458779,0.192536,-0.0514031,-0.00350885,0.0231629,-0.13195,-0.069479,0.0528154,0.165762,-0.139277,-0.00939794,0.00246867,-0.108668,-0.0175472,-0.041449,-0.065553,0.0550583,-0.0313306,0.206031,0.0185442,0.103696,0.106195,0.0415551,0.0667938,0.0768676,-0.0125243,-0.0458488,-0.134588,0.12102,-0.206527,-0.102226,-0.121847,-0.0431909,0.00180482,-0.0123402,-0.00992238,-0.017141,-0.0135142,-0.0215684,-0.00360353
monkeys 0.0505126,0.0854953,0.0997249,0.141445,-0.104021,-0.0660394,0.0864195,0.0222004,0.119199,0.0830171,0.0340655,-0.155422,-0.167238,-0.0807767,-0.02117,0.0608967,0.182811,-0.0245989,-0.0668955,0.0577623,-0.203567,0.0299485,0.135999,0.147756,0.198145,0.031775,-0.0814795,0.111832,-0.0996572,-0.157525,-0.0493365,0.110043,-0.0172819,0.00518559,0.0433695,-0.0834995,-0.109539,0.139164,0.157651,-0.0660277,-0.190059,-0.0249162,-0.225477,0.037749,0.0813766,-0.0622568,0.0844239,-0.0424611,0.0775826,0.0829467,0.0286744,-0.120955,0.0252705,0.0804981,-0.0540291,-0.0470752,0.115097,0.0268105,-0.161908,0.0269278,0.0967837,0.216666,0.00351255,-0.0098254,-0.0845398,0.00780482,0.0360659,-0.0156941,0.188764,-0.194589,0.0577383,-0.0227096,-0.0125237,-0.156282,0.0119069,-0.162239,0.144586,0.060545,0.0633026,0.0648904,0.0510567,0.0348994,0.130543,0.132221,0.154756,-0.0386014,-0.087228,0.0342156,-0.0434535,-0.0307606,-0.122895,-0.0616277,-0.100768,-0.00481268,0.0380709,-0.0368536,0.0157861,-0.091865,0.0913801,0.0915758
tagging 0.0803178,0.188043,0.0181906,0.0695043,-0.0882337,-0.0724437,-0.0335674,-0.11644,0.010614,0.0713339,-0.036576,-0.169821,-0.1938,-0.0924205,0.050913,0.0871734,0.125156,-0.101811,0.0858092,-0.0554393,-0.193305,-0.0843115,0.127604,0.205733,0.0626366,-0.061064,-0.0175763,0.0928356,-0.0864782,-0.171389,0.00948098,-0.00167236,-0.058231,0.108384,0.111446,0.015005,-0.129624,0.174019,0.0600022,-0.0142314,-0.248411,-0.0629069,-0.170755,-0.0206715,-0.0691812,-0.0441479,-0.0435444,0.0883661,0.110683,0.0161147,0.0333322,-0.125175,-0.0481264,-0.071523,-0.0227627,-0.0689302,0.0785331,-0.0446351,-0.184725,-0.0460884,0.0668826,0.250211,-0.0164031,-0.0371673,0.0213533,-0.140766,-0.0222968,0.113346,0.148523,-0.150043,-0.00734623,0.0524453,-0.146083,-0.0301706,-0.055672,-0.101037,0.0418491,-0.0332103,0.201608,0.0209807,0.0687322,0.101718,0.0516373,0.0850748,0.0578465,-0.00282632,-0.0277847,-0.111654,0.165198,-0.189652,-0.132151,-0.0796525,0.0195596,0.0304824,-0.00282679,-0.0566256,0.0155409,0.0207941,0.0252876,0.0105653
school 0.0816807,0.195483,0.0323512,0.0807326,-0.0789181,-0.0785442,-0.0200804,-0.111289,0.0156883,0.0639132,-0.0480394,-0.160222,-0.193451,-0.0717128,0.0377648,0.0739814,0.140438,-0.105246,0.0757463,-0.0681378,-0.186819,-0.0729188,0.13444,0.195597,0.0873234,-0.0584231,-0.0282106,0.0950979,-0.106982,-0.174353,-0.00883711,0.0021908,-0.0410122,0.10842,0.120495,0.0250709,-0.12846,0.179862,0.0744323,-0.018493,-0.237823,-0.0630152,-0.167527,-0.00385779,-0.0684043,-0.0532085,-0.0489921,0.0890851,0.127049,0.00752873,0.0483317,-0.124515,-0.0459946,-0.0713127,-0.0373657,-0.0516233,0.0877863,-0.0555209,-0.203403,-0.0635992,0.0590325,0.229055,-0.025184,-0.0219563,0.0218388,-0.144346,-0.0314123,0.0958875,0.141561,-0.155034,-0.00615834,0.0401299,-0.153191,-0.0463171,-0.0756365,-0.107935,0.0483772,-0.039675,0.190487,0.0109077,0.0617923,0.0966724,0.0325762,0.0812123,0.0405357,-0.0103572,-0.0353553,-0.119726,0.154716,-0.198629,-0.137885,-0.083639,-0.00208822,0.0294405,-0.00414699,-0.0492314,0.00197985,0.00851071,0.0138212,0.00710085
bestfriend -0.00116883,-0.0740966,0.0773353,0.131833,-0.00488282,0.0235678,0.0527963,-0.0749979,0.0958128,0.187823,0.114903,0.0508588,-0.118792,-0.141126,-0.0708578,-0.040495,-0.116253,-0.0746217,0.181022,0.0891132,-0.109165,0.091289,0.134611,0.194792,-0.103721,-0.0631772,0.0915568,0.0706589,0.0800212,-0.0930634,0.0181597,-0.208059,-0.121851,0.112089,0.0753997,-0.0291863,-0.18229,0.144331,0.00689724,-0.0259319,0.0384454,-0.0873359,-0.0717805,0.12887,-0.113023,0.0577289,-0.125761,0.00212047,-0.101935,-0.0930997,-0.00322088,-0.0603956,-0.0429677,-0.104835,-0.0717661,-0.0623807,-0.00236603,-0.0167758,0.0857624,0.111948,0.0860306,0.0841257,-0.00927979,0.0607093,-0.0372487,0.0253545,0.182533,-0.0386075,0.13127,-0.111663,-0.028978,0.065849,-0.126416,0.0358083,0.0687894,-0.12425,0.0368981,0.0702135,0.00487193,-0.200683,0.0142041,0.141481,0.100508,0.0679112,-0.0521485,0.129632,0.0954333,-0.0860964,0.152944,0.126562,0.0488386,0.0734533,0.0959564,-0.150651,-0.149358,-0.0651242,-0.119769,-0.098731,0.21649,-0.0211347
calif 0.0994449,0.212446,0.0195088,0.0947417,-0.073914,-0.0700609,-0.00764652,-0.123076,0.0153626,0.0662988,-0.0397493,-0.174399,-0.183218,-0.0708091,0.0363741,0.0689825,0.144246,-0.114067,0.0664445,-0.066612,-0.169821,-0.0846778,0.143434,0.175125,0.0911718,-0.0581185,-0.0325765,0.0778021,-0.0901247,-0.173931,0.00214115,0.0138145,-0.0373875,0.10042,0.131763,0.0320673,-0.130057,0.190408,0.0794169,-0.015842,-0.235613,-0.0489938,-0.176085,-0.00883669,-0.0643306,-0.0550577,-0.0605859,0.0768965,0.136415,0.00833479,0.0344952,-0.117535,-0.063117,-0.0630257,-0.0529586,-0.0680256,0.0868432,-0.0528187,-0.192238,-0.0642386,0.0641936,0.239375,-0.0173362,-0.0182592,0.0242481,-0.159688,-0.0197285,0.0994263,0.123418,-0.156066,0.000596031,0.0496702,-0.148291,-0.0320797,-0.0699592,-0.0934049,0.0377093,-0.0386188,0.184547,0.00987375,0.0477948,0.0785883,0.0468554,0.0948409,0.0436776,0.00877864,-0.049974,-0.118007,0.148675,-0.187757,-0.15025,-0.0783433,-0.000616475,0.0452899,-0.0162271,-0.0616823,-0.0100442,0.0163394,0.0176432,0.0226145
venue 0.0880045,0.203208,0.00758923,0.048602,-0.0743426,-0.0622489,-0.0178936,-0.0795393,0.00497916,0.0567681,-0.0289597,-0.119997,-0.216624,-0.0593128,0.0578873,0.109751,0.0912242,-0.115854,0.108615,-0.0946525,-0.143739,-0.0800728,0.11206,0.16326,0.0615809,-0.0277972,-0.0275626,0.0760398,-0.061438,-0.205788,-0.019111,0.000434651,-0.0688845,0.0646309,0.132844,0.00808932,-0.126868,0.194509,0.0630495,-0.00566858,-0.188562,-0.057718,-0.162679,-0.0137698,-0.0345564,-0.0644446,-0.0125538,0.0726122,0.158513,0.00591181,0.0528444,-0.0909086,-0.0676883,-0.10865,-0.0650546,-0.0266138,0.119776,-0.0906946,-0.166712,-0.0164079,0.0823385,0.260588,6.66097e-05,-0.00749816,0.0284912,-0.171147,-0.0573592,0.126076,0.172506,-0.18033,-0.0339006,0.00268319,-0.134873,-0.0717731,-0.0451779,-0.137827,0.0320714,-0.00385938,0.156844,-0.00803825,0.0884915,0.109621,0.037581,0.0858606,0.0246906,0.00967049,0.00182264,-0.136715,0.189143,-0.215677,-0.12292,-0.0690386,0.00577456,0.0453119,-0.00388567,-0.036868,-0.00323419,0.00164211,0.000778998,0.0386908
wednesday 0.100745,0.209684,0.038057,0.0695163,-0.0721598,-0.0920825,-0.0314535,-0.108675,0.0149628,0.0567262,-0.0639591,-0.167721,-0.192416,-0.0870225,0.0457952,0.0775589,0.155314,-0.114891,0.0568886,-0.0726211,-0.165018,-0.0806833,0.141197,0.178902,0.103175,-0.0512248,-0.0193374,0.0761096,-0.113426,-0.187297,-0.0179658,0.000808865,-0.0511722,0.112102,0.131917,0.0291873,-0.138061,0.180325,0.0891084,-0.0190304,-0.238358,-0.049419,-0.177243,-0.00152557,-0.0604464,-0.0430626,-0.0392587,0.0744596,0.125564,0.00605029,0.0391366,-0.114569,-0.0395347,-0.0603886,-0.0480332,-0.0382379,0.0983523,-0.0387585,-0.194325,-0.0535126,0.0605436,0.234348,-0.0344271,-0.0390617,0.0217536,-0.15403,-0.0323973,0.106513,0.130555,-0.156201,-0.00598833,0.0230659,-0.140178,-0.0418905,-0.0820956,-0.0987648,0.054991,-0.032371,0.185381,0.0192132,0.0708669,0.0785412,0.0483317,0.0819882,0.0485293,-0.0273839,-0.0403349,-0.0985304,0.145779,-0.187337,-0.137785,-0.0781378,-0.000793204,0.0259404,-0.0143133,-0.05454,0.00124047,0.0140929,0.0165138,0.0252519
crotch 0.108768,0.191891,0.0271468,0.0853329,-0.0798665,-0.0929349,-0.00345003,-0.0987382,0.0131936,0.0752671,-0.0720781,-0.162484,-0.172555,-0.0689546,0.0607369,0.0922156,0.12795,-0.123704,0.0363975,-0.0481859,-0.178234,-0.089835,0.0971728,0.153603,0.0801803,-0.037057,-0.0223831,0.111304,-0.133322,-0.157804,-0.0164679,0.0365594,-0.00881708,0.106497,0.117963,0.0401155,-0.103757,0.169201,0.0954976,0.00768906,-0.272191,-0.0354495,-0.134331,-0.0305671,-0.030237,-0.0782561,-0.0572715,0.0942006,0.158946,0.0194934,0.0567043,-0.12469,-0.0215719,-0.0634129,-0.00234372,-0.0215239,0.106154,-0.0622782,-0.234925,-0.100648,0.0474751,0.239467,-0.0439694,-0.0174801,0.0386722,-0.161517,-0.0598525,0.0930956,0.121032,-0.127749,0.00222552,-0.0036569,-0.149208,-0.0296657,-0.0504881,-0.118575,0.0217211,-0.0312999,0.158307,0.0347323,0.0835018,0.0538006,0.0421123,0.0733573,0.0236441,-0.0450032,-0.0355909,-0.13082,0.130995,-0.220117,-0.156027,-0.0796755,-0.0361164,0.0393973,0.00863206,-0.0487064,-0.0125151,0.0155007,0.0216716,0.0420956
eh 0.0851069,0.17561,0.00512238,0.0426361,-0.111782,-0.109328,-0.0501993,-0.0897174,0.0113298,0.071639,-0.0368804,-0.147686,-0.192786,-0.0699661,0.0268135,0.0344733,0.141456,-0.113418,0.0626427,-0.0880554,-0.198303,-0.0371723,0.111088,0.212622,0.0363908,-0.0369826,-0.0596085,0.0801741,-0.0660622,-0.188917,-0.0190283,0.00568607,-0.0654413,0.088797,0.131044,0.0132518,-0.164434,0.203869,0.0952176,0.0122219,-0.186269,-0.0532774,-0.142962,-0.0335909,-0.105919,-0.0549226,-0.0533005,0.0571967,0.111649,-0.0288231,0.064676,-0.139015,-0.0324817,-0.101451,-0.0471353,-0.0149676,0.0683731,-0.0243583,-0.181993,-0.0251148,0.0756927,0.258386,-0.0287254,-0.0230555,0.0129165,-0.154243,-0.0233411,0.117524,0.148189,-0.176148,-0.0368538,0.0593446,-0.124673,-0.0219472,-0.0980533,-0.110494,0.0812213,-0.0214929,0.150445,0.00959548,0.087123,0.115552,0.0276584,0.0933308,0.0290521,-0.0210937,-0.0589061,-0.0995712,0.181851,-0.190215,-0.107856,-0.108057,-0.00607783,0.00676475,0.018225,-0.0511033,-0.0194485,0.0348584,0.0163814,-0.011155
heading 0.0909968,0.214575,0.014861,0.0764265,-0.0686005,-0.0863468,-0.0152034,-0.0990472,0.00946036,0.0541405,-0.0510472,-0.157529,-0.179975,-0.0675661,0.044516,0.0680804,0.158645,-0.0937074,0.0592509,-0.0580234,-0.171032,-0.0650966,0.12213,0.175984,0.0796583,-0.0691372,-0.0267247,0.0808107,-0.113507,-0.183882,-0.00567769,0.0104432,-0.0260978,0.105227,0.109192,0.0396352,-0.138505,0.178055,0.085798,-0.0330613,-0.255589,-0.0476628,-0.176272,-0.0199358,-0.0519234,-0.0756991,-0.033027,0.0792205,0.147461,0.00590609,0.0508623,-0.112133,-0.0572777,-0.0575849,-0.0399161,-0.0430241,0.101368,-0.0626954,-0.207907,-0.0755372,0.0589516,0.231373,-0.0182967,-0.0459036,0.00982688,-0.168846,-0.0503999,0.104517,0.122232,-0.144413,-0.0131764,0.0395925,-0.151623,-0.0461618,-0.0639034,-0.0886473,0.0598128,-0.0363796,0.187327,0.0222047,0.0497145,0.0877294,0.0342895,0.0838789,0.0323728,-0.021037,-0.0286608,-0.109848,0.142539,-0.206875,-0.152769,-0.0792112,0.0052503,0.0389747,0.00636399,-0.0612196,0.0022851,0.0292694,0.00955915,0.00641631
clothes 0.0729311,0.183963,0.00558827,0.0716881,-0.0655788,-0.0595619,-0.0356906,-0.111588,0.00595092,0.0762175,-0.0537858,-0.123836,-0.196136,-0.0895075,0.0348575,0.0888523,0.0895467,-0.0771591,0.100489,-0.0449134,-0.160651,-0.0537945,0.179716,0.232778,0.0641338,-0.0842485,0.00846321,0.0695045,-0.111624,-0.150828,-0.0122211,-0.0454891,-0.0246993,0.100188,0.112175,0.055176,-0.184607,0.209957,0.0937981,-0.00334872,-0.204896,-0.0873481,-0.140319,0.0334926,-0.0730656,-0.0241389,-0.0370662,0.0982181,0.0979501,-0.00251333,0.0383227,-0.117001,-0.0259855,-0.0514709,-0.0572472,-0.0722127,0.0748331,-0.0311646,-0.133165,-0.0369217,0.0723055,0.254151,0.00681765,0.00408768,0.0520893,-0.132335,-0.0395621,0.119295,0.144276,-0.143879,-0.0251118,0.0689577,-0.155971,-0.0703497,-0.0218183,-0.130692,0.0690505,-0.0620968,0.186131,-0.00325788,0.0841949,0.0876538,0.0799105,0.113922,0.0111907,0.00931195,-0.000732445,-0.136021,0.193645,-0.16917,-0.146625,-0.0514928,0.0393043,0.0043135,0.00399376,-0.0768598,0.0033414,-0.0436967,0.00623224,0.0357523
enjoy 0.0727855,0.207593,0.0157882,0.0729394,-0.0618774,-0.0710562,-0.0284187,-0.123946,0.00627733,0.0675661,-0.0519495,-0.150565,-0.183057,-0.0563113,0.0380026,0.0739044,0.155928,-0.0865689,0.0724538,-0.0783771,-0.161974,-0.0618255,0.130749,0.185816,0.0790334,-0.0690067,-0.0259907,0.0764413,-0.114144,-0.164942,-0.00877443,-0.00293021,-0.0447328,0.0908596,0.12353,0.0415655,-0.132491,0.179155,0.0706638,-0.0200917,-0.241759,-0.0520434,-0.155859,-0.00334454,-0.0573677,-0.0499297,-0.0515192,0.0764802,0.150353,0.0256298,0.0338154,-0.11568,-0.054606,-0.0677439,-0.0495874,-0.0458585,0.100348,-0.0340306,-0.222048,-0.0661801,0.0592129,0.241875,-0.019401,-0.0433033,0.0359581,-0.164857,-0.0336605,0.103783,0.144697,-0.134204,0.00698527,0.0390834,-0.143722,-0.0553366,-0.0802268,-0.103759,0.0581785,-0.0418045,0.184503,0.0117435,0.0729914,0.0827991,0.0357985,0.0878755,0.0373144,-0.00778985,-0.05001,-0.107625,0.153488,-0.218938,-0.15381,-0.0822406,-0.000209872,0.0303934,-0.0165596,-0.0504339,-0.00244131,0.00420155,0.00585427,0.000519843
tired 0.0901313,0.192035,0.0350656,0.0773542,-0.0766593,-0.0859173,-0.0231455,-0.108756,0.0211127,0.0655181,-0.056997,-0.155993,-0.191695,-0.0777093,0.0378761,0.0827836,0.136014,-0.0956374,0.0733071,-0.055345,-0.186494,-0.0693128,0.142681,0.198324,0.0824769,-0.0566228,-0.0262245,0.0902182,-0.09371,-0.179936,-0.0091713,-0.00419899,-0.0378746,0.107013,0.128653,0.0234027,-0.131161,0.181907,0.0785819,-0.0190668,-0.2326,-0.0543386,-0.167716,-0.00906101,-0.0700647,-0.0478095,-0.0453166,0.08532,0.13458,0.00444185,0.0379125,-0.134879,-0.0555666,-0.0750978,-0.0395238,-0.0555034,0.0948889,-0.0526164,-0.196198,-0.0549232,0.0673236,0.236367,-0.0235924,-0.0281674,0.0160981,-0.15228,-0.0248743,0.0935392,0.140709,-0.148749,-0.00357743,0.0429123,-0.15045,-0.0414191,-0.0751676,-0.0994736,0.0496441,-0.0418906,0.187698,0.0103237,0.063188,0.0871947,0.0311024,0.0824646,0.0438471,-0.00400428,-0.0324353,-0.110071,0.163428,-0.198955,-0.139967,-0.0927387,0.00585266,0.0322082,-0.00685262,-0.0471494,0.005745,0.00179287,0.0105107,0.00694755
direct 0.113015,0.193468,0.0183275,0.101504,-0.0584797,-0.0460127,0.00251464,-0.113782,0.026018,0.0193246,-0.0264881,-0.176729,-0.19439,-0.0487758,0.0404715,0.11791,0.170173,-0.128475,0.0297955,-0.0641134,-0.176193,-0.106251,0.121308,0.154245,0.117232,-0.0510133,-0.0628678,0.126504,-0.129051,-0.13191,-0.0129067,-0.0211646,-0.0762748,0.0845322,0.106316,0.0598789,-0.0973456,0.156397,0.0457071,0.0132391,-0.225529,-0.0520231,-0.144348,-0.0223031,-0.0728808,-0.0338941,-0.0627104,0.115895,0.141783,0.0305191,0.0331488,-0.120042,-0.0154958,-0.0309688,-0.0703833,-0.0273346,0.114463,-0.0236615,-0.234625,-0.100264,0.0915479,0.194634,-0.0614701,-0.0128868,-0.00621685,-0.179803,-0.0131045,0.105709,0.130521,-0.172471,0.0250573,0.0245266,-0.132273,-0.0885886,-0.0750199,-0.127455,0.0801053,-0.0248874,0.141229,0.0573067,0.0940711,0.0674424,0.0230153,0.040495,0.0197343,0.0124445,-0.0216997,-0.107932,0.160315,-0.216264,-0.10885,-0.0981664,-0.00859418,0.0040285,0.0180138,-0.0443356,0.0226857,-0.0135165,0.00553709,0.00159824
cameron 0.113466,0.0438856,0.105797,0.142536,-0.133105,-0.0542208,0.0159229,-0.0433363,0.089421,0.159724,0.00361135,-0.165552,-0.236364,-0.0389334,-0.015406,-0.0573994,0.0260664,-0.106941,0.215164,-0.0585264,-0.168795,-0.0475495,0.11584,0.160979,-0.0890969,-0.145266,-0.010094,0.147794,-0.0195593,-0.164776,0.0910268,-0.147273,-0.115096,0.0986617,0.0914608,0.0202938,-0.163501,0.231807,-0.0169372,0.0361051,-0.163769,-0.0444616,-0.0719412,-0.00486737,-0.0256587,0.0617008,-0.0400073,0.107918,0.0380201,-0.0739342,0.0730272,-0.163971,-0.0815168,-0.0132109,-0.0228636,-0.0299398,0.00825591,-0.0959033,-0.0454782,0.114657,0.122799,0.185907,0.0852875,0.0276695,0.00412472,-0.0658794,0.0432757,0.128812,0.0808405,-0.161002,-0.0398852,0.138979,-0.103517,0.0659193,-0.0621039,-0.135832,0.0284945,-0.00860684,0.0808676,-0.0744211,0.0510656,0.112191,0.0456557,0.0557467,0.0246001,0.00962766,0.0752818,-0.166067,0.193497,0.0423022,-0.0498732,0.0544321,-0.0136653,0.0113753,-0.023143,-0.0654092,0.00245909,-0.0910574,0.170187,-0.0752707
second 0.0942322,0.17818,0.0339121,0.0536986,-0.0915828,-0.0788197,-0.0167355,-0.109671,0.0179763,0.0751293,-0.0279137,-0.18136,-0.199327,-0.0768425,0.03353,0.0957084,0.132094,-0.122144,0.0741175,-0.0407034,-0.16127,-0.0596108,0.135457,0.219315,0.0746591,-0.0677324,-0.00396909,0.0969167,-0.111766,-0.16855,0.00788416,0.0168584,-0.0606507,0.0851093,0.117029,0.0154255,-0.141263,0.187472,0.0672189,-0.0242376,-0.243785,-0.0506176,-0.144747,-0.0213002,-0.0740003,-0.0504073,-0.0235313,0.0875234,0.115286,0.00149844,0.045101,-0.148833,-0.0380469,-0.0671918,-0.0476049,-0.0632299,0.114403,-0.0460396,-0.179544,-0.0360015,0.0705101,0.229364,-0.0207571,-0.0360029,0.0352648,-0.124957,-0.0173085,0.117178,0.157642,-0.1322,-0.0127779,0.0302815,-0.135609,-0.0342479,-0.0743623,-0.115891,0.0225626,-0.0478001,0.206661,0.00626323,0.0861953,0.0922837,0.0290998,0.0877524,0.0279764,0.00519457,-0.0561547,-0.140013,0.163236,-0.173013,-0.116051,-0.110943,-0.0103686,0.0154394,-0.0269737,-0.0582701,0.000438591,0.0066042,0.0281515,-0.00150841
street 0.0884915,0.209109,0.0320423,0.0648638,-0.076877,-0.0714119,-0.0329257,-0.11803,0.0246347,0.0736509,-0.0365519,-0.161019,-0.203326,-0.0794005,0.0277882,0.0819918,0.145009,-0.0859266,0.0723539,-0.0701406,-0.165501,-0.0539578,0.151905,0.189173,0.0909397,-0.0610991,-0.0288147,0.0835428,-0.105169,-0.169296,0.00217128,-0.0106169,-0.0374848,0.0938061,0.135452,0.0285088,-0.139931,0.180972,0.0785698,-0.0146657,-0.235758,-0.0733583,-0.148297,-0.00562052,-0.078067,-0.0488737,-0.0591545,0.0753826,0.117305,0.0198761,0.0319943,-0.130188,-0.0555427,-0.0822052,-0.0481651,-0.0454618,0.0875073,-0.0494349,-0.19265,-0.0480887,0.0716107,0.229187,-0.0261088,-0.0194158,0.021897,-0.155545,-0.0210167,0.104156,0.125498,-0.162359,0.00347544,0.0499683,-0.14547,-0.0604789,-0.05873,-0.113183,0.032986,-0.0567665,0.173088,-0.00274003,0.0674891,0.104625,0.0348779,0.0917131,0.0480936,0.00564228,-0.0259668,-0.127633,0.163699,-0.200562,-0.145656,-0.0760083,-0.00103123,0.0241111,0.00224659,-0.0447285,-0.00319583,-0.00017989,0.0244356,0.0210749
chucklin 0.0786726,0.192925,0.0274741,0.0686607,-0.0739003,-0.0921544,-0.0227987,-0.110165,0.0162109,0.0651405,-0.0568554,-0.166775,-0.200184,-0.0822597,0.0332553,0.0800604,0.142606,-0.0925731,0.0726101,-0.0592259,-0.174391,-0.0644404,0.148664,0.199824,0.0682825,-0.0730368,-0.0202271,0.103954,-0.0930665,-0.175344,0.00286577,-0.00285033,-0.0528855,0.109566,0.137737,0.0234685,-0.14119,0.181999,0.0723098,-0.0103994,-0.240977,-0.0607949,-0.15589,-0.0128869,-0.0743726,-0.0376348,-0.0515254,0.0812268,0.125357,-0.00287577,0.0404812,-0.127589,-0.0573093,-0.0721589,-0.0366534,-0.0625656,0.0841332,-0.0587498,-0.196684,-0.0543097,0.0640084,0.23465,-0.0205796,-0.0149415,0.0105014,-0.149774,-0.0199068,0.0860971,0.139667,-0.167281,-0.00818023,0.0443629,-0.155313,-0.041088,-0.0604151,-0.0978324,0.0439745,-0.0371453,0.181278,0.0105654,0.05682,0.0863604,0.0452281,0.0796436,0.0459047,0.00349072,-0.0246932,-0.116429,0.153524,-0.194652,-0.139731,-0.0952308,0.00641869,0.0206379,-0.0221538,-0.0477982,-0.00811938,-0.00763073,0.0291548,0.0187283
buzz 0.0767233,0.201024,0.0356776,0.0713678,-0.0804612,-0.0772045,-0.0235824,-0.112522,0.00864865,0.0648767,-0.046813,-0.163003,-0.19795,-0.0777217,0.0329467,0.0832795,0.135827,-0.0914125,0.0656581,-0.0724664,-0.180759,-0.0702433,0.144545,0.182378,0.0855074,-0.056169,-0.0250983,0.0923464,-0.0950164,-0.183825,-0.00533646,0.00128655,-0.0456018,0.0986315,0.121602,0.0277665,-0.131068,0.182677,0.0797156,-0.0194386,-0.245798,-0.0479505,-0.171942,-0.0169877,-0.0784512,-0.0518543,-0.0450885,0.0862312,0.134406,0.0131883,0.0473063,-0.13032,-0.0433166,-0.0783353,-0.031139,-0.0579532,0.0968233,-0.0616993,-0.196616,-0.0621447,0.0625215,0.23421,-0.0180943,-0.0325955,0.0161118,-0.139807,-0.0265202,0.105245,0.134326,-0.155134,0.0020829,0.0337973,-0.159183,-0.0505326,-0.070133,-0.0971147,0.0535513,-0.0444804,0.181115,0.0113251,0.061814,0.0969597,0.0251734,0.0808064,0.0384257,-0.0126745,-0.0458464,-0.119211,0.160321,-0.188429,-0.138942,-0.078509,-0.00270887,0.02435,0.000512414,-0.0525817,-0.00114711,0.00190719,0.00464566,0.0183656
even 0.0848518,0.20397,0.0223226,0.0710052,-0.074748,-0.0835937,-0.0166071,-0.10501,0.00944805,0.0582105,-0.0639625,-0.166183,-0.182273,-0.0729579,0.0475777,0.0816689,0.149393,-0.101765,0.0661527,-0.0716956,-0.175624,-0.068065,0.132119,0.180436,0.0925142,-0.0533434,-0.0382278,0.0846912,-0.106372,-0.177981,-0.0102975,0.017653,-0.0374108,0.0993963,0.119635,0.0237762,-0.125194,0.168723,0.0785123,-0.0216383,-0.253613,-0.0518334,-0.164168,-0.0155835,-0.0605008,-0.0608881,-0.0392394,0.0895344,0.142864,0.0119304,0.0444344,-0.126491,-0.0439664,-0.0622223,-0.0343336,-0.0547003,0.090136,-0.0507745,-0.218535,-0.0783297,0.0599049,0.224626,-0.0280695,-0.0383455,0.0229635,-0.155683,-0.0411741,0.0943624,0.135387,-0.140106,-0.00267939,0.0313668,-0.147293,-0.0494346,-0.0734947,-0.101522,0.0449597,-0.0503182,0.184975,0.0256663,0.0573156,0.0868165,0.0248549,0.0727323,0.0462504,-0.016026,-0.0429571,-0.11308,0.149227,-0.215787,-0.14597,-0.0920704,-0.00798966,0.0431653,-0.00176637,-0.0439342,0.00460159,0.0211447,0.00236858,0.0151585
errors 0.0838503,0.234712,0.0375312,0.0636696,-0.121856,-0.091333,0.00779021,-0.139242,0.00454529,0.0688951,-0.0273524,-0.134608,-0.181511,-0.0553368,0.0441178,0.124978,0.124986,-0.054699,0.0705461,-0.105151,-0.125509,-0.10921,0.157713,0.179218,0.104835,-0.0464383,-0.000134494,0.129193,-0.0810508,-0.190777,-0.0552481,0.0233609,-0.0544755,0.101929,0.135294,0.0446299,-0.0680337,0.111754,0.03052,0.00635423,-0.226711,-0.0250739,-0.121567,-0.00720589,-0.0394983,-0.0919916,-0.0316569,0.0620196,0.173294,0.0300006,0.0863151,-0.154503,0.00251529,-0.0138388,-0.0384913,-0.0070841,0.135673,-0.0850356,-0.180374,-0.0588228,0.0702991,0.185996,-0.0461615,-0.086339,0.0473133,-0.157609,-0.0166734,0.140181,0.103026,-0.089219,-0.00421111,0.0136251,-0.172399,-0.0462944,-0.0610449,-0.11325,0.00266032,-0.00839563,0.179656,0.0584424,0.0167664,0.0786661,0.00735327,0.0566299,0.0953248,-0.0246677,-0.056539,-0.112698,0.129245,-0.228461,-0.180261,-0.111416,-0.0287395,0.00106724,-0.0147532,-0.058632,0.0187391,0.0639032,0.0226918,-0.0103957
saved 0.0402563,0.172862,0.0167437,0.113914,-0.0459187,-0.103368,-0.00312956,-0.0981591,0.0223558,0.0352635,-0.0327324,-0.143217,-0.211223,-0.0538024,0.0517583,0.0603195,0.146466,-0.130146,0.121337,-0.0265652,-0.165242,-0.101272,0.126799,0.196919,0.0938033,-0.0550054,-0.0465422,0.0768542,-0.107178,-0.152117,-0.0258327,-0.00952682,-0.0351629,0.080031,0.160915,0.0169319,-0.161808,0.201041,0.100667,-0.015701,-0.239113,-0.0942906,-0.122047,0.0112505,-0.105266,-0.0494576,-0.0792848,0.0596215,0.133256,-0.0360763,-0.00353977,-0.0847052,-0.0797377,-0.0689119,-0.0543081,-0.0540697,0.0809734,-0.0499382,-0.141129,-0.0116929,0.0534925,0.223979,0.0154822,-0.0328345,0.0475375,-0.120196,-0.0151599,0.119025,0.162458,-0.144809,0.00352374,0.0169874,-0.178694,-0.0139611,-0.061307,-0.113925,0.0715445,-0.0231946,0.1991,-0.0260131,0.0801396,0.0658158,0.0698934,0.0773363,0.00851119,-0.0169456,-0.0177377,-0.143351,0.179445,-0.201593,-0.0841802,-0.0565797,0.0198041,0.00336363,-0.033799,-0.0771753,-0.0377823,0.0075148,0.0461932,0.0387684
panama 0.0563737,0.20377,0.0209581,0.0804527,-0.0540005,-0.0778177,-0.0206882,-0.131555,0.0180826,0.0374716,-0.030058,-0.155301,-0.190091,-0.0587136,0.0183568,0.0450917,0.115403,-0.112525,0.0980085,-0.0654898,-0.179922,-0.0419883,0.127149,0.175937,0.0952257,-0.0500866,-0.0442141,0.0681188,-0.103939,-0.177867,-0.0154687,0.0174054,-0.0127126,0.110023,0.127793,0.0451475,-0.156486,0.183109,0.0608153,-0.0474566,-0.253846,-0.0294086,-0.183344,-0.0301581,-0.0954213,-0.0359327,-0.0651805,0.0701241,0.106593,0.0125934,0.0211492,-0.123147,-0.0280072,-0.0648368,-0.00782904,-0.0733654,0.0827078,-0.0685007,-0.210152,-0.0367104,0.0784825,0.229645,-0.00452497,-0.0257307,0.0220822,-0.160866,-0.0409096,0.106389,0.160216,-0.144041,-0.0159425,0.0394736,-0.170306,-0.0294351,-0.0905246,-0.10423,0.0627729,-0.0545429,0.178295,0.0221589,0.0552065,0.0890271,0.02712,0.0657445,0.0572266,0.00899144,-0.0315336,-0.12227,0.136878,-0.202457,-0.141984,-0.0731574,0.00127666,0.0342294,-0.0347059,-0.0428239,0.025474,-0.0122578,0.0219702,0.0271798
cooking 0.080391,0.187472,0.0408885,0.0892567,-0.0931816,-0.0854525,-0.0110821,-0.109594,0.00632853,0.0556154,-0.0564445,-0.172359,-0.185322,-0.0855404,0.0313721,0.0682768,0.146834,-0.106002,0.0725356,-0.051649,-0.195395,-0.0741298,0.154821,0.191972,0.0657234,-0.0780729,-0.0352438,0.0799136,-0.0881197,-0.166163,0.000399272,0.00489835,-0.0337474,0.109506,0.124101,0.0313579,-0.135437,0.177039,0.0807598,-0.0103646,-0.247061,-0.0720879,-0.173604,-0.0180727,-0.0876855,-0.0553122,-0.0480703,0.0874474,0.110614,0.0131856,0.0502723,-0.116721,-0.0645911,-0.0686896,-0.0516478,-0.0417517,0.0982734,-0.0497766,-0.182591,-0.0592848,0.0603474,0.221994,-0.00871396,-0.0201754,0.0156774,-0.149359,-0.0392924,0.0995377,0.137935,-0.148942,0.00551494,0.0441625,-0.159061,-0.0385213,-0.0598691,-0.111257,0.0401481,-0.0510584,0.196163,-0.00915263,0.0590757,0.101882,0.0439604,0.093561,0.0286694,0.000544259,-0.0283966,-0.11428,0.163725,-0.189209,-0.120697,-0.0916885,0.0185215,0.0219308,-0.0103362,-0.0488579,0.00843276,-0.0108536,0.00485205,0.00769024
fingers 0.0972258,0.190273,0.0353704,0.0924427,-0.091067,-0.0720591,-0.0124133,-0.115783,0.0276043,0.0792978,-0.0330441,-0.151652,-0.205916,-0.0868219,0.0274771,0.059462,0.132702,-0.108835,0.104822,-0.0407168,-0.190304,-0.0667944,0.153365,0.200059,0.0521396,-0.0743984,-0.0116083,0.0904828,-0.0933114,-0.171232,0.00435875,-0.0268577,-0.0428004,0.115278,0.143784,0.0225712,-0.147308,0.187112,0.0819795,-0.00849288,-0.219311,-0.0816518,-0.147105,0.0165253,-0.0758667,-0.0364423,-0.0522787,0.0977595,0.113998,-0.000731327,0.0289791,-0.136457,-0.0613508,-0.0651037,-0.0417386,-0.0673969,0.0787641,-0.0478364,-0.178104,-0.033809,0.0751577,0.247495,-0.0136617,-0.00876685,0.0218503,-0.13984,-0.022242,0.092259,0.13425,-0.161413,-0.00230734,0.0444764,-0.149893,-0.0395259,-0.0592972,-0.111314,0.0460174,-0.0341917,0.190607,-0.00940975,0.0648171,0.10426,0.0506983,0.0980407,0.0224132,0.00616777,-0.0153281,-0.136142,0.171962,-0.157827,-0.120827,-0.0692728,0.00810913,0.0210141,-0.013531,-0.0487756,-0.00235086,-0.020088,0.0257569,0.00374185
lights -0.122241,-0.0555854,-0.0493825,-0.0798632,0.144489,0.0881221,-0.045249,0.109404,-0.0285868,-0.0942609,0.0107715,0.10486,0.179309,0.120986,-0.101384,-0.0771321,-0.0166966,0.0493529,-0.111213,0.00797215,0.184169,0.0841955,-0.102162,-0.24608,-0.0151962,0.121792,0.0331484,-0.0275116,0.0768571,0.129737,0.0662519,-0.0518135,0.0107768,-0.0881286,-0.149387,-0.0309352,0.181944,-0.165998,-0.0669921,0.0390304,0.17917,0.0919173,0.0473525,0.0665755,0.0184811,0.0492641,0.120411,0.0128244,-0.124288,-0.0347312,0.0317737,0.0959231,0.0510626,0.115391,-0.0262036,0.0967846,-0.123099,0.025584,0.155929,0.00897973,0.000396984,-0.280651,-0.00618786,-0.088373,0.0241962,0.0981974,0.031727,-0.105401,-0.190276,0.106991,0.0816243,-0.0196286,0.138744,0.00922912,0.0206303,0.0847586,-0.115342,-0.0316419,-0.210385,-0.00134252,-0.117974,-0.165967,-0.102689,-0.114597,-0.045783,-0.0565842,-0.0594378,0.0452842,-0.108432,0.131586,0.111268,0.0412217,-0.101353,0.0301364,0.11789,0.0189963,0.0853429,-0.0314064,-0.122612,0.0128844
above 0.104287,0.210509,0.0671975,0.0926791,-0.0714755,-0.0671159,-0.0146473,-0.140463,0.0433266,0.0852951,0.00630912,-0.11457,-0.222144,-0.112559,0.0341299,0.0964159,0.134845,-0.0589389,0.0922527,-0.0317882,-0.141892,-0.0627514,0.193251,0.208086,0.00925083,-0.0655812,-0.0466404,0.0862062,-0.0654544,-0.154685,-0.00041303,-0.0554667,-0.0599916,0.131407,0.13272,-0.0145847,-0.130039,0.161506,0.084972,0.00943142,-0.157078,-0.115384,-0.186021,0.00137019,-0.0823976,-0.00739108,-0.0582966,0.0987999,0.130232,-0.0274859,0.00534921,-0.152062,-0.0438208,-0.0312906,-0.0573834,-0.0794122,0.0521538,-0.0455755,-0.175612,-0.0595546,0.0499239,0.186134,-0.0263956,-0.038456,0.0251568,-0.158581,-0.0438209,0.0802514,0.115694,-0.209746,-0.0389596,0.0470131,-0.132366,-0.0406335,-0.0248888,-0.154684,0.0698128,-0.0613579,0.162104,-0.024387,0.0885335,0.0687699,0.068839,0.0896878,0.00813669,0.0560049,-0.0274958,-0.165437,0.167147,-0.121661,-0.138835,-0.102729,0.0576431,0.00604905,-0.0475068,-0.0249517,0.0303529,-0.028156,0.0200481,-0.0252619
new 0.0867209,0.195237,0.0305716,0.0791878,-0.0792194,-0.0828631,-0.0191427,-0.115412,0.0185393,0.0689482,-0.0464404,-0.160188,-0.195175,-0.080125,0.0358204,0.0748759,0.133775,-0.101852,0.0824306,-0.0597352,-0.182968,-0.0654453,0.14474,0.197605,0.0762461,-0.0664338,-0.0231056,0.0933689,-0.097353,-0.176034,0.000473915,-0.00587175,-0.0464973,0.110348,0.130394,0.0235974,-0.136978,0.18289,0.0736723,-0.0173911,-0.23478,-0.0626696,-0.162076,-0.00488615,-0.0734821,-0.0482784,-0.0492803,0.08847,0.123986,0.00589991,0.0420837,-0.129412,-0.0540913,-0.0701189,-0.0367223,-0.0570218,0.0894623,-0.0557474,-0.193367,-0.0540083,0.0651206,0.234976,-0.0201564,-0.0222565,0.0205335,-0.145279,-0.0264917,0.097517,0.140037,-0.157196,-0.0039191,0.0458452,-0.15588,-0.0444908,-0.0677806,-0.107323,0.0451772,-0.0430004,0.187622,0.00143571,0.0627527,0.0926377,0.0386763,0.0871708,0.0392383,-0.00433544,-0.0306015,-0.118547,0.162848,-0.185906,-0.133401,-0.0841275,0.00478229,0.0269644,-0.0150018,-0.0559469,-0.00337039,0.00202591,0.0193773,0.00753735
net 0.0710243,0.184515,0.0162543,0.0801249,-0.0942202,-0.085704,-0.0141677,-0.129767,0.00296506,0.0678381,-0.0456954,-0.157692,-0.182092,-0.0913629,0.019478,0.0846284,0.132429,-0.10296,0.097909,-0.0536142,-0.168219,-0.0731334,0.155999,0.182651,0.0803495,-0.0528293,-0.0129061,0.0912545,-0.0847314,-0.160195,-0.00447603,-0.0232658,-0.0501376,0.096068,0.13054,0.0228391,-0.132149,0.189749,0.0739667,-0.0341126,-0.236311,-0.0664801,-0.149233,-0.0169676,-0.0742961,-0.0610009,-0.063224,0.0931372,0.134312,-0.00419883,0.0297505,-0.135677,-0.0680271,-0.0813285,-0.0358366,-0.0442679,0.102983,-0.0516328,-0.180496,-0.0494231,0.0709331,0.245878,-0.00634889,-0.00347412,0.0146509,-0.149528,-0.021023,0.0851096,0.158124,-0.15089,-0.0146823,0.0437749,-0.162289,-0.0402044,-0.0665519,-0.112316,0.0391673,-0.0339306,0.203396,-0.00893137,0.0647848,0.0854701,0.0534453,0.0882865,0.0446465,0.011333,-0.039873,-0.113011,0.167858,-0.178258,-0.132096,-0.0784081,0.00441473,0.0213051,-0.00264296,-0.0686348,-0.0132874,0.003232,0.0228995,-0.00838103
carpet 0.06442,0.214996,0.0333772,0.0964099,-0.0846824,-0.0945496,0.00720149,-0.114863,0.0317438,0.0281429,-0.0678018,-0.156317,-0.198149,-0.0598127,0.0104991,0.0801499,0.177343,-0.071934,0.0452542,-0.0386839,-0.14424,-0.0936992,0.147316,0.178608,0.0923989,-0.0813163,-0.0694664,0.092585,-0.114316,-0.164526,0.00330605,-0.0147482,-0.0646832,0.120681,0.0901599,0.00878808,-0.111359,0.161161,0.0868532,0.0114105,-0.265606,-0.0200248,-0.147201,-0.0060764,-0.0307006,-0.0758436,-0.0305938,0.101284,0.144911,0.0186113,0.0289682,-0.102821,-0.0729723,-0.0541775,-0.0098459,-0.0360222,0.100092,-0.0281097,-0.207835,-0.0877467,0.0536414,0.214847,-0.00197577,-0.0598871,0.0302565,-0.145925,-0.0323355,0.0972702,0.116645,-0.15734,0.0214375,0.000631982,-0.161063,-0.0270195,-0.0767524,-0.119217,0.0183973,-0.0666413,0.205682,0.0338406,0.0695153,0.0673085,0.056281,0.0952464,0.0501258,-0.0220026,-0.0534643,-0.097296,0.114879,-0.215051,-0.125478,-0.112506,-0.0358251,0.0210249,0.0230031,-0.0252972,0.00750926,0.0447957,0.0242053,0.0155893
ever 0.0881601,0.199805,0.027329,0.0781391,-0.0804129,-0.0836228,-0.0238004,-0.115262,0.0204007,0.0658393,-0.0464697,-0.16087,-0.197785,-0.0823227,0.0356347,0.0747327,0.135614,-0.10334,0.0814588,-0.055762,-0.18385,-0.0705831,0.139115,0.195831,0.0766578,-0.0682334,-0.0256115,0.0902218,-0.0983715,-0.174716,-0.00139484,-0.010069,-0.0488151,0.1109,0.127373,0.0277703,-0.137782,0.182567,0.0767222,-0.0173355,-0.232123,-0.0636371,-0.163062,-0.00576089,-0.0712706,-0.047868,-0.0497086,0.0891452,0.120749,0.00878925,0.0431132,-0.134429,-0.0528484,-0.0744436,-0.0363641,-0.0539517,0.0915639,-0.0527561,-0.196582,-0.0555434,0.0659273,0.229943,-0.021983,-0.025516,0.0253575,-0.143242,-0.0314111,0.095254,0.141177,-0.153515,-0.00840269,0.0492609,-0.159412,-0.0478038,-0.0638664,-0.105347,0.0450913,-0.0443483,0.184111,0.00204128,0.0652239,0.0945355,0.0417375,0.0838776,0.035609,6.29049e-05,-0.0272946,-0.124333,0.158176,-0.183706,-0.13454,-0.0854823,0.00202077,0.0307338,-0.0143918,-0.0584973,-0.00503703,0.00244699,0.0208795,0.00940984
told 0.086452,0.203218,0.0293312,0.0735373,-0.0839936,-0.0865139,-0.0136354,-0.10085,0.00670501,0.0491238,-0.0660796,-0.160653,-0.186675,-0.0680532,0.0382721,0.0890732,0.149175,-0.0931885,0.0636011,-0.0663909,-0.173243,-0.0783887,0.130277,0.18834,0.10107,-0.0619903,-0.0304819,0.091399,-0.103794,-0.175417,-0.00312739,0.0114208,-0.0320823,0.0963439,0.121443,0.0317053,-0.116498,0.165804,0.0802394,-0.0223027,-0.25156,-0.0430062,-0.160228,-0.0131822,-0.0682899,-0.0648248,-0.0404451,0.0901825,0.141506,0.0152056,0.0440178,-0.127096,-0.0522672,-0.0615777,-0.0267519,-0.049682,0.0974087,-0.0500763,-0.222699,-0.0782319,0.0589821,0.230642,-0.0218562,-0.0384324,0.0204259,-0.149287,-0.0412959,0.102776,0.132372,-0.137466,0.0019372,0.0292028,-0.150397,-0.0443716,-0.0758737,-0.105754,0.0497017,-0.0441141,0.184426,0.0211174,0.0675992,0.0772114,0.0313083,0.0711547,0.0525762,-0.0254218,-0.0395461,-0.108536,0.147162,-0.208147,-0.149305,-0.0957015,-0.0111474,0.0485653,-0.00104842,-0.0447443,0.00972368,0.0105406,-0.00310822,0.0186931
poohpot 0.0634783,0.217257,0.00708479,0.0660923,-0.0941162,-0.103649,-0.00063666,-0.0972102,0.0290885,0.0854081,-0.0391509,-0.171364,-0.177118,-0.0597795,0.0595197,0.0905424,0.113822,-0.0994235,0.0745405,-0.0493703,-0.184453,-0.0572361,0.147768,0.177339,0.0765046,-0.0781216,-0.0206912,0.0746118,-0.116294,-0.185881,0.0164386,-0.0035758,-0.0426369,0.09167,0.110548,0.0120821,-0.138024,0.17975,0.0620448,-0.00321043,-0.234557,-0.0545034,-0.174249,-0.00840369,-0.064785,-0.0484873,-0.0553082,0.0987237,0.139724,0.0180754,0.0610675,-0.14276,-0.0504576,-0.0701779,-0.0550201,-0.0336987,0.0679976,-0.0484007,-0.195206,-0.0539676,0.0504904,0.211823,-0.00743906,-0.0200762,0.0296966,-0.121347,-0.0289689,0.0781175,0.162732,-0.157518,-0.0148918,0.0672962,-0.157132,-0.0465317,-0.0688326,-0.0868681,0.065819,-0.0431445,0.205016,-0.00818081,0.081334,0.113602,0.0369298,0.088181,0.0188554,-0.00939637,-0.013734,-0.103026,0.180043,-0.200385,-0.129462,-0.0710359,-0.0126881,0.00524456,-0.0341482,-0.0528453,0.0163131,0.00751214,0.00340775,0.00479487
kicked 0.0759587,0.217679,0.0298958,0.0663796,-0.0858316,-0.0811455,-0.0191487,-0.118704,0.00842257,0.063166,-0.0475677,-0.175247,-0.195122,-0.0707647,0.0417687,0.0824716,0.130686,-0.0855934,0.05753,-0.0635103,-0.169286,-0.060777,0.131951,0.197413,0.103304,-0.060642,-0.0414281,0.0762834,-0.113321,-0.167753,-0.00224778,0.0201795,-0.0381833,0.0861056,0.11641,0.0374111,-0.116455,0.163821,0.090944,-0.0286004,-0.247741,-0.0400189,-0.154422,-0.00674751,-0.0689768,-0.070505,-0.0285767,0.0807384,0.135515,0.0232339,0.0382528,-0.115657,-0.035768,-0.066099,-0.0208059,-0.0386131,0.0898725,-0.0651758,-0.195697,-0.0521547,0.0553417,0.239335,-0.0146345,-0.0245728,0.0202662,-0.159571,-0.0482112,0.0806568,0.134485,-0.152878,-0.00330566,0.0440908,-0.140444,-0.0616586,-0.0829536,-0.108675,0.0359754,-0.0379072,0.189951,0.017088,0.0568833,0.102409,0.0348142,0.087256,0.0467965,-0.0255099,-0.0420837,-0.12972,0.171006,-0.207099,-0.135303,-0.0949447,-0.0023717,0.0540353,-0.0149997,-0.034779,-0.0100641,0.0172985,0.00263349,-0.0006074
mea 0.0671289,0.229851,0.0211464,0.0839676,-0.11078,-0.030022,-0.0128829,-0.149703,0.0392887,0.0632998,-0.0112092,-0.186957,-0.182897,-0.0478788,0.0937944,0.0719896,0.139313,-0.136372,0.105042,-0.040713,-0.144316,-0.0319067,0.111878,0.162791,0.0888397,-0.0165756,-0.034317,0.105515,-0.0632165,-0.15067,-0.0544182,0.041005,-0.0588497,0.0578978,0.0896767,-0.0175842,-0.148772,0.142398,0.028738,-0.00852966,-0.269586,-0.0932168,-0.192564,-0.00668094,-0.0153438,-0.0453398,0.0158923,0.0385659,0.0858535,-0.0197665,0.0720809,-0.115223,-0.0910345,-0.0254792,-0.0234104,-0.0573056,0.0687828,-0.0659467,-0.214535,-0.0885496,0.0308218,0.256702,-0.0400973,-0.0240797,0.0627243,-0.111424,-0.0705348,0.086935,0.0899773,-0.116406,-0.0333615,0.0330095,-0.0894645,-0.0345919,-0.111101,-0.137682,0.0577882,-0.0238611,0.222676,0.0408164,0.0993466,0.0893163,0.011552,0.0408329,0.0934697,-0.0243552,-0.00525395,-0.0910773,0.146077,-0.179077,-0.179067,-0.0976562,-0.0399256,0.0757416,-0.0302058,-0.00592989,0.0257371,0.0616729,-0.0150547,0.00562042
pancakes 0.080755,0.197678,0.0364916,0.0644295,-0.0713797,-0.0765473,-0.0192713,-0.114109,0.0195217,0.0684778,-0.0673671,-0.157757,-0.181375,-0.0678888,0.0346896,0.0759121,0.135567,-0.102872,0.0648369,-0.0673072,-0.184156,-0.0628374,0.12936,0.177917,0.0894041,-0.0585995,-0.0241798,0.1005,-0.11511,-0.180513,-0.0105912,0.00397419,-0.0418761,0.10607,0.120877,0.0149857,-0.126077,0.178843,0.0859951,-0.0208695,-0.251223,-0.0543741,-0.160929,-0.021135,-0.0701014,-0.052673,-0.0320292,0.0800416,0.145574,0.0218362,0.0512402,-0.130824,-0.0526325,-0.0769022,-0.0449797,-0.0518391,0.100661,-0.0487308,-0.210307,-0.0756727,0.0548519,0.228687,-0.0187685,-0.041814,0.0179949,-0.145891,-0.0381493,0.0881599,0.133834,-0.150622,-0.0115686,0.0271286,-0.144551,-0.0417119,-0.0716854,-0.102223,0.0475759,-0.0495209,0.190897,0.025123,0.0707783,0.0773653,0.0239648,0.069631,0.0484068,-0.0246149,-0.0472912,-0.113211,0.153899,-0.204507,-0.1463,-0.0954276,-0.00356788,0.0387643,-0.00763578,-0.0524702,-0.00602635,0.0112832,0.0137592,0.0197494
aja 0.0866299,0.207277,0.0360847,0.0802242,-0.0718399,-0.0805,-0.0148843,-0.123027,0.0229691,0.0515328,-0.0588136,-0.155287,-0.192485,-0.0803483,0.0464921,0.0738138,0.130566,-0.102439,0.0835894,-0.0648715,-0.175646,-0.0608923,0.134903,0.196787,0.076819,-0.0716436,-0.0318947,0.0814698,-0.10501,-0.171927,0.00195615,0.00320623,-0.0533049,0.114179,0.129845,0.0219826,-0.122746,0.187027,0.0628898,-0.0314464,-0.246106,-0.0497825,-0.147922,-0.00837784,-0.0802413,-0.0613533,-0.0316816,0.0866805,0.125697,0.00390686,0.0355779,-0.116796,-0.0479643,-0.0615734,-0.0352784,-0.0589511,0.0819766,-0.0644765,-0.213472,-0.0705778,0.0492796,0.23902,-0.01576,-0.0189594,0.0180404,-0.155639,-0.0216244,0.103824,0.131132,-0.158442,0.000718876,0.0284909,-0.139579,-0.0569329,-0.0804694,-0.113951,0.034276,-0.0346761,0.178013,0.00745955,0.062409,0.0838366,0.0310047,0.0907338,0.0390397,-0.00856113,-0.0388067,-0.122121,0.153592,-0.206353,-0.129981,-0.0805819,-0.0108573,0.0407807,0.00107809,-0.051436,-0.00554999,0.0180966,0.0167364,0.0195328
men 0.088994,0.196137,0.0359339,0.081651,-0.0900956,-0.0700185,-0.0129741,-0.120668,0.0136349,0.0557253,-0.0587714,-0.151881,-0.192154,-0.0743104,0.0282649,0.0771437,0.129485,-0.110823,0.085321,-0.0639389,-0.187752,-0.0684331,0.130499,0.198809,0.0878015,-0.0525821,-0.0355873,0.0856339,-0.0971993,-0.178497,-0.00521856,0.000154945,-0.0408011,0.0987103,0.135232,0.0197046,-0.133496,0.191802,0.0678349,-0.0252184,-0.241981,-0.0503931,-0.167874,-0.0151093,-0.0827149,-0.057713,-0.0551348,0.0925868,0.124646,0.0161697,0.0530014,-0.122008,-0.0582875,-0.0741234,-0.0409758,-0.0511102,0.0999104,-0.0574228,-0.20104,-0.0622178,0.05852,0.228502,-0.0109249,-0.0151101,0.0125235,-0.142737,-0.0392319,0.101976,0.147336,-0.155168,-0.000384034,0.0414719,-0.14845,-0.0496188,-0.0647864,-0.109207,0.0477273,-0.0389486,0.175515,-0.00512401,0.0616372,0.0956258,0.0472174,0.0773692,0.0291057,-0.00998299,-0.0249443,-0.118383,0.156717,-0.190594,-0.134926,-0.0751597,-0.00820105,0.0259263,-0.00122976,-0.0488867,-0.0050429,-0.00365277,0.00541451,0.0150228
kindred 0.0274914,0.0791671,-0.0372519,0.109456,-0.0419685,-0.0656124,-0.0321709,-0.0901275,0.110299,0.0771006,-0.0798921,-0.0570176,-0.248458,-0.0117751,-0.0590072,0.115259,-0.00800825,-0.0704036,0.0355508,-0.10639,-0.244694,-0.0298806,0.150966,0.103269,0.0520862,-0.0710848,-0.0766493,0.0648172,-0.16192,-0.231342,0.00163223,0.00893214,0.00282581,0.131146,0.207096,0.0630129,-0.1308,0.132666,0.0334448,-0.0160945,-0.118781,-0.0970816,-0.176802,0.0733192,-0.00242791,0.0860177,-0.0983097,-0.0182343,0.00174121,0.00211067,0.0545512,-0.0892962,-0.114052,-0.132559,0.0455408,-0.0164327,0.0229221,-0.095906,-0.0452831,-0.0657526,0.0874453,0.257944,-0.0170358,-0.0122832,-0.0701037,-0.0928843,0.0242616,0.0833443,0.200631,-0.101098,-0.0369453,0.112859,-0.11269,-0.0252447,-0.0750782,-0.155157,0.125951,0.0756228,0.113057,-0.0154731,0.00482885,0.107769,0.0481198,0.128778,0.00874437,-0.00212585,0.0406153,-0.0321686,0.147543,-0.170263,-0.187989,-0.124518,0.0601854,-0.0768572,-0.0340685,-0.123674,-0.0624683,-0.0233892,0.0764809,-0.0412078
here 0.0846283,0.190805,0.0329405,0.0829049,-0.0801645,-0.0823256,-0.0191715,-0.114128,0.0201826,0.0740862,-0.042789,-0.158048,-0.196461,-0.0837655,0.0365813,0.073432,0.128191,-0.102156,0.0885805,-0.0565013,-0.187366,-0.0624304,0.146957,0.198031,0.0688147,-0.0712733,-0.0155759,0.0977548,-0.0948662,-0.173683,0.000538383,-0.0135786,-0.048447,0.113126,0.134112,0.0263056,-0.141901,0.190927,0.073221,-0.0197715,-0.230219,-0.0704268,-0.16267,-0.00151524,-0.0753131,-0.0429094,-0.0531792,0.0898279,0.118868,0.00337102,0.037243,-0.130074,-0.0574833,-0.0694752,-0.0380751,-0.0599792,0.0864684,-0.0550334,-0.188493,-0.0456925,0.0666329,0.236125,-0.0179573,-0.0156763,0.02008,-0.138855,-0.0218401,0.094482,0.144521,-0.160044,-0.00307471,0.0487197,-0.155823,-0.040717,-0.0645642,-0.108595,0.0441924,-0.0414012,0.185951,-0.0101031,0.0653825,0.0965465,0.0430387,0.0912778,0.0351468,0.00260594,-0.0250998,-0.123746,0.165935,-0.17799,-0.129169,-0.0822275,0.0051336,0.0201946,-0.0165965,-0.0587882,-0.00467037,-0.00324256,0.0235621,0.00550515
met 0.0772093,0.198726,0.017738,0.0710755,-0.0775007,-0.0703155,-0.0231777,-0.0938716,0.0208747,0.0414792,-0.0516022,-0.155514,-0.17741,-0.0647053,0.0518661,0.0718209,0.140074,-0.104381,0.0728127,-0.0686451,-0.18453,-0.0776308,0.135463,0.189603,0.10319,-0.06276,-0.0483031,0.0949395,-0.101529,-0.185994,-0.0169376,0.0107306,-0.0466036,0.104327,0.111326,0.0200842,-0.126453,0.163252,0.0908628,-0.029473,-0.246169,-0.0483038,-0.167548,-0.0111612,-0.0706449,-0.0689074,-0.0391685,0.0971719,0.1453,0.0263114,0.033023,-0.127704,-0.0490284,-0.0707141,-0.0407613,-0.0464142,0.0854223,-0.0423946,-0.216618,-0.0814384,0.0517657,0.234662,-0.0175856,-0.0427616,0.0260168,-0.152089,-0.0487735,0.102264,0.135299,-0.140275,0.00302257,0.0203489,-0.136765,-0.0406937,-0.0811871,-0.108557,0.0584747,-0.0401365,0.171919,0.0349399,0.0677056,0.0919797,0.0198297,0.0763363,0.0477263,-0.00934814,-0.0534441,-0.101865,0.150241,-0.212336,-0.136207,-0.106893,-0.00823089,0.0505438,0.000136427,-0.0452675,0.0188885,0.0253283,0.000291105,0.00607326
china 0.0874161,0.196297,0.03134,0.0809961,-0.0796298,-0.0825238,-0.0234179,-0.11358,0.0148471,0.0715582,-0.0498505,-0.164656,-0.196593,-0.0805872,0.0402928,0.0743704,0.138386,-0.0963946,0.0803917,-0.0644635,-0.181176,-0.070225,0.140542,0.193663,0.081244,-0.066967,-0.025484,0.0883482,-0.0986315,-0.177216,0.00036444,-0.00727934,-0.0442304,0.110565,0.128132,0.0262508,-0.133361,0.182304,0.0787772,-0.0190715,-0.230543,-0.0602099,-0.163418,-0.00784477,-0.0681795,-0.0510488,-0.0476249,0.0874811,0.1221,0.0115998,0.0455393,-0.128356,-0.0561735,-0.0737042,-0.0416653,-0.0535089,0.0876387,-0.0525346,-0.200283,-0.0527674,0.0648232,0.23074,-0.0207558,-0.0262262,0.0217168,-0.144925,-0.0311926,0.0991584,0.138404,-0.158468,-0.00126456,0.0395227,-0.15219,-0.045765,-0.0641199,-0.109358,0.0491549,-0.0431995,0.185025,0.00713664,0.0637094,0.0908681,0.0384751,0.0886564,0.0435146,-0.00585126,-0.0312118,-0.115079,0.163681,-0.190658,-0.136312,-0.0841536,0.00311736,0.0333824,-0.0100272,-0.0562221,0.00271508,0.00236412,0.0165096,0.0094505
aud 0.0858289,0.158182,0.0358464,0.0633726,-0.0401607,-0.108032,-0.00402361,-0.135208,0.0225287,0.0345603,-0.0453923,-0.183573,-0.173077,-0.102388,0.00143117,0.070158,0.146031,-0.101957,0.0919566,-0.092067,-0.16049,-0.0678916,0.149574,0.202229,0.104072,-0.0839475,-0.0419489,0.079173,-0.0993651,-0.17937,0.00779136,0.0191029,-0.00859975,0.110757,0.124484,-0.0135928,-0.139169,0.14132,0.0751762,-0.0175333,-0.247537,-0.0467333,-0.181141,-0.011833,-0.0448754,-0.0735464,-0.0136518,0.0497853,0.152715,0.0341123,0.0503904,-0.151766,-0.0741464,-0.102122,-0.0381298,-0.0746546,0.0987303,-0.0176265,-0.186474,-0.0535525,0.0680749,0.251827,-0.0143901,-0.0533588,-0.00563908,-0.105695,-0.0340956,0.0640544,0.126412,-0.111205,-0.0232317,0.00581579,-0.146968,-0.0442191,-0.0741963,-0.0925144,0.0426383,-0.0391522,0.202337,0.00869825,0.0855567,0.0698501,0.0715069,0.0764687,0.0326478,-0.0364451,-0.0327766,-0.1206,0.117568,-0.198739,-0.149151,-0.116506,-0.014327,0.0561896,-0.0331058,-0.0281454,-0.0126676,-0.00258912,-0.0199832,0.0458357
dry 0.0741991,0.211809,0.0270429,0.0630578,-0.0733012,-0.0736177,-0.00524054,-0.116029,0.0211172,0.0616819,-0.0565722,-0.18044,-0.18524,-0.0721982,0.0273611,0.0787234,0.152173,-0.0959534,0.0538242,-0.0681957,-0.182982,-0.0630545,0.128461,0.176094,0.0803964,-0.0723678,-0.013638,0.105862,-0.0901778,-0.168408,-0.0181231,0.0156009,-0.024768,0.0938781,0.136515,0.0393872,-0.123947,0.159907,0.0847501,-0.0196883,-0.260847,-0.043091,-0.167847,-0.0182367,-0.0777224,-0.073398,-0.0392708,0.0909463,0.124341,0.00280117,0.0430796,-0.118212,-0.0325867,-0.0706087,-0.0429057,-0.0387092,0.0805888,-0.0574147,-0.21838,-0.0702244,0.0525474,0.212937,-0.0261086,-0.0159855,0.020261,-0.139987,-0.0244485,0.104863,0.14327,-0.155192,-0.00554897,0.0474126,-0.139795,-0.0561154,-0.0607352,-0.100471,0.0401365,-0.0575056,0.173988,0.00612712,0.0630598,0.096312,0.0401721,0.0927799,0.0347444,-0.0149803,-0.0325324,-0.0985744,0.170598,-0.210208,-0.155351,-0.10446,-0.0170545,0.0210093,0.0112653,-0.0506151,0.0182991,0.0283774,0.0171796,0.0123371
argh 0.10055,0.163607,0.0605531,0.0792375,-0.0525247,-0.10873,-0.00818347,-0.111791,0.00117869,0.0795063,-0.0598772,-0.184583,-0.180281,-0.0731381,0.0269967,0.0602577,0.150549,-0.127424,0.049851,-0.0290787,-0.176619,-0.082647,0.155996,0.212734,0.080755,-0.0757417,-0.00728613,0.095814,-0.0660175,-0.188302,-0.0122188,-0.0016892,-0.0357815,0.0843057,0.106936,0.0285551,-0.151559,0.180616,0.0636609,-0.0298493,-0.224032,-0.0416695,-0.172704,-0.01106,-0.0694675,-0.0748828,-0.0420547,0.0793787,0.0924116,0.0287825,0.0300263,-0.119192,-0.0605287,-0.0888651,-0.0502052,-0.0421999,0.0594609,-0.0684393,-0.188731,-0.058041,0.0889491,0.216204,-0.0142775,-0.0137694,-0.00536998,-0.166869,-0.0189634,0.0862191,0.151492,-0.170766,-0.0235754,0.0605013,-0.143479,-0.0515465,-0.0796586,-0.113384,0.0158352,-0.0390286,0.203269,-0.0172908,0.0308107,0.0861738,0.0339016,0.0806093,0.019371,-0.0356826,-0.00731206,-0.143803,0.166498,-0.163643,-0.138244,-0.0589839,-0.0119557,0.0458042,0.0162259,-0.0827703,0.0289527,0.0238826,-0.00623154,-0.0160815
kids 0.0901631,0.194243,0.0250886,0.0774304,-0.0755136,-0.0816331,-0.0236049,-0.107386,0.014732,0.0674693,-0.0518726,-0.163662,-0.192788,-0.0784271,0.0345231,0.0771339,0.125665,-0.106647,0.0789252,-0.055936,-0.187948,-0.0615519,0.14184,0.197897,0.0742633,-0.0642566,-0.0146819,0.0903366,-0.101102,-0.18065,0.00104945,-0.0121704,-0.048099,0.102885,0.123645,0.0289417,-0.141261,0.183964,0.0696318,-0.0235677,-0.234963,-0.0668699,-0.156419,-0.0083118,-0.071334,-0.0475968,-0.0475356,0.0926521,0.124869,0.00643105,0.042084,-0.12444,-0.0551055,-0.0686055,-0.039609,-0.0627142,0.0843749,-0.053142,-0.194366,-0.0478004,0.0685795,0.23812,-0.0128765,-0.0241224,0.0230724,-0.146048,-0.0203701,0.097136,0.146243,-0.158331,-0.000306869,0.0533408,-0.156573,-0.0481925,-0.0663902,-0.105526,0.0478681,-0.0395834,0.190234,-0.000389351,0.0664708,0.101414,0.0359223,0.0941225,0.0384585,-0.00638985,-0.0271374,-0.115718,0.167072,-0.176559,-0.139704,-0.0781951,0.00698623,0.0274921,-0.0184521,-0.0579761,0.00272754,0.00015424,0.0153605,0.00839019
luggage 0.085294,0.180022,0.0440101,0.053074,-0.0328864,-0.0474289,0.0145746,-0.109602,-0.0385292,0.0101212,-0.0536915,-0.214879,-0.157332,-0.0678487,0.0855101,0.0615511,0.11841,-0.132796,0.0567415,-0.0648796,-0.196818,-0.0471447,0.104046,0.21734,0.0773974,-0.0885105,0.00166707,0.0659277,-0.0681999,-0.196084,-0.0257214,0.0466218,-0.0463299,0.102109,0.0922084,0.0717232,-0.0781791,0.177999,0.0767625,-0.0115944,-0.216701,0.00323292,-0.186717,0.00763463,-0.0994357,-0.025481,-0.0417119,0.0763315,0.128352,0.0591673,0.035434,-0.0950548,-0.0126414,-0.0973403,0.00143184,-0.0124762,0.135584,-0.0308403,-0.251486,-0.0780809,0.0909935,0.195981,-0.0467982,0.00281243,0.0442071,-0.127793,-0.0746812,0.0767334,0.177912,-0.132488,0.0303338,0.000881264,-0.121803,-0.0651838,-0.0690763,-0.0523574,0.022544,-0.0519531,0.184492,0.0426892,0.0584077,0.0815626,0.0537797,0.0880737,0.0221446,0.0202105,-0.0531455,-0.106481,0.169186,-0.216856,-0.161499,-0.0620959,-0.0203306,0.0498402,0.00573594,-0.0432944,0.0504745,0.0296466,-0.029266,0.0551524
slow -0.00252095,0.0208858,-0.00315763,0.0437478,0.0177388,-0.036729,0.102775,-0.12891,0.10611,0.165355,-0.0459643,-0.0912576,-0.00193157,-0.028096,0.0423424,-0.0369285,-0.0185667,-0.116151,0.0578518,-0.0468601,0.00700319,0.0890726,0.0317994,0.145014,-0.227884,0.0661767,0.125444,0.0180292,0.013885,0.104057,0.158664,-0.216929,-0.100289,0.162659,-0.0100018,0.110042,-0.195733,0.00678223,-0.0526731,-0.0225003,0.144446,-0.0915682,-0.0498817,-0.0412187,-0.10576,0.1273,-0.0864011,-0.0093572,0.0531176,0.00143926,-0.0830777,0.0873228,-0.114051,0.00586222,-0.0211085,-0.0760171,-0.0361094,-0.0367072,0.0253234,0.0905779,0.00206081,0.049207,0.120226,0.150668,0.0367226,0.113786,0.0578879,-0.0136746,-0.0674754,0.0228302,-0.0330682,0.025632,0.0782442,0.113044,0.137293,-0.123602,-0.091924,0.103606,0.104651,-0.235522,0.0797713,-0.0846877,-0.0646052,0.0966011,-0.154081,0.0851375,0.0678757,-0.160013,0.159806,0.234613,0.170983,0.108402,-0.0971968,-0.0428134,-0.0734177,0.00309749,-0.0149435,-0.177284,0.189274,-0.0841098
study 0.0845831,0.17397,0.0146763,0.0792534,-0.0974352,-0.081668,-0.0177963,-0.105487,0.0179344,0.0633788,-0.0553674,-0.172534,-0.193774,-0.0635329,0.0249436,0.0854035,0.127435,-0.10261,0.106468,-0.0684791,-0.17748,-0.0733343,0.159432,0.197377,0.0511445,-0.0757725,-0.0286356,0.0920487,-0.0975882,-0.189656,0.00572533,-0.0123618,-0.0448684,0.099053,0.123505,0.0154437,-0.142744,0.198515,0.0542455,-0.0175123,-0.224802,-0.0802167,-0.166523,0.0153852,-0.0965527,-0.0214009,-0.0727041,0.102663,0.111581,-0.00147105,0.0219681,-0.120124,-0.0426949,-0.0717594,-0.0455888,-0.0450686,0.0937442,-0.0751405,-0.180109,-0.037322,0.0749131,0.216565,-0.0186801,-0.0137679,0.00813325,-0.152649,-0.0155417,0.0825587,0.138978,-0.177531,-0.0144592,0.0583651,-0.173389,-0.0594898,-0.0456323,-0.121838,0.0403145,-0.0391471,0.17007,-0.0153228,0.0724935,0.09448,0.0573564,0.108053,0.0458399,0.0114563,-0.0407991,-0.106079,0.161604,-0.156172,-0.131502,-0.0890049,0.00309814,0.00499859,-0.00516006,-0.065365,-0.0259918,-0.0222375,0.0162275,0.0163436
changed 0.0558978,-0.0569874,-0.0287516,-0.0871256,0.100037,-0.040378,-0.0854621,0.0590055,-0.0999103,-0.0607117,0.098704,0.0998927,0.124572,0.113562,0.0898236,-0.0781516,-0.021949,0.166729,-0.0382252,-0.0867489,0.052203,0.00609219,-0.211834,-0.261165,-0.0173579,-0.0110364,-0.0636597,-0.184031,0.0467814,0.101886,-0.0276381,-0.00985573,0.112913,-0.0794859,-0.0999988,0.0111639,0.107198,-0.226786,-0.0917295,0.0725546,0.126207,0.0162336,-0.0261668,0.0596186,-0.0206663,-0.10304,0.0543032,0.0219728,0.0275587,0.0879573,0.0921158,0.0842882,-0.0140523,0.024467,0.146186,-0.0537363,-0.0394591,0.0230383,0.142557,0.0324557,-0.0122976,-0.139738,-0.00590679,-0.121042,0.0755657,0.094712,-0.0274448,-0.16168,-0.127306,0.0470362,-0.0652415,-0.153776,0.0911303,0.0995302,0.109464,0.0390561,-0.137214,0.0522829,-0.00804428,0.130567,-0.135927,-0.176141,-0.0230274,-0.180435,0.0634292,0.0482965,-0.147812,0.201427,-0.231848,0.0413847,0.136831,0.044612,0.0562017,0.0687014,0.000668245,0.151188,-0.00938268,0.127563,-0.0343514,-0.0120752
piercing 0.106806,0.190062,0.0377617,0.0517716,-0.0593603,-0.0852394,-0.0232539,-0.119976,0.0318844,0.0447682,-0.0813145,-0.156525,-0.150176,-0.0689567,0.0389676,0.0894112,0.182058,-0.126049,0.0584571,-0.050378,-0.167763,-0.0450725,0.132657,0.144237,0.105183,-0.0496874,-0.0416854,0.101867,-0.085041,-0.166827,-0.0255607,0.0314937,-0.0044555,0.0738078,0.114905,0.0438162,-0.119488,0.164681,0.0792023,-0.0486163,-0.263475,-0.00637078,-0.179343,-0.0453966,-0.0472778,-0.0486855,-0.0369474,0.068626,0.144151,0.0461276,0.0460354,-0.128569,-0.046781,-0.0472506,-0.0275168,-0.0553305,0.0849135,-0.0200866,-0.247148,-0.119716,0.0435756,0.223941,-0.0389335,-0.0205466,0.0471431,-0.188962,-0.0647603,0.0724144,0.111847,-0.0973312,-0.00207831,-0.013679,-0.117852,-0.0517863,-0.0772699,-0.0836241,0.0360908,-0.0542081,0.191079,0.06417,0.0484498,0.0984573,0.026084,0.0860382,0.0723757,-0.0279452,-0.0456952,-0.0896967,0.121199,-0.213781,-0.167664,-0.119536,0.00315288,0.0805683,0.015466,-0.0235809,-0.00517413,0.0445634,0.0103182,0.0391553
itunes 0.071104,0.208203,0.0389135,0.0770564,-0.0920613,-0.0918071,-0.025628,-0.115426,0.0204979,0.0639962,-0.0648691,-0.162602,-0.198651,-0.0866737,0.0366123,0.0655328,0.145049,-0.101484,0.0843128,-0.0520083,-0.165908,-0.0629344,0.133828,0.191141,0.0888156,-0.0676731,-0.037599,0.0820532,-0.115826,-0.183097,-0.0149657,0.00465867,-0.0465797,0.103529,0.110502,0.0145466,-0.130612,0.165888,0.0881555,-0.00626537,-0.228827,-0.0701089,-0.162131,-0.0137223,-0.057536,-0.0436856,-0.0323462,0.0816478,0.145141,0.00336602,0.0351989,-0.138358,-0.0524762,-0.0698678,-0.0406329,-0.0544579,0.104656,-0.0374357,-0.198547,-0.0548365,0.066146,0.242354,-0.00901917,-0.0191133,0.0101039,-0.148132,-0.0356546,0.0945838,0.131388,-0.161689,0.0118362,0.0515195,-0.146234,-0.0344266,-0.064983,-0.0937027,0.0461517,-0.0428523,0.177147,0.0114838,0.0584954,0.0894519,0.0491725,0.0817283,0.0396532,-0.00771758,-0.0365008,-0.105808,0.170308,-0.196703,-0.136318,-0.0980728,0.00725831,0.0235974,0.00246515,-0.0479356,0.010371,0.019516,0.00344663,0.0257785
paris 0.0346665,0.135542,0.0751662,0.0252242,-0.0452476,-0.0561503,-0.03068,-0.154982,-0.0102811,0.0814459,-0.100107,-0.152796,-0.195208,-0.117321,0.0153965,0.0847095,0.107022,-0.136487,0.0841057,-0.10307,-0.140384,-0.0165783,0.0825876,0.201903,0.0940941,-0.0350918,-0.0117569,0.0749548,-0.0583971,-0.167742,0.0145677,-0.00996103,-0.0449059,0.145429,0.133088,-0.0128458,-0.140958,0.190829,0.0813636,0.0239016,-0.184748,-0.0664935,-0.177222,0.019745,-0.0744783,-0.0684173,-0.00333696,0.104437,0.11818,-0.0162708,0.0286272,-0.169688,-0.0681111,-0.0466259,0.0175446,-0.105569,0.128293,-0.0357336,-0.220258,-0.0158286,0.0633702,0.190728,0.0277528,0.0192228,0.0583778,-0.190713,-0.0666432,0.096499,0.174509,-0.182353,0.0189619,0.0241795,-0.151457,0.00212776,-0.0927985,-0.155277,0.0948655,-0.0764703,0.14607,0.0432135,0.0702097,0.0832451,0.063899,0.0925183,-0.0162697,-0.00947501,-0.0793122,-0.0594334,0.103871,-0.172259,-0.0913595,-0.105997,-0.0406651,0.0386353,-0.0166076,-0.0622234,0.00265593,-0.0328833,0.0114485,-0.0156262
ako 0.0806202,0.212669,0.0490096,0.0474757,-0.0748983,-0.0742121,-0.0124602,-0.137134,-0.00966004,0.0834569,-0.0283927,-0.146074,-0.177897,-0.0848918,0.0666875,0.0901932,0.115707,-0.0868791,0.0589663,-0.0393046,-0.1874,-0.0430812,0.15627,0.216662,0.0867809,-0.071664,-0.018721,0.083653,-0.114925,-0.15229,0.00431644,-0.00336686,-0.0456141,0.0929117,0.140771,0.0448237,-0.104953,0.149515,0.0747291,-0.0411644,-0.21716,-0.064415,-0.184286,-0.0188415,-0.0571346,-0.0666986,-0.0588122,0.0706568,0.141345,-0.0132082,0.0396314,-0.12858,-0.0479854,-0.067283,-0.0475493,-0.0280632,0.0940245,-0.0572408,-0.189481,-0.0441181,0.0762611,0.237648,-0.0125108,-0.0336004,0.00851555,-0.166642,-0.0498211,0.11475,0.130649,-0.136351,0.00659538,0.0320719,-0.166987,-0.0210648,-0.0989775,-0.0867385,0.0431323,-0.0652311,0.170671,-0.00756997,0.0380184,0.0915091,0.0230072,0.065649,0.0471015,-0.0031364,-0.0245372,-0.141121,0.154982,-0.222629,-0.135128,-0.0875018,-0.0120846,0.0594275,-0.0128085,-0.0396686,-0.000883586,0.0222079,0.017811,0.0346553
mentor 0.0897512,0.20271,0.0248608,0.0945663,-0.0940595,-0.0973716,-0.0310517,-0.12179,0.00338838,0.0712259,-0.0533908,-0.169025,-0.187343,-0.0549436,0.047705,0.0901411,0.120393,-0.0873127,0.105742,-0.0480176,-0.194367,-0.0494313,0.157543,0.19488,0.0797149,-0.0503138,-0.0247888,0.0785379,-0.0877403,-0.151469,-0.00500275,-0.0131498,-0.0483652,0.0845439,0.130079,0.0300284,-0.13532,0.163927,0.0936794,0.00273654,-0.229785,-0.0547408,-0.173243,0.0155562,-0.0703782,-0.0449642,-0.0544866,0.0826117,0.135575,-0.0100116,0.0596051,-0.135468,-0.0312542,-0.0737615,-0.0513818,-0.053845,0.0984348,-0.0500726,-0.191216,-0.0704861,0.0535189,0.211232,-0.0387719,0.00101305,0.030833,-0.117178,0.000141988,0.110153,0.152468,-0.147247,0.0020941,0.0444086,-0.168269,-0.0501269,-0.0789783,-0.120428,0.0325916,-0.0480697,0.192374,-0.0215554,0.0782603,0.113881,0.0577104,0.0970948,0.0479627,-0.00888134,-0.0421635,-0.0982163,0.171942,-0.181713,-0.111822,-0.0631227,0.0174536,0.0131397,0.000765942,-0.0717561,-0.00249415,-0.0156994,0.0301272,0.0144946
lonesome 0.117403,0.237457,-0.0638494,0.0732095,0.0360592,-0.0701172,-0.0522505,-0.0678185,0.0910427,0.0736081,0.0619175,-0.106782,-0.162392,-0.0795002,-0.0302028,0.0225851,0.150965,-0.137796,0.110855,-0.11835,-0.221267,-0.0496732,0.186409,0.128115,0.134506,-0.0206142,-0.103901,0.101052,-0.00494811,-0.197768,-0.0316416,0.0161546,0.0524682,0.0889336,0.0949282,0.117562,-0.0660166,0.179913,0.00256037,-0.0563844,-0.277935,0.0252311,-0.0465557,0.0527064,-0.0355826,-0.109316,-0.0894576,0.0400874,0.163708,0.0013937,-0.00885813,-0.0670415,0.0441604,0.0437434,-0.00547698,-0.0860185,-0.0206109,-0.0222744,-0.161482,-0.142149,0.151018,0.0947054,-0.0353988,0.0521762,0.0541024,-0.0672493,-0.035652,0.0284307,0.173177,-0.0554581,0.0948962,0.0651779,-0.0764455,-0.0434005,-0.0111045,-0.112512,0.138384,0.0500565,0.175396,0.0311187,0.143108,0.0265295,-0.0615506,-0.012473,0.0799261,0.013728,-0.128864,-0.0627248,0.155734,-0.204001,-0.159743,-0.00235796,-0.0593192,-0.0364206,0.02708,0.0427398,0.0210943,-0.0645422,0.00794452,0.0553056
aka 0.0906899,0.187104,0.0248961,0.0663372,-0.065393,-0.0892112,-0.027408,-0.12543,-0.00708412,0.0426459,-0.0338165,-0.179552,-0.210175,-0.0905063,0.0538844,0.0659543,0.139943,-0.115788,0.0866211,-0.0553398,-0.184574,-0.0769229,0.155717,0.174164,0.0733933,-0.0615928,-0.0461931,0.0764387,-0.12324,-0.159907,-0.0232812,-0.0148834,-0.0341352,0.115204,0.109643,0.0416216,-0.115151,0.175586,0.0761055,-0.0123046,-0.225293,-0.0563227,-0.182028,-0.017471,-0.0650333,-0.073646,-0.0589694,0.0746032,0.149749,0.00435136,0.040373,-0.107169,-0.0478418,-0.0469062,-0.0465012,-0.0330795,0.0940031,-0.0480344,-0.210145,-0.0561714,0.0414544,0.238048,-0.00274096,-0.049015,0.0111856,-0.150167,-0.0416766,0.0850041,0.129836,-0.133439,0.00413295,0.0259618,-0.168756,-0.0369117,-0.0897074,-0.109143,0.0266559,-0.0282619,0.173124,0.0281309,0.0785175,0.0938593,0.0356316,0.0914919,0.0399478,-0.0194816,-0.0226333,-0.109892,0.165632,-0.182218,-0.1598,-0.0743607,-0.0220712,0.0410108,-0.00916601,-0.0327396,0.0144974,0.0071667,0.00365496,0.0310014
theres 0.0940567,0.231292,0.0077057,0.0820221,-0.0496198,-0.0534072,-0.0466004,-0.0593574,-0.00659872,0.0237419,-0.0388915,-0.161205,-0.145271,-0.0281423,0.0796357,0.0733622,0.164376,-0.112377,0.0647399,-0.0966877,-0.148182,-0.0834187,0.0888904,0.146602,0.105866,-0.0678763,-0.0894521,0.108485,-0.104329,-0.134121,-0.0499997,0.0506255,-0.0379061,0.0461035,0.11002,0.00837953,-0.0920451,0.123403,0.0921326,0.0119064,-0.238734,-0.0511294,-0.187505,-0.031613,-0.0836315,-0.0401668,-0.00991603,0.0580575,0.181416,-0.000210825,0.0687668,-0.10235,0.0012058,-0.0229467,-0.0175251,-0.0686541,0.120582,-0.00469347,-0.267861,-0.125284,0.0693134,0.194438,-0.0236231,-0.0606465,0.0130826,-0.137239,-0.0768433,0.0731148,0.10509,-0.114287,0.0174109,-0.00188249,-0.1341,-0.0596342,-0.0780896,-0.113014,0.0508828,-0.0450823,0.189763,0.075682,0.0953666,0.0916399,0.0484017,0.0743417,0.0831815,-0.0620068,-0.0871102,-0.0660456,0.133536,-0.268428,-0.140632,-0.110166,0.024687,0.0332208,-0.00177432,-0.0130013,-0.00730902,0.0690396,-0.0245846,-0.00799564
eyebrows 0.0493577,0.238211,0.0705771,0.0364391,-0.0749291,-0.0711194,-0.00869812,-0.112636,0.0569221,0.0435674,-0.0490367,-0.132713,-0.174552,-0.0795215,0.070941,0.0363946,0.103364,-0.138914,0.0664921,-0.0411883,-0.156447,-0.0972513,0.0866776,0.19902,0.0368291,-0.0290311,-0.0317601,0.106519,-0.126087,-0.165826,-0.0143298,0.00173159,-0.00748295,0.12613,0.162055,0.0290389,-0.143109,0.188326,0.0843963,-0.0607017,-0.197792,-0.0489161,-0.134555,-0.024367,-0.0918728,-0.0961483,-0.0267459,0.0644369,0.132569,-0.00716864,0.0895225,-0.146374,-0.0274789,-0.102312,0.0123283,-0.0803778,0.108792,-0.0938269,-0.241724,-0.0583459,0.0899305,0.204923,-0.0308696,0.00141172,0.0290173,-0.174653,-0.0242829,0.108399,0.136116,-0.142608,0.0231809,0.0768964,-0.104428,-0.0043973,-0.0588164,-0.0464751,0.0688848,-0.0845779,0.14091,-0.0258736,0.0379883,0.0836547,0.0703925,0.0511158,0.00737668,-0.0611244,0.00135793,-0.058432,0.158735,-0.222457,-0.107531,-0.119131,0.00489313,-0.00813166,-0.051346,-0.0787971,0.0493561,-0.0304829,-0.0376536,0.03338
golden 0.100905,0.186948,0.0209816,0.0864601,-0.092963,-0.102243,-0.000236343,-0.0966709,-0.00115525,0.0627903,-0.0613144,-0.170452,-0.188957,-0.0875605,0.0643476,0.0771562,0.158172,-0.100226,0.0775919,-0.0578276,-0.184569,-0.0689991,0.122117,0.161409,0.0792311,-0.0586395,-0.0390505,0.0808093,-0.121977,-0.185049,0.00221519,0.0236875,-0.0575796,0.09563,0.11757,0.0110666,-0.109765,0.164244,0.093574,-0.0152496,-0.244877,-0.064153,-0.183873,-0.0366459,-0.0449756,-0.056042,-0.0164559,0.103973,0.119827,0.034824,0.0344748,-0.117088,-0.0483216,-0.0477835,-0.0548733,-0.054026,0.0837626,-0.0706114,-0.199156,-0.0749814,0.0635861,0.229023,-0.0423071,-0.0158657,0.0106319,-0.140124,-0.0575161,0.0971166,0.140053,-0.137462,0.0212083,0.0432938,-0.145151,-0.0383549,-0.0525881,-0.106792,0.0480304,-0.0321198,0.177432,0.035804,0.0464944,0.0843913,0.0196969,0.0783308,0.0323505,-0.0406156,-0.0409943,-0.122151,0.131489,-0.221377,-0.16262,-0.0963815,-0.00474084,0.0260228,0.0110969,-0.0625263,0.0251271,0.0182005,0.00376282,0.0298884
daaang 0.0606998,0.21415,0.0321712,0.065162,-0.0685608,-0.0507131,-0.0483805,-0.131657,0.0169066,0.0951316,-0.071699,-0.171777,-0.15066,-0.0697119,0.0607233,0.105021,0.131945,-0.0703131,0.110972,-0.0483395,-0.177991,-0.0926422,0.15356,0.216936,0.100882,-0.0325492,-0.0324837,0.109463,-0.128706,-0.138398,-0.0165049,-0.016463,-0.0606183,0.0932461,0.107917,0.0482135,-0.131326,0.191143,0.100323,-0.0262774,-0.20644,-0.0848388,-0.168857,-0.00645343,-0.0855312,-0.074383,-0.07655,0.0906366,0.0994476,-0.0168573,0.0670247,-0.133676,-0.0485004,-0.0590919,-0.0618044,-0.0295308,0.0737647,-0.0653546,-0.196244,-0.0300653,0.0363631,0.200844,-0.0557238,-0.0172319,-0.00867352,-0.0999891,-0.037681,0.0991744,0.166721,-0.15924,-0.0284456,0.0461323,-0.118654,-0.0486389,-0.0676286,-0.126475,0.0718192,-0.0384277,0.188587,0.0283999,0.0267464,0.123721,0.0461367,0.0810701,0.0258282,-0.0010109,-0.0589872,-0.146043,0.169614,-0.165533,-0.119777,-0.0561133,0.00774027,0.0641339,-0.0207778,-0.0420943,0.00197054,0.0269312,0.0301359,-0.027779
hunch 0.0657004,-0.126093,-0.0293578,-0.177093,0.074719,0.0404725,0.152011,0.152164,0.0670438,0.0050007,0.00403811,0.0741538,0.139107,-0.0274458,0.122335,-0.033431,0.129012,-0.0257323,-0.064922,0.119164,0.144135,0.0359339,-0.0231111,0.0550444,0.129117,0.162374,0.067085,0.00795433,0.0644025,-0.133013,0.0186951,-0.0593128,0.158437,-0.00598825,-0.0952002,0.132855,-0.0208134,0.0820861,-0.131952,0.0898977,-0.0602683,0.169652,-0.0036791,0.0984504,0.0871058,-0.157037,0.0846779,-0.0027373,0.177913,0.118258,0.0890603,0.114579,0.15117,0.164806,0.0740036,0.139366,0.0159785,-0.0565503,0.0713656,-0.0306274,-0.165485,0.0554346,0.032848,-0.15994,0.15339,-0.15248,-0.0740166,0.118936,-0.089657,0.069691,-0.043219,-0.181447,-0.0560169,0.00851301,0.00637651,0.115474,0.110239,0.123445,-0.17092,-0.0629297,-0.158374,0.0204871,0.0451528,0.0152337,0.0617657,0.0638105,0.0511192,0.010648,-0.139568,-0.031997,0.0607215,-0.0704851,0.0186453,0.188187,0.136868,0.0165619,-0.0294672,0.0807984,-0.133866,-0.00715255
stray 0.158399,0.194347,-0.0347444,0.0436428,-0.0568657,-0.0159254,-0.109812,-0.117916,-0.0299389,0.104564,0.0897131,-0.106968,-0.0992123,-0.00937502,-0.0247905,0.00215214,0.117647,-0.162871,0.118938,0.0441656,-0.202452,-0.00960773,0.132293,0.127051,0.0456899,-0.0845831,0.119621,0.092374,-0.0995114,-0.17689,0.0937919,-0.00336554,-0.101437,0.0474814,0.0615572,0.0732521,-0.117138,0.155559,0.0363763,-0.101428,-0.0792969,-0.121464,-0.117348,-0.0420791,-0.029131,0.098968,-0.102775,-0.00281204,0.0960204,-0.0820896,0.0457617,-0.0590577,-0.0622034,-0.168445,0.00029949,-0.0909969,-0.0215938,-0.137231,-0.0450661,-0.0739798,0.164667,0.273508,0.0773008,0.100852,-0.0762685,-0.171231,0.112174,0.0892763,0.0430044,-0.224669,-0.039596,0.0491469,-0.235554,0.044461,-0.0456257,-0.160086,0.0979987,-0.013243,0.106143,-0.0102546,0.118571,0.0328091,0.0279495,0.0711537,-0.0590098,0.0688143,-0.0280109,-0.0768649,0.0988261,-0.0913207,-0.14743,0.0325574,0.0236172,-0.0328963,-0.0412613,-0.0492821,-0.0159217,0.0309476,0.0442363,-0.0970624
bro 0.0681148,0.22548,0.0463122,0.0747767,-0.101611,-0.0592823,-0.00536539,-0.0997225,0.0177258,0.0597339,-0.0865415,-0.144918,-0.197372,-0.0687358,0.0461955,0.0591713,0.140005,-0.121488,0.0488334,-0.0803231,-0.178806,-0.0851109,0.125972,0.171608,0.0967897,-0.0361831,-0.0174242,0.0705776,-0.105107,-0.167123,-0.0151435,0.0183706,-0.029555,0.0929611,0.123666,0.00602599,-0.113895,0.146639,0.082921,-0.0458254,-0.276294,-0.025922,-0.178129,0.00474213,-0.084236,-0.0434378,-0.0129987,0.069943,0.149325,0.0286483,0.030148,-0.100966,-0.0474937,-0.0770928,-0.0398607,-0.0627805,0.0851679,-0.0474496,-0.209192,-0.0850431,0.0581704,0.247922,-0.0513382,-0.0223551,0.0159204,-0.164994,-0.0246016,0.0929405,0.108652,-0.130722,-0.0046622,0.0291947,-0.128698,-0.0390313,-0.0941172,-0.085777,0.0532598,-0.075473,0.191463,0.0514551,0.0415383,0.0869838,0.019667,0.0591825,0.0309789,-0.0377735,-0.0574082,-0.0952128,0.128225,-0.226926,-0.153184,-0.0789773,-0.0249869,0.05714,-0.019872,-0.0189719,0.0105432,0.0387718,-0.00670386,0.00283459
stern 0.0655412,0.161405,0.0462295,0.100853,-0.0835778,-0.103164,-0.0310673,-0.118771,0.0626168,0.0931856,-0.0367142,-0.167243,-0.216193,-0.100983,0.015805,0.0614191,0.0783171,-0.126641,0.140252,-0.0445337,-0.181748,-0.0330691,0.156476,0.221323,0.00778389,-0.0614118,-0.00750607,0.117526,-0.109187,-0.188718,0.013986,-0.0623846,-0.0338501,0.103059,0.116172,0.0308095,-0.139169,0.202695,0.0360368,0.0115275,-0.204941,-0.106428,-0.139824,0.010325,-0.0737834,-0.0126806,-0.0495727,0.0943604,0.125632,0.000679152,0.0440969,-0.127462,-0.070767,-0.05259,-0.0484124,-0.0907255,0.100598,-0.050257,-0.149538,-0.00228301,0.0704818,0.224019,-0.0088281,-0.00869164,0.0401514,-0.091811,-0.00755445,0.0992966,0.127355,-0.154601,-0.0388255,0.0905491,-0.162979,-0.00952089,-0.0723017,-0.0937565,0.019486,-0.0360649,0.197835,-0.0536302,0.0637588,0.100878,0.0426702,0.100941,0.0519213,0.00643687,-0.0255397,-0.160978,0.160688,-0.154856,-0.107078,-0.0442756,0.00245604,-0.0298446,-0.0200156,-0.0545016,-0.00670045,-0.00399899,0.0553751,0.00025777
cheating 0.0892119,0.247238,-0.0175071,0.0180329,-0.0675263,-0.0317628,-0.052369,-0.0520427,-0.0375736,0.0304994,-0.0851584,-0.175948,-0.13208,-0.0169669,0.075575,0.0604494,0.135809,-0.126381,0.0567256,-0.0800356,-0.145733,-0.0868685,0.138079,0.182262,0.0927667,-0.0610104,-0.0837151,0.0608361,-0.141744,-0.194164,0.00979971,0.0502904,0.0110658,0.0391468,0.102841,0.0488091,-0.140745,0.167141,0.0835128,-0.0436059,-0.266366,-0.0497706,-0.196445,-0.071248,-0.068913,-0.0574143,-0.00544235,0.0425535,0.115711,0.0640309,0.0328444,-0.0897314,-0.0278123,-0.0890379,-0.0318163,-0.0221796,0.090242,-0.048705,-0.235069,-0.0498973,0.0140547,0.230763,-0.036737,-0.02176,-0.00889345,-0.175705,-0.0304489,0.0804657,0.171591,-0.108803,0.00291181,0.00284534,-0.0971832,-0.0424704,-0.0949863,-0.0887705,0.0489873,-0.021865,0.171959,0.0417843,0.0215618,0.123348,0.0379461,0.0972822,0.021569,0.00894454,-0.105761,-0.134392,0.101724,-0.192197,-0.162962,-0.0589538,-0.00268791,0.0604498,0.0609597,-0.0300276,0.00545064,-0.00416755,-0.014137,0.0160549
spoke 0.0766446,0.206011,0.0336829,0.0491208,-0.0743027,-0.0946975,-0.0352326,-0.112216,0.0155845,0.0731581,-0.0675646,-0.159011,-0.186998,-0.0773667,0.0336644,0.0886584,0.154533,-0.113919,0.0639141,-0.077995,-0.152737,-0.08369,0.126959,0.198973,0.0765812,-0.0674824,-0.0193185,0.0807094,-0.106592,-0.16771,-0.0173401,0.00585075,-0.0221849,0.108844,0.127899,0.0427396,-0.107436,0.181614,0.0682376,-0.00156029,-0.257625,-0.0385081,-0.15498,-0.0095497,-0.0790475,-0.0701286,-0.040689,0.0978337,0.142519,0.0310002,0.0565436,-0.136332,-0.038273,-0.0718111,-0.0229089,-0.0343692,0.0712405,-0.0513999,-0.216772,-0.0838824,0.0701022,0.220875,-0.0350077,-0.0487628,0.0205061,-0.16512,-0.0583836,0.100445,0.145662,-0.129246,-0.0112608,0.0441655,-0.130307,-0.0511309,-0.053866,-0.108,0.0293199,-0.0455792,0.182879,0.00592368,0.0758252,0.077649,0.0472744,0.0928956,0.0562443,-0.0150705,-0.0492738,-0.0933013,0.160896,-0.182124,-0.123465,-0.0933436,0.015727,0.0530207,-0.00237224,-0.0647003,-0.00800286,0.00263743,0.00293109,0.0214591
would 0.0887556,0.206638,0.0211399,0.0706056,-0.0840578,-0.0852584,-0.0265213,-0.104823,0.00930241,0.0625078,-0.0507589,-0.167242,-0.187398,-0.0778245,0.0340442,0.083904,0.141029,-0.102525,0.0710935,-0.0746569,-0.178676,-0.0775648,0.134358,0.184756,0.0961671,-0.0639568,-0.0350025,0.0940849,-0.0982573,-0.168809,-0.00637925,0.00911457,-0.0356072,0.105578,0.124444,0.0192101,-0.128318,0.172765,0.0813929,-0.0233977,-0.242927,-0.046411,-0.167329,-0.0129872,-0.0657173,-0.0649442,-0.0411338,0.0929813,0.12916,0.019316,0.0488662,-0.124127,-0.0418349,-0.0589118,-0.0308399,-0.0532057,0.0921211,-0.0479552,-0.208647,-0.0675201,0.0601929,0.23318,-0.0205782,-0.0309466,0.0165854,-0.159427,-0.0399924,0.0934692,0.133839,-0.146234,0.00159349,0.0281711,-0.154927,-0.0485922,-0.0781224,-0.100019,0.0414279,-0.0519133,0.187239,0.0121355,0.0647496,0.0853032,0.0360887,0.0822714,0.052589,-0.0147909,-0.0448949,-0.106236,0.152688,-0.198425,-0.14108,-0.0914024,-0.00732041,0.0438741,-0.00657422,-0.041344,0.00837855,0.0158718,0.00259139,0.00954253
