 0.0980742,0.135251,0.0618248,0.148981,-0.0991398,-0.0897196,-0.0266091,-0.155344,0.0635974,0.146365,0.0321738,-0.134189,-0.237873,-0.135694,-0.00108928,0.0252467,0.0331308,-0.0879264,0.185556,0.013885,-0.191963,-0.0286233,0.203456,0.235306,-0.0521907,-0.120791,0.0548424,0.109008,-0.0454702,-0.157897,0.0503035,-0.115505,-0.0856768,0.128571,0.153303,0.0128028,-0.179909,0.225252,0.0317959,-0.00267334,-0.0644603,-0.126626,-0.0920083,0.0646328,-0.110129,0.0511888,-0.11367,0.0567025,0.00243123,-0.0487595,0.00650118,-0.101737,-0.0796144,-0.0785986,-0.047268,-0.065448,0.0465407,-0.0641151,0.00904468,0.0859449,0.0989546,0.186143,0.0213037,0.0694014,0.0080006,-0.00956142,0.0804156,0.0577454,0.109852,-0.163296,-0.0237014,0.108954,-0.129828,0.00879519,0.0172924,-0.0994104,0.00490249,0.0245686,0.112741,-0.134288,0.0521161,0.0933625,0.0868418,0.0918827,-0.0243249,0.0756264,0.0673784,-0.107578,0.138442,0.0407486,-0.0198954,0.00934656,0.0428349,-0.0860446,-0.0902778,-0.0779976,-0.0553052,-0.0960771,0.109595,-0.0327533
limited 0.0691281,0.205054,0.0105083,0.0683438,-0.06899,-0.0551709,-0.0237166,-0.101541,-0.00800624,0.0337139,-0.0558493,-0.174054,-0.133464,-0.0708921,0.0729611,0.0421203,0.126415,-0.135679,0.10417,-0.0697429,-0.123652,-0.0899668,0.123018,0.122384,0.0434562,-0.0159245,0.00334599,0.0864453,-0.105035,-0.148935,-0.0118467,-0.0281935,-0.0152407,0.137323,0.162547,-0.0046251,-0.0814149,0.191989,0.0872198,-0.0675786,-0.249129,-0.00387335,-0.177795,0.0230148,-0.0761882,-0.0812473,-0.063711,0.0760316,0.13318,-0.00513862,0.0368326,-0.0737942,-0.0280128,-0.109027,-0.038049,-0.0497783,0.0933025,-0.0348224,-0.209878,-0.024561,0.0892687,0.264759,0.0139964,-0.0185027,0.0349992,-0.121005,0.0063421,0.12654,0.167086,-0.118832,0.0112171,0.046253,-0.163353,-0.0607654,-0.116327,-0.078503,0.0372083,-0.049084,0.168717,-0.0170793,0.0225212,0.088868,0.00198946,0.119874,0.0933891,-0.0577077,-0.0626375,-0.102034,0.190907,-0.206893,-0.146382,-0.0508743,0.0464162,0.0574531,0.0167279,-0.0487001,-0.00728337,0.0565891,-0.0177069,0.0532954
raining -0.0119946,-0.124208,-0.161677,-0.132009,0.0837139,-0.0380901,0.0340858,0.022708,0.0320315,-0.152273,0.114159,0.12097,0.00932724,0.0954085,0.084775,-0.163899,0.0150585,0.16358,0.0680441,-0.0832991,0.144192,0.100916,-0.186987,-0.25083,-0.139626,0.0820293,-0.0158412,-0.0677822,0.0940992,0.197067,-0.0554636,0.139985,0.0662526,-0.0939695,0.0501703,0.0687048,-0.00591912,-0.113419,-0.0595358,-0.0835217,0.100478,-0.0636385,-0.0639777,0.0397226,-0.0605577,-0.114386,0.134806,-0.16035,0.0676263,0.0670104,-0.00819041,0.016024,0.0191361,0.112178,0.0846977,-0.0444762,-0.000280539,0.0424425,0.128489,-0.0524571,-0.180351,-0.120061,-0.0984147,0.0906696,-0.123946,0.0794007,-0.112235,0.0510906,-0.111012,0.172,-0.0621863,0.0800921,0.153386,0.123665,-0.061484,0.0900452,-0.135105,-0.0342945,0.0286965,0.150293,-0.0526563,-0.0927413,-0.0827324,-0.0597695,-0.082058,-0.0313,0.0892936,-0.026172,-0.216535,0.106153,-0.0193556,0.0700302,0.0607609,-0.141737,-0.0800517,-0.0716105,-0.0336016,-0.0150775,-0.0262925,0.0588537
hats 0.115371,0.187094,-0.00155458,0.0652695,-0.10161,-0.0910419,-0.0431076,-0.0938439,-0.0118559,0.0646353,-0.0431032,-0.185812,-0.216103,-0.082788,0.0685139,0.0525569,0.0994774,-0.0745794,0.0723571,-0.0295721,-0.187753,-0.0915901,0.108865,0.218977,0.0621792,-0.0280996,-0.0326223,0.11995,-0.0928399,-0.186959,-0.000130129,-0.00659563,-0.0409871,0.10944,0.0929775,-0.00978114,-0.157528,0.181643,0.078721,-0.0320528,-0.257016,-0.0298067,-0.193537,-0.0140057,-0.104192,-0.0207929,-0.0447564,0.0691055,0.110049,0.00178325,0.0527571,-0.118461,-0.0448637,-0.0437566,-0.0620435,-0.0679627,0.0593983,-0.0417177,-0.168776,-0.0397071,0.101263,0.216349,-0.0205812,-0.0557054,0.0146935,-0.170805,0.00251227,0.100663,0.112456,-0.130237,0.00670742,0.0298123,-0.156054,-0.0762101,-0.0818064,-0.119599,0.0439464,-0.0698728,0.193431,-0.0265146,0.051374,0.100139,0.0144113,0.0687174,0.0129924,-0.0278207,-0.0325306,-0.101729,0.172962,-0.181055,-0.117592,-0.0593968,0.00456439,-0.00356143,0.00787045,-0.0325215,-0.009502,0.0251359,0.0478943,0.0051701
personally 0.100234,0.180237,0.0512371,0.091382,-0.0575741,-0.0795943,-0.00501597,-0.110463,0.0314947,0.0299891,-0.07956,-0.15532,-0.187584,-0.0526429,0.0442637,0.0469953,0.141934,-0.0720986,0.0687832,-0.0781441,-0.146305,-0.0918475,0.142707,0.142699,0.0943448,-0.0545105,-0.0612407,0.103745,-0.0782455,-0.149358,-0.0411993,0.00305597,-0.0438042,0.0714692,0.131211,0.0318011,-0.1039,0.155587,0.0717808,0.00144772,-0.238415,-0.0563302,-0.196679,-0.0344414,-0.0581303,-0.0415061,-0.0298706,0.0603503,0.120271,-0.0124884,0.0223831,-0.131388,-0.0152242,-0.0764712,-0.0107746,-0.0808512,0.122355,-0.0259671,-0.205923,-0.0913778,0.0319115,0.258913,0.00310733,-0.0326475,0.0180255,-0.163255,-0.0631596,0.0984581,0.139864,-0.169587,0.0139801,0.0596326,-0.151553,-0.0230348,-0.0474174,-0.120119,0.0783279,-0.0626337,0.180222,0.00796803,0.0620283,0.0790032,0.0492113,0.0914206,0.0602068,0.0126295,-0.0344464,-0.106999,0.18679,-0.204469,-0.134564,-0.11135,0.0279035,0.0440504,0.0162646,-0.0764118,0.025405,0.0303516,0.029498,-0.00544658
sleep 0.0863095,0.186585,0.0297025,0.0797271,-0.0796443,-0.0785156,-0.0178252,-0.116804,0.0170755,0.0723594,-0.0427712,-0.160453,-0.195005,-0.0781553,0.0319366,0.0736021,0.129149,-0.0992604,0.0864888,-0.055198,-0.181231,-0.0628603,0.145027,0.198125,0.0644177,-0.065303,-0.0190895,0.0962544,-0.0924951,-0.175084,-0.000827434,-0.0133348,-0.051173,0.114068,0.135499,0.0253212,-0.140429,0.186786,0.0696539,-0.0188685,-0.226793,-0.0690432,-0.160418,0.00132144,-0.0804588,-0.0413557,-0.0558557,0.0847068,0.121446,0.00510687,0.0430222,-0.132871,-0.0601423,-0.0733096,-0.038738,-0.0572574,0.0912563,-0.0583837,-0.184971,-0.0484004,0.0729028,0.235525,-0.0181903,-0.0169682,0.0233301,-0.142976,-0.0205759,0.098777,0.143886,-0.16652,-0.00749727,0.0507667,-0.161488,-0.0469367,-0.0646482,-0.110337,0.0450158,-0.0367979,0.191772,-0.00453632,0.0675086,0.0985678,0.0441819,0.0917916,0.0399038,0.00386541,-0.0235683,-0.122545,0.167957,-0.176689,-0.128909,-0.0813403,0.00541409,0.0173582,-0.0175014,-0.0557268,-0.00480903,-0.00404422,0.0278145,0.00853189
hanging 0.0824849,0.15711,0.0404349,0.0623415,-0.0555954,-0.104428,-0.031442,-0.088284,-0.0127092,0.0870326,-0.0761985,-0.178293,-0.163568,-0.0390708,0.0271828,0.0718465,0.148405,-0.108413,0.0749719,-0.0364951,-0.174477,-0.0729438,0.12343,0.170435,0.0993925,-0.0560676,-0.032263,0.06254,-0.123137,-0.174103,-0.0120042,0.00122706,-0.0649063,0.13354,0.10354,0.00209135,-0.104603,0.178177,0.0890495,-0.00231211,-0.242185,-0.0328075,-0.196427,0.0143641,-0.0436974,-0.0561809,-0.0117936,0.111552,0.11307,0.0217696,0.0219278,-0.137214,-0.0790174,-0.0558376,-0.0655088,-0.0594446,0.0732573,-0.0678776,-0.188424,-0.0462895,0.0826358,0.249281,0.00230321,-0.018989,0.0349391,-0.163281,-0.020116,0.0722336,0.124339,-0.189273,-0.0036837,0.0425626,-0.183388,-0.062238,-0.0441216,-0.0932674,0.0626535,-0.0490726,0.208587,0.0240615,0.0499977,0.0763815,0.00462751,0.0542954,0.0704988,-0.0291652,-0.0387145,-0.0889709,0.179623,-0.187131,-0.117695,-0.100248,-0.0198269,0.0452849,-0.0391013,-0.0249485,-0.0281856,0.00549479,0.0363266,-0.0202139
francesca 0.0625679,0.209633,0.0432091,0.0704588,-0.0594828,-0.076904,-0.012366,-0.0708631,0.0257341,0.0249818,-0.0745837,-0.136929,-0.179449,-0.0720504,0.0636431,0.0710556,0.14883,-0.0905692,0.0665248,-0.0710274,-0.181066,-0.0481737,0.118502,0.168565,0.104467,-0.0560809,-0.0403627,0.0753777,-0.0945166,-0.162628,-0.00150256,-0.00212388,-0.0470308,0.0808236,0.116519,0.0336524,-0.137933,0.14579,0.0661234,-0.0277745,-0.237609,-0.0649059,-0.16848,-0.0184443,-0.0527235,-0.0822284,-0.0314219,0.106576,0.127108,-0.00112301,0.0360399,-0.114579,-0.0535984,-0.0832559,-0.03971,-0.0352906,0.0780706,-0.0389316,-0.215511,-0.0947254,0.0482892,0.243206,-0.0455019,-0.0505732,0.00400926,-0.172252,-0.0458245,0.105669,0.128389,-0.171483,-0.00674103,0.0116015,-0.137032,-0.0500672,-0.0790166,-0.107903,0.0464434,-0.0704483,0.175745,0.0506383,0.0575129,0.1024,0.0339639,0.0727194,0.0372122,-0.0157196,-0.0423957,-0.0943384,0.167727,-0.248345,-0.153736,-0.104136,0.00167653,0.045586,0.0232355,-0.0320226,-0.0032312,0.0325583,0.0115075,0.0383635
hate 0.0831854,0.186589,0.0366559,0.081652,-0.0758281,-0.082438,-0.0232238,-0.114891,0.0253251,0.0724502,-0.0481331,-0.158141,-0.191392,-0.0807196,0.0336829,0.0671385,0.122056,-0.102942,0.0818815,-0.0592667,-0.18853,-0.0628403,0.148532,0.199201,0.0723734,-0.0689676,-0.0229139,0.0892195,-0.0946124,-0.170446,-0.00341338,-0.0142126,-0.0481136,0.115542,0.131064,0.0253735,-0.13945,0.182423,0.0786278,-0.0164585,-0.232133,-0.0691423,-0.162549,-0.000559063,-0.0758236,-0.0391764,-0.0470466,0.0929393,0.129431,-0.00182427,0.0430639,-0.133603,-0.058909,-0.0754115,-0.0421303,-0.0568109,0.0902346,-0.0573099,-0.186064,-0.0429414,0.07089,0.233926,-0.0203204,-0.0173177,0.0265688,-0.140754,-0.0265428,0.0922725,0.148346,-0.159797,-0.0101329,0.0567666,-0.158913,-0.041953,-0.0681638,-0.106842,0.044798,-0.0442855,0.187391,-0.0107068,0.0658632,0.101754,0.0386031,0.0888322,0.0438535,0.00447818,-0.0324747,-0.118928,0.162536,-0.18075,-0.137139,-0.0794432,0.00655805,0.0230471,-0.0127419,-0.0617011,0.00036267,-0.00447858,0.0232113,0.00786872
trolley 0.041576,0.202621,0.087581,0.0181071,-0.108705,-0.0864655,0.000989282,-0.0489061,-0.0367168,0.0929384,-0.0422182,-0.179026,-0.118286,-0.0943577,0.0856028,0.0297619,0.151294,-0.0559035,0.0516379,-0.0236466,-0.113569,-0.0761889,0.0878037,0.224818,0.111146,-0.0375468,-0.0238462,0.140117,-0.146968,-0.194736,0.0228565,-0.0657986,-0.0876945,0.0445894,0.0598641,0.0132529,-0.120717,0.185973,0.0162171,-0.0658838,-0.233603,-0.0986939,-0.141633,0.0274173,-0.0897586,-0.0399454,-0.0971083,0.131523,0.132708,0.0506883,0.0781657,-0.121758,-0.0523445,-0.115719,0.0120481,-0.0474428,0.0847657,-0.0965853,-0.159497,-0.0167357,0.0693871,0.182861,0.0408298,-0.00952294,0.0442967,-0.129027,-0.0291851,0.0659946,0.166063,-0.190587,-0.00390067,0.0413985,-0.16716,-0.0824486,-0.0560282,-0.125351,0.0764903,-0.0366304,0.22092,-0.0499402,0.0176432,0.0733053,-0.0175857,0.030543,-0.0208843,0.0439442,0.0108184,-0.150308,0.153634,-0.184312,-0.106772,-0.0759767,0.00587262,0.0713066,-0.0318403,0.00136163,0.0130727,-0.0353914,-0.004428,-0.0402739
increase 0.10473,0.220908,0.00796989,0.0681118,-0.0529248,-0.0673069,-0.0270262,-0.128462,-0.00839399,0.0514483,-0.076265,-0.135003,-0.140893,-0.0736291,0.0523626,0.0778221,0.170316,-0.107918,0.0356896,-0.0980911,-0.145783,-0.0761768,0.154467,0.1633,0.0853475,-0.0814842,-0.0451657,0.108687,-0.0611438,-0.167986,0.0258853,-0.00153625,-0.00370672,0.0958006,0.123573,0.0553354,-0.119447,0.152176,0.0782539,0.00741096,-0.254482,-0.0868715,-0.129155,0.00900361,-0.029926,-0.0661492,-0.0111296,0.0635213,0.135238,-0.00856434,0.0171179,-0.157348,-0.0583728,-0.04673,-0.037887,-0.0462505,0.0752768,-0.0269896,-0.22546,-0.0633324,0.0432785,0.248933,-0.0100084,-0.0068474,0.0358681,-0.125073,-0.0306983,0.0918563,0.131564,-0.154706,-0.0215996,0.00643727,-0.115389,-0.0221003,-0.0647045,-0.0798807,0.0518881,-0.0548076,0.199602,0.0139378,0.0974913,0.0882423,0.00815956,0.0580114,0.0263099,-0.021513,-0.014513,-0.125361,0.195784,-0.241801,-0.107205,-0.130645,0.0341361,0.0201817,-0.0285051,-0.0741448,0.0395455,0.0431287,-0.0164279,0.0161068
buddy 0.0929497,0.186596,0.0321986,0.0633063,-0.0906694,-0.0922242,-0.0384634,-0.105077,0.0280321,0.0891443,-0.0299043,-0.144277,-0.185803,-0.0983097,0.0437956,0.056111,0.142692,-0.0984232,0.0871512,-0.0467021,-0.190137,-0.0819053,0.140395,0.183496,0.0759447,-0.0820309,-0.0199096,0.0915578,-0.110053,-0.154596,0.0118104,-0.00261079,-0.0507752,0.100141,0.122754,0.0208585,-0.151786,0.177695,0.0785633,-0.0392278,-0.236681,-0.0725421,-0.169638,0.0199713,-0.08482,-0.0576196,-0.051452,0.103422,0.0997736,0.00574267,0.0269503,-0.111635,-0.054964,-0.0827705,-0.0516122,-0.0773002,0.105517,-0.0451573,-0.173823,-0.052916,0.0795956,0.229392,-0.0348837,-0.0345575,0.00834467,-0.138024,-0.0180201,0.115096,0.132089,-0.153624,-0.00592904,0.0711396,-0.142513,-0.0409303,-0.0473148,-0.129765,0.0625787,-0.0483224,0.191925,0.0103356,0.0648897,0.0860282,0.0575416,0.0961214,0.0448404,0.0123389,-0.0307899,-0.110688,0.165342,-0.194219,-0.125239,-0.0833804,0.0167537,0.0285695,-0.0155823,-0.0506343,0.0120433,0.00379425,0.0134871,0.022444
snowing 0.0762537,0.230533,0.0701218,0.127823,-0.105495,-0.100559,0.042492,-0.0469735,0.0291838,-0.0125723,-0.0775472,-0.155041,-0.195286,0.00525798,-0.0291297,0.0545682,0.0596622,-0.086262,-0.00471972,-0.111222,-0.144029,-0.0890755,0.0221429,0.215726,0.149943,-0.106386,-0.058351,0.0605301,-0.0440759,-0.0975901,-0.000674232,0.102522,0.0051632,0.14006,0.0410959,-0.0434907,-0.0332336,0.179488,0.0856078,-0.0198298,-0.304865,0.0257822,-0.232412,-0.010129,-0.117615,-0.00573617,0.0132333,0.0785583,0.122291,0.0820396,0.0577364,-0.114192,-0.0568599,-0.0201343,-0.0524813,-0.0762218,0.0248108,-0.0630517,-0.171085,-0.0453172,-0.00642048,0.16685,0.0109037,-0.0185137,0.0685351,-0.150456,-0.113518,0.126684,0.0964162,-0.189534,-0.0542706,0.0419986,-0.085309,-0.0376362,-0.0437619,-0.10031,0.0229344,-0.0253548,0.158952,-0.028969,-0.00611597,0.0263213,-0.0609511,0.0118195,0.0795648,-0.0889894,0.0301127,-0.163393,0.113196,-0.214949,-0.122289,-0.139577,-0.0210659,-0.0320694,0.0462677,-0.043558,0.00817964,0.0911469,0.0642712,0.0275409
tweet 0.0751204,0.186753,0.0392232,0.0697687,-0.0743302,-0.0877652,-0.0290837,-0.114502,0.0101461,0.0542034,-0.0429861,-0.144116,-0.186799,-0.0652317,0.0338264,0.0720786,0.138901,-0.0884905,0.0816126,-0.0469691,-0.176537,-0.0775431,0.135785,0.1776,0.0870019,-0.0676151,-0.0186355,0.0815452,-0.109723,-0.169441,-0.0045286,-0.00928236,-0.0387215,0.11363,0.13125,0.0158599,-0.13818,0.183383,0.0851617,-0.0120566,-0.246624,-0.0657024,-0.174615,-0.00590826,-0.0764405,-0.0526513,-0.0508429,0.0807331,0.135926,0.0179806,0.0377521,-0.11634,-0.0637406,-0.0591516,-0.0379032,-0.0423633,0.082681,-0.0506082,-0.212261,-0.0568811,0.0733357,0.235929,-0.0194647,-0.0261913,0.0168833,-0.146368,-0.0223702,0.09666,0.142135,-0.166969,-0.0108117,0.0466503,-0.144429,-0.0365299,-0.0682704,-0.0985256,0.0563331,-0.0338483,0.190407,-0.00293791,0.0636497,0.105329,0.0316028,0.0834073,0.0351496,-0.0148309,-0.0375501,-0.125468,0.158454,-0.198657,-0.151436,-0.0956813,-0.00486221,0.0328284,-0.016978,-0.0521576,0.00925829,-0.00650236,0.0113327,0.00737372
ttyl 0.0612288,0.144057,0.0737878,0.0817088,-0.072337,-0.0614193,-0.0100085,-0.14144,-0.0210595,0.0323063,-0.0143714,-0.172118,-0.147498,-0.0445172,0.0533261,0.0412213,0.113434,-0.0526519,0.0800156,-0.0186973,-0.150055,-0.059565,0.104883,0.189462,0.0852616,-0.0968636,-0.0348187,0.0953013,-0.128572,-0.14966,0.025815,0.0375327,-0.00994586,0.0937774,0.112845,-0.0283855,-0.169043,0.126941,0.126854,0.0280414,-0.225442,-0.0845107,-0.150273,-0.00530105,-0.0216555,-0.11106,-0.0774863,0.0672893,0.173226,0.00830539,0.0479162,-0.175303,-0.0245753,-0.0186985,-0.0400377,-0.0868708,0.0441382,-0.0482036,-0.180131,-0.0395353,0.0247497,0.250619,-0.00768429,-0.0740579,0.0692782,-0.199846,-0.0217666,0.109375,0.140504,-0.114707,-0.0150304,0.0427311,-0.157941,-0.0560517,-0.113949,-0.0841332,0.0393179,-0.0360185,0.14158,0.0105191,0.0799977,0.050666,0.0569125,0.0645157,0.00810262,0.0185577,-0.0658287,-0.110593,0.144496,-0.266834,-0.15899,-0.109116,0.0164161,0.0616346,0.0392888,-0.0636165,0.0445556,0.0585888,-0.0451257,-0.0024612
list 0.0968182,0.182011,0.0269358,0.0785496,-0.0733094,-0.0765887,-0.0263737,-0.113287,0.0214319,0.0684992,-0.0402051,-0.158803,-0.211243,-0.0920141,0.0237093,0.0649995,0.131649,-0.0984723,0.0924844,-0.0383242,-0.179752,-0.0517549,0.16625,0.194638,0.0568149,-0.0723346,-0.0150715,0.0920103,-0.0789458,-0.183128,0.00891491,-0.0267618,-0.0390887,0.110702,0.144973,0.0108153,-0.14547,0.196457,0.081011,-0.0174674,-0.227725,-0.0868912,-0.14915,-0.00592916,-0.0700558,-0.045,-0.0471394,0.0808826,0.123591,-0.00170687,0.0434026,-0.127107,-0.0627168,-0.0686825,-0.0324338,-0.0693371,0.0943716,-0.0515656,-0.183818,-0.0388294,0.0774838,0.248494,-0.00216858,-0.0131462,0.0089537,-0.123459,-0.017179,0.109285,0.137131,-0.165063,-0.0127248,0.0698342,-0.148752,-0.0469697,-0.0615878,-0.100377,0.0462659,-0.0451511,0.172852,-0.0108302,0.0718207,0.103871,0.0459628,0.0895083,0.042815,-0.000779153,-0.0275782,-0.113357,0.167749,-0.161911,-0.13812,-0.0872804,0.00564451,0.0187068,-0.0332723,-0.0551924,-0.0111112,-0.0125777,0.026764,-0.00391535
bike 0.0943881,0.186376,0.0299721,0.0739951,-0.057067,-0.0805258,-0.0124089,-0.106371,0.0205157,0.0653808,-0.0500285,-0.14963,-0.181726,-0.0654701,0.0525355,0.0860656,0.151291,-0.102025,0.0669027,-0.0443901,-0.18436,-0.0829447,0.116059,0.165888,0.0971925,-0.0417023,-0.0315651,0.0878336,-0.0921938,-0.169333,0.000117788,-0.0168136,-0.0458657,0.0932246,0.118143,0.0223143,-0.137554,0.170576,0.0813221,-0.020494,-0.255432,-0.0656795,-0.182732,0.00367478,-0.0659915,-0.0382819,-0.0515553,0.0698256,0.141128,0.02459,0.05956,-0.139654,-0.0530337,-0.0493526,-0.0568685,-0.0382468,0.110089,-0.0669378,-0.209058,-0.0814957,0.0701664,0.222932,-0.0199512,-0.0436945,0.00728804,-0.153123,-0.0503903,0.11201,0.15436,-0.144622,-0.00820449,0.0229582,-0.149414,-0.0322915,-0.0900715,-0.0917225,0.0423409,-0.04315,0.192946,-0.00613092,0.0609532,0.0902278,0.0403949,0.063783,0.045784,0.00959953,-0.0576844,-0.0985475,0.176411,-0.202872,-0.126842,-0.0879549,0.0197531,0.0160043,-0.0135699,-0.0460227,-0.0164356,0.0209871,0.0310092,0.0222769
under 0.0831958,0.20883,0.051846,0.0844957,-0.0767403,-0.0716587,-0.0302908,-0.121314,0.00101855,0.0670795,-0.0772733,-0.157952,-0.166764,-0.0618248,0.0455682,0.0424917,0.152539,-0.0715675,0.0410761,-0.0842054,-0.164846,-0.0481035,0.142237,0.208085,0.107156,-0.0663103,-0.0162336,0.0632142,-0.101513,-0.158318,0.0143106,0.0223785,-0.0254434,0.0972047,0.149567,0.0242218,-0.108741,0.147502,0.0587596,-0.00742864,-0.228043,-0.0634134,-0.160481,0.0257138,-0.0610719,-0.0442492,-0.0410267,0.0681403,0.140617,0.0412835,0.062894,-0.157176,-0.0537647,-0.0564644,-0.0081191,-0.0397359,0.11974,-0.0571957,-0.229684,-0.0422797,0.0893799,0.239468,-0.0396811,-0.0560271,0.0410049,-0.160736,-0.0196019,0.118053,0.171777,-0.16579,0.0109945,0.0655986,-0.133201,-0.0319038,-0.0626283,-0.103132,0.0684114,-0.0516122,0.195045,0.0388346,0.0670027,0.080434,0.0191038,0.0975658,0.0588767,-0.0279464,-0.052555,-0.102727,0.128111,-0.162421,-0.115796,-0.0590279,-0.0129739,0.00296065,-0.0286297,-0.0621206,0.0226218,0.0199684,0.0454546,0.0399545
sorry 0.0884363,0.183232,0.026414,0.0664944,-0.0758091,-0.0766739,-0.0148439,-0.106006,0.0123244,0.061622,-0.0543882,-0.152022,-0.188938,-0.0728249,0.0438928,0.0785749,0.133188,-0.0884181,0.076834,-0.0581375,-0.170348,-0.0735122,0.131822,0.190565,0.0851412,-0.054634,-0.0322455,0.0954908,-0.0938179,-0.172272,-0.00860698,0.00157641,-0.0461495,0.109062,0.130959,0.0192244,-0.13784,0.174592,0.0743484,-0.0220313,-0.247345,-0.0583145,-0.16079,-0.000467331,-0.0676128,-0.0500872,-0.0384175,0.0945733,0.132536,0.0131784,0.0467901,-0.125515,-0.0470547,-0.0720965,-0.04083,-0.0620371,0.0846695,-0.0468615,-0.21017,-0.0666841,0.0625507,0.231636,-0.0183299,-0.0350242,0.0234159,-0.145261,-0.0390745,0.103169,0.13755,-0.161459,0.00320711,0.0414911,-0.154436,-0.0517412,-0.0730601,-0.114793,0.0514229,-0.0527178,0.195683,0.0074054,0.0717543,0.0976913,0.033205,0.0924839,0.0504129,-0.00428792,-0.0332279,-0.121535,0.156877,-0.196247,-0.138618,-0.0953928,-0.00260719,0.0309965,-0.0132363,-0.0561325,-0.00489265,0.00898641,0.0228981,0.0136291
pride 0.102327,0.190656,0.0270537,0.050433,-0.0867686,-0.0822404,-0.00701301,-0.089924,0.0172583,0.0806055,-0.0490037,-0.169193,-0.174108,-0.0723654,0.0346779,0.0680836,0.136209,-0.0946706,0.0899981,-0.0469812,-0.196021,-0.0510568,0.137543,0.181083,0.102333,-0.0685419,-0.0135507,0.0670614,-0.106849,-0.153605,-0.00242626,-0.00331811,-0.046635,0.105293,0.141343,0.00953229,-0.150347,0.176994,0.0699973,-0.00861421,-0.258394,-0.040414,-0.153085,0.0100372,-0.061766,-0.0514799,-0.0425556,0.0700413,0.140443,0.0111988,0.0239439,-0.118387,-0.0533543,-0.0788419,-0.0512659,-0.0643317,0.095387,-0.0448286,-0.189486,-0.0431539,0.0621042,0.223957,-0.0177891,-0.0424589,0.00935028,-0.147906,-0.0369679,0.118831,0.155808,-0.17518,-0.020935,0.0270785,-0.139796,-0.0636386,-0.0526741,-0.100549,0.0468458,-0.0627008,0.186909,0.00855585,0.0536246,0.0835009,0.0310801,0.0980108,0.0530527,0.00793554,-0.0580495,-0.137359,0.145175,-0.207257,-0.134214,-0.0808558,-0.0154688,0.0463464,-0.00554305,-0.0398896,0.0100402,0.0238879,0.0132116,-0.00473685
whack 0.10259,0.189396,0.0330101,0.108081,-0.0893452,-0.09155,-0.0224802,-0.114314,0.0221568,0.0873197,-0.030981,-0.166389,-0.20868,-0.0925378,0.0343163,0.0713904,0.120189,-0.108009,0.101832,-0.0563496,-0.175195,-0.0723315,0.153062,0.212985,0.0582834,-0.088778,0.00506266,0.109088,-0.0940692,-0.186921,0.0157882,-0.0355586,-0.0584614,0.115552,0.153233,0.0120506,-0.144968,0.191731,0.058385,-0.0249933,-0.219411,-0.0731468,-0.140041,0.000153906,-0.0852805,-0.0292607,-0.0720553,0.0829861,0.104517,-0.017933,0.0430636,-0.117187,-0.0706044,-0.0608075,-0.0417242,-0.057246,0.0856658,-0.0543511,-0.164921,-0.0248946,0.0709533,0.221941,-0.00382508,-0.00635951,0.010735,-0.122053,-0.010451,0.0984592,0.139087,-0.164201,-0.0233363,0.0607638,-0.165788,-0.0426872,-0.0607269,-0.107961,0.0347429,-0.0196427,0.171918,-0.0295006,0.0795445,0.108027,0.0410104,0.0847473,0.0395741,0.0127764,-0.0191292,-0.132969,0.179943,-0.133573,-0.124383,-0.0602084,0.0203031,-0.00596844,-0.0260647,-0.0615445,-0.0114071,-0.0186652,0.0308619,0.00580933
updated 0.0705209,0.189382,0.0177159,0.0715399,-0.0729748,-0.0657003,-0.0185171,-0.105263,0.0181195,0.0574805,-0.0434256,-0.156296,-0.171036,-0.0592218,0.0481688,0.0778685,0.147512,-0.0883304,0.056704,-0.0742246,-0.164042,-0.0770748,0.122153,0.172049,0.0829729,-0.0569054,-0.0281962,0.0838915,-0.101338,-0.178142,-0.01311,-0.00396655,-0.0376484,0.100223,0.130418,0.0148074,-0.137856,0.184486,0.0691656,-0.0156288,-0.255886,-0.0572482,-0.168087,0.00089557,-0.0711408,-0.0601689,-0.0445048,0.0957159,0.135894,0.013023,0.0342252,-0.140695,-0.0460074,-0.0638727,-0.0451416,-0.0561914,0.0826915,-0.0621737,-0.207579,-0.0559708,0.0713027,0.227127,-0.0340642,-0.0284542,0.0116492,-0.160262,-0.0313393,0.0897454,0.145427,-0.164151,0.000103745,0.042115,-0.148521,-0.0590539,-0.0686663,-0.120253,0.0400316,-0.0569704,0.19651,0.0202019,0.0747879,0.0988461,0.032305,0.089912,0.0444577,-0.0147521,-0.045341,-0.114475,0.16243,-0.197894,-0.143332,-0.0952638,-0.010929,0.0381018,-0.0157852,-0.050963,-0.00681225,0.0232218,0.000656917,0.0168378
callin 0.0905402,0.189976,0.0298032,0.076034,-0.0810525,-0.0936902,-0.0306339,-0.0971831,0.0129919,0.0494022,-0.0432131,-0.156261,-0.196563,-0.0907874,0.0452052,0.0558577,0.142456,-0.0806551,0.0789563,-0.0562199,-0.161568,-0.0718562,0.152039,0.195837,0.0807788,-0.0688276,-0.0363209,0.102297,-0.100724,-0.174352,0.00926232,-0.0185171,-0.0284538,0.122707,0.110662,0.0303785,-0.149435,0.16623,0.057619,-0.0258024,-0.246208,-0.076299,-0.162172,-0.00696917,-0.0802322,-0.0441287,-0.0571082,0.0875637,0.120167,-0.00246817,0.0518621,-0.127453,-0.0449311,-0.0588327,-0.0371287,-0.0494566,0.0971721,-0.0599953,-0.185921,-0.0711728,0.049892,0.242147,-0.00892248,-0.0378571,0.0217751,-0.129749,-0.0384267,0.0883281,0.138374,-0.145693,0.00583379,0.0591338,-0.147727,-0.0578032,-0.0797817,-0.121654,0.0497511,-0.0426014,0.187119,-0.00385936,0.0522273,0.108996,0.0349841,0.100577,0.0277511,-0.00131811,-0.0291745,-0.132618,0.155075,-0.188594,-0.150244,-0.0998975,0.00754942,0.0290654,-0.00676506,-0.0403248,0.0149866,0.00316573,0.00827468,-0.00110281
regional 0.0894093,0.179397,0.0294333,0.0859051,-0.0657778,-0.0831588,-0.0219517,-0.0994638,0.0112303,0.0611771,-0.0336739,-0.159192,-0.192266,-0.0862557,0.027522,0.0663436,0.132593,-0.0901281,0.0710416,-0.0573358,-0.178187,-0.0542049,0.147627,0.199304,0.0724757,-0.0559528,-0.0290964,0.08041,-0.107549,-0.164403,-0.00608727,-0.0128689,-0.0549435,0.119845,0.116568,0.00974955,-0.135844,0.184158,0.0664143,-0.0277953,-0.236075,-0.0552285,-0.170141,-0.0147571,-0.0636978,-0.0557159,-0.0582643,0.0846525,0.12643,0.0156289,0.0349424,-0.13565,-0.0649416,-0.0666685,-0.0293257,-0.0618048,0.0998642,-0.0554696,-0.20863,-0.0551104,0.0590978,0.244906,-0.027571,-0.0155783,0.032272,-0.134333,-0.032637,0.0980186,0.148614,-0.146549,-0.00936856,0.0507644,-0.160318,-0.0448231,-0.0615762,-0.10912,0.0434283,-0.030172,0.193531,-0.00145155,0.0721264,0.107566,0.0375633,0.0965365,0.0516721,-0.00623955,-0.0442512,-0.117846,0.170314,-0.178895,-0.138111,-0.0812487,0.000964945,0.0406544,-0.0179175,-0.0512961,-0.0102368,0.00333338,0.0248315,-0.00385253
copout 0.0749558,0.19649,0.016607,0.0589003,-0.0777121,-0.082446,0.00609991,-0.0745715,0.012046,0.103485,-0.0596778,-0.196503,-0.13899,-0.116539,0.0186136,0.0575584,0.0977806,-0.102525,0.115254,-0.0959485,-0.141247,-0.0406552,0.104107,0.185879,0.0748623,-0.0663685,0.0124808,0.11061,-0.0924634,-0.203125,-0.0366715,0.0329899,-0.0442993,0.13824,0.107945,0.044175,-0.144021,0.165182,0.113427,-0.0235123,-0.257157,-0.100054,-0.130541,-0.0182742,-0.0610675,-0.079456,-0.0193153,0.0442823,0.109531,0.0216629,0.0436786,-0.12171,-0.0115249,-0.0372566,-0.0418356,-0.0641496,0.0438575,-0.0175022,-0.194825,-0.0775389,0.0317798,0.208483,0.0187537,-0.0561216,-1.57023e-05,-0.187399,-0.0338257,0.11324,0.104424,-0.129487,-0.00612195,0.0889585,-0.146922,-0.0646511,-0.0833927,-0.0738342,0.0865166,-0.0394921,0.145314,-0.00972488,0.0235111,0.0794202,0.00574882,0.118386,0.010854,-0.0226372,-0.0089735,-0.110305,0.189803,-0.219941,-0.169557,-0.119916,0.037242,-0.00248596,-0.0477885,-0.0571662,0.0404086,-0.0347741,0.00776439,0.05242
stolen 0.0734357,0.17863,0.0110396,0.0718216,-0.058924,-0.0782478,-0.0144372,-0.089675,0.0135097,0.0387734,-0.059366,-0.159295,-0.173215,-0.0522596,0.0284716,0.07473,0.153115,-0.0838988,0.063882,-0.0739209,-0.173254,-0.0690765,0.116563,0.181839,0.10195,-0.0500342,-0.0382304,0.0701627,-0.110109,-0.155443,-0.0142441,0.0141833,-0.025373,0.100543,0.12526,0.0355106,-0.111869,0.158561,0.0812936,-0.0197809,-0.256236,-0.0560587,-0.175049,-0.00869934,-0.0651852,-0.0614067,-0.0359269,0.0814318,0.155465,0.022905,0.0512194,-0.127686,-0.0541392,-0.0702792,-0.0494794,-0.0562802,0.0894375,-0.0386522,-0.234611,-0.0759424,0.0626607,0.23319,-0.020453,-0.050221,0.0124936,-0.176332,-0.0359068,0.0909571,0.138277,-0.153743,0.0100105,0.02848,-0.146249,-0.0551924,-0.0795771,-0.116023,0.0454186,-0.048492,0.183897,0.0190189,0.0520366,0.0978459,0.0167287,0.0777718,0.055285,-0.0204947,-0.0439359,-0.1131,0.16982,-0.217733,-0.142716,-0.10256,-0.010243,0.0478718,-0.00613399,-0.0441451,0.00444621,0.0147423,0.00818759,0.00346207
every 0.0929555,0.17896,0.0320995,0.0605113,-0.0638333,-0.0731784,-0.024445,-0.112747,0.0105334,0.0677079,-0.0404719,-0.160287,-0.176805,-0.063934,0.0355078,0.0665274,0.132514,-0.10422,0.0751705,-0.0534917,-0.18208,-0.0772843,0.13853,0.194008,0.0939581,-0.0473019,-0.0358625,0.0944483,-0.107833,-0.160957,0.00182926,0.00987735,-0.0492147,0.107566,0.130345,0.0138399,-0.131222,0.185173,0.071007,-0.0232079,-0.24479,-0.0646192,-0.164223,-0.0177747,-0.0631208,-0.0669518,-0.0491853,0.0767623,0.126318,0.0176378,0.0419651,-0.128684,-0.0431731,-0.0625677,-0.0368923,-0.0490391,0.0995892,-0.0486623,-0.213037,-0.0629652,0.0576995,0.232362,-0.0112918,-0.020253,0.0336336,-0.149494,-0.0287053,0.107279,0.149028,-0.164644,0.00119826,0.0522497,-0.156424,-0.0507589,-0.0757607,-0.113228,0.0411625,-0.0400833,0.185061,0.00860816,0.0646556,0.0982378,0.0415982,0.0870303,0.0411361,2.92884e-05,-0.0283265,-0.108264,0.158178,-0.199747,-0.142295,-0.089995,0.000313421,0.0407984,-0.00430788,-0.0521211,-0.00868997,0.0182221,0.0082439,0.0202815
calcio 0.0979456,0.207158,0.0262801,0.0903478,-0.0625774,-0.0960924,-0.00130049,-0.100363,0.0399152,0.0660731,-0.0443737,-0.138793,-0.195414,-0.0916627,0.0530092,0.0896413,0.113518,-0.112491,0.0722192,-0.0314555,-0.188005,-0.0499244,0.162903,0.198747,0.0498948,-0.0768811,-0.00798711,0.0796181,-0.103296,-0.184059,-0.0125735,-0.00948058,-0.0701325,0.112101,0.126425,0.0227335,-0.151319,0.201727,0.0748904,-0.00845043,-0.219169,-0.0544812,-0.164366,-0.00250963,-0.0614714,-0.0557806,-0.0578942,0.0901426,0.117738,0.00943877,0.0200461,-0.14593,-0.0439792,-0.0866152,-0.057036,-0.0402999,0.106108,-0.0341277,-0.211323,-0.0628117,0.0715315,0.216524,-0.0221633,-0.042142,0.0391399,-0.131692,-0.0398187,0.0868808,0.150072,-0.150834,0.0100873,0.0647264,-0.163198,-0.030295,-0.0476363,-0.0887174,0.0619588,-0.0261113,0.189212,-0.0187493,0.0567366,0.0803331,0.0418834,0.109735,0.014591,-0.0161252,-0.0266236,-0.113021,0.162181,-0.167797,-0.115676,-0.0602948,0.0112198,0.0328919,-0.0158342,-0.0626645,-0.0100782,0.0128492,0.0110758,0.00722159
screaming 0.0800776,0.2223,0.0290231,0.0954527,-0.0375853,-0.11182,-0.0475805,-0.0975055,-0.0263796,0.0531037,-0.0728408,-0.170723,-0.186534,-0.0982974,0.0474769,0.0565614,0.125215,-0.114562,0.0767606,-0.0670533,-0.148665,-0.0437066,0.154766,0.145603,0.0843767,-0.023568,-0.070072,0.113689,-0.0533717,-0.185773,-0.0519106,0.0280553,-0.0631979,0.101711,0.140695,0.0305687,-0.119167,0.131652,0.0920678,-0.0170139,-0.216042,-0.0805433,-0.20635,-0.0154205,-0.0761861,-0.0416623,-0.0518571,0.0827977,0.167305,1.10282e-05,0.0300043,-0.0974426,-0.0453427,-0.0304359,-0.0586693,-0.086248,0.0769939,-0.0906823,-0.188291,-0.0984574,0.0473226,0.197102,-0.0520396,-0.00538263,0.0231122,-0.135016,-0.0702776,0.0556821,0.173751,-0.145226,-0.00987526,0.00518869,-0.112025,-0.0185814,-0.0439612,-0.0701653,0.0573053,-0.0323876,0.216178,0.0185616,0.107953,0.112001,0.0428466,0.0697417,0.079967,-0.0133398,-0.0480304,-0.140373,0.127761,-0.214987,-0.107708,-0.126686,-0.0435538,0.00125537,-0.0133685,-0.0105956,-0.0166171,-0.0139256,-0.0203356,-0.00458783
monkeys 0.0435324,0.0724936,0.0957508,0.133613,-0.0972399,-0.0600699,0.0867402,0.0296759,0.115805,0.0796172,0.0340215,-0.145055,-0.154524,-0.0741624,-0.0220691,0.0544452,0.175017,-0.0196809,-0.0682691,0.0576556,-0.197277,0.0312205,0.131776,0.139699,0.191043,0.0321707,-0.0787876,0.107564,-0.0946457,-0.151594,-0.0486165,0.107066,-0.0194261,0.0128145,0.0473457,-0.0821096,-0.114507,0.144249,0.156206,-0.0656566,-0.19789,-0.0269765,-0.229921,0.0399911,0.0768082,-0.0619726,0.0799972,-0.0370165,0.0829387,0.0807144,0.0301853,-0.126599,0.020788,0.0745332,-0.0570334,-0.0497834,0.118757,0.0216792,-0.170672,0.0229958,0.0991257,0.228004,0.00240076,-0.0124982,-0.0821534,-0.00354986,0.0360608,-0.00663473,0.198816,-0.205313,0.0558375,-0.015569,-0.0267507,-0.156847,0.00510974,-0.171015,0.145523,0.0545948,0.0817484,0.0619386,0.0563384,0.0462401,0.131171,0.138747,0.154357,-0.0370907,-0.0879303,0.0197477,-0.0240002,-0.0465468,-0.13518,-0.0686501,-0.0961974,-0.00276016,0.0347663,-0.0416805,0.0159461,-0.0901923,0.0940594,0.0882093
tagging 0.0779383,0.180272,0.0167092,0.0663242,-0.0857591,-0.0696389,-0.0318801,-0.111761,0.0105974,0.0704469,-0.0351266,-0.165103,-0.188373,-0.0902843,0.0490685,0.0836249,0.120034,-0.0967943,0.0841545,-0.0531348,-0.189935,-0.081965,0.125641,0.199923,0.0607437,-0.0592104,-0.0166353,0.0900616,-0.0840083,-0.168491,0.00962504,-0.00204724,-0.0582004,0.110989,0.111786,0.0140366,-0.131294,0.17508,0.0591355,-0.0153176,-0.249618,-0.0630447,-0.172444,-0.0194595,-0.0699633,-0.0440275,-0.0429254,0.0880646,0.112741,0.0153617,0.0328958,-0.125385,-0.0498407,-0.0724523,-0.0252818,-0.0696421,0.0793368,-0.0451049,-0.186131,-0.0454166,0.0691275,0.254147,-0.0150866,-0.0383672,0.0213736,-0.141377,-0.0210183,0.116193,0.153214,-0.154637,-0.00803129,0.0566025,-0.148764,-0.0312917,-0.0576477,-0.104832,0.0428332,-0.0330387,0.206905,0.0191836,0.0702537,0.10477,0.0527549,0.0869542,0.0584089,-0.00267479,-0.0280037,-0.114431,0.170128,-0.192686,-0.134983,-0.0804203,0.020748,0.029239,-0.00412003,-0.0585472,0.0155903,0.020124,0.0279737,0.0101674
school 0.0790554,0.186657,0.0306983,0.0771535,-0.0760253,-0.0753994,-0.018303,-0.106039,0.015784,0.0630187,-0.0464845,-0.154932,-0.187067,-0.0695466,0.0357341,0.0700766,0.134465,-0.099496,0.073977,-0.0652313,-0.182882,-0.069908,0.132571,0.189223,0.0843709,-0.0568256,-0.0268152,0.0919013,-0.1036,-0.171033,-0.00815045,0.00130605,-0.0413336,0.111257,0.121364,0.0239498,-0.130736,0.181149,0.0733773,-0.0195917,-0.239199,-0.0631124,-0.169301,-0.00252295,-0.0695171,-0.0527708,-0.0484794,0.0887628,0.129044,0.00673324,0.0475531,-0.125144,-0.0482128,-0.0722797,-0.0399718,-0.0527566,0.0887999,-0.0560334,-0.204649,-0.0626116,0.0617632,0.233773,-0.0237618,-0.0233655,0.0217955,-0.145423,-0.0298752,0.0991298,0.14682,-0.160202,-0.00672872,0.0447691,-0.156524,-0.0474748,-0.0772118,-0.112347,0.0493751,-0.0398015,0.196491,0.00873824,0.063586,0.100227,0.0341708,0.083867,0.0413232,-0.00987528,-0.0354282,-0.123146,0.160954,-0.201692,-0.141295,-0.085004,-0.000416937,0.0282758,-0.00607424,-0.0516525,0.00205765,0.00751938,0.0170338,0.00674326
bestfriend 0.0416142,0.0133621,0.0858745,0.161055,-0.0385113,-0.0112408,0.0412256,-0.126758,0.101854,0.203908,0.101623,-0.00795036,-0.189246,-0.176657,-0.0576628,-0.00659977,-0.0809118,-0.104695,0.201805,0.0731108,-0.14127,0.0733036,0.155394,0.23795,-0.0779281,-0.072528,0.0812766,0.0882635,0.0505809,-0.131255,0.0188109,-0.202923,-0.116041,0.0992477,0.0706866,-0.0238014,-0.172846,0.137758,0.00869011,-0.0259852,0.0523413,-0.0837952,-0.0536257,0.111588,-0.110653,0.0507345,-0.116606,-0.00432897,-0.106671,-0.088652,-0.00618062,-0.0410429,-0.0364852,-0.0991252,-0.0612571,-0.0534294,-0.0145184,-0.00513252,0.105932,0.117802,0.0787772,0.0520849,-0.00516939,0.0635147,-0.0330486,0.0514692,0.171806,-0.0572363,0.0974,-0.0743162,-0.031555,0.0498854,-0.0876351,0.0431467,0.0805716,-0.0855412,0.0273366,0.084323,-0.0488158,-0.191169,-0.00362007,0.104394,0.0899391,0.0367581,-0.0567041,0.124735,0.0995001,-0.0462572,0.101227,0.161436,0.0904427,0.0987692,0.0858895,-0.15622,-0.138348,-0.0521294,-0.124067,-0.0917464,0.19673,-0.013078
calif 0.0970609,0.20482,0.0181682,0.0914426,-0.0716663,-0.0675293,-0.00616819,-0.1185,0.0153722,0.0654445,-0.0384993,-0.169928,-0.178206,-0.0689974,0.0347162,0.0657155,0.139158,-0.109004,0.064898,-0.064374,-0.166753,-0.0823106,0.141435,0.169643,0.0892176,-0.0563463,-0.0315759,0.0751488,-0.0877921,-0.171193,0.00231718,0.0133613,-0.0374768,0.103094,0.132026,0.0310428,-0.131772,0.191369,0.0784539,-0.0169583,-0.236997,-0.0492091,-0.177766,-0.00770921,-0.0651673,-0.0549116,-0.0598281,0.0767181,0.138418,0.00769494,0.034201,-0.117924,-0.0647275,-0.0639827,-0.0551961,-0.0686818,0.0876449,-0.0533329,-0.193772,-0.0635444,0.0664412,0.24339,-0.0161621,-0.0196563,0.0242137,-0.160161,-0.0185816,0.102369,0.128254,-0.160524,-0.000151928,0.0536523,-0.150911,-0.0332745,-0.0718397,-0.0972599,0.0387213,-0.0385062,0.189811,0.00822003,0.049434,0.0817291,0.0479001,0.0965652,0.0443174,0.00872505,-0.0500316,-0.120645,0.15359,-0.190778,-0.152879,-0.0791864,0.000640917,0.0439424,-0.0174471,-0.0634809,-0.00977807,0.0156615,0.0201975,0.0220822
venue 0.085696,0.196253,0.00556051,0.0444125,-0.0718511,-0.0592582,-0.0162411,-0.0742913,0.00443312,0.055128,-0.0277754,-0.115079,-0.211647,-0.0567118,0.0568213,0.107437,0.0857753,-0.111072,0.106483,-0.0934014,-0.139262,-0.0781472,0.108614,0.156212,0.0601539,-0.0246517,-0.027245,0.0725286,-0.0584618,-0.203192,-0.0196,0.00102629,-0.0688144,0.0658152,0.13249,0.00685972,-0.12739,0.194671,0.0618725,-0.0065321,-0.189074,-0.0570432,-0.164126,-0.0133783,-0.0340441,-0.065157,-0.010561,0.0718193,0.161393,0.00558311,0.0527124,-0.0900355,-0.0692147,-0.10983,-0.067663,-0.0265218,0.12095,-0.0914624,-0.168107,-0.0157642,0.0843288,0.26425,0.00147154,-0.00908144,0.0286704,-0.172407,-0.0573297,0.129335,0.177179,-0.184331,-0.0349848,0.00521786,-0.136407,-0.0734456,-0.0468564,-0.141517,0.0327869,-0.0031824,0.160986,-0.00881537,0.0902109,0.112376,0.0382055,0.0871815,0.0253111,0.00955537,0.00174827,-0.139126,0.193736,-0.219854,-0.125503,-0.0697063,0.00666007,0.0450517,-0.00433189,-0.0380286,-0.00278207,0.0017769,0.00226131,0.0391174
wednesday 0.0969545,0.19778,0.0367603,0.0665228,-0.0689559,-0.0881402,-0.0294594,-0.102878,0.0154762,0.0565351,-0.0609879,-0.160776,-0.185287,-0.0845242,0.042971,0.0721151,0.147448,-0.108736,0.0563602,-0.0687561,-0.161401,-0.0772069,0.140015,0.17286,0.0981179,-0.0501987,-0.016797,0.0732393,-0.109018,-0.183152,-0.0169004,-0.00166284,-0.0523273,0.116228,0.13339,0.0278602,-0.141361,0.183208,0.0876158,-0.0199487,-0.23858,-0.0511321,-0.17954,0.00151109,-0.0624077,-0.0411997,-0.0403107,0.0744675,0.126436,0.00433178,0.0384682,-0.11584,-0.0423083,-0.0620078,-0.0512835,-0.0399533,0.0994169,-0.0401635,-0.194281,-0.0509676,0.063929,0.240125,-0.0326475,-0.039007,0.0213581,-0.154508,-0.028954,0.110291,0.137345,-0.163602,-0.00688742,0.0293292,-0.145225,-0.0427679,-0.0835508,-0.104933,0.0559347,-0.0319816,0.193149,0.0148151,0.0735058,0.0841609,0.0508507,0.0860537,0.0485712,-0.0256857,-0.0393455,-0.103972,0.154212,-0.189696,-0.141778,-0.0792143,0.00152131,0.0233511,-0.0175362,-0.0578536,0.000648513,0.0114429,0.0216224,0.02374
crotch 0.0987148,0.171045,0.0239299,0.0760778,-0.0718627,-0.0842012,-0.000558681,-0.0858027,0.0115796,0.0702191,-0.068822,-0.148824,-0.155893,-0.060774,0.0566061,0.0834963,0.118896,-0.11332,0.0314563,-0.0447877,-0.169671,-0.0845213,0.0924437,0.141746,0.0760173,-0.033755,-0.0209663,0.104765,-0.12579,-0.149753,-0.016529,0.0357356,-0.0101721,0.110437,0.118385,0.0378557,-0.106791,0.170372,0.0938886,0.0055179,-0.275933,-0.0359461,-0.140196,-0.0270689,-0.0320387,-0.0773023,-0.0565832,0.0947939,0.161874,0.0185835,0.0564423,-0.127802,-0.0247773,-0.0649563,-0.00723971,-0.0243926,0.108394,-0.0638051,-0.240247,-0.101007,0.0507887,0.247879,-0.0429279,-0.0206897,0.0375892,-0.166809,-0.0572913,0.0992256,0.131495,-0.138234,0.00187767,0.00349734,-0.157614,-0.0329048,-0.0556232,-0.127478,0.0253011,-0.0343669,0.173103,0.0324332,0.0869362,0.0634432,0.0439641,0.0799773,0.0262709,-0.0439223,-0.0375105,-0.138834,0.144539,-0.229926,-0.165557,-0.0855451,-0.0325504,0.0400156,0.00606509,-0.0523144,-0.0105205,0.0148056,0.025759,0.0399203
eh 0.0832596,0.168937,0.00306862,0.0387683,-0.110657,-0.107862,-0.0495442,-0.0852263,0.0110684,0.070732,-0.0356075,-0.143656,-0.188178,-0.0680143,0.0251308,0.0306818,0.137304,-0.109227,0.0602611,-0.086928,-0.195534,-0.0344404,0.108055,0.207573,0.0340798,-0.0343108,-0.0599508,0.0771257,-0.0631421,-0.186628,-0.0194513,0.00609706,-0.0656612,0.0902421,0.130897,0.0121063,-0.166091,0.204674,0.0948211,0.0120143,-0.186044,-0.0527223,-0.143778,-0.0336754,-0.107166,-0.0552117,-0.0524144,0.055939,0.113229,-0.0302177,0.0648746,-0.139114,-0.0332758,-0.102865,-0.0493805,-0.0143946,0.0682881,-0.0237481,-0.182958,-0.0240096,0.0777099,0.262003,-0.0278495,-0.024516,0.01273,-0.154879,-0.0224601,0.120534,0.152183,-0.180071,-0.0382857,0.0630329,-0.125724,-0.0223138,-0.100581,-0.113529,0.0829164,-0.0208041,0.153738,0.00882403,0.0889132,0.118479,0.0281016,0.0948081,0.0294491,-0.0216589,-0.0600131,-0.101049,0.186172,-0.1932,-0.109479,-0.109259,-0.00542732,0.00535284,0.0182458,-0.0524818,-0.0196699,0.0355649,0.0182333,-0.0118724
heading 0.0852423,0.199598,0.013059,0.0710609,-0.0638573,-0.0808711,-0.0126797,-0.0906895,0.00919336,0.0523953,-0.0484382,-0.148436,-0.169421,-0.0631056,0.0416048,0.0620263,0.150088,-0.0863577,0.0563921,-0.0545133,-0.165406,-0.0613773,0.118871,0.167162,0.0755435,-0.0664907,-0.0248024,0.0768008,-0.108318,-0.177767,-0.00536476,0.00931039,-0.0270416,0.109049,0.110309,0.0379425,-0.140897,0.179824,0.0844331,-0.0338656,-0.257312,-0.0484623,-0.179092,-0.0170045,-0.0532996,-0.0743721,-0.0335085,0.0795327,0.149278,0.00481198,0.0504858,-0.114211,-0.0595129,-0.0591682,-0.0432044,-0.0448239,0.102795,-0.0639094,-0.210483,-0.0747192,0.0620353,0.238002,-0.0172904,-0.0467984,0.0097798,-0.17093,-0.0476647,0.108817,0.13004,-0.15231,-0.0135105,0.0452428,-0.157396,-0.0478139,-0.0667483,-0.095864,0.0611941,-0.0374304,0.196867,0.0192169,0.0530296,0.0939161,0.0364501,0.0883647,0.0335133,-0.0200987,-0.0291365,-0.116039,0.152135,-0.212159,-0.158565,-0.0821462,0.00726893,0.0378123,0.00365104,-0.0641306,0.0025421,0.0274612,0.014147,0.0053801
clothes 0.0765962,0.189277,0.00500032,0.0722586,-0.0678091,-0.0615796,-0.0358069,-0.114157,0.00636336,0.0770523,-0.0547094,-0.127434,-0.200459,-0.0923015,0.0352345,0.0906767,0.0898638,-0.0765764,0.101499,-0.0452753,-0.161811,-0.0542908,0.180727,0.233574,0.066622,-0.0837147,0.00775244,0.0690127,-0.113818,-0.153445,-0.0123104,-0.0448632,-0.023469,0.100535,0.111335,0.0553028,-0.184792,0.209718,0.0934578,-0.00428572,-0.204407,-0.0866717,-0.139364,0.0320605,-0.0731025,-0.025284,-0.0346377,0.0970897,0.0993612,-0.00231242,0.0375992,-0.114286,-0.0262304,-0.051245,-0.0580941,-0.0716578,0.0737086,-0.0295843,-0.13193,-0.0359562,0.0731604,0.253313,0.00859703,0.00295159,0.0529678,-0.129618,-0.0404692,0.119685,0.143934,-0.142473,-0.0262218,0.0703519,-0.152918,-0.0707135,-0.0219004,-0.128847,0.068975,-0.0603037,0.183498,-0.00279755,0.0832963,0.0852109,0.0795147,0.111287,0.0113358,0.0084072,-0.000743841,-0.133,0.191258,-0.168166,-0.144018,-0.0488541,0.039117,0.00284902,0.00494296,-0.0768388,0.00317852,-0.0430276,0.00525436,0.0370448
enjoy 0.0665554,0.192592,0.0132131,0.0662641,-0.0563489,-0.0651889,-0.0256314,-0.114162,0.00521087,0.0641457,-0.0501657,-0.14095,-0.170732,-0.0506032,0.035494,0.0679574,0.148334,-0.0787773,0.0675232,-0.0752669,-0.155251,-0.0582404,0.125741,0.175185,0.0761362,-0.065422,-0.0249305,0.0715906,-0.109325,-0.158427,-0.00910468,-0.00234566,-0.0445575,0.0939731,0.123356,0.040131,-0.133814,0.179446,0.069769,-0.0212613,-0.244971,-0.0515181,-0.159167,-0.00161683,-0.0576669,-0.0501559,-0.050597,0.0766627,0.153521,0.0250542,0.033825,-0.117227,-0.056318,-0.0686568,-0.0525163,-0.0470765,0.102126,-0.0352017,-0.226422,-0.067244,0.0614632,0.247968,-0.0188167,-0.0457238,0.0356525,-0.16831,-0.0325581,0.108269,0.151877,-0.141211,0.00671983,0.0437117,-0.149192,-0.0573781,-0.0836212,-0.110395,0.0600548,-0.0433434,0.194267,0.0107755,0.0758171,0.0885402,0.0371453,0.0918594,0.0389291,-0.00808607,-0.0513899,-0.113342,0.162285,-0.22645,-0.16061,-0.0857925,0.00140994,0.030716,-0.0178436,-0.0529673,-0.00138083,0.00417151,0.00905797,-5.11407e-05
tired 0.0869039,0.18334,0.0330263,0.0727876,-0.0734401,-0.0825219,-0.0213115,-0.10264,0.0204591,0.063162,-0.0563672,-0.150526,-0.184363,-0.0743259,0.0363003,0.0793306,0.131343,-0.0900645,0.0697334,-0.0535042,-0.182266,-0.0671422,0.139261,0.191146,0.0816106,-0.0536384,-0.0260683,0.0867127,-0.0911429,-0.176405,-0.0096634,-0.00322256,-0.037184,0.10914,0.128208,0.0223931,-0.131826,0.181823,0.0778615,-0.0202555,-0.235174,-0.0534177,-0.170083,-0.00855268,-0.0701035,-0.0486432,-0.0437463,0.0850792,0.137784,0.00431513,0.0377259,-0.135229,-0.0569337,-0.0757706,-0.0418601,-0.0560517,0.0960464,-0.0528293,-0.199521,-0.055777,0.0691451,0.24049,-0.0227877,-0.0305673,0.01608,-0.154368,-0.0245931,0.0967966,0.145642,-0.152984,-0.00398361,0.046314,-0.15326,-0.0429592,-0.0779782,-0.103355,0.0509892,-0.042511,0.19388,0.0102572,0.064931,0.0903814,0.0315732,0.0842549,0.0452786,-0.00471243,-0.0337676,-0.112965,0.168863,-0.204778,-0.144418,-0.0947684,0.00675208,0.0323682,-0.00720482,-0.0486896,0.00665367,0.00234431,0.0121335,0.00689154
direct 0.107672,0.179304,0.0162881,0.0963994,-0.0536725,-0.0407319,0.00506005,-0.105583,0.0256701,0.017204,-0.0239447,-0.1681,-0.184179,-0.0442024,0.0377114,0.112177,0.1627,-0.121524,0.0266291,-0.0606716,-0.170781,-0.102856,0.117991,0.145515,0.11346,-0.0486034,-0.0612054,0.122657,-0.124577,-0.126258,-0.0126876,-0.0221261,-0.0769691,0.0882246,0.107114,0.0586792,-0.0997905,0.158125,0.0445336,0.012302,-0.227836,-0.0525919,-0.147508,-0.0198839,-0.0739763,-0.0330367,-0.0630547,0.116276,0.144161,0.0295318,0.032927,-0.121823,-0.0176686,-0.0322067,-0.0737425,-0.0287077,0.116241,-0.0250296,-0.237626,-0.10009,0.0946486,0.20117,-0.0606142,-0.0142125,-0.00658274,-0.182465,-0.0107931,0.110254,0.13789,-0.180151,0.0246259,0.0299621,-0.137898,-0.0903468,-0.0777309,-0.134366,0.0818673,-0.0256668,0.15055,0.0548993,0.0971395,0.073296,0.0250717,0.0446748,0.020605,0.0131963,-0.0220449,-0.113783,0.169333,-0.22188,-0.114668,-0.10085,-0.00662586,0.00292002,0.0158869,-0.0473081,0.0232024,-0.0148595,0.00975741,0.000434016
cameron 0.135145,0.0996157,0.105606,0.155274,-0.148137,-0.0750177,0.00752351,-0.0769132,0.0890883,0.16451,-0.00499232,-0.196426,-0.273085,-0.0628248,-0.00580503,-0.0315517,0.0486859,-0.12073,0.219655,-0.0646222,-0.18737,-0.057028,0.130771,0.186742,-0.0669312,-0.145649,-0.0143134,0.153153,-0.0392628,-0.185912,0.0862502,-0.137641,-0.108129,0.0946753,0.0928793,0.0228027,-0.159253,0.227285,-0.0107006,0.0319998,-0.15857,-0.0458598,-0.0682153,-0.0118418,-0.0295786,0.052263,-0.0370893,0.10214,0.0400837,-0.0676638,0.0681951,-0.150731,-0.0778485,-0.0152376,-0.020061,-0.0277851,0.00702892,-0.0868959,-0.0415052,0.109644,0.11709,0.173584,0.0818188,0.0272842,0.00731918,-0.0539681,0.0359196,0.116696,0.0682201,-0.142695,-0.039735,0.127153,-0.0866173,0.0627267,-0.0547694,-0.114272,0.0240339,-0.00144997,0.0595532,-0.0681601,0.0425326,0.092104,0.0410744,0.0414681,0.0218455,0.00812632,0.0722674,-0.141696,0.164343,0.0494644,-0.0313076,0.0605202,-0.0162587,0.0058506,-0.0188781,-0.0591089,-0.00166509,-0.0832832,0.152501,-0.0659187
second 0.091277,0.170852,0.0324609,0.0515979,-0.08873,-0.0762989,-0.0152886,-0.105299,0.0179507,0.0740097,-0.0270425,-0.176047,-0.193858,-0.0750859,0.0319175,0.0912385,0.127148,-0.116161,0.0729153,-0.0392029,-0.159056,-0.0576863,0.133867,0.212576,0.0728079,-0.0659753,-0.00367515,0.0940893,-0.108592,-0.166372,0.00780576,0.0154591,-0.0601054,0.0889233,0.118169,0.0150209,-0.142774,0.188452,0.0664598,-0.0250924,-0.244623,-0.0513722,-0.147379,-0.0193989,-0.0747817,-0.0500509,-0.0242639,0.0871034,0.11765,0.00103308,0.0443685,-0.14842,-0.0404218,-0.0681719,-0.0496477,-0.0636871,0.113986,-0.0468469,-0.181462,-0.0359569,0.0727048,0.233696,-0.0194807,-0.0364811,0.0347112,-0.126508,-0.016334,0.119181,0.161798,-0.138184,-0.0129131,0.0350447,-0.13927,-0.0357522,-0.0758399,-0.119285,0.0243999,-0.0473356,0.211252,0.00419385,0.0867841,0.0954478,0.0308689,0.089788,0.0291668,0.00501775,-0.0551425,-0.141973,0.168192,-0.176737,-0.119806,-0.110458,-0.00851622,0.0145242,-0.0278549,-0.0602466,0.00044464,0.00575852,0.0306147,-0.00151503
street 0.0857493,0.201421,0.0301936,0.060658,-0.0740225,-0.0682808,-0.0311508,-0.112559,0.0242147,0.0718563,-0.0357088,-0.15614,-0.196896,-0.076677,0.0263013,0.0788448,0.14045,-0.0806709,0.069377,-0.0685051,-0.16146,-0.0517408,0.148974,0.182396,0.0900908,-0.0585068,-0.0285495,0.0801908,-0.102842,-0.166038,0.00189824,-0.00997987,-0.0370086,0.0959798,0.135303,0.0276285,-0.140826,0.18123,0.0778461,-0.0158292,-0.23807,-0.0728424,-0.150198,-0.00505368,-0.0783399,-0.0495166,-0.0579075,0.0750563,0.12012,0.0197041,0.0318447,-0.130444,-0.056947,-0.0828304,-0.0505077,-0.0460209,0.0884095,-0.0496529,-0.195584,-0.0485261,0.0734828,0.233125,-0.0252539,-0.0214774,0.0218979,-0.157253,-0.0206115,0.107314,0.130169,-0.166591,0.00313576,0.053395,-0.14794,-0.0621066,-0.0612258,-0.116858,0.0341547,-0.057328,0.178661,-0.00319277,0.0690263,0.107585,0.035448,0.0934812,0.0492669,0.0051732,-0.0270644,-0.130357,0.168717,-0.205429,-0.149439,-0.0775771,-0.000169104,0.0238381,0.00174735,-0.0463112,-0.0026016,0.000204037,0.0262978,0.0210424
chucklin 0.0768568,0.187273,0.0258566,0.0652246,-0.0719331,-0.0900805,-0.0213526,-0.106059,0.0158237,0.063747,-0.0564629,-0.16347,-0.195605,-0.0804932,0.0321079,0.0776971,0.138786,-0.087971,0.0700579,-0.0577922,-0.171146,-0.0626606,0.146191,0.194107,0.0677422,-0.0707763,-0.0201021,0.101141,-0.0912594,-0.172969,0.00264701,-0.00201852,-0.0523778,0.111586,0.137471,0.0226902,-0.142001,0.182105,0.071604,-0.011558,-0.242967,-0.0601424,-0.157527,-0.0127585,-0.0745616,-0.0383336,-0.0500241,0.0808375,0.128116,-0.00314546,0.0402236,-0.127367,-0.058612,-0.0726819,-0.0386555,-0.0630348,0.0847781,-0.0588419,-0.199147,-0.0546646,0.0657244,0.237988,-0.0196007,-0.0169367,0.0106363,-0.150784,-0.0196548,0.0887736,0.143645,-0.170792,-0.00871138,0.0474707,-0.15704,-0.0423864,-0.0625987,-0.100632,0.0449588,-0.0372232,0.185752,0.0103794,0.0579096,0.0883694,0.0456722,0.0806209,0.0469948,0.00293966,-0.0255652,-0.118113,0.157166,-0.198596,-0.142425,-0.0962084,0.00715841,0.0201785,-0.0226034,-0.0490392,-0.00761708,-0.00721379,0.0306645,0.0188908
buzz 0.0735209,0.191105,0.0341179,0.0680551,-0.077455,-0.0737975,-0.0216864,-0.107019,0.00874439,0.064035,-0.0447357,-0.157008,-0.191271,-0.075227,0.0308002,0.0787556,0.129565,-0.0858749,0.064254,-0.069428,-0.177083,-0.0674613,0.142561,0.176201,0.0823116,-0.0545438,-0.0234893,0.0894082,-0.0917467,-0.180136,-0.00483583,0.000277307,-0.0459767,0.101966,0.122401,0.0265733,-0.133495,0.184399,0.0785793,-0.0204397,-0.246835,-0.0487843,-0.173977,-0.0148974,-0.0795317,-0.0511306,-0.0451624,0.0860941,0.136043,0.0120386,0.0467731,-0.131073,-0.045519,-0.0794124,-0.034036,-0.0591263,0.097781,-0.0625471,-0.197808,-0.0608745,0.0652848,0.239167,-0.0167779,-0.0334253,0.0160089,-0.140542,-0.0244124,0.108515,0.139938,-0.160941,0.00124498,0.0387713,-0.162754,-0.05156,-0.0719469,-0.102066,0.054527,-0.0443673,0.187715,0.00862233,0.0638471,0.101004,0.0271088,0.0835982,0.0388776,-0.0119293,-0.0455149,-0.122955,0.16655,-0.191339,-0.142331,-0.0796219,-0.00101155,0.0227359,-0.00159468,-0.0550394,-0.00116176,0.000639996,0.00838567,0.0174831
even 0.0778618,0.187004,0.0197949,0.0643714,-0.0686533,-0.0770983,-0.0136756,-0.0946302,0.00856766,0.0551593,-0.06138,-0.155259,-0.169001,-0.0668683,0.044507,0.0746959,0.140693,-0.093406,0.061665,-0.067912,-0.168578,-0.0639284,0.127378,0.169554,0.0881973,-0.0501468,-0.0364502,0.0797642,-0.100803,-0.170845,-0.0103284,0.0172448,-0.0378182,0.103192,0.120111,0.0222188,-0.127525,0.170067,0.0773833,-0.0227406,-0.256596,-0.0520006,-0.167852,-0.0128893,-0.0612532,-0.0602944,-0.0392314,0.0898975,0.145721,0.0110049,0.0443977,-0.128706,-0.0462381,-0.063582,-0.0377565,-0.0563056,0.0922208,-0.0524119,-0.222564,-0.078684,0.0627777,0.231921,-0.0273399,-0.0402918,0.0225892,-0.159354,-0.0390885,0.099415,0.143735,-0.148505,-0.00311693,0.0370022,-0.153984,-0.0514505,-0.076879,-0.109351,0.0470343,-0.0518383,0.196128,0.0234713,0.0607673,0.0938331,0.0270004,0.0778497,0.0475647,-0.015601,-0.0439133,-0.120068,0.159698,-0.22322,-0.153575,-0.0958008,-0.00584634,0.0428462,-0.00396656,-0.0471869,0.0053427,0.0201498,0.00677224,0.0139917
errors 0.0755099,0.214527,0.0347688,0.0563054,-0.114513,-0.0836465,0.0109205,-0.127172,0.00363448,0.0655557,-0.0242344,-0.121918,-0.166201,-0.0482615,0.0404674,0.116613,0.115405,-0.0458645,0.0661383,-0.100616,-0.118454,-0.104472,0.153053,0.167938,0.099398,-0.0435076,0.00207151,0.123975,-0.0747796,-0.182934,-0.0549152,0.0222582,-0.0552931,0.106608,0.136387,0.0428914,-0.0714731,0.11427,0.0295968,0.00511349,-0.230488,-0.025888,-0.126369,-0.00376916,-0.040818,-0.0908273,-0.0323986,0.0629137,0.17617,0.0286447,0.0862359,-0.157575,-0.000382021,-0.0158735,-0.0424087,-0.00941007,0.13805,-0.0870906,-0.185249,-0.059192,0.0736352,0.19513,-0.045412,-0.0879541,0.0466856,-0.162213,-0.0140781,0.145868,0.112974,-0.0997162,-0.00457505,0.0202711,-0.180719,-0.0485031,-0.0647691,-0.122697,0.00519578,-0.0104854,0.193068,0.0553044,0.0211721,0.0873543,0.0102226,0.0633105,0.0964812,-0.0238683,-0.0573627,-0.121408,0.142146,-0.237053,-0.189263,-0.115995,-0.0260388,0.000889183,-0.0175918,-0.0625203,0.0194676,0.0621899,0.0279995,-0.0118095
saved 0.0400654,0.169758,0.0156289,0.111309,-0.0452645,-0.102051,-0.00217199,-0.095705,0.0222033,0.0348401,-0.0325203,-0.14164,-0.208607,-0.0532704,0.05077,0.0588913,0.143557,-0.126478,0.119499,-0.0258765,-0.163641,-0.0998745,0.125396,0.192988,0.0937473,-0.0533238,-0.0461971,0.0749563,-0.106277,-0.151308,-0.0257854,-0.00898693,-0.0346374,0.0818444,0.160415,0.0162878,-0.162348,0.200988,0.0997645,-0.0167864,-0.240344,-0.0935062,-0.1234,0.0110161,-0.1053,-0.0501192,-0.0775146,0.0593542,0.135432,-0.0357219,-0.00342055,-0.0845209,-0.0805083,-0.0692923,-0.0558971,-0.0542197,0.0814177,-0.0497056,-0.143144,-0.0119359,0.0551732,0.22641,0.0162374,-0.034287,0.0474653,-0.120522,-0.0151582,0.120809,0.165151,-0.147362,0.00293781,0.0199574,-0.17909,-0.015204,-0.0630353,-0.115479,0.0719703,-0.0229602,0.201715,-0.0260839,0.0806242,0.0671934,0.0700315,0.0776338,0.00954331,-0.0173957,-0.0183847,-0.143829,0.181611,-0.20393,-0.0860055,-0.0569284,0.0201784,0.00278138,-0.0337557,-0.0778706,-0.0370321,0.00780057,0.0470699,0.038636
panama 0.0519211,0.194417,0.0187381,0.0759461,-0.0498831,-0.0740735,-0.0187783,-0.125918,0.0175048,0.0345428,-0.028348,-0.1492,-0.182359,-0.0548046,0.015992,0.0403313,0.109498,-0.107099,0.0953608,-0.0634159,-0.175384,-0.0387656,0.12342,0.168004,0.094021,-0.0470065,-0.0441943,0.0638778,-0.101104,-0.173978,-0.0160597,0.0183879,-0.0114214,0.112349,0.127515,0.0446671,-0.157998,0.183305,0.0595329,-0.0493736,-0.256385,-0.0279587,-0.186033,-0.0298836,-0.0963274,-0.0358429,-0.0645883,0.0694308,0.108612,0.0123738,0.0203504,-0.123327,-0.028777,-0.065348,-0.00932295,-0.0745437,0.0834858,-0.0693361,-0.213224,-0.0365279,0.0806862,0.233615,-0.00320238,-0.0278153,0.02207,-0.16298,-0.0404926,0.109973,0.165821,-0.14838,-0.0167578,0.0430379,-0.173798,-0.030439,-0.0937048,-0.108333,0.0644996,-0.0553407,0.18435,0.0219043,0.056744,0.0924559,0.0276703,0.0674,0.0588279,0.00907511,-0.0324956,-0.125612,0.141841,-0.207788,-0.146342,-0.0745406,0.0022816,0.0340436,-0.0361723,-0.0443222,0.0268626,-0.0126474,0.0242896,0.0273988
cooking 0.0787685,0.181944,0.0391951,0.0858722,-0.0911086,-0.0832603,-0.00964147,-0.105481,0.00594831,0.0541993,-0.0559899,-0.169011,-0.180617,-0.0834926,0.0302555,0.0659002,0.143076,-0.101445,0.0700953,-0.0503647,-0.192177,-0.0724513,0.152243,0.186312,0.0654826,-0.0755963,-0.0351805,0.0772102,-0.0865943,-0.163954,0.000101527,0.00566871,-0.0331671,0.111397,0.123665,0.030473,-0.136034,0.17699,0.0800076,-0.011574,-0.248946,-0.0713004,-0.175152,-0.0179206,-0.0878027,-0.0561299,-0.0464498,0.0870386,0.113587,0.0130482,0.0499738,-0.116513,-0.0657501,-0.0692122,-0.0535067,-0.0421853,0.0987877,-0.0498267,-0.185119,-0.059619,0.0620236,0.225307,-0.0077464,-0.0223089,0.0158728,-0.150369,-0.0390987,0.102248,0.141952,-0.152306,0.00487065,0.0471659,-0.160764,-0.039857,-0.0621648,-0.114034,0.0411973,-0.0510677,0.200654,-0.00917644,0.0602199,0.103931,0.0443498,0.0944936,0.0298376,-0.000260506,-0.0294095,-0.116058,0.167482,-0.193416,-0.123587,-0.0927383,0.0190733,0.0216614,-0.0106192,-0.0501931,0.00891769,-0.0102342,0.00621701,0.00783552
fingers 0.0992484,0.19313,0.0345002,0.0916641,-0.0919077,-0.0734786,-0.0122681,-0.116601,0.0275805,0.0791833,-0.034156,-0.15419,-0.207757,-0.0881498,0.0278146,0.0607538,0.132401,-0.107096,0.10391,-0.0414497,-0.190254,-0.0668411,0.152681,0.198721,0.0548752,-0.072872,-0.0127665,0.0896224,-0.094644,-0.172946,0.00403104,-0.0250534,-0.0418825,0.115804,0.142549,0.0223746,-0.146973,0.18657,0.0812168,-0.00999978,-0.220376,-0.0801399,-0.147513,0.0144506,-0.0758332,-0.0382292,-0.0499353,0.0964017,0.116512,-0.000273021,0.0289135,-0.134306,-0.0617026,-0.0654113,-0.0426292,-0.0666537,0.0786608,-0.0470234,-0.179084,-0.0341055,0.0758552,0.247262,-0.0125372,-0.0107953,0.0223919,-0.138416,-0.0230789,0.0932493,0.135225,-0.161175,-0.00328295,0.0461472,-0.148241,-0.0402101,-0.0604674,-0.110368,0.0461286,-0.0331248,0.189742,-0.00852814,0.0642329,0.102617,0.0498263,0.0958036,0.0236199,0.00479082,-0.0163057,-0.133645,0.170509,-0.159369,-0.120008,-0.0683565,0.00773294,0.0202072,-0.0129995,-0.0491145,-0.00232257,-0.0183942,0.0252135,0.00477482
lights -0.129001,-0.0596496,-0.0504454,-0.0811421,0.151349,0.0921068,-0.0473987,0.113716,-0.0290181,-0.095947,0.0117691,0.108997,0.185931,0.126432,-0.106574,-0.0817448,-0.0140363,0.0479928,-0.11182,0.00744924,0.185129,0.0871865,-0.0994518,-0.249349,-0.0172876,0.122626,0.0368207,-0.0239947,0.0790668,0.131291,0.0704194,-0.0578467,0.0062209,-0.0849806,-0.14759,-0.0314415,0.181152,-0.161482,-0.0663948,0.0407594,0.175551,0.090829,0.0391396,0.0733545,0.0144849,0.0519247,0.119639,0.0192151,-0.126228,-0.0375008,0.0352903,0.0905666,0.0498767,0.116167,-0.030433,0.0962494,-0.123122,0.0215201,0.153961,0.00820796,0.00476057,-0.278847,-0.00862286,-0.0918596,0.0254554,0.0928363,0.0351378,-0.104128,-0.188621,0.099004,0.0856777,-0.0163127,0.130903,0.00710984,0.0185274,0.0780259,-0.117704,-0.0373125,-0.204549,-0.00488373,-0.117704,-0.163531,-0.102834,-0.110246,-0.0462672,-0.0575315,-0.0628713,0.0345455,-0.0976477,0.126559,0.104824,0.035555,-0.104596,0.033282,0.120099,0.0143644,0.0890748,-0.035502,-0.123961,0.0121766
above 0.1101,0.219659,0.0672377,0.095131,-0.0755854,-0.0709108,-0.0152833,-0.145841,0.0443356,0.0870132,0.00488346,-0.121307,-0.230207,-0.117138,0.035022,0.0997645,0.137026,-0.0603847,0.0945023,-0.0330579,-0.145139,-0.0642641,0.195267,0.211161,0.0126373,-0.0654731,-0.0480374,0.086979,-0.0687167,-0.159437,-0.000327466,-0.054635,-0.0589157,0.1312,0.131796,-0.0144025,-0.129401,0.160809,0.0844314,0.00836629,-0.155856,-0.114702,-0.184122,-0.00107367,-0.0826607,-0.00882795,-0.0557362,0.0973373,0.131286,-0.0270112,0.00457331,-0.148548,-0.0440709,-0.0308804,-0.0575974,-0.0784334,0.0505854,-0.0435571,-0.173344,-0.0580282,0.0503586,0.183464,-0.0243645,-0.0392477,0.0258155,-0.15437,-0.044849,0.0793963,0.113633,-0.206596,-0.0400816,0.0474793,-0.127398,-0.0404141,-0.0245353,-0.150602,0.0689858,-0.0585388,0.156626,-0.0237432,0.0866317,0.0646283,0.0676412,0.0854428,0.0079387,0.0550225,-0.0271146,-0.160402,0.162062,-0.11841,-0.133783,-0.0989056,0.0568483,0.00408067,-0.046528,-0.0241903,0.0295456,-0.0272681,0.0185803,-0.0240174
new 0.0852018,0.189668,0.029107,0.0762863,-0.0775058,-0.0809247,-0.0176772,-0.111788,0.0184538,0.067997,-0.0456947,-0.156975,-0.191268,-0.0786804,0.0345156,0.0724569,0.129881,-0.0976011,0.080749,-0.0581818,-0.180274,-0.063765,0.14285,0.192633,0.0754909,-0.0645022,-0.0227854,0.0908394,-0.0957107,-0.174106,0.000494314,-0.00561587,-0.0460928,0.112438,0.130239,0.0227548,-0.138037,0.183254,0.0728357,-0.0184932,-0.236177,-0.0623405,-0.163491,-0.00447418,-0.073949,-0.0487274,-0.0480711,0.0880164,0.126265,0.00557361,0.0417104,-0.129077,-0.0554857,-0.0707335,-0.0388039,-0.0574508,0.0899793,-0.0558465,-0.1949,-0.0538226,0.0669667,0.238107,-0.0189283,-0.0238479,0.0206391,-0.145641,-0.0259677,0.100093,0.143843,-0.160573,-0.00459845,0.0492179,-0.1574,-0.0455537,-0.0696691,-0.110097,0.0460428,-0.0427737,0.191713,0.000680511,0.0638242,0.0947681,0.0393607,0.0882477,0.0399924,-0.00465,-0.0311412,-0.120228,0.166513,-0.189033,-0.135592,-0.0846801,0.0056237,0.0260671,-0.0156681,-0.0574045,-0.00310868,0.00205843,0.0211158,0.00747399
net 0.0701191,0.180706,0.0147085,0.0771804,-0.0928515,-0.0841482,-0.0129134,-0.126604,0.002567,0.0665363,-0.0456729,-0.155595,-0.178843,-0.0900811,0.0186849,0.0830567,0.129686,-0.0991942,0.0956562,-0.0527356,-0.165771,-0.0719332,0.153796,0.17782,0.0808445,-0.0505322,-0.0132618,0.0887759,-0.0838656,-0.158805,-0.00480193,-0.0220473,-0.0492674,0.0975453,0.129878,0.0221236,-0.132404,0.189355,0.0733712,-0.0353278,-0.238218,-0.0655013,-0.150464,-0.0173987,-0.0742831,-0.062187,-0.0612515,0.0926292,0.137187,-0.00400474,0.0295313,-0.135027,-0.0689601,-0.0816206,-0.0375521,-0.0443571,0.103408,-0.0512685,-0.182812,-0.0500274,0.0722619,0.248279,-0.00535928,-0.00572583,0.0149042,-0.150164,-0.0213748,0.0874235,0.161286,-0.153223,-0.0152695,0.046309,-0.163017,-0.0414428,-0.0687076,-0.114147,0.0400172,-0.0337736,0.20659,-0.00855544,0.0655079,0.0866514,0.0535085,0.0884296,0.0457126,0.0103474,-0.0409426,-0.113766,0.170287,-0.181823,-0.134058,-0.078915,0.00473137,0.0210201,-0.00252184,-0.0695317,-0.0127329,0.00411017,0.0235653,-0.00799011
carpet 0.0554204,0.196472,0.0305779,0.0894505,-0.0779341,-0.0876653,0.0114008,-0.10318,0.0311461,0.0229318,-0.0657764,-0.143723,-0.183225,-0.0521068,0.00622024,0.0727299,0.16978,-0.0619002,0.0387549,-0.0339187,-0.135075,-0.0903242,0.142246,0.16612,0.0883343,-0.0784363,-0.0693105,0.0872445,-0.108798,-0.156174,0.00329294,-0.0154294,-0.0657755,0.125014,0.0891905,0.0065575,-0.112757,0.161549,0.0861263,0.0114383,-0.270237,-0.0185355,-0.150738,-0.00318336,-0.0298321,-0.0762302,-0.0300213,0.102283,0.148659,0.0180958,0.0286438,-0.1044,-0.0760604,-0.0549541,-0.0124089,-0.0370031,0.10273,-0.0289235,-0.212897,-0.0897362,0.0561427,0.221994,-0.000745786,-0.0633988,0.0301039,-0.150244,-0.0304647,0.102668,0.124583,-0.166271,0.0221652,0.0048164,-0.168552,-0.0285009,-0.0808075,-0.128205,0.019619,-0.069432,0.218528,0.0328725,0.0734645,0.0738308,0.059143,0.101218,0.0519467,-0.0223155,-0.0555028,-0.104014,0.124325,-0.22444,-0.133545,-0.117777,-0.0350773,0.0207674,0.0221488,-0.0275832,0.00884639,0.0454647,0.0290144,0.0146031
ever 0.0868168,0.194262,0.0260366,0.0756195,-0.078783,-0.0817078,-0.0224668,-0.111869,0.0204882,0.0652418,-0.0453587,-0.157688,-0.1941,-0.0811802,0.0342066,0.0720969,0.131416,-0.09902,0.0801727,-0.0538642,-0.181288,-0.0688085,0.137536,0.191045,0.0754196,-0.0665854,-0.0249383,0.0877508,-0.0965853,-0.172711,-0.00121221,-0.0102484,-0.048719,0.113169,0.127469,0.026972,-0.139131,0.183289,0.0758241,-0.0183917,-0.2331,-0.0636341,-0.164431,-0.00508534,-0.0719232,-0.0479727,-0.0488092,0.0887096,0.122655,0.00824969,0.0426684,-0.134265,-0.0543956,-0.0751961,-0.0385016,-0.054507,0.0920868,-0.052942,-0.197618,-0.0548457,0.0679583,0.233196,-0.0206833,-0.0268681,0.0254992,-0.143338,-0.0304592,0.0977992,0.145094,-0.157093,-0.00914574,0.0529503,-0.161176,-0.0487227,-0.0655209,-0.108263,0.0457983,-0.0439233,0.188182,0.000712667,0.0663649,0.0968496,0.042699,0.0850377,0.0361655,0.000111703,-0.0274488,-0.126229,0.161899,-0.186155,-0.136505,-0.0857893,0.00299946,0.0294819,-0.0153892,-0.0601454,-0.00499851,0.00211915,0.0229978,0.00914247
told 0.0799884,0.187301,0.0268082,0.067157,-0.0782783,-0.0804161,-0.0108124,-0.0909317,0.00585396,0.0461945,-0.0637838,-0.150468,-0.174226,-0.0622528,0.0353895,0.0825061,0.140987,-0.0850455,0.059188,-0.0628096,-0.166517,-0.0746293,0.125845,0.177977,0.0972354,-0.0588574,-0.0288652,0.0866634,-0.0986254,-0.168789,-0.00316848,0.0111824,-0.0324058,0.0999368,0.121806,0.0303237,-0.118661,0.166958,0.0791781,-0.0234262,-0.25465,-0.0430057,-0.163847,-0.0107188,-0.069041,-0.0644083,-0.0402234,0.0905464,0.144483,0.0143538,0.0439604,-0.129148,-0.054461,-0.0628714,-0.0300141,-0.0512121,0.0994062,-0.0515671,-0.226817,-0.0787487,0.0616966,0.237722,-0.0211038,-0.0405498,0.0201065,-0.152708,-0.0394061,0.107708,0.140243,-0.145315,0.00162133,0.0345309,-0.1566,-0.0462897,-0.079191,-0.113206,0.0515793,-0.0454564,0.195004,0.0191252,0.0708371,0.0837056,0.0332464,0.0757842,0.0538961,-0.025189,-0.0405265,-0.114859,0.156788,-0.215345,-0.156474,-0.0992033,-0.00926972,0.0483231,-0.00301921,-0.0476555,0.0105521,0.00969224,0.000921063,0.0176184
poohpot 0.062633,0.213326,0.00573262,0.0637,-0.0930119,-0.102342,0.000665423,-0.0943984,0.0291536,0.0848489,-0.0385907,-0.169287,-0.174301,-0.0588794,0.058562,0.0887504,0.110322,-0.0955919,0.073064,-0.0479373,-0.182157,-0.0557189,0.146099,0.172788,0.0760833,-0.0763612,-0.0204425,0.0722113,-0.115112,-0.184397,0.0165284,-0.00322422,-0.042163,0.0934191,0.11023,0.0113037,-0.138909,0.180023,0.0612047,-0.00423309,-0.23564,-0.054065,-0.175382,-0.00825613,-0.0651381,-0.0489887,-0.0539998,0.0981921,0.141927,0.0178379,0.0607291,-0.142241,-0.0517156,-0.0707215,-0.0569594,-0.0339151,0.0682063,-0.0482602,-0.196431,-0.0536145,0.0521182,0.214271,-0.00615993,-0.0216229,0.0299016,-0.12114,-0.0285412,0.0802329,0.166048,-0.160215,-0.015622,0.0704523,-0.158025,-0.0474558,-0.0704739,-0.0888446,0.0665534,-0.0426498,0.20822,-0.00886691,0.0821632,0.115145,0.0373741,0.0886355,0.0194702,-0.00976167,-0.0140808,-0.103911,0.182755,-0.202749,-0.130862,-0.071047,-0.0121204,0.00415148,-0.0347175,-0.0540404,0.0165826,0.00767588,0.00475307,0.0048587
kicked 0.070647,0.204894,0.0274654,0.060361,-0.0810528,-0.0760266,-0.0166015,-0.110211,0.00750285,0.060225,-0.046088,-0.167019,-0.18445,-0.0658371,0.0395806,0.077369,0.123996,-0.0784652,0.0531106,-0.0609267,-0.16332,-0.0575975,0.127536,0.187943,0.101112,-0.0573617,-0.0406908,0.0717726,-0.109365,-0.162208,-0.00264596,0.020874,-0.0379374,0.0889207,0.116313,0.0362522,-0.117638,0.164186,0.0901371,-0.029877,-0.250944,-0.0393698,-0.15739,-0.00530891,-0.06925,-0.0709498,-0.0275227,0.0807804,0.138806,0.0228795,0.0382838,-0.116827,-0.0373785,-0.0669148,-0.0235846,-0.0395997,0.0914751,-0.0661249,-0.199876,-0.0530623,0.0574842,0.245076,-0.0139194,-0.0269569,0.0200395,-0.162765,-0.0474381,0.0848224,0.141146,-0.159115,-0.00356402,0.0483685,-0.145008,-0.0637422,-0.0863222,-0.114518,0.0376987,-0.0391352,0.198698,0.0163651,0.0593611,0.107449,0.0359616,0.0907043,0.0482758,-0.0259961,-0.0435932,-0.134662,0.178983,-0.214117,-0.141449,-0.0980698,-0.00095442,0.0543371,-0.0161337,-0.037053,-0.00915927,0.0174684,0.00539614,-0.00120655
mea 0.0585947,0.210205,0.0185136,0.0769465,-0.10369,-0.0215875,-0.00952626,-0.13782,0.0386266,0.0599389,-0.0073307,-0.173831,-0.166941,-0.0402791,0.090619,0.0634301,0.128984,-0.127289,0.100595,-0.0358056,-0.135857,-0.0265749,0.106526,0.150344,0.0830308,-0.0129296,-0.0318433,0.100234,-0.0559493,-0.141827,-0.0547917,0.0403332,-0.0599054,0.0618654,0.0902849,-0.0197733,-0.151912,0.143994,0.0269701,-0.00942815,-0.27306,-0.0943172,-0.197246,-0.00292672,-0.0159216,-0.0439573,0.01571,0.0387293,0.0880157,-0.0214485,0.0723712,-0.118242,-0.0941136,-0.0267137,-0.0271716,-0.0594321,0.0710935,-0.0683534,-0.218872,-0.0889791,0.033835,0.265649,-0.0396246,-0.0256651,0.062503,-0.115493,-0.0679532,0.0925907,0.0991743,-0.126178,-0.0339858,0.0394768,-0.0972715,-0.0365256,-0.115059,-0.147572,0.0601743,-0.0255896,0.23641,0.0379387,0.103971,0.0979542,0.0141524,0.0470403,0.0952684,-0.0235348,-0.00562875,-0.099634,0.158651,-0.187024,-0.188543,-0.1023,-0.03763,0.0757091,-0.0334529,-0.0093942,0.0267217,0.0605064,-0.00972702,0.00388967
pancakes 0.0748495,0.183075,0.0341793,0.0583528,-0.0660838,-0.0709304,-0.0166447,-0.10504,0.0187462,0.0657239,-0.0654052,-0.148415,-0.169881,-0.0626175,0.0319955,0.0699615,0.127887,-0.0953084,0.0607035,-0.0640282,-0.177944,-0.0591867,0.125014,0.167916,0.0860671,-0.0555117,-0.0227533,0.0960081,-0.110467,-0.174421,-0.0107444,0.00388337,-0.0419807,0.109375,0.121108,0.0135054,-0.127985,0.179753,0.0849644,-0.022061,-0.254025,-0.0542399,-0.164079,-0.0191328,-0.0707031,-0.0524433,-0.0315083,0.0801325,0.148596,0.0211598,0.0511791,-0.132469,-0.0546159,-0.0780681,-0.048159,-0.0530773,0.10244,-0.0499398,-0.214053,-0.0761984,0.0574096,0.234962,-0.0179763,-0.0439165,0.0176939,-0.1489,-0.0365098,0.0926413,0.141075,-0.157767,-0.0120734,0.0320221,-0.149934,-0.0435596,-0.0748356,-0.108865,0.0493975,-0.0507643,0.200492,0.0235251,0.0736667,0.0831672,0.0256171,0.0736592,0.0497087,-0.024621,-0.0482911,-0.118879,0.162757,-0.21128,-0.152789,-0.0986135,-0.00182647,0.0384748,-0.00937072,-0.0552799,-0.00536877,0.0106901,0.0174126,0.0189773
aja 0.0830444,0.197799,0.0340726,0.0755483,-0.0684178,-0.0767816,-0.0129161,-0.116627,0.0222711,0.0494071,-0.0577387,-0.149386,-0.184771,-0.0768179,0.0447093,0.0699586,0.125302,-0.0965455,0.080161,-0.0627801,-0.171129,-0.058434,0.131422,0.189109,0.0753608,-0.0687837,-0.0313667,0.07787,-0.102083,-0.167953,0.00165312,0.00385394,-0.0528661,0.116586,0.129593,0.0209433,-0.123842,0.187234,0.0621306,-0.0325891,-0.248669,-0.0492341,-0.15037,-0.00750406,-0.0804669,-0.0618868,-0.0305546,0.0865539,0.128698,0.00364681,0.0354866,-0.117466,-0.0494296,-0.0623374,-0.0377736,-0.0597148,0.0832294,-0.0649284,-0.216799,-0.0712207,0.0512668,0.243594,-0.0149684,-0.0212232,0.0180405,-0.157751,-0.0211316,0.107335,0.136582,-0.16335,0.000281801,0.0322866,-0.142958,-0.0585436,-0.0832264,-0.118377,0.0358042,-0.0353805,0.184831,0.00693073,0.064287,0.0875385,0.0318591,0.0930247,0.0403501,-0.00906081,-0.0399513,-0.125561,0.159503,-0.21191,-0.134576,-0.0826853,-0.0097517,0.04066,0.000301379,-0.0532822,-0.00474781,0.0182976,0.0188746,0.0192586
men 0.0869904,0.188792,0.0347235,0.0789443,-0.0881461,-0.0673969,-0.0113063,-0.116657,0.013721,0.0549992,-0.0573242,-0.147483,-0.187336,-0.0726627,0.0263453,0.0737844,0.124241,-0.106141,0.0841766,-0.0615796,-0.184896,-0.06617,0.128766,0.19364,0.0857556,-0.0508921,-0.0345892,0.0829431,-0.094677,-0.17594,-0.00490881,-0.000474462,-0.0409351,0.101368,0.135751,0.0187093,-0.135335,0.193219,0.0667253,-0.026308,-0.242887,-0.0506604,-0.169555,-0.0139293,-0.0838172,-0.0574023,-0.0548562,0.0922754,0.1263,0.0154023,0.0526733,-0.122124,-0.0601917,-0.0751293,-0.0434526,-0.0519068,0.100635,-0.057991,-0.20192,-0.0611777,0.0608205,0.232349,-0.00940599,-0.0159818,0.0124001,-0.142878,-0.0377437,0.104914,0.152049,-0.15977,-0.00111285,0.0457903,-0.150968,-0.0505403,-0.0663431,-0.112944,0.0485715,-0.0384683,0.180423,-0.00733714,0.0631197,0.098748,0.0487125,0.0791606,0.0293904,-0.00962167,-0.0247267,-0.121073,0.161487,-0.192973,-0.137337,-0.0754799,-0.00696385,0.024261,-0.00265439,-0.0508409,-0.00513396,-0.00465488,0.0081664,0.0145627
kindred 0.0267849,0.0714368,-0.0477017,0.122296,-0.0422199,-0.0696264,-0.0365662,-0.0976224,0.130579,0.0841957,-0.0834677,-0.0468811,-0.272644,-0.0102329,-0.0764279,0.126503,-0.0354502,-0.0674553,0.0346485,-0.113125,-0.257103,-0.0232188,0.154681,0.0910093,0.0463093,-0.0738495,-0.0848472,0.0605129,-0.175293,-0.244226,0.00498773,0.00816193,0.0141383,0.128145,0.214638,0.0696655,-0.122845,0.114975,0.0206309,-0.0145222,-0.0743759,-0.101836,-0.162952,0.0852309,0.0124985,0.114817,-0.103932,-0.0457724,-0.0327197,-0.000538663,0.0520013,-0.0675123,-0.122631,-0.139552,0.0643462,-0.0043859,0.000376783,-0.0973331,0.00712063,-0.0562019,0.0886116,0.239859,-0.0114617,-0.00530605,-0.0869135,-0.0612094,0.0369706,0.0699351,0.19442,-0.0734727,-0.0449169,0.123202,-0.0842139,-0.0147682,-0.0665686,-0.146787,0.133436,0.107194,0.0712998,-0.0226352,-0.0145727,0.0949276,0.0472031,0.122935,-0.00284172,0.000739226,0.0609888,0.00210485,0.121492,-0.137909,-0.172945,-0.114773,0.0692918,-0.105313,-0.0378639,-0.131586,-0.0775832,-0.0304402,0.0850118,-0.049989
here 0.0849203,0.188994,0.031852,0.0811924,-0.0797858,-0.0817563,-0.0182165,-0.11258,0.0202599,0.0736964,-0.0426164,-0.157297,-0.195278,-0.0837234,0.0359034,0.072409,0.125878,-0.0992212,0.0876903,-0.0556193,-0.186124,-0.0614942,0.145898,0.194787,0.0692351,-0.0697062,-0.0156818,0.095998,-0.0944896,-0.173293,0.000490136,-0.0130446,-0.0477973,0.1147,0.133793,0.0257393,-0.142508,0.191044,0.0725191,-0.0209344,-0.231139,-0.0699532,-0.163426,-0.0018731,-0.0756022,-0.0436796,-0.051517,0.0891662,0.121034,0.00322802,0.036735,-0.129014,-0.0585879,-0.0698271,-0.0396769,-0.0600356,0.0864477,-0.0545502,-0.189426,-0.0452441,0.0681074,0.237872,-0.0166132,-0.017191,0.0203785,-0.138239,-0.0217844,0.0962178,0.14696,-0.161824,-0.00380362,0.0512816,-0.155743,-0.0414645,-0.0660001,-0.109678,0.0446436,-0.0406069,0.187729,-0.0104135,0.0657859,0.0970527,0.0431745,0.090935,0.0357771,0.00206814,-0.0254659,-0.123803,0.167362,-0.179735,-0.129669,-0.0817383,0.00551036,0.0192161,-0.0167097,-0.0596771,-0.00449888,-0.00278787,0.0243647,0.00588365
met 0.0695192,0.180664,0.0148935,0.0638418,-0.0709696,-0.063201,-0.0201463,-0.0825323,0.0199249,0.0378114,-0.0489896,-0.143883,-0.163047,-0.0579657,0.0488858,0.0644799,0.131017,-0.0956156,0.0678381,-0.0648052,-0.17702,-0.073408,0.130296,0.177936,0.0989966,-0.0593342,-0.0467692,0.0897354,-0.0956192,-0.178451,-0.0172326,0.010598,-0.0470019,0.108137,0.111479,0.0183693,-0.128533,0.164146,0.0899121,-0.0307208,-0.249486,-0.048211,-0.171508,-0.00840713,-0.0713218,-0.0685445,-0.0390213,0.0977072,0.148538,0.025612,0.0329061,-0.130042,-0.0512828,-0.072054,-0.0443358,-0.0479519,0.087585,-0.0439522,-0.221203,-0.0823728,0.0544697,0.242279,-0.016865,-0.0451184,0.025636,-0.156166,-0.046942,0.107642,0.143864,-0.148767,0.00282525,0.0257442,-0.143493,-0.0427536,-0.0849148,-0.116778,0.060792,-0.0417574,0.18347,0.0332502,0.0713733,0.0992534,0.0217506,0.0815902,0.0492251,-0.00906395,-0.054793,-0.108902,0.160984,-0.220476,-0.144255,-0.111191,-0.00616919,0.050671,-0.00190477,-0.0484327,0.0200605,0.0246676,0.00460142,0.00482407
china 0.085401,0.189675,0.0297503,0.0777588,-0.0774369,-0.08004,-0.0218943,-0.109246,0.014596,0.0703966,-0.0489241,-0.160715,-0.191636,-0.0786252,0.0388383,0.0714591,0.134043,-0.0916658,0.0783701,-0.0626668,-0.177993,-0.0683047,0.138311,0.187997,0.0801679,-0.0649146,-0.0249756,0.0855598,-0.0966074,-0.174694,0.000347165,-0.00706662,-0.0439222,0.112855,0.128127,0.0253536,-0.134546,0.18285,0.078018,-0.0202,-0.232158,-0.0599395,-0.165154,-0.00722508,-0.068662,-0.0514316,-0.0465258,0.087155,0.12446,0.0112414,0.0452179,-0.128345,-0.0576685,-0.0744373,-0.0439341,-0.0540748,0.0883669,-0.0527344,-0.202226,-0.0526037,0.0667364,0.234316,-0.0195931,-0.0279133,0.0218035,-0.1457,-0.0304981,0.10197,0.142654,-0.162399,-0.00184816,0.0430688,-0.154303,-0.0469744,-0.0661799,-0.112614,0.0501527,-0.0431256,0.189876,0.00624207,0.0650386,0.0933984,0.0392418,0.0900487,0.0443812,-0.00614625,-0.0317966,-0.117248,0.16795,-0.194215,-0.13906,-0.0849781,0.00402905,0.0326841,-0.0107723,-0.0578397,0.00310255,0.00233191,0.0184833,0.00935395
aud 0.0841011,0.151495,0.0347218,0.0609905,-0.0383551,-0.105891,-0.0026348,-0.131602,0.0228432,0.0343456,-0.0438455,-0.179922,-0.169194,-0.101282,-0.000233497,0.0670954,0.141164,-0.0975522,0.0911561,-0.0898034,-0.158015,-0.0658161,0.148383,0.197631,0.101947,-0.0826537,-0.0407575,0.076812,-0.0971195,-0.177185,0.00827793,0.0182987,-0.0088572,0.113419,0.12508,-0.0144909,-0.141094,0.142757,0.0742175,-0.0185257,-0.248277,-0.0471987,-0.182658,-0.0105556,-0.0458894,-0.0730661,-0.0133827,0.0494341,0.15429,0.0332992,0.0499038,-0.151973,-0.0759727,-0.103094,-0.0404577,-0.0754605,0.0993205,-0.0181555,-0.187036,-0.0523241,0.0704463,0.255671,-0.0130595,-0.0541923,-0.0056879,-0.105679,-0.0324943,0.0667581,0.130733,-0.115545,-0.0240122,0.00996976,-0.149317,-0.0449953,-0.0756543,-0.0959465,0.0433455,-0.0386396,0.206971,0.00656219,0.0869398,0.0726177,0.0728248,0.0781791,0.0330128,-0.035994,-0.0325249,-0.123016,0.121979,-0.200526,-0.151228,-0.116733,-0.0130265,0.0545187,-0.0346625,-0.0300748,-0.0127961,-0.00357211,-0.01721,0.045328
dry 0.0694574,0.199485,0.0248865,0.057737,-0.0689319,-0.0688867,-0.00298412,-0.108183,0.0203218,0.0592542,-0.054955,-0.172635,-0.175622,-0.0678332,0.0252048,0.0737197,0.145374,-0.0891449,0.0501917,-0.0653589,-0.177402,-0.059963,0.124571,0.167216,0.0777876,-0.0693605,-0.0126861,0.101615,-0.0863114,-0.163206,-0.0181692,0.0156839,-0.0247866,0.0968791,0.136509,0.0380279,-0.125537,0.160657,0.0837714,-0.0208861,-0.263352,-0.0428545,-0.170647,-0.0166076,-0.0781606,-0.0733084,-0.0385953,0.0909752,0.127307,0.0022684,0.0429472,-0.119473,-0.0345017,-0.0715751,-0.0457064,-0.0398774,0.0821402,-0.0583149,-0.22182,-0.0706921,0.0549872,0.218672,-0.0252373,-0.0181501,0.0201037,-0.142655,-0.0233017,0.108896,0.149721,-0.161364,-0.0059966,0.0518756,-0.144395,-0.0578108,-0.0637837,-0.106237,0.0417798,-0.0583523,0.182445,0.0049642,0.065526,0.101131,0.0414806,0.0960447,0.0360577,-0.0150852,-0.0335837,-0.103345,0.178018,-0.216137,-0.160824,-0.10692,-0.015488,0.0207725,0.009787,-0.0529473,0.0189376,0.0279988,0.0202216,0.0117681
argh 0.0985933,0.155273,0.0595888,0.0747981,-0.04891,-0.107024,-0.00592319,-0.10653,0.00027066,0.0780121,-0.0598377,-0.180784,-0.174079,-0.0701199,0.0255901,0.0567576,0.14718,-0.123338,0.0455964,-0.0268131,-0.17259,-0.0813506,0.153509,0.20727,0.0803162,-0.0731896,-0.00650348,0.0928123,-0.0628071,-0.186268,-0.0130389,-0.000987726,-0.0347296,0.0851376,0.105494,0.0278539,-0.153559,0.180756,0.0626663,-0.0311837,-0.225611,-0.0398652,-0.174819,-0.0108003,-0.0696154,-0.0765193,-0.0400998,0.0786671,0.0937922,0.0296054,0.0293884,-0.118882,-0.0617578,-0.0905743,-0.0527651,-0.0423571,0.0590662,-0.0690235,-0.191302,-0.0586808,0.0913185,0.219123,-0.0131394,-0.0157889,-0.00608831,-0.168583,-0.0185275,0.0886904,0.15608,-0.174989,-0.0247802,0.0644153,-0.145118,-0.053084,-0.0823058,-0.11677,0.0157613,-0.0391236,0.209082,-0.0180726,0.0308327,0.0884616,0.0340805,0.0821066,0.0194308,-0.0373414,-0.00791472,-0.146753,0.170707,-0.167361,-0.141618,-0.0593835,-0.0120221,0.0458293,0.0168559,-0.0850072,0.0305121,0.0251995,-0.00567785,-0.0172974
kids 0.0893156,0.189829,0.0240848,0.0752848,-0.0743632,-0.0802176,-0.022323,-0.104716,0.0147814,0.0670209,-0.0509872,-0.161256,-0.190039,-0.0776569,0.0333622,0.0749388,0.122192,-0.102711,0.0778653,-0.0544126,-0.185793,-0.0601,0.140488,0.193634,0.0735797,-0.0626787,-0.014334,0.0881482,-0.0997258,-0.179135,0.00111679,-0.0121069,-0.0478044,0.105033,0.123683,0.028061,-0.142365,0.184516,0.0688702,-0.024591,-0.235807,-0.0666938,-0.157589,-0.00783675,-0.0718599,-0.0478118,-0.0464544,0.0920566,0.126865,0.00599929,0.0416038,-0.124052,-0.0564637,-0.0692568,-0.0415943,-0.0629761,0.0847156,-0.0531909,-0.195262,-0.047159,0.0704357,0.240799,-0.01168,-0.0254217,0.023237,-0.145783,-0.0196847,0.0993652,0.149553,-0.161331,-0.00110376,0.0565632,-0.157653,-0.0489625,-0.0679108,-0.107836,0.0484406,-0.0389991,0.193444,-0.00147473,0.0672751,0.102977,0.0366355,0.0946378,0.0390301,-0.0064764,-0.0273197,-0.116968,0.16987,-0.178678,-0.140999,-0.0782764,0.00781682,0.0261815,-0.0191676,-0.0593128,0.00273412,6.52271e-05,0.0171479,0.00837361
luggage 0.0741827,0.155076,0.0407412,0.0404996,-0.0208919,-0.0357342,0.020352,-0.0936401,-0.0439662,0.000193628,-0.0515065,-0.201869,-0.134321,-0.0568235,0.0845701,0.0517959,0.10713,-0.123345,0.0466258,-0.0610295,-0.186457,-0.0409738,0.0931915,0.202086,0.0733361,-0.0842734,0.00409012,0.0572682,-0.0591868,-0.186111,-0.028287,0.0508431,-0.0459026,0.105074,0.0889877,0.0722103,-0.0758199,0.176815,0.0757191,-0.0125973,-0.220655,0.00824838,-0.192833,0.0106024,-0.100279,-0.0247049,-0.0401445,0.0760339,0.132957,0.0615887,0.0354469,-0.0955713,-0.0122274,-0.0995342,0.000162699,-0.0114244,0.140774,-0.0310775,-0.261828,-0.0821601,0.0946742,0.201836,-0.0483816,0.000420812,0.0451346,-0.133396,-0.0764224,0.0817156,0.189584,-0.140397,0.0324813,0.00329119,-0.128024,-0.0692524,-0.0742967,-0.058616,0.0241188,-0.0554391,0.198628,0.0449429,0.0624811,0.0891022,0.055947,0.094444,0.0240075,0.0206895,-0.0570981,-0.114298,0.182313,-0.231036,-0.174248,-0.0670135,-0.0195759,0.053063,0.00555521,-0.0457791,0.0556121,0.032044,-0.0282457,0.0565859
slow 0.0173065,0.0592531,0.00049608,0.0558296,0.00253147,-0.051102,0.0944569,-0.149571,0.106437,0.166819,-0.0483514,-0.112556,-0.0311344,-0.044046,0.0462197,-0.0211733,-0.00775633,-0.124052,0.0633296,-0.0501981,0.00203868,0.0814853,0.0324074,0.152646,-0.213367,0.0635139,0.118227,0.0210661,0.00394205,0.0926114,0.155287,-0.208795,-0.0905313,0.140775,-0.0238011,0.108504,-0.172928,-0.0133845,-0.056789,-0.0199316,0.171184,-0.0819233,-0.0225635,-0.0499346,-0.0953607,0.124581,-0.0749699,-0.0209032,0.036461,0.00315508,-0.086418,0.108331,-0.102389,0.0152526,-0.010491,-0.0637041,-0.0509504,-0.0238578,0.0556872,0.0974729,-0.0084251,0.00690748,0.121247,0.151281,0.0363668,0.140392,0.0528356,-0.0340856,-0.0997004,0.0596203,-0.0334125,0.0106919,0.113997,0.119235,0.147816,-0.0867204,-0.0998245,0.113729,0.0511399,-0.224475,0.0608381,-0.113796,-0.072636,0.0673486,-0.156912,0.0809452,0.0721566,-0.120591,0.108997,0.268547,0.205226,0.129296,-0.100966,-0.0481227,-0.0639884,0.0158924,-0.017556,-0.169287,0.1711,-0.0780019
study 0.0864036,0.174469,0.0144548,0.0792258,-0.0978211,-0.0821521,-0.0171552,-0.106072,0.0186589,0.0644298,-0.054555,-0.173094,-0.195235,-0.0654137,0.0245039,0.0845891,0.125608,-0.100544,0.10678,-0.0673879,-0.177807,-0.0724121,0.159487,0.196267,0.0517515,-0.0750171,-0.028053,0.0911893,-0.0977476,-0.190243,0.00601957,-0.0125899,-0.0447117,0.100896,0.123793,0.0152507,-0.143644,0.199033,0.0538017,-0.0186404,-0.22444,-0.0799696,-0.166356,0.0148082,-0.0968366,-0.0221982,-0.0710829,0.101286,0.113003,-0.00177346,0.0215218,-0.118773,-0.0441386,-0.0722746,-0.0470179,-0.0454714,0.0930543,-0.0741415,-0.179249,-0.0358151,0.0763995,0.217865,-0.0169183,-0.0145956,0.00864551,-0.150245,-0.0149597,0.0840133,0.140564,-0.178312,-0.0151308,0.0610184,-0.172024,-0.0593023,-0.0464911,-0.121722,0.0404031,-0.0374029,0.170385,-0.0164923,0.0722675,0.0943218,0.0574449,0.106645,0.0457262,0.011121,-0.040019,-0.10568,0.16194,-0.155989,-0.130246,-0.0872103,0.00353143,0.00348388,-0.00601282,-0.066104,-0.0259529,-0.0220337,0.01747,0.0165305
changed 0.0386135,-0.0913597,-0.0314558,-0.0974327,0.112842,-0.0265908,-0.0812908,0.0782747,-0.101794,-0.0668316,0.104418,0.123425,0.15204,0.126974,0.0842143,-0.0911272,-0.0357553,0.176765,-0.0455066,-0.0797483,0.0654269,0.0132035,-0.219473,-0.276484,-0.0289047,-0.00806381,-0.0587177,-0.189905,0.0587002,0.117815,-0.0273458,-0.0125131,0.110459,-0.0768966,-0.0994151,0.0090645,0.105567,-0.226031,-0.093027,0.0733227,0.125735,0.0149618,-0.0294464,0.0663389,-0.0204895,-0.098131,0.0500676,0.0232491,0.0253135,0.0856503,0.0921454,0.0782967,-0.0151314,0.0235427,0.143202,-0.0559207,-0.0363604,0.0190678,0.139489,0.0317621,-0.0111015,-0.132118,-0.00743025,-0.119645,0.0732442,0.0872153,-0.0223787,-0.156515,-0.117758,0.0359111,-0.0637232,-0.148761,0.0785296,0.0979231,0.106927,0.0268586,-0.134431,0.0475386,0.00795654,0.125656,-0.129725,-0.163418,-0.0191696,-0.168971,0.0635251,0.0508255,-0.147338,0.187372,-0.214686,0.0332824,0.123754,0.0365867,0.0596162,0.0697936,-0.00376162,0.146652,-0.00826987,0.123441,-0.0270865,-0.0157141
piercing 0.09523,0.163055,0.034299,0.0414144,-0.0492136,-0.0748234,-0.0190803,-0.103773,0.0304789,0.0395845,-0.0776482,-0.138938,-0.128436,-0.0587615,0.0344362,0.0788329,0.169872,-0.114513,0.0513305,-0.0446803,-0.156876,-0.0386691,0.125465,0.127792,0.0983022,-0.0452369,-0.0389426,0.0949564,-0.0759908,-0.155215,-0.0259343,0.0310119,-0.00496673,0.0785279,0.115686,0.0418808,-0.122484,0.166385,0.0778725,-0.0500877,-0.268242,-0.00620372,-0.185164,-0.0412838,-0.0479409,-0.0472588,-0.037771,0.0694283,0.147725,0.045167,0.0463344,-0.132804,-0.0496663,-0.0488894,-0.0319981,-0.0578694,0.0882402,-0.0225837,-0.2539,-0.121502,0.0469756,0.234601,-0.0388445,-0.0227719,0.0465456,-0.195954,-0.0619578,0.0792771,0.123511,-0.109116,-0.00214029,-0.00692161,-0.128283,-0.054655,-0.0820678,-0.0954004,0.0390473,-0.0573763,0.208204,0.06166,0.0536786,0.109502,0.0292051,0.0945623,0.0745619,-0.0273275,-0.0472618,-0.100625,0.136809,-0.225265,-0.180206,-0.126403,0.00640109,0.0814985,0.0124103,-0.0278489,-0.00389617,0.043277,0.0167671,0.0374402
itunes 0.067727,0.197369,0.037306,0.0734645,-0.0886587,-0.0879232,-0.0236329,-0.109521,0.0205342,0.0632042,-0.0623383,-0.156084,-0.191401,-0.0838602,0.0342294,0.0608435,0.13837,-0.0956549,0.0828071,-0.0489765,-0.162249,-0.0600755,0.131936,0.184765,0.0853324,-0.0659651,-0.0357403,0.0791125,-0.112121,-0.179232,-0.0143074,0.00335418,-0.0470941,0.106995,0.111569,0.0134582,-0.133172,0.167997,0.0868945,-0.00741871,-0.230065,-0.0708059,-0.164367,-0.0115097,-0.058965,-0.0428604,-0.0327005,0.0816473,0.146594,0.00220683,0.0347729,-0.139167,-0.0546821,-0.0711787,-0.0435065,-0.0557264,0.105539,-0.038611,-0.199644,-0.0535189,0.0690031,0.247487,-0.00771914,-0.0199752,0.0101016,-0.149027,-0.0333382,0.098163,0.137461,-0.167827,0.0108884,0.0566476,-0.150413,-0.0356262,-0.0669241,-0.0990596,0.0472657,-0.0427917,0.184314,0.00855651,0.0607833,0.0940372,0.0510237,0.0849486,0.0401703,-0.00687342,-0.0362609,-0.110254,0.177141,-0.199903,-0.140131,-0.099144,0.00903853,0.0219303,0.000140466,-0.0507032,0.0101597,0.0179029,0.00754915,0.0247
paris 0.0326457,0.128473,0.0738488,0.0225142,-0.0432415,-0.0538113,-0.0292177,-0.150965,-0.0102073,0.0807604,-0.0987417,-0.148702,-0.190629,-0.115695,0.0137602,0.0816396,0.102277,-0.131912,0.0827373,-0.100877,-0.13753,-0.0145032,0.0809472,0.196807,0.0922505,-0.0334716,-0.0108369,0.0724404,-0.0560884,-0.165212,0.0148,-0.0104027,-0.0449784,0.147982,0.133366,-0.0137018,-0.142594,0.191842,0.0804446,0.0229631,-0.185688,-0.0667251,-0.178835,0.0208607,-0.0752757,-0.0681626,-0.00281988,0.104095,0.119963,-0.016968,0.0282238,-0.16982,-0.0697559,-0.047443,0.0152339,-0.106249,0.128855,-0.0361141,-0.221233,-0.0150077,0.0655956,0.194346,0.0290058,0.018151,0.0584453,-0.190893,-0.0652827,0.099136,0.178697,-0.186477,0.0182924,0.0280718,-0.153687,0.00119545,-0.0942938,-0.158653,0.0956549,-0.0761229,0.150717,0.0415138,0.0715644,0.0860107,0.0649811,0.0941826,-0.0157943,-0.00922009,-0.0793023,-0.0618214,0.108236,-0.174561,-0.093601,-0.106437,-0.0394474,0.0372668,-0.0178814,-0.0639922,0.00274154,-0.0335836,0.0140488,-0.0160335
ako 0.0756842,0.201095,0.0492296,0.0406998,-0.0705785,-0.0691289,-0.00958423,-0.132595,-0.0119964,0.0841224,-0.0234453,-0.136667,-0.167896,-0.0823912,0.066564,0.0858567,0.105864,-0.0789211,0.0554541,-0.0333625,-0.183251,-0.0371767,0.155475,0.211377,0.0828741,-0.0707737,-0.0158377,0.0793268,-0.11177,-0.145148,0.00561904,-0.00523861,-0.0465522,0.095434,0.143053,0.0454139,-0.104956,0.148661,0.07329,-0.0441438,-0.215798,-0.0658783,-0.188672,-0.0172354,-0.0571766,-0.0666168,-0.0605281,0.0688981,0.143841,-0.0167795,0.0388702,-0.12977,-0.0501262,-0.0684696,-0.0516676,-0.0269656,0.0954468,-0.0589161,-0.189267,-0.0411215,0.0805655,0.243813,-0.0102378,-0.0350178,0.00697995,-0.16926,-0.0486575,0.12028,0.136243,-0.141529,0.00682919,0.0368938,-0.172918,-0.0196103,-0.103586,-0.0909468,0.0438653,-0.0672095,0.176968,-0.0124392,0.0381801,0.0967181,0.0240191,0.0676823,0.0478539,-0.00144071,-0.0230568,-0.148323,0.162332,-0.228341,-0.139033,-0.0887578,-0.0112511,0.0599611,-0.0157427,-0.0414163,-0.00112163,0.0217658,0.0227147,0.0356425
mentor 0.0892428,0.199318,0.0236541,0.092488,-0.0931464,-0.0962866,-0.0299918,-0.119422,0.00329955,0.0706862,-0.0530334,-0.167279,-0.184912,-0.0541164,0.0468691,0.0885648,0.117246,-0.0837033,0.104547,-0.0467403,-0.192428,-0.0480378,0.15614,0.190833,0.0794862,-0.0485263,-0.0246656,0.0763106,-0.0866699,-0.150099,-0.00511809,-0.0128305,-0.0479131,0.0861281,0.129815,0.0293447,-0.136108,0.164045,0.0930734,0.00179291,-0.23084,-0.0542782,-0.174334,0.0157662,-0.0707035,-0.0455041,-0.0531805,0.0820555,0.137827,-0.0103536,0.0592921,-0.13486,-0.0322984,-0.0743037,-0.0532694,-0.0540875,0.0987518,-0.0498914,-0.192392,-0.0702484,0.0550731,0.213485,-0.0377002,-0.000388296,0.0311136,-0.116878,0.00063045,0.11232,0.155515,-0.149645,0.00146574,0.047257,-0.169071,-0.0510455,-0.0806799,-0.122331,0.0331296,-0.0476226,0.195232,-0.022265,0.0790361,0.11527,0.0581949,0.0974527,0.0487247,-0.00935033,-0.0426793,-0.0988412,0.174369,-0.183962,-0.112959,-0.0629873,0.0181085,0.0120939,0.00045983,-0.0729731,-0.002322,-0.0155643,0.0314401,0.0147089
lonesome 0.115124,0.230576,-0.0725651,0.0671798,0.0475059,-0.0650096,-0.0525561,-0.0576355,0.0944109,0.0699242,0.0693666,-0.0967799,-0.15079,-0.074898,-0.035951,0.0153794,0.147137,-0.134324,0.107529,-0.12044,-0.217112,-0.0460662,0.183335,0.114663,0.137621,-0.0136725,-0.109414,0.0970225,0.0041168,-0.193474,-0.0343028,0.0197695,0.0604005,0.0868832,0.0896645,0.12235,-0.0586988,0.175536,-0.00358331,-0.0594903,-0.279859,0.0332821,-0.0386299,0.0563997,-0.0315456,-0.114055,-0.0894175,0.0354224,0.167372,0.00127418,-0.0126834,-0.0609362,0.0505637,0.0522518,-0.00436658,-0.0872204,-0.0280403,-0.0191489,-0.160002,-0.14879,0.156279,0.0849876,-0.0355011,0.0545911,0.0557988,-0.0623765,-0.036485,0.0252591,0.176651,-0.0490792,0.101399,0.0676623,-0.0708183,-0.0440743,-0.00922981,-0.113982,0.144656,0.0555706,0.176489,0.0341088,0.148769,0.0228774,-0.06877,-0.0195395,0.0835133,0.0137878,-0.13657,-0.0591675,0.156782,-0.20829,-0.163681,0.00242697,-0.0632153,-0.0398081,0.0304299,0.0488142,0.0238738,-0.0671521,0.00719496,0.0586713
aka 0.0864592,0.175811,0.022938,0.0617003,-0.0615292,-0.0849585,-0.0251963,-0.118454,-0.00750973,0.040831,-0.0321198,-0.172553,-0.201642,-0.0867913,0.0516377,0.0611458,0.1334,-0.109287,0.0835139,-0.0525123,-0.179611,-0.0738806,0.152419,0.166081,0.0706198,-0.0590606,-0.0449744,0.0726878,-0.119425,-0.155244,-0.0232461,-0.0150458,-0.0342533,0.118304,0.109958,0.0403937,-0.117057,0.176646,0.0751322,-0.0134536,-0.227565,-0.0563822,-0.184701,-0.0157616,-0.065731,-0.0734283,-0.0584559,0.0746117,0.152342,0.00361306,0.0401593,-0.108304,-0.0497779,-0.0479973,-0.0493503,-0.0342453,0.0953878,-0.048997,-0.213027,-0.0561756,0.0439644,0.243567,-0.00178802,-0.0507314,0.0110306,-0.152267,-0.0401959,0.0889513,0.136159,-0.139656,0.00358605,0.030682,-0.173106,-0.038481,-0.0923149,-0.114694,0.0281327,-0.0289098,0.181096,0.0264245,0.080873,0.0986236,0.0371339,0.0947282,0.0409898,-0.0193327,-0.0233078,-0.114428,0.172935,-0.187495,-0.164801,-0.076548,-0.0204779,0.0403081,-0.0107432,-0.0351872,0.0149863,0.00655895,0.00693654,0.0302921
theres 0.0825862,0.203111,0.00450371,0.0741189,-0.0394598,-0.0423452,-0.0431481,-0.0426777,-0.00742078,0.0201672,-0.0323866,-0.142903,-0.124079,-0.0182335,0.0750323,0.0609777,0.149805,-0.100668,0.0607542,-0.0900258,-0.137774,-0.0767163,0.0830545,0.131381,0.0956628,-0.0657215,-0.0859192,0.102758,-0.0941984,-0.121745,-0.0498832,0.0477547,-0.0404299,0.0516235,0.112597,0.00554569,-0.0968952,0.126925,0.0905247,0.0118553,-0.240762,-0.0539421,-0.193687,-0.0252696,-0.086786,-0.0358386,-0.0124444,0.0583677,0.183911,-0.00357766,0.0691044,-0.106699,-0.0018809,-0.0246549,-0.0224785,-0.0725794,0.124608,-0.00734781,-0.272158,-0.124599,0.0748875,0.205838,-0.0224121,-0.0614988,0.011696,-0.141493,-0.0716016,0.0799696,0.117488,-0.128344,0.0173941,0.00715821,-0.146144,-0.0617968,-0.0814885,-0.127033,0.0535597,-0.046935,0.207994,0.0701232,0.102388,0.104526,0.0539804,0.084445,0.0847475,-0.0601397,-0.0874382,-0.0777757,0.151208,-0.277793,-0.151912,-0.115921,0.029936,0.0306084,-0.00757893,-0.0181885,-0.00767123,0.0659619,-0.0157707,-0.011827
eyebrows 0.0416116,0.225997,0.067303,0.0256612,-0.0680743,-0.0643519,-0.00551794,-0.100872,0.054713,0.0360265,-0.0502216,-0.122828,-0.15919,-0.0711895,0.0704639,0.031492,0.0987881,-0.132084,0.0565893,-0.0405488,-0.147563,-0.0954782,0.0769283,0.185818,0.038055,-0.0220907,-0.0340503,0.100708,-0.123608,-0.158788,-0.0170047,0.0070788,-0.00425052,0.127021,0.160003,0.0280176,-0.141015,0.184781,0.0846003,-0.0631102,-0.204274,-0.0446689,-0.137813,-0.0261643,-0.0901498,-0.100983,-0.022064,0.0642177,0.139414,-0.00548841,0.0914595,-0.147497,-0.0268006,-0.102569,0.0114209,-0.0808557,0.111434,-0.0944527,-0.252723,-0.0646745,0.0903319,0.208951,-0.0319356,-0.00401076,0.0292648,-0.182173,-0.0276242,0.11329,0.142115,-0.14632,0.0242087,0.0786352,-0.107137,-0.00718182,-0.0645524,-0.0500512,0.0722663,-0.0888865,0.149381,-0.0216116,0.0396773,0.0873694,0.0698382,0.0525197,0.0103064,-0.0659285,-0.00305812,-0.0610787,0.165493,-0.237242,-0.116185,-0.125827,0.00464769,-0.00418662,-0.0499077,-0.0799462,0.0535863,-0.0271382,-0.0399788,0.0350087
golden 0.0937899,0.170956,0.0183452,0.0790593,-0.0866068,-0.0954572,0.002285,-0.0863803,-0.00180249,0.0593102,-0.0591356,-0.15969,-0.175726,-0.080814,0.0612793,0.0705745,0.150012,-0.0920242,0.072637,-0.0547817,-0.177425,-0.0653234,0.11723,0.151114,0.0759646,-0.0552011,-0.0376628,0.0762107,-0.116656,-0.17817,0.00177505,0.0236594,-0.0574544,0.0992014,0.117751,0.0099428,-0.112108,0.165265,0.0921786,-0.0163182,-0.248706,-0.0638864,-0.187411,-0.0338315,-0.0459152,-0.0561726,-0.0163618,0.103987,0.123434,0.0337578,0.0347013,-0.119559,-0.0503413,-0.0491915,-0.0577919,-0.0554734,0.0859882,-0.0717009,-0.204087,-0.0759481,0.0659603,0.23624,-0.0413796,-0.0183912,0.0107222,-0.144568,-0.0558562,0.101965,0.147997,-0.145434,0.0205224,0.0483773,-0.151407,-0.0406016,-0.0566966,-0.114382,0.0500728,-0.0340256,0.188423,0.0338842,0.0499954,0.0909786,0.0217659,0.0832191,0.0338921,-0.0400448,-0.0424242,-0.128491,0.141887,-0.229442,-0.170051,-0.100206,-0.0028384,0.0263742,0.00911135,-0.0651828,0.0257272,0.0177211,0.00759233,0.0287639
daaang 0.059407,0.207578,0.0309059,0.0626759,-0.0668265,-0.0489596,-0.0466196,-0.127595,0.016862,0.0941302,-0.0702171,-0.167992,-0.147013,-0.0683777,0.0588044,0.101599,0.127777,-0.0666336,0.109221,-0.0465949,-0.175614,-0.0904079,0.151959,0.212001,0.09919,-0.0315523,-0.0315689,0.106933,-0.126276,-0.136969,-0.0161133,-0.0165562,-0.0604071,0.0958591,0.108384,0.0470018,-0.132853,0.191991,0.0991066,-0.0271436,-0.208154,-0.0846238,-0.170382,-0.00559468,-0.0860781,-0.0739525,-0.0754492,0.0902614,0.101764,-0.0170768,0.0661779,-0.13363,-0.0500157,-0.0600545,-0.0636462,-0.0305648,0.0746034,-0.065435,-0.197515,-0.0297494,0.0387772,0.204796,-0.0539851,-0.018618,-0.00820612,-0.101086,-0.036431,0.101713,0.17046,-0.163174,-0.0287982,0.0499101,-0.121311,-0.0495239,-0.0692944,-0.129344,0.072169,-0.0382249,0.193147,0.0265445,0.0286062,0.125854,0.0470915,0.0827215,0.0266821,-0.000964369,-0.0587405,-0.147931,0.173732,-0.168663,-0.122315,-0.0572031,0.00885265,0.0622794,-0.0218054,-0.0439646,0.00214497,0.0261417,0.0323255,-0.027677
hunch 0.0459844,-0.16517,-0.0335507,-0.189162,0.0896893,0.0559324,0.15546,0.174155,0.0637984,-0.00342701,0.0109889,0.101338,0.171159,-0.0109637,0.114602,-0.0487955,0.112484,-0.0126937,-0.0724775,0.125071,0.156584,0.0434906,-0.0320459,0.0363143,0.116399,0.164498,0.0710385,0.000301473,0.0761248,-0.115322,0.0183284,-0.0610554,0.155272,-0.00249868,-0.0941621,0.129222,-0.0225459,0.081577,-0.132863,0.0895208,-0.0607086,0.166995,-0.00809317,0.104528,0.0864104,-0.151651,0.080749,-0.00164889,0.175522,0.11501,0.0884564,0.108322,0.147784,0.161916,0.0698193,0.135244,0.0188748,-0.0596395,0.0669547,-0.0308471,-0.16194,0.0634071,0.031451,-0.158679,0.150117,-0.158564,-0.068299,0.123544,-0.0777029,0.0562994,-0.0418983,-0.173488,-0.0683614,0.00668729,0.00324865,0.100801,0.112106,0.117476,-0.151137,-0.0670214,-0.150679,0.0337632,0.0487432,0.026596,0.0621436,0.0655583,0.0497035,-0.00393333,-0.119456,-0.0430554,0.0457446,-0.0785988,0.0224759,0.187872,0.131028,0.0114443,-0.027684,0.0766471,-0.12501,-0.0105726
stray 0.176581,0.223769,-0.0350227,0.0515993,-0.0676961,-0.0253809,-0.116641,-0.13555,-0.0291824,0.111285,0.0908666,-0.124812,-0.119637,-0.0197357,-0.0232309,0.0106274,0.126447,-0.173138,0.126904,0.0437158,-0.212007,-0.0124717,0.137186,0.136167,0.0531192,-0.0869836,0.121483,0.0964949,-0.108803,-0.188792,0.0976433,-0.00148084,-0.100304,0.0397929,0.0549911,0.0763324,-0.111194,0.149234,0.0338132,-0.104998,-0.064488,-0.121195,-0.10648,-0.0500147,-0.0258429,0.102225,-0.0995525,-0.0107896,0.0922238,-0.0841031,0.0437598,-0.0460513,-0.0600565,-0.169116,0.0050442,-0.0880482,-0.0319284,-0.13456,-0.0286757,-0.0708414,0.165629,0.260138,0.0838454,0.106001,-0.0783689,-0.159066,0.114099,0.081363,0.0258855,-0.211574,-0.0425381,0.044364,-0.221146,0.0508819,-0.0400916,-0.14624,0.0958825,-0.00520061,0.080531,-0.00756973,0.112996,0.0152022,0.0230118,0.0569481,-0.0647374,0.0695489,-0.0259012,-0.0579847,0.0749257,-0.0718996,-0.129696,0.0487425,0.0208947,-0.0387825,-0.0381144,-0.043855,-0.0181479,0.0347457,0.0382158,-0.0978194
bro 0.0634342,0.207549,0.0450391,0.0721514,-0.0967022,-0.054817,-0.00329282,-0.0929358,0.0187546,0.0609026,-0.0804865,-0.134974,-0.18836,-0.0660098,0.0415573,0.0517221,0.128979,-0.11353,0.0504338,-0.0737611,-0.174684,-0.0797165,0.126114,0.165615,0.0879462,-0.0369588,-0.0132872,0.0683083,-0.0986286,-0.161946,-0.0126528,0.0131663,-0.0326452,0.0996588,0.127255,0.0045844,-0.12066,0.153325,0.081031,-0.0456552,-0.27471,-0.0307103,-0.181143,0.00964616,-0.0875196,-0.039687,-0.0174531,0.0710439,0.14884,0.0248805,0.0297029,-0.104733,-0.051711,-0.0798475,-0.0440804,-0.0650431,0.0871989,-0.0506265,-0.207749,-0.0796548,0.0638477,0.256742,-0.0480856,-0.0206094,0.0151726,-0.164885,-0.0185838,0.0980724,0.118813,-0.142791,-0.00590503,0.0386122,-0.137257,-0.039609,-0.0943089,-0.0953199,0.0538681,-0.0739924,0.202739,0.0426309,0.0462852,0.0955408,0.0249014,0.0667168,0.0303732,-0.033396,-0.0542017,-0.104179,0.141136,-0.22726,-0.157554,-0.0804829,-0.020559,0.0517278,-0.0251963,-0.0247624,0.00873444,0.0328569,0.00233093,0.000443417
stern 0.0717807,0.173568,0.0466222,0.105148,-0.089071,-0.109752,-0.0331034,-0.126371,0.0658251,0.0957865,-0.0392669,-0.177556,-0.228056,-0.107596,0.0167903,0.0657353,0.0802654,-0.131621,0.145644,-0.0465852,-0.186176,-0.034037,0.1592,0.227362,0.00999423,-0.0607226,-0.00935722,0.120107,-0.11537,-0.196157,0.014609,-0.0622915,-0.0309686,0.100508,0.113009,0.0319403,-0.136297,0.200529,0.033562,0.0120305,-0.201559,-0.106799,-0.135584,0.00746224,-0.0729728,-0.0137986,-0.0460994,0.0926138,0.12708,0.00164416,0.0433543,-0.122069,-0.0712098,-0.0500406,-0.0482367,-0.0907077,0.0988421,-0.0465845,-0.144435,0.001062,0.0699147,0.21804,-0.00612231,-0.00968533,0.0420392,-0.0838703,-0.00919083,0.097203,0.122224,-0.148007,-0.0416671,0.0916646,-0.155765,-0.00710119,-0.072323,-0.0866156,0.0165943,-0.0328322,0.189629,-0.0539155,0.0612677,0.0945909,0.0404673,0.0948324,0.0524576,0.00533509,-0.0257428,-0.155749,0.151826,-0.149666,-0.0993714,-0.0370166,0.000513333,-0.0338941,-0.0176348,-0.0527665,-0.00697559,-0.00188155,0.0534131,0.00233828
cheating 0.0773173,0.218982,-0.020587,0.00882535,-0.0578084,-0.0214046,-0.0481482,-0.0362351,-0.0384813,0.0267062,-0.0800533,-0.158016,-0.111389,-0.00751359,0.0704687,0.0489264,0.122059,-0.114383,0.0511835,-0.0736187,-0.13553,-0.0802847,0.132057,0.167199,0.0840902,-0.0575705,-0.0797552,0.0542538,-0.132255,-0.182681,0.0102648,0.0479613,0.00927046,0.0452938,0.104788,0.0465546,-0.145254,0.17054,0.0819291,-0.0446006,-0.269948,-0.051431,-0.202192,-0.065553,-0.0707272,-0.054921,-0.00753496,0.0437437,0.118236,0.0617905,0.0328916,-0.0945505,-0.031464,-0.0914005,-0.0368251,-0.0252714,0.0937076,-0.0521692,-0.239777,-0.0494902,0.0185989,0.242467,-0.0360017,-0.0230116,-0.00981395,-0.181564,-0.0259163,0.0879133,0.184332,-0.122669,0.00259294,0.011548,-0.109054,-0.0449071,-0.0991112,-0.101753,0.0519168,-0.0244682,0.189749,0.0366908,0.0274236,0.135359,0.0422237,0.10679,0.0228509,0.0108751,-0.106051,-0.146707,0.119168,-0.202045,-0.174869,-0.0650504,0.00121324,0.0594533,0.0562639,-0.0354983,0.00605988,-0.00725961,-0.00600277,0.0134209
spoke 0.0710166,0.191473,0.0319976,0.0438075,-0.0694725,-0.0897679,-0.0331103,-0.104111,0.0154571,0.0718518,-0.0649507,-0.149888,-0.176706,-0.0731563,0.0305667,0.0825634,0.146571,-0.106971,0.0612572,-0.074347,-0.146848,-0.0801724,0.123907,0.190722,0.0716598,-0.0656246,-0.0168919,0.0766375,-0.101708,-0.161946,-0.0171185,0.00438348,-0.0226641,0.113089,0.12914,0.0417201,-0.110037,0.184079,0.0668476,-0.00219313,-0.259712,-0.0392007,-0.157965,-0.00653079,-0.0806765,-0.06908,-0.0413497,0.0982931,0.144598,0.0299721,0.0565166,-0.138453,-0.0406379,-0.0734626,-0.026042,-0.0356589,0.0724947,-0.0530302,-0.219078,-0.0832454,0.0735311,0.227513,-0.0341022,-0.0500894,0.0201043,-0.167487,-0.0559989,0.104985,0.153342,-0.136776,-0.0120555,0.0502572,-0.13579,-0.0525389,-0.0558357,-0.115198,0.0304152,-0.0461699,0.192376,0.00234723,0.0791482,0.0837048,0.0500355,0.0977608,0.0570966,-0.0139925,-0.0493357,-0.0989693,0.170274,-0.186343,-0.12878,-0.0956993,0.0183811,0.0518139,-0.00507641,-0.0682597,-0.00811026,0.000575445,0.00770372,0.0202643
would 0.0836368,0.192817,0.0191815,0.0657923,-0.0796099,-0.0803194,-0.0241749,-0.0969538,0.00904265,0.060881,-0.0481749,-0.158818,-0.177736,-0.0737859,0.031266,0.0780528,0.133249,-0.0955653,0.0684865,-0.0711178,-0.173489,-0.0740394,0.131354,0.176377,0.0920773,-0.0618248,-0.0330654,0.0902342,-0.0936004,-0.163459,-0.0059831,0.00806049,-0.0362284,0.109369,0.125317,0.0178487,-0.130925,0.174614,0.0802642,-0.0244675,-0.244739,-0.047071,-0.170315,-0.010366,-0.066901,-0.0640322,-0.041517,0.0931057,0.131172,0.0181043,0.0486303,-0.12574,-0.0441745,-0.060282,-0.034046,-0.0547433,0.0936306,-0.0493259,-0.210899,-0.066754,0.0632088,0.239585,-0.0194137,-0.0321194,0.016255,-0.161517,-0.0375458,0.0977089,0.141009,-0.153633,0.0010213,0.0337251,-0.160396,-0.0500212,-0.0805722,-0.106683,0.042857,-0.0525365,0.196359,0.00926582,0.0676657,0.0911479,0.0383214,0.0865309,0.053394,-0.0139458,-0.0450621,-0.111891,0.161458,-0.203261,-0.146635,-0.0936864,-0.00525523,0.0425992,-0.00905192,-0.0443548,0.00865078,0.0143985,0.00697031,0.0083927
