 0.00501769,0.290367,-0.115649,0.0914812,-0.0385813,0.0747684,0.0956405,-0.0611768,0.102972,0.0860176,-0.0561167,-0.111713,-0.108443,-0.0896163,-0.0961375,0.0220919,0.0157153,0.0679916,0.0717722,0.0697641,-0.0196279,-0.112582,0.0838437,0.175341,-0.0402271,-0.177397,0.0464093,0.071416,0.0623094,0.00177777,-0.0209816,-0.0223173,-0.112558,0.0850454,0.0438599,0.0745005,-0.0633106,0.201699,0.0479134,0.0478331,0.0491534,-0.1211,0.0433411,-0.0227423,-0.153205,0.125628,-0.145686,-0.0576101,-0.0113956,-0.0321245,0.0402296,-0.0524729,-0.102839,-0.133717,-0.0636364,-0.144485,-0.0464461,-0.0672349,0.122958,0.110736,-0.0136035,0.0341016,0.273587,0.168891,0.00696222,-0.000747659,0.102972,0.101767,0.154753,-0.119417,-0.000801691,0.106775,0.0460661,0.156232,0.014215,-0.049682,0.123388,0.106747,0.0532482,-0.126339,0.00488833,0.127327,0.0648199,-0.0840963,-0.170013,0.0528811,0.0706623,-0.169429,0.116327,0.0749689,-0.143884,-0.00662303,0.0972544,-0.122711,-0.0984642,-0.0513369,-0.0629384,-0.0884595,0.120308,0.0337038
suspenseful 0.023901,0.248501,-0.0998257,0.102632,-0.0607631,0.0459745,-0.0176501,0.069206,-0.00559191,0.0243686,-0.135215,-0.0941649,-0.189145,0.00743316,0.00202191,0.0938255,0.0527975,-0.0144246,-0.0955013,-0.0603235,-0.0880145,-0.122042,-0.0362919,0.21155,0.0977141,-0.0769304,-0.0144526,0.101382,0.0233512,-0.00352852,-0.113578,0.243314,0.0209529,-0.0162344,-0.0663266,0.114821,0.0559785,0.137115,-0.00259457,-0.0739016,-0.140641,-0.0344502,-0.0722758,-0.103239,-0.0921602,-0.0864365,-0.0693078,-0.123507,0.189596,0.103442,0.0951255,-0.089422,-0.0798908,-0.0654329,-0.0860548,-0.0989905,-0.0376524,0.0267,-0.0868344,-0.0482691,-0.11676,0.0610199,0.172328,0.0505303,0.0998161,-0.124668,-0.0399634,0.104235,0.194598,0.00967607,0.0340952,0.0926416,0.0283532,0.0681313,-0.0151803,-0.06743,0.0303324,0.00758127,-0.00433017,-0.0249232,-0.0400318,-0.0428561,0.0849471,-0.213576,-0.144673,-0.0655446,-0.0676691,-0.191802,0.0851836,-0.0253671,-0.247494,-0.178742,0.0277653,-0.0173614,-0.0431017,0.0702497,0.030572,-0.0760591,0.206721,-0.0159056
four 0.0543691,0.251754,-0.122201,0.0533001,-0.023979,0.0748032,-0.0127777,0.0123094,0.0305317,0.0203556,-0.145982,-0.143498,-0.216045,-0.0184438,-0.062771,0.13017,0.0870482,0.0523521,-0.0774142,0.0108498,-0.0564456,-0.177976,0.0103844,0.233461,0.113002,-0.118904,0.011316,0.0820471,0.00470404,-0.0170377,-0.12898,0.172227,-0.0608016,-0.00388139,-0.0560386,0.120603,0.00396469,0.190884,0.039621,-0.0279009,-0.0808573,-0.0173233,0.00254129,-0.149395,-0.147526,-0.0175013,-0.103554,-0.0696696,0.160953,0.0689658,0.110078,-0.0688041,-0.0829206,-0.109571,-0.0304695,-0.13173,-0.0406774,-0.0437891,-0.0117125,0.00804889,-0.0973087,0.0560993,0.223907,0.110294,0.110563,-0.0819636,-0.0474043,0.105481,0.178932,-0.0449472,0.0300277,0.0679808,0.02886,0.117093,-0.0542145,-0.0331911,0.0815679,0.0736719,0.0533593,-0.0250567,-0.0242453,0.042147,0.0307907,-0.167728,-0.194464,-0.0302621,-0.0596786,-0.150856,0.0847549,-0.040446,-0.219811,-0.16582,0.0497539,-0.0196485,-0.0200423,0.0237232,-0.020782,-0.0354951,0.162127,-0.0515229
asian 0.0495056,0.23905,-0.111754,0.0549928,-0.0167728,0.0636192,-0.0232625,0.0345802,0.0265739,0.00191937,-0.14316,-0.15053,-0.217747,-0.0268304,-0.0518396,0.143533,0.0964903,0.0476351,-0.0866679,0.00837948,-0.0643284,-0.162588,0.00925923,0.25337,0.138329,-0.0927129,0.0128531,0.0584481,-0.0111448,-0.0205682,-0.132402,0.179537,-0.0384226,-0.0145504,-0.0695005,0.136631,-0.00133187,0.190093,0.0296756,-0.03533,-0.108015,0.0106989,0.00166916,-0.147694,-0.133498,-0.0535576,-0.104281,-0.0627927,0.149816,0.0790935,0.101637,-0.0681312,-0.0829801,-0.112611,-0.0480483,-0.133352,-0.0271029,-0.0333638,-0.0464953,-0.0215986,-0.106973,0.0431841,0.214287,0.107761,0.130779,-0.0888734,-0.0503259,0.107537,0.170198,-0.0383846,0.0130021,0.0730771,0.0298647,0.093701,-0.0723445,-0.0206837,0.0748537,0.0658675,0.0311075,-0.0175157,-0.0269274,0.0238018,0.0405398,-0.15733,-0.180451,-0.0382867,-0.0679058,-0.158085,0.0602442,-0.0592025,-0.232705,-0.157022,0.0408946,0.00599138,-0.023438,0.0165461,0.00966124,-0.0365233,0.172551,-0.0640708
mcgarther 0.0518436,0.246455,-0.0930391,0.0439483,0.0123623,0.0300801,-0.0322774,0.0333214,0.000200357,-0.0191569,-0.129492,-0.112199,-0.227513,0.0147349,-0.0710945,0.147605,0.108933,0.0520403,-0.117455,-0.0104364,-0.0396111,-0.135756,0.00918146,0.264473,0.162863,-0.0720213,-0.00711964,0.0967725,0.0139037,-0.0212707,-0.117215,0.17419,-0.0300654,-0.0492575,-0.0863308,0.0983339,-0.00642604,0.177786,0.0457452,-0.00444795,-0.11099,0.022562,-0.00888687,-0.167959,-0.119578,-0.0531147,-0.110709,-0.0776216,0.144387,0.0965902,0.0985652,-0.0605948,-0.0491048,-0.0771397,-0.00979141,-0.13613,-0.049455,-0.0383003,-0.0725834,-0.0120073,-0.0908905,0.0742519,0.190714,0.127269,0.145225,-0.109446,-0.0668104,0.093295,0.193095,-0.0565505,0.0342674,0.0361401,0.0534206,0.0693388,-0.0731455,-0.00666015,0.0349576,0.0350384,0.0308395,-0.00990383,-0.0417842,0.0414919,0.0299829,-0.171261,-0.166743,-0.0492347,-0.0595659,-0.150396,0.0889683,-0.0811744,-0.208324,-0.185663,0.0531136,-0.00693982,-0.0238095,0.0433286,-0.0054353,-0.0517843,0.185121,-0.0489562
hating 0.0481485,0.234967,-0.133943,0.0201654,-0.0427756,0.0674202,-0.0223588,0.0101596,0.0284392,-0.00350634,-0.127202,-0.119277,-0.222513,-0.0178014,-0.0742219,0.168023,0.105343,0.0164306,-0.077452,0.0225695,-0.0429039,-0.159402,0.00116718,0.236862,0.127323,-0.0727738,-0.00127388,0.0720304,0.0144914,-0.0311462,-0.164687,0.216984,-0.05395,-0.0273067,-0.0759242,0.1415,0.0159748,0.154281,0.0210611,-0.0561301,-0.127326,0.0373858,-0.00695479,-0.179668,-0.126877,-0.0736669,-0.116423,-0.0419598,0.192407,0.049778,0.112875,-0.0775546,-0.0657812,-0.08235,-0.037588,-0.0892291,-0.0575148,-0.00913376,-0.0778947,-0.0373985,-0.0921146,0.0293611,0.175952,0.0778288,0.138188,-0.0691419,-0.0632821,0.0774939,0.198808,-0.0269697,0.0158113,0.0411739,0.00153701,0.0916223,-0.0421806,-0.0264718,0.0545964,0.0566779,0.0632724,0.0170022,-0.0305474,0.00305684,0.0365375,-0.160142,-0.192399,-0.0775515,-0.099052,-0.113051,0.0590375,-0.0851335,-0.216034,-0.189504,0.0626829,0.0298734,-0.0242507,0.004489,0.0238195,-0.0162626,0.148744,-0.0806968
captain 0.0532453,0.225849,-0.129896,0.035383,-0.0148824,0.054591,-0.0381093,0.024037,0.0124697,0.0103397,-0.14585,-0.140373,-0.216955,-0.0179493,-0.0586804,0.149245,0.103558,0.0425322,-0.0910702,-0.0117965,-0.073845,-0.159181,-0.0149886,0.230675,0.15513,-0.0963451,0.00277042,0.0761165,-0.0226449,-0.0252314,-0.152812,0.214007,-0.0225855,-0.0356379,-0.0626383,0.12223,7.74828e-05,0.173276,0.033336,-0.0407426,-0.115786,0.00896671,-0.0251343,-0.156767,-0.135083,-0.0728789,-0.0798895,-0.0658752,0.186719,0.0638869,0.0995288,-0.0827787,-0.0656927,-0.105066,-0.03793,-0.106762,-0.0426575,-0.00968782,-0.0700873,-0.0139547,-0.109747,0.0489764,0.178676,0.101417,0.130847,-0.0868426,-0.0817566,0.0949347,0.167584,-0.0172267,0.0202819,0.0616335,0.0349882,0.0823281,-0.0761023,-0.015465,0.0600762,0.0700983,0.0511165,0.0148359,-0.052009,0.0224462,0.0118823,-0.170224,-0.163277,-0.0433591,-0.0959164,-0.139588,0.0603647,-0.0874233,-0.214178,-0.191662,0.0491128,0.0029856,0.00570186,0.0369018,0.0185989,-0.0164542,0.17174,-0.0641622
hate 0.0364543,0.287959,-0.129766,0.0757748,-0.0267187,0.0737721,0.034009,-0.0201588,0.0696024,0.0512861,-0.116409,-0.144103,-0.184198,-0.0568652,-0.0815749,0.0909171,0.0638504,0.0503523,-0.0173444,0.0342778,-0.050509,-0.154756,0.0479453,0.236605,0.0593373,-0.153981,0.0242741,0.0791161,0.0301589,-0.00825154,-0.0923096,0.0956843,-0.0807479,0.0322445,-0.0128453,0.115715,-0.0256702,0.205868,0.053328,0.011183,-0.0320148,-0.0577659,0.0173393,-0.103134,-0.163881,0.0380471,-0.135705,-0.0653836,0.0956515,0.0200582,0.0853213,-0.0771651,-0.101954,-0.132661,-0.0572252,-0.14346,-0.0466102,-0.0524947,0.0426375,0.0531264,-0.0639614,0.0432213,0.263546,0.15088,0.0768472,-0.054859,0.020284,0.107138,0.186822,-0.080499,0.0112533,0.102852,0.0375254,0.139068,-0.0339367,-0.0413267,0.100536,0.0954656,0.0500169,-0.0716873,-0.0181538,0.082729,0.0518325,-0.141401,-0.195846,0.00290894,-0.00978938,-0.169313,0.0980271,0.00186312,-0.211003,-0.104091,0.0795279,-0.0609013,-0.0594838,-0.013803,-0.030973,-0.0647333,0.160172,-0.0169995
poorly 0.0273416,0.154759,-0.0801666,0.0144379,0.0369738,0.0266987,-0.0911888,0.0719839,-0.0570001,-0.036904,-0.136979,-0.149419,-0.196,0.00153182,-0.017914,0.157711,0.152379,-0.0182851,-0.112387,-0.0727135,-0.0969436,-0.152726,-0.0270892,0.221131,0.176209,0.00402489,-0.0408203,0.0694114,-0.0327149,-0.0590842,-0.164521,0.275124,0.0496058,-0.0785621,-0.111761,0.148234,0.0740112,0.0774118,-0.0101249,-0.0476689,-0.185828,0.0541436,-0.0699318,-0.148138,-0.137482,-0.159354,-0.0735166,-0.0403109,0.207042,0.0824,0.0982087,-0.0202853,0.00702996,-0.0783852,-0.0307443,-0.113494,0.0141452,-0.0361842,-0.109578,-0.0971986,-0.0758027,0.0650444,0.0869874,0.044621,0.172368,-0.155059,-0.079506,0.0669216,0.11675,-0.0146676,-0.00903374,0.0580633,-0.00903282,-0.00168049,-0.115252,-0.0042467,0.0324454,0.0197962,0.00742668,0.0483148,-0.00916761,-0.0521531,-0.0178423,-0.117458,-0.152618,-0.0537376,-0.13502,-0.084137,0.0521598,-0.158955,-0.152465,-0.174943,0.000216448,0.0414714,0.00604206,0.0160869,-0.000678742,0.0268821,0.109406,-0.127497
stinks -0.0540993,-0.0843493,0.0710436,-0.0081627,-0.0146921,-0.00597505,0.119203,-0.0843702,0.0477935,0.0289484,0.112369,0.119327,0.191463,-0.0475817,-0.0232283,-0.182968,-0.124165,0.00388036,0.16821,0.0271144,0.0447773,0.11441,0.0517232,-0.158819,-0.215135,-0.0147494,0.035419,-0.0209064,0.0536354,0.0364793,0.162715,-0.239086,-0.0479284,0.0786722,0.107323,-0.128985,-0.0449177,-0.0710273,0.00489259,0.0890434,0.154914,-0.120318,0.0546439,0.202963,0.0681452,0.172358,0.0105108,0.0590893,-0.223251,-0.1137,-0.0883034,0.0752101,0.0156409,0.0605357,0.00123039,0.0311334,0.0192826,-0.0420507,0.15082,0.121989,0.0973355,-0.054925,-0.0537551,-0.0340845,-0.154711,0.122073,0.171891,-0.0564458,-0.116495,-0.0580404,-0.021591,-0.00959743,-0.00747592,-0.0100663,0.0705256,-0.00968069,0.0200161,0.00988351,-0.0236469,-0.0866702,0.0474814,0.0704708,0.0307256,0.163995,0.0885305,0.0822278,0.141141,0.0491708,-0.0153876,0.140847,0.197846,0.225046,0.00727927,-0.0739103,-0.0543164,-0.0482834,-0.0338347,-0.000960485,-0.137583,0.107576
spec 0.0398276,0.255928,-0.135434,0.0663725,-0.0252399,0.0638083,-0.0120951,0.0429891,0.0235382,0.0300465,-0.117951,-0.163978,-0.226746,0.00351491,-0.030628,0.14264,0.0913164,0.0186879,-0.0916602,0.00423836,-0.0565237,-0.143302,0.00850982,0.234946,0.130508,-0.102297,-0.0209804,0.0457647,0.0147073,-0.00952394,-0.144126,0.186929,-0.0446943,-0.00148681,-0.0776808,0.117976,-0.0169257,0.167719,0.0581328,-0.0192485,-0.109966,-0.00588719,-0.02428,-0.144465,-0.167581,-0.0341366,-0.128887,-0.0485809,0.175745,0.063267,0.118277,-0.0822147,-0.0829498,-0.11229,-0.0432074,-0.0931577,-0.0243122,-0.0506137,-0.0725805,-0.0363808,-0.0710646,0.0272741,0.197426,0.0867107,0.14159,-0.108191,-0.0386179,0.0767482,0.174092,-0.0314528,0.0452984,0.0630842,0.0406745,0.0839683,-0.042685,-0.0463677,0.0554385,0.039538,0.0230765,0.0107299,-0.0539011,0.0365684,0.00656026,-0.158307,-0.194159,-0.0441057,-0.0814582,-0.165711,0.0625143,-0.0404677,-0.203779,-0.178178,0.060059,0.00825342,-0.00276079,0.0480564,0.0146657,-0.0562346,0.182455,-0.0609192
voted 0.0736918,0.264836,-0.149397,0.0457894,-0.0173815,0.0834797,-0.0214297,-0.00768596,0.024509,0.0348888,-0.124659,-0.127782,-0.194588,-0.0319536,-0.0630289,0.1275,0.0897287,0.0429773,-0.0471808,-0.0122391,-0.068869,-0.172374,-0.00474152,0.244642,0.11052,-0.114076,0.0334336,0.0729597,-0.0131174,-0.010036,-0.13914,0.1772,-0.0732183,0.0117371,-0.0676654,0.111784,0.0135534,0.17184,0.0263122,-0.0351593,-0.0940701,-0.02236,-0.0186398,-0.119001,-0.155849,-0.0137091,-0.106104,-0.0479315,0.135901,0.041736,0.0997897,-0.0621445,-0.103848,-0.124543,-0.0389778,-0.146046,-0.0299483,-0.0140047,-0.0272214,0.0208857,-0.0671385,0.0575509,0.244615,0.129425,0.105622,-0.0963791,-0.0504764,0.115796,0.185112,-0.0528229,-0.0018013,0.0822909,0.0104105,0.108576,-0.0586201,-0.0250157,0.0652732,0.0646398,0.0491799,-0.0241579,-0.035097,0.0498323,0.0574678,-0.156354,-0.200185,-0.033061,-0.0701533,-0.134914,0.0870398,-0.025301,-0.222184,-0.171532,0.0562373,-0.0368947,-0.048023,0.0250167,-0.0171432,-0.0276168,0.1485,-0.0566395
trousers 0.0605038,0.243388,-0.135323,0.0488417,-0.0245616,0.0580748,-0.0213593,0.0309922,0.0423367,0.0259756,-0.146495,-0.134487,-0.217085,-0.0229728,-0.0643791,0.136745,0.108473,0.0456475,-0.0755305,0.00274592,-0.0692764,-0.165633,-0.00748347,0.237441,0.115431,-0.110386,-0.000556347,0.0688638,0.00616182,-0.0145851,-0.135467,0.174237,-0.0514775,-0.0188508,-0.0573139,0.124191,-0.000539998,0.18464,0.036289,-0.0296339,-0.105547,0.00726279,-0.0184827,-0.162353,-0.14857,-0.0306529,-0.116206,-0.0740308,0.151911,0.0678913,0.0992398,-0.0819366,-0.0814037,-0.105692,-0.0394164,-0.111202,-0.0380462,-0.0181697,-0.0347355,-0.0214559,-0.0910838,0.0355176,0.218473,0.104232,0.10936,-0.0876122,-0.0398946,0.0947909,0.178494,-0.0342987,0.0183665,0.0628383,0.036545,0.101056,-0.0726043,-0.0269211,0.0653349,0.0775911,0.0493074,-0.0199429,-0.0253695,0.0265463,0.0368095,-0.169304,-0.182308,-0.0543515,-0.0678749,-0.15535,0.0765477,-0.0701264,-0.229558,-0.173288,0.0511875,0.00900697,-0.0285613,0.029915,0.00317926,-0.0353328,0.171315,-0.0508524
lore -0.0801837,-0.203594,0.0977684,-0.0318907,0.0390529,-0.047637,0.0178097,-0.0284233,-0.0256261,0.00329245,0.159392,0.147049,0.206147,-0.00967787,0.0660029,-0.158032,-0.102415,-0.0317895,0.0873169,0.0498476,0.0565126,0.180017,0.04484,-0.204067,-0.164175,0.0424689,0.0177896,-0.0904532,0.024704,0.0255299,0.160897,-0.219819,-0.00350532,0.0377838,0.111241,-0.116197,0.00980402,-0.166243,-0.0170448,0.0350658,0.101533,-0.0184848,0.0238288,0.199793,0.0924498,0.090565,0.102539,0.0792444,-0.180093,-0.0713112,-0.0803191,0.0672973,0.0383908,0.087946,-0.00342409,0.0805165,0.0376326,0.038496,0.0934401,0.0320076,0.0828008,-0.0136678,-0.160586,-0.0760612,-0.12774,0.0936281,0.0716682,-0.118107,-0.191943,0.00818511,-0.0563026,-0.0495492,-0.0183458,-0.0402059,0.0523094,0.000542404,-0.0702831,-0.0530667,-0.0657617,-0.0149686,0.0482834,0.0242938,-0.0342557,0.201285,0.129573,0.039905,0.124196,0.14325,-0.019411,0.0724437,0.249017,0.19452,-0.00235562,-0.0619957,-0.0293272,-0.0341643,0.00986736,0.0147152,-0.162838,0.0767285
lord 0.0544831,0.21888,-0.106149,0.0530995,-0.0228853,0.0503266,-0.0648234,0.0205424,0.0082626,-0.00099308,-0.14312,-0.142263,-0.234807,0.00929592,-0.0383638,0.162005,0.113977,0.0265181,-0.119396,-0.0184084,-0.050022,-0.174616,-0.0180689,0.236187,0.154197,-0.0654513,-0.017694,0.050073,-0.00999587,-0.0381057,-0.157829,0.192665,-0.035363,-0.058997,-0.0611221,0.106685,0.016236,0.150614,0.0362264,-0.0504983,-0.137359,0.0276383,-0.0367745,-0.169978,-0.109935,-0.0742699,-0.0807469,-0.0595589,0.203131,0.0743216,0.0957924,-0.082607,-0.0538776,-0.10785,-0.0390571,-0.113087,-0.043749,-0.0325247,-0.0867294,-0.0324948,-0.119293,0.0358732,0.191216,0.0680493,0.15023,-0.0990875,-0.068378,0.0843176,0.151709,-0.00741913,0.0172688,0.0530451,0.0223496,0.0790207,-0.0632669,-0.0326196,0.0439431,0.0710923,0.0231728,0.00295664,-0.040199,-0.00663543,0.0108366,-0.148089,-0.173255,-0.062094,-0.0852285,-0.128809,0.0316589,-0.0898007,-0.221914,-0.192987,0.0505486,0.0214435,-0.00677205,0.042022,0.0247496,-0.025068,0.173741,-0.0687574
sorry 0.0947235,0.210423,-0.134266,0.0235511,-0.0198694,0.0719567,0.0200766,0.00417926,0.0280284,0.0222182,-0.159827,-0.110131,-0.237875,-0.0360284,-0.0167481,0.161383,0.0862329,0.0882776,-0.0344569,0.0308303,-0.0188242,-0.209126,-0.00790253,0.27867,0.134364,-0.0881539,-0.0286553,0.123963,0.0374304,-0.0148512,-0.154471,0.155825,-0.0728914,0.00388308,-0.00543189,0.0903957,-0.0287143,0.161399,0.036916,-0.0214419,-0.108323,-0.0158884,0.0264837,-0.088546,-0.132454,0.0100084,-0.0762622,-0.0210469,0.137948,0.074301,0.126102,-0.0504874,-0.053123,-0.136365,-0.0569218,-0.178573,-0.0921167,0.00591608,-0.04073,-0.0315736,-0.102238,0.013832,0.24948,0.0723743,0.1121,-0.0396069,-0.0773045,0.130126,0.132278,-0.0684293,0.0659418,0.0608239,0.0464812,0.0932658,-0.0560477,-0.0756971,0.0964312,0.0296265,0.0656613,-0.0345582,0.0165199,0.0635238,0.0175116,-0.1131,-0.140666,0.00725224,-0.0278482,-0.161677,0.0300323,-0.0118182,-0.194211,-0.178875,0.0262524,-0.0353482,-0.0572607,-0.0043639,-0.0580399,-0.031435,0.211536,-0.0248672
worth 0.0656791,0.27038,-0.141268,0.0646284,-0.0273237,0.072832,-0.0140614,0.00371538,0.0639028,0.0361223,-0.125808,-0.143318,-0.208181,-0.0413761,-0.0677616,0.122609,0.08987,0.0625827,-0.0702747,0.0077574,-0.0641427,-0.154023,0.0294103,0.235862,0.092319,-0.131925,0.000928091,0.0733603,0.0210514,-9.43691e-05,-0.122601,0.136748,-0.0418759,0.0118717,-0.0443901,0.130065,-0.0103241,0.210069,0.0297118,-0.0191961,-0.0674572,-0.0247589,-0.0127998,-0.118519,-0.15538,0.00162246,-0.106473,-0.0598308,0.146227,0.0573864,0.0873879,-0.0911381,-0.10528,-0.103467,-0.0422731,-0.121719,-0.0502093,-0.0495306,0.0101724,0.0241654,-0.0818073,0.0317878,0.256578,0.119072,0.116111,-0.0661348,-0.0165013,0.106315,0.19549,-0.0606291,0.0323103,0.0904342,0.0265541,0.104238,-0.0597713,-0.0315594,0.0784435,0.0792766,0.0597809,-0.0266789,-0.0459376,0.0644632,0.0291298,-0.148671,-0.178877,-0.0385801,-0.0415262,-0.166528,0.0758763,-0.0437731,-0.225979,-0.135318,0.0725242,-0.0376458,-0.0331104,-0.00255038,-0.0338602,-0.0416218,0.161079,-0.0513002
oceans 0.0670988,0.234913,-0.116123,0.0415254,-0.0183258,0.0513611,-0.0352619,0.018627,0.0329634,0.00841893,-0.144144,-0.143427,-0.230774,-0.0199099,-0.0406853,0.134069,0.104019,0.0372123,-0.0953257,-0.00717641,-0.053436,-0.156052,-0.0156986,0.223408,0.130514,-0.0937238,0.00460739,0.0557576,-0.0140084,-0.0296135,-0.134725,0.19771,-0.0443144,-0.026205,-0.0718664,0.137204,0.00416292,0.182639,0.0495057,-0.0351459,-0.113613,0.0236348,-0.0152684,-0.162868,-0.148293,-0.0482768,-0.0992719,-0.069375,0.182627,0.087343,0.0959389,-0.0935489,-0.076386,-0.105321,-0.0329255,-0.112129,-0.047812,-0.017235,-0.0418985,-0.0190335,-0.107334,0.0614098,0.205899,0.0999745,0.126804,-0.100029,-0.0524458,0.0906392,0.175836,-0.0154616,0.0314645,0.0781471,0.0263101,0.0885215,-0.0723966,-0.0162924,0.0616562,0.0756059,0.0278769,0.00345837,-0.0543198,0.00197376,0.023726,-0.159102,-0.162579,-0.0551586,-0.0942063,-0.13754,0.0483575,-0.0583226,-0.227186,-0.182486,0.0387093,0.0106079,-0.0098099,0.0168345,0.0138104,-0.0202739,0.176964,-0.0604579
every 0.0620196,0.245963,-0.122671,0.0502363,-0.0131109,0.0663753,-0.0181555,0.0136419,0.0331195,0.0224853,-0.131938,-0.146583,-0.215716,-0.0216928,-0.0588094,0.12919,0.0963707,0.0348429,-0.0724915,0.00965824,-0.0672529,-0.172413,0.0119885,0.24817,0.127043,-0.106114,0.00573275,0.077113,-0.00389958,-0.0107325,-0.125411,0.178681,-0.050316,-0.0147553,-0.0525968,0.122279,0.00164106,0.192467,0.0415622,-0.0214154,-0.0888438,-0.00697843,-0.00649051,-0.151571,-0.146832,-0.0403526,-0.114277,-0.0731091,0.150208,0.062918,0.104654,-0.0804541,-0.0813808,-0.109276,-0.0385639,-0.12309,-0.0381767,-0.0287805,-0.0298215,-0.002446,-0.0968343,0.0454134,0.229728,0.120229,0.121321,-0.0868329,-0.0406629,0.106175,0.184892,-0.0451093,0.0232703,0.0798923,0.0287277,0.102871,-0.0624932,-0.0358994,0.0671196,0.0766217,0.0404462,-0.0197198,-0.0346462,0.035667,0.0377042,-0.166598,-0.188426,-0.0338862,-0.0612937,-0.144993,0.0697426,-0.0535963,-0.22543,-0.160912,0.0551461,-0.00547362,-0.0229237,0.0175675,-0.013004,-0.0338701,0.163768,-0.0468338
jack 0.0643382,0.224187,-0.121299,0.0673997,-0.0363294,0.0617474,-0.0433985,0.0146254,0.0397653,0.0326932,-0.123859,-0.142124,-0.215405,-0.034093,-0.0307766,0.116705,0.0889959,0.0295324,-0.0554149,-0.00426219,-0.0607486,-0.136523,0.019441,0.226,0.151671,-0.125812,-0.00117542,0.084658,-0.0229759,-0.0281689,-0.115627,0.180069,-0.059317,0.000460358,-0.0675179,0.138189,0.00117484,0.195508,0.0619388,-0.0186093,-0.0739153,-0.00202213,-0.0321672,-0.175607,-0.166259,-0.0455086,-0.0866363,-0.0378426,0.158312,0.0684039,0.104618,-0.0688721,-0.0666046,-0.0853438,-0.0455372,-0.0970786,-0.0170673,-0.0191243,-0.0659042,-0.0105274,-0.0819207,0.0416154,0.235716,0.117572,0.137861,-0.0797725,-0.0572902,0.105092,0.194438,-0.02063,0.0481362,0.0817984,0.00720312,0.0722406,-0.0853547,-0.0350801,0.0718193,0.0431418,0.041382,0.0048547,-0.0537699,0.0194168,0.0369665,-0.182671,-0.184847,-0.0627758,-0.0831088,-0.146589,0.0820871,-0.0577459,-0.237918,-0.179801,0.0330744,0.0256091,0.00317669,-0.00394363,0.0146195,-0.0291982,0.158656,-0.0430138
bringing 0.0481005,0.236701,-0.112696,0.0342802,-0.00379279,0.0496011,-0.0471961,0.0505777,0.0011176,-0.0174852,-0.151653,-0.148519,-0.21264,-0.0242083,-0.0388396,0.160422,0.109429,0.0206202,-0.102511,0.0117562,-0.0817691,-0.153766,-0.0241769,0.234477,0.141325,-0.0932641,0.0198338,0.0523646,0.00576179,-0.026959,-0.152711,0.200616,-0.0510728,-0.0101783,-0.0668417,0.126953,0.0325709,0.184391,0.0280359,-0.0185236,-0.0916059,0.0270407,-0.00552847,-0.162849,-0.144773,-0.0717107,-0.0837091,-0.0689291,0.191857,0.0539879,0.0944575,-0.0599179,-0.0944822,-0.0788643,-0.0424775,-0.121377,-0.0485137,-0.0157528,-0.0609425,-0.00323043,-0.114979,0.0378306,0.190504,0.10132,0.113216,-0.102927,-0.0452928,0.0772164,0.159316,-0.0315764,0.0194541,0.07892,0.0104372,0.0971221,-0.0828293,-0.00786889,0.0647497,0.0704558,0.0167235,-0.00232068,-0.0204153,0.0294549,0.0414221,-0.17572,-0.182438,-0.0551333,-0.069678,-0.132833,0.0668393,-0.0722399,-0.232218,-0.174257,0.052539,0.0133243,-0.0151615,0.0172419,0.0169379,-0.0370476,0.167585,-0.0485938
tickets 0.0777329,0.223472,-0.12454,0.0601046,0.00342648,0.0358383,-0.0281329,-0.00916434,0.0462022,-0.00929334,-0.118516,-0.155063,-0.19144,-0.0492786,-0.0565595,0.146882,0.0814153,0.0135925,-0.0843484,-0.0204568,-0.062039,-0.160432,-0.0229015,0.275936,0.147557,-0.117043,0.0237423,0.0715588,-0.0127663,-0.0451894,-0.132548,0.171653,-0.0643322,-0.0100575,-0.0625049,0.123873,0.0361503,0.148231,0.0431235,-0.0401751,-0.0673427,-0.0050071,-0.0486408,-0.127377,-0.127921,-0.0271625,-0.0971916,-0.031961,0.209692,0.0604612,0.0822121,-0.0450323,-0.0461328,-0.0843037,-0.0606188,-0.139302,-0.0332332,-0.0198002,-0.012965,0.021004,-0.099694,0.0310374,0.178786,0.111678,0.136856,-0.135191,-0.0909818,0.0631092,0.16372,-0.0416074,-0.010852,0.0583172,0.00557745,0.0796364,-0.0331691,-0.0384545,0.0974454,0.0553823,0.0728267,-0.0358672,-0.0389034,0.0369272,0.0524372,-0.159477,-0.171879,-0.0817287,-0.0629325,-0.183509,0.102014,-0.0774512,-0.207754,-0.190189,0.0857873,-0.0201177,-0.00818991,0.0359222,-0.0369976,-0.0271627,0.181932,-0.0775908
school 0.0492073,0.249849,-0.123783,0.0612838,-0.0182068,0.0691736,-0.0111725,0.0167666,0.0376413,0.0195507,-0.132599,-0.141742,-0.217521,-0.0222861,-0.061306,0.127267,0.0979818,0.036165,-0.0712538,0.00218259,-0.0688601,-0.1719,0.00595249,0.245616,0.123428,-0.109411,0.00969899,0.0774552,-0.00371016,-0.0130084,-0.133039,0.172496,-0.0462976,-0.00926278,-0.0594577,0.12663,0.00542533,0.190691,0.0423341,-0.0170081,-0.0818233,-0.0111676,-0.0109772,-0.139768,-0.149107,-0.0299651,-0.11733,-0.0665198,0.147516,0.0556919,0.110643,-0.074911,-0.0803415,-0.117149,-0.0411047,-0.123442,-0.0454263,-0.0349974,-0.0242467,-0.00392365,-0.0970184,0.043232,0.223568,0.122795,0.113356,-0.0806698,-0.0380664,0.10259,0.185756,-0.0454819,0.0170429,0.0759464,0.0307144,0.107388,-0.0665778,-0.0370144,0.0746487,0.0807704,0.0485007,-0.0182222,-0.0346251,0.0424662,0.03246,-0.169658,-0.190107,-0.0386369,-0.0622771,-0.154727,0.0697804,-0.0563926,-0.225276,-0.152934,0.0527759,-0.0155747,-0.0217512,0.0189658,-0.00782631,-0.0387326,0.166611,-0.0540598
cheapened 0.0225096,0.215194,-0.100835,0.0390942,-0.0190164,0.0798274,-0.000229185,-4.66471e-05,0.0341603,-0.0328386,-0.146351,-0.138635,-0.219187,-0.00351083,-0.0553318,0.169182,0.0521696,0.0394856,-0.118793,-0.0122071,-0.0256581,-0.13458,0.00522522,0.19939,0.142941,-0.0657552,-0.0250734,0.0374188,-0.0125311,-0.0153889,-0.178145,0.237212,-0.049977,-0.0220933,-0.0618816,0.142816,0.0227413,0.171466,0.0332957,-0.00158059,-0.144619,0.0314243,-0.0108068,-0.142795,-0.141171,-0.0417036,-0.062064,-0.0733348,0.119182,0.065582,0.0682257,-0.0799412,-0.0286568,-0.0579702,-0.085282,-0.120162,-0.00409262,-0.0238086,-0.0176896,0.0172493,-0.121149,0.0704734,0.206897,0.0667234,0.137574,-0.104339,-0.0864407,0.0615586,0.221122,-0.034154,-0.0201435,0.0524372,0.0583977,0.0402373,-0.0568482,0.0131702,0.0272376,0.0760943,0.0431963,-0.00578955,0.00590869,0.0500952,0.00452883,-0.200706,-0.157382,-0.0444138,-0.0728758,-0.124348,0.102927,-0.108485,-0.267427,-0.190699,-0.00576081,0.0595981,0.0208843,0.0358407,0.0504472,0.0149524,0.124369,-0.0972411
clothed 0.0435775,0.251478,-0.141529,0.0668977,-0.0304653,0.0505585,0.00190074,0.0240597,0.0318846,0.0516967,-0.120995,-0.15856,-0.198603,-0.0315927,-0.0765754,0.1224,0.0895372,0.0527418,-0.0366776,0.0240356,-0.072209,-0.157039,0.00726146,0.25161,0.105755,-0.126349,0.0381444,0.0903853,-0.00863459,-0.0309893,-0.0956518,0.166049,-0.0440007,0.00443974,-0.0312168,0.13926,0.0135561,0.178076,0.0526198,-0.0107332,-0.0836932,-0.0352857,-0.0227446,-0.142483,-0.137608,-0.00887337,-0.128145,-0.0539878,0.156476,0.0660645,0.115723,-0.0756241,-0.104551,-0.134199,-0.020604,-0.134608,-0.0466454,-0.0357802,0.0155417,0.034172,-0.0622619,0.0525859,0.231547,0.126404,0.0848895,-0.0649818,-0.00215394,0.0954324,0.180134,-0.0526959,0.018967,0.0828852,0.0463829,0.130331,-0.0344837,-0.0352981,0.060501,0.0729379,0.0648461,-0.0320642,-0.0374273,0.0298324,0.0600672,-0.166494,-0.205294,-0.0470922,-0.0403878,-0.149864,0.0827955,-0.0363574,-0.222885,-0.13585,0.087727,-0.0287584,-0.0300699,-0.0077605,-0.00397593,-0.0467372,0.174524,-0.0258452
undercover 0.0579284,-0.0549364,-0.0467764,-0.0906497,0.0267888,-0.0590379,-0.142265,0.126166,-0.139329,-0.0709267,-0.0357404,-0.101904,-0.199757,0.106675,0.0128414,0.128694,0.0155462,0.101747,-0.088557,-0.0946867,0.0535644,-0.013634,0.00118145,0.0982939,0.105201,0.127265,-0.0589031,0.124594,0.0243872,-0.0429532,-0.0113164,0.245965,0.0652769,-0.162548,-0.165053,0.0196072,0.156559,0.0470492,0.00236617,0.0634637,-0.204693,-0.0458965,-0.144425,-0.0211023,-0.00691095,-0.213471,0.0695771,-0.00489313,0.240639,0.0564349,-0.0506328,-0.130793,-0.0807801,0.0995601,-0.054833,-0.127426,-0.127906,0.0923808,-0.083264,-0.0810817,-0.158323,0.0238745,0.0548513,0.111667,0.00906772,0.0209257,-0.17691,0.0526811,0.0872513,0.0818294,-0.0342006,0.117498,0.0134178,-0.118463,-0.00206219,0.0676763,-0.100145,-0.104945,0.0660187,-0.060735,-0.0982894,0.0647424,0.0167686,-0.13234,0.0512324,-0.113401,-0.151806,0.0630882,-0.116896,-0.203086,-0.173054,-0.0426818,-0.0355465,-0.00234409,-0.000339656,-0.0582101,-0.00971649,-0.00757429,0.0028878,-0.105196
enjoy 0.0537979,0.240217,-0.126994,0.0503403,-0.00843491,0.065704,-0.0294321,0.0179651,0.0246118,0.0156816,-0.138909,-0.136976,-0.219288,-0.0106982,-0.0538927,0.136249,0.106545,0.0417448,-0.0845703,-0.00611464,-0.0587481,-0.161817,0.000743605,0.240514,0.127847,-0.106017,0.00888084,0.0655459,-0.0101096,-0.012422,-0.135608,0.183589,-0.0407588,-0.0292013,-0.0622249,0.134841,0.00488942,0.183461,0.0389121,-0.025618,-0.0963471,0.00876662,-0.00839075,-0.149662,-0.140748,-0.0455099,-0.109355,-0.0713239,0.172581,0.0723679,0.102973,-0.0747904,-0.0836036,-0.106666,-0.0425426,-0.11629,-0.0358051,-0.0190611,-0.045937,-0.0131182,-0.0987312,0.0527951,0.213212,0.101323,0.128559,-0.0987935,-0.0534871,0.102353,0.182416,-0.0259826,0.0265839,0.0715008,0.0294887,0.0920136,-0.0700883,-0.0323758,0.0669085,0.0707511,0.0408353,-0.0101006,-0.0322121,0.0206876,0.0332329,-0.166088,-0.185927,-0.0440324,-0.0811213,-0.140051,0.065532,-0.0716057,-0.231057,-0.167389,0.0500068,-0.000653266,-0.023096,0.0225169,-0.00463589,-0.0369635,0.165906,-0.0643338
jamaica 0.0669805,0.238007,-0.134198,0.053713,-0.014223,0.0699172,-0.0161818,0.0252084,0.0383167,0.0168276,-0.151792,-0.155384,-0.228376,-0.00583452,-0.0587655,0.12309,0.092875,0.0339927,-0.0870266,0.0164182,-0.0513469,-0.169778,0.0100241,0.240155,0.137733,-0.106811,-0.00678639,0.0725587,-0.0152764,0.00031338,-0.141974,0.182478,-0.0440368,-0.00673669,-0.0445052,0.109409,-0.000379781,0.19238,0.0258925,-0.0163092,-0.0921802,0.0224707,-0.00242368,-0.142863,-0.142767,-0.0353254,-0.119556,-0.0530197,0.172891,0.0699796,0.114611,-0.0802159,-0.0659348,-0.096113,-0.0231172,-0.121153,-0.0529513,-0.0378705,-0.0454208,-0.00553976,-0.0862007,0.0623725,0.19668,0.105196,0.111139,-0.0853078,-0.0622397,0.0974346,0.177224,-0.0296891,0.00822391,0.0586153,0.0120675,0.0883069,-0.0814753,-0.0145714,0.072046,0.0702336,0.0453099,-0.0154081,-0.0251474,0.0115234,0.0272696,-0.155558,-0.190995,-0.0594427,-0.0876031,-0.155839,0.0798295,-0.0759763,-0.230044,-0.177217,0.038275,0.0109456,-0.0275343,0.00820934,0.00316514,-0.0422076,0.154976,-0.0710928
tired 0.0609182,0.24975,-0.117872,0.0600423,-0.0164496,0.0571833,-0.0111013,0.0169051,0.0498552,0.0244206,-0.144529,-0.13479,-0.212986,-0.0331081,-0.0622085,0.136838,0.0914625,0.0507699,-0.0696281,0.02106,-0.0715958,-0.166924,0.0216227,0.250027,0.11315,-0.10824,0.0116771,0.0716802,0.0149578,-0.0229792,-0.132492,0.156863,-0.042937,-0.00567081,-0.0439402,0.123038,-0.0014785,0.198308,0.0504469,-0.0139445,-0.0707209,-0.00535989,-0.013433,-0.141928,-0.151826,-0.0165139,-0.113837,-0.0712129,0.155422,0.0459458,0.0946443,-0.0896558,-0.0955843,-0.126208,-0.0464614,-0.131105,-0.0341913,-0.0335936,-0.0106008,0.0110704,-0.0836046,0.0558286,0.227729,0.11654,0.099573,-0.0910824,-0.0217709,0.101129,0.186389,-0.0414248,0.0200895,0.0813895,0.0358019,0.117099,-0.0675353,-0.0268349,0.0809351,0.0803121,0.0492862,-0.0213752,-0.0305377,0.0350325,0.0296919,-0.165721,-0.184447,-0.0262297,-0.0533596,-0.144179,0.0864877,-0.05754,-0.229474,-0.16128,0.0658523,-0.0163662,-0.0264669,0.0209473,-0.00344185,-0.0499248,0.158549,-0.0513071
warns 0.0934874,0.152618,-0.130099,0.0346382,0.0412865,0.0473275,-0.073889,0.0841573,-0.041664,0.0177648,-0.157481,-0.141723,-0.235665,-0.0246629,-0.0312839,0.132447,0.152894,-0.00127059,-0.123775,-0.0311043,-0.0293993,-0.108042,-0.037262,0.229222,0.133564,-0.0521132,-0.0465992,0.0829801,0.0104579,-0.00278667,-0.177724,0.270844,0.0177139,-0.0944122,-0.100812,0.110253,0.0587215,0.147753,-0.0141205,-0.0264679,-0.139559,0.0784251,0.00490904,-0.141252,-0.0802291,-0.117429,-0.0761675,-0.0777972,0.230502,0.0791084,0.133303,-0.0824347,-0.0769904,-0.0608763,-0.00726174,-0.0688069,0.0114316,-0.0363809,-0.139421,-0.097438,-0.135001,0.0474186,0.116607,0.0184595,0.100207,-0.0840991,-0.0825975,0.0573262,0.17266,0.0398754,0.0648681,0.00369578,0.0120256,0.0829353,-0.126059,-6.75549e-07,0.0262234,0.0694857,0.0245967,0.0782782,-0.0183851,-0.0591854,0.030269,-0.121023,-0.106232,-0.052006,-0.115137,-0.125365,0.000291028,-0.0710171,-0.20374,-0.160746,0.0295183,0.0443935,0.044484,0.0909107,0.0603281,-0.0181329,0.14033,-0.0533821
hanging 0.0641087,0.117224,-0.0700744,0.0210928,0.037338,-0.020152,-0.0769176,0.0741258,-0.0534294,0.0705446,-0.196247,-0.185923,-0.167961,0.0735745,-0.0653134,0.135535,0.13542,-0.0100108,-0.0834688,0.0553057,-0.0666426,-0.17036,-0.0339345,0.192737,0.180098,-0.0747537,-0.00951331,6.42267e-06,-0.0756766,-0.0268828,-0.153979,0.188306,-0.0830961,0.0304392,-0.124534,0.065518,0.0850603,0.161756,0.0684973,0.0114514,-0.100146,0.0841169,-0.0970409,-0.0951264,-0.0624827,-0.0683808,-0.00838834,0.00131496,0.113847,0.102246,0.050673,-0.0957499,-0.138967,-0.0577271,-0.0976284,-0.113934,-0.0824829,-0.0559535,-0.00524172,0.0159878,-0.0509521,0.0778729,0.237828,0.114505,0.157269,-0.117426,-0.0355203,0.0155276,0.109005,-0.0973652,0.021282,0.0569309,-0.0494214,0.0424406,0.00660491,0.0148606,0.0804544,0.0480332,0.071259,0.0409686,-0.0764886,-0.0419413,-0.0559072,-0.239786,-0.0965408,-0.100535,-0.0879874,-0.0429955,0.0884919,-0.0304223,-0.140474,-0.195057,-0.0167405,0.0441498,-0.083976,0.104422,-0.0736848,-0.0353348,0.213026,-0.149524
feathers 0.0540794,0.24501,-0.114266,0.0491311,-0.0118974,0.0714541,-0.0230831,0.0301041,0.0288466,0.0159973,-0.13167,-0.142845,-0.221537,-0.0226997,-0.0539247,0.134269,0.106332,0.0326221,-0.07055,0.00013557,-0.0672354,-0.169151,0.0142241,0.241665,0.116943,-0.104845,0.000499593,0.0671084,0.00511734,-0.00603083,-0.138264,0.179859,-0.0434418,-0.0153251,-0.0679919,0.119233,-0.000211363,0.192671,0.0529099,-0.0266054,-0.09028,0.0107111,-0.010344,-0.141674,-0.140747,-0.0470472,-0.099397,-0.0700595,0.158963,0.0727239,0.109718,-0.0898091,-0.08777,-0.119092,-0.0276987,-0.126105,-0.0489006,-0.0391416,-0.0361539,-0.0124426,-0.095332,0.0490061,0.208947,0.106236,0.126425,-0.100483,-0.0444686,0.106813,0.181054,-0.0404625,0.023394,0.076344,0.0264016,0.0998011,-0.0568123,-0.0253877,0.0708698,0.0740618,0.0502953,-0.00501866,-0.0443619,0.0241141,0.0386634,-0.173986,-0.181674,-0.0458862,-0.0720289,-0.144149,0.065907,-0.0599005,-0.224509,-0.162938,0.0558782,-0.00353516,-0.0212758,0.0180733,-0.0139989,-0.0431931,0.174431,-0.0576855
messy 0.0658696,0.237996,-0.121908,0.0531136,-0.0207566,0.0735515,-0.037987,0.0355653,0.0185907,0.000443965,-0.133348,-0.149642,-0.22785,-0.00807293,-0.0586212,0.134875,0.100741,0.0318882,-0.0828962,-0.011471,-0.0628152,-0.161776,0.00308141,0.251408,0.143541,-0.10351,0.0149,0.0719305,-0.0126265,-0.0146642,-0.14382,0.190206,-0.0422865,-0.0297988,-0.0729969,0.117475,-0.00268719,0.183222,0.0529298,-0.0172866,-0.100459,0.0121071,-0.0189901,-0.151668,-0.142346,-0.0576353,-0.0983842,-0.0740523,0.16302,0.0560125,0.100391,-0.0797188,-0.0798751,-0.110887,-0.0249498,-0.109899,-0.0437843,-0.0180802,-0.0317855,-0.0257732,-0.10297,0.0580409,0.208011,0.0975926,0.113075,-0.0933106,-0.0448568,0.105599,0.185963,-0.0345851,0.0217451,0.0626031,0.0387561,0.0926503,-0.0581499,-0.0304128,0.0679203,0.05975,0.0513216,0.000670654,-0.0353166,0.014547,0.0266314,-0.170871,-0.190015,-0.0448228,-0.068323,-0.135813,0.0666577,-0.0714112,-0.225638,-0.163404,0.0555967,0.00734831,-0.00436872,0.0339545,-0.00736889,-0.0430694,0.155419,-0.0632498
second 0.0578446,0.247175,-0.124606,0.0487059,-0.0215846,0.065255,-0.0134627,0.0186541,0.0354098,0.0210096,-0.131125,-0.148715,-0.219047,-0.0248032,-0.0589688,0.13798,0.0959706,0.0345657,-0.07514,0.0108118,-0.0578177,-0.164068,0.00758416,0.247857,0.119601,-0.111377,0.0153531,0.0743272,-0.00261754,-0.0131672,-0.125262,0.180143,-0.0506361,-0.0211332,-0.0579985,0.123769,-0.00103947,0.189523,0.0419685,-0.0206442,-0.0892222,-0.00120395,-0.00269458,-0.150599,-0.150262,-0.0348851,-0.104085,-0.0675439,0.15089,0.0578754,0.105408,-0.0848923,-0.080755,-0.1118,-0.0412747,-0.127311,-0.0353361,-0.0285043,-0.0230051,0.0024383,-0.0928674,0.0459866,0.223899,0.112076,0.118981,-0.0823398,-0.0402122,0.107803,0.186806,-0.0348771,0.0184853,0.0705755,0.0351084,0.106022,-0.0634228,-0.0360564,0.0645645,0.072246,0.049501,-0.0181393,-0.0281441,0.0332913,0.0324754,-0.166809,-0.18928,-0.0360761,-0.0723622,-0.156263,0.0735304,-0.0502815,-0.219137,-0.168101,0.0517273,-0.0121562,-0.0292622,0.0160181,-0.00724941,-0.0382747,0.169747,-0.0540474
street 0.0629877,-0.0248412,0.0574532,-0.171247,0.0547342,0.046857,-0.232191,-0.00233327,0.00131142,-0.00385681,0.0819759,0.0136766,-0.133894,0.0426181,-0.0363583,0.128203,0.137518,0.0799913,-0.158677,-0.156338,0.118197,0.140285,0.0499377,-0.0429022,0.226391,0.128033,-0.0822176,-0.0999529,-0.120885,0.0299204,-0.0129922,0.0445427,0.15029,-0.206149,0.0195228,0.0415705,0.00860608,-0.0758211,0.0253811,-0.0183338,-0.0969965,-0.0076434,0.0661054,-0.0645347,-0.0122253,-0.141136,-0.0407752,-0.0844469,0.0418788,0.19881,-0.0673672,-0.013844,0.0152583,-0.0625918,-0.066468,0.156079,0.00904794,0.0748918,-0.108574,-0.0469877,0.0291342,-0.00690869,-0.200123,-0.050343,0.0690107,-0.143342,-0.0443279,0.0441699,-0.169672,0.00575542,0.090543,0.00300384,0.0434699,-0.228127,0.0275727,-0.0419558,-0.209613,-0.188349,-0.146885,0.0547947,0.0239207,0.000401446,-0.053515,0.0610643,0.123628,0.0421186,-0.0406891,-0.00263914,-0.0212097,-0.200668,-0.0825485,-0.00152795,-0.100747,0.0723871,0.205873,0.13205,0.0315413,0.00989875,0.0656619,0.024184
friendships 0.0719747,0.213334,-0.126177,0.0555502,-0.0236958,0.0498599,-0.0454112,0.0353028,0.0130117,0.00110997,-0.150997,-0.134889,-0.211437,0.00408134,-0.0571225,0.153875,0.10732,0.0386046,-0.0867537,-0.011237,-0.0655381,-0.153151,0.00522708,0.237828,0.146311,-0.100901,-0.00503038,0.0704464,-0.00877635,-0.0186471,-0.151948,0.216882,-0.0325235,-0.033158,-0.0858791,0.138479,0.00346319,0.169858,0.0430164,-0.0212176,-0.105673,0.0131628,-0.0235411,-0.16918,-0.134703,-0.0719932,-0.0802237,-0.0652591,0.166682,0.0879565,0.121177,-0.0747362,-0.078616,-0.0925519,-0.0348776,-0.123332,-0.0263842,-0.00584126,-0.0619056,-0.0238795,-0.106847,0.0480795,0.180309,0.0805132,0.139046,-0.0957529,-0.0831966,0.0848914,0.181129,-0.00852483,0.0306899,0.0636657,0.00943332,0.0723001,-0.0723267,-0.0357943,0.0483816,0.0500434,0.0251862,0.0219699,-0.0484346,0.0154712,0.0300214,-0.171816,-0.181323,-0.0598478,-0.0842966,-0.122813,0.0703496,-0.087201,-0.226955,-0.193364,0.0376177,0.028338,0.00605586,0.024183,0.00553534,-0.00942823,0.149431,-0.0553915
even 0.0553511,0.254662,-0.127979,0.0585447,-0.0178425,0.0633416,-0.0100509,0.0163966,0.0374621,0.0230833,-0.138844,-0.145926,-0.215101,-0.0292642,-0.0574342,0.130239,0.0966207,0.0408594,-0.0688056,0.00677232,-0.0629019,-0.164598,0.0137471,0.24093,0.115484,-0.114234,0.0097145,0.0723339,0.00225522,-0.0172321,-0.1269,0.172874,-0.0496959,-0.0116798,-0.0518288,0.125377,-0.00261174,0.192238,0.0445178,-0.0181457,-0.0867204,-0.00889001,-0.00604424,-0.143781,-0.150376,-0.0285109,-0.115325,-0.0671439,0.15347,0.0553748,0.103774,-0.0805206,-0.0857897,-0.112773,-0.0410457,-0.129985,-0.0431688,-0.033315,-0.0240239,-0.0023138,-0.0906851,0.0464649,0.226836,0.116965,0.11343,-0.0860394,-0.0371609,0.103274,0.183993,-0.042146,0.0198937,0.0767959,0.030454,0.107139,-0.0583447,-0.0362339,0.0707828,0.0750654,0.0456197,-0.021226,-0.0353774,0.037834,0.0345835,-0.16917,-0.189091,-0.0355534,-0.0613025,-0.153914,0.073738,-0.0541254,-0.22721,-0.157845,0.0553605,-0.0127074,-0.0292946,0.0165872,-0.0106184,-0.0394518,0.168069,-0.0499032
hide 0.0472164,0.261998,-0.130502,0.0374983,-0.0374263,0.0556161,-0.00598906,0.0365161,0.0438707,0.0277037,-0.142432,-0.144055,-0.206289,-0.0292794,-0.072849,0.154429,0.119357,0.0433622,-0.094917,0.00196756,-0.0655933,-0.156426,0.0160407,0.229636,0.13378,-0.112924,0.0187737,0.0920727,0.0196265,-0.0295889,-0.122109,0.166525,-0.0511726,-0.0178105,-0.0708514,0.124986,0.0122305,0.187546,0.0401545,-0.00481526,-0.0790517,0.00288383,0.00870205,-0.148678,-0.156146,-0.0480788,-0.0933248,-0.0526132,0.163965,0.0632415,0.123671,-0.0973776,-0.0747755,-0.0967756,-0.0425216,-0.103608,-0.057412,-0.0156201,-0.0455977,-0.0141569,-0.0967342,0.0332459,0.23258,0.119392,0.115896,-0.0737158,-0.0358541,0.10949,0.16378,-0.0463195,0.000588963,0.0590451,0.0232108,0.096508,-0.0590284,-0.0415437,0.0762547,0.0697647,0.0548406,-0.0117694,-0.0539474,0.0202655,0.0285281,-0.15146,-0.193808,-0.0580877,-0.0573973,-0.141602,0.0521347,-0.0653126,-0.238147,-0.159367,0.0326438,0.0136682,-0.0257579,0.0235023,-0.00593425,-0.0256402,0.155332,-0.0456525
christ 0.102272,0.186195,-0.0799883,0.0155508,-0.0252624,0.0672816,-0.0226778,0.0436024,-0.0319794,-0.0533547,-0.111175,-0.133363,-0.20042,0.0302296,-0.0388625,0.148454,0.156308,0.0173003,-0.111385,-0.0134655,-0.0504007,-0.130761,-0.0442731,0.247089,0.154979,-0.0718074,-0.0163731,0.0868778,-0.0308825,-0.0290426,-0.156029,0.251036,-0.0245426,-0.0893673,-0.116025,0.105268,0.024645,0.112133,0.00547488,-0.0397949,-0.153035,0.0109475,-0.0301723,-0.15568,-0.161538,-0.0570525,-0.102839,-0.0184445,0.193486,0.115448,0.13716,-0.111833,-0.0240851,-0.0947514,0.0118826,-0.0743375,-0.000780296,0.00997109,-0.0727102,-0.0786554,-0.135534,0.0542306,0.182579,0.0933472,0.10756,-0.067346,-0.0997915,0.0695162,0.173293,-0.0455737,0.0321613,0.029642,0.0279145,0.0483718,-0.0607396,0.0176884,0.0712979,0.0824233,0.00206201,0.0740503,-0.0473852,-0.0109024,-0.0130714,-0.153009,-0.142748,-0.038513,-0.119891,-0.149142,0.0139583,-0.055056,-0.199727,-0.193385,-0.00854449,0.0292173,0.0446844,0.0745335,-0.0136953,0.000818373,0.110003,-0.107949
musiclove -0.014853,0.2711,-0.154577,-0.0123346,-0.0782584,0.115055,0.158734,-0.0604159,0.169972,0.127893,0.0350645,-0.140091,-0.0227382,-0.129909,-0.0635492,-0.00226543,-0.00478419,0.0531871,0.120216,0.0111342,-0.0313069,-0.16133,0.0345686,0.089623,-0.0744753,-0.162809,-0.0414026,0.0373087,0.10073,-0.0703516,0.0738852,-0.0437177,-0.0581067,0.0350931,0.0937419,0.0868701,-0.0714147,0.185506,0.113244,0.0942448,0.0772789,-0.153895,0.077075,0.0186318,-0.129963,0.0712109,-0.185377,-0.0615344,0.0142174,0.043435,0.00441274,-0.0867324,-0.0167751,-0.0832395,-0.0037342,-0.196746,-0.0486561,0.00793547,0.17766,0.146425,0.0434656,0.0475988,0.188716,0.105929,-0.0122137,-0.0379978,0.0958338,0.013962,0.045214,-0.0732037,-0.0311442,0.120112,0.0570999,0.103898,0.0502915,-0.0706656,0.103971,0.103213,-0.0189628,-0.166241,-0.0602429,0.0426816,0.0180707,0.00397482,-0.181878,0.0882655,0.0803249,-0.157821,0.0981058,0.082896,-0.1834,-0.0349008,0.123757,-0.154388,-0.124626,-0.0633923,-0.106252,0.0132589,0.0909483,0.048766
new 0.0573975,0.250681,-0.127547,0.0519386,-0.0157564,0.0612034,-0.0124455,0.015042,0.0359814,0.0162688,-0.137594,-0.141938,-0.219279,-0.0274672,-0.0603745,0.136068,0.0991922,0.0379025,-0.0753605,0.00338852,-0.0631906,-0.164075,0.011233,0.245644,0.125269,-0.111774,0.00698353,0.0726069,0.00179128,-0.0155176,-0.127353,0.177537,-0.0456542,-0.0131679,-0.0542052,0.126045,0.00418513,0.18548,0.0426938,-0.0164557,-0.0898135,-0.000755488,-0.00833406,-0.150996,-0.150529,-0.0366557,-0.108464,-0.0663326,0.155447,0.0596,0.106913,-0.0784404,-0.0870111,-0.111737,-0.0357683,-0.127816,-0.0423657,-0.0331948,-0.0269973,-0.00669607,-0.0978692,0.0495407,0.223607,0.113163,0.114955,-0.090721,-0.0442691,0.106286,0.180574,-0.039663,0.0232652,0.0743727,0.030565,0.105175,-0.0654729,-0.0327338,0.0689697,0.0717258,0.0451174,-0.0141072,-0.0367375,0.0294045,0.0329571,-0.167414,-0.187235,-0.04043,-0.0673584,-0.147333,0.0744553,-0.0560378,-0.223111,-0.160374,0.0562728,-0.00761016,-0.0266157,0.0153339,-0.0103281,-0.0369351,0.165569,-0.0541154
increasing 0.044829,0.225791,-0.11405,0.028719,-0.00977057,0.0936033,-0.0239886,0.0132062,0.0090759,0.0399544,-0.138643,-0.160847,-0.194075,-0.0416564,-0.0557348,0.118631,0.103075,0.0392833,-0.0662853,-0.000695685,-0.0899851,-0.136502,-0.00879185,0.217963,0.11301,-0.138125,0.0125777,0.0931609,0.000925031,0.00380462,-0.138881,0.173545,-0.056921,-0.0105371,-0.0680299,0.129498,-0.0214611,0.213856,0.0239401,-0.0183723,-0.0734518,-0.00349518,0.0118083,-0.14493,-0.170059,-0.0318966,-0.116086,-0.0685618,0.142302,0.052561,0.0873116,-0.10734,-0.0899292,-0.111002,-0.0202954,-0.136581,-0.0494227,-0.00940917,0.00550048,0.0258375,-0.11487,0.0343284,0.231102,0.116242,0.114143,-0.0914032,-0.0579318,0.107255,0.188638,-0.0233205,0.0186539,0.0508393,0.0507894,0.0997342,-0.0441881,-0.038688,0.0832091,0.062796,0.0264033,-0.0175243,-0.0399118,0.0549395,0.0259204,-0.189344,-0.168718,-0.0327305,-0.0793177,-0.178801,0.0779943,-0.0215062,-0.212657,-0.132083,0.0663069,-0.0289791,-0.0287061,0.0271668,-0.0180687,-0.0128234,0.192254,-0.0317457
officially 0.0583326,0.22452,-0.108963,0.0365669,-0.0140306,0.0540515,-0.0443424,0.0269613,0.016102,0.00400384,-0.149254,-0.131072,-0.22342,-0.00828798,-0.0382246,0.150712,0.101382,0.0271962,-0.100617,-0.00751327,-0.0590241,-0.169266,-0.0115991,0.239188,0.152926,-0.0762071,0.00767795,0.0587649,-0.0123695,-0.0185699,-0.148413,0.216094,-0.0264662,-0.033556,-0.0764794,0.120096,0.0263224,0.170484,0.0437951,-0.0423016,-0.122512,0.0316394,-0.0229401,-0.157971,-0.135124,-0.0786291,-0.0963838,-0.0644096,0.189151,0.0849266,0.106465,-0.0866614,-0.0746896,-0.102278,-0.0274889,-0.112816,-0.0432961,-0.0163482,-0.0536327,-0.0276321,-0.0985309,0.0377765,0.183964,0.0981127,0.123973,-0.0939541,-0.0821205,0.0854434,0.176846,-0.0264641,0.0187125,0.0571667,0.0317551,0.0834774,-0.0678681,-0.0244028,0.0430038,0.0594122,0.0405264,0.0142886,-0.0380334,0.0034522,0.0207341,-0.162508,-0.181015,-0.0597533,-0.0933644,-0.134925,0.0527738,-0.0801127,-0.219254,-0.178249,0.0344876,0.027468,0.000661437,0.04096,0.0134556,-0.031519,0.171145,-0.0711365
disney 0.066958,0.258736,-0.122357,0.0589404,-0.00696927,0.0759481,-0.00253653,0.0174526,0.0480166,0.0226561,-0.135108,-0.156502,-0.225205,-0.0176255,-0.04763,0.119468,0.0810568,0.0488879,-0.0741835,-0.00658046,-0.0620235,-0.174796,0.00435227,0.251037,0.129297,-0.106188,0.0234644,0.0714199,-0.000705296,-0.00664353,-0.138343,0.178982,-0.0338753,-0.0286049,-0.0613789,0.109857,0.00928523,0.197588,0.0531611,-0.0153535,-0.0711787,-0.00147898,-0.018669,-0.159203,-0.153194,-0.0287803,-0.106491,-0.0663422,0.152107,0.0699078,0.109253,-0.0878504,-0.0791765,-0.104227,-0.0347235,-0.130849,-0.0511816,-0.027879,-0.0212291,-0.00607379,-0.0897026,0.0492126,0.219476,0.126922,0.100902,-0.0826474,-0.0373047,0.105431,0.181543,-0.0329627,0.0290095,0.0600067,0.0266597,0.0888257,-0.0619978,-0.0341088,0.0613779,0.0787772,0.0345013,-0.0261769,-0.0422802,0.0357837,0.0212778,-0.163322,-0.181605,-0.0391115,-0.0590461,-0.149549,0.0621014,-0.0543661,-0.217047,-0.165433,0.0577074,-0.00897232,-0.0281104,0.0165765,0.00666726,-0.0364307,0.161743,-0.064646
told 0.0622258,0.231697,-0.116135,0.0532446,-0.0229877,0.0521183,-0.02164,0.0340508,0.0203849,0.00162074,-0.149275,-0.137484,-0.221109,-0.0134033,-0.0555203,0.148515,0.106443,0.0431774,-0.0896058,0.000307361,-0.0630853,-0.173141,0.00182331,0.24325,0.143499,-0.105962,0.00960772,0.0739658,-0.00600783,-0.0187114,-0.128818,0.189857,-0.029613,-0.0298867,-0.0610436,0.13419,0.0172279,0.174372,0.0443044,-0.0296121,-0.10516,0.0195666,-0.0106059,-0.151432,-0.147402,-0.0563765,-0.105682,-0.0615,0.172686,0.0685224,0.10709,-0.0812819,-0.0863727,-0.0999181,-0.0255067,-0.115342,-0.0310601,-0.0261682,-0.0555075,-0.0256499,-0.0964061,0.052121,0.20947,0.097841,0.12046,-0.087656,-0.0572649,0.106253,0.173078,-0.02082,0.0274027,0.0632941,0.0228312,0.0994348,-0.0688449,-0.0376684,0.0611503,0.0713947,0.0423152,-0.00523668,-0.0292337,0.00978111,0.0322777,-0.176786,-0.171849,-0.0584999,-0.0744898,-0.136468,0.058007,-0.0679298,-0.232932,-0.175621,0.0378632,0.0131453,-0.0156773,0.0271264,0.00423978,-0.0391541,0.156871,-0.0558342
deemed 0.083142,0.240452,-0.106675,0.0698877,-0.0439468,0.0540087,-0.0386806,-0.00688552,0.0110548,3.77908e-05,-0.153451,-0.153646,-0.236214,-0.00737284,-0.0558651,0.144184,0.0720721,0.0556588,-0.0539724,0.0083132,-0.0843362,-0.184497,0.0143112,0.225094,0.127796,-0.0783604,0.0249819,0.076705,0.0104281,-0.0294423,-0.107838,0.170047,-0.0639254,-0.0411632,-0.0452415,0.146999,0.0163201,0.202969,0.0506387,-0.0283461,-0.118991,0.0244686,-0.0323467,-0.132372,-0.143081,-0.0214595,-0.132179,-0.0755851,0.141879,0.0670139,0.0931046,-0.0968987,-0.105533,-0.106025,-0.040991,-0.131098,-0.0168181,-0.0434851,-0.0146308,-0.024205,-0.113435,0.0629154,0.236742,0.0860845,0.146276,-0.0698121,-0.0340538,0.0850276,0.156309,-0.026743,0.0495093,0.0799786,0.001926,0.0723185,-0.0476933,-0.0543475,0.0414999,0.0607969,0.0279795,-0.022386,-0.0168891,0.0399189,0.0379223,-0.185406,-0.169373,-0.0161011,-0.0471222,-0.142487,0.0914577,-0.0887625,-0.202423,-0.145389,0.0323406,-0.0206335,-0.0451425,0.0444633,0.0197624,-0.052135,0.17294,-0.0323439
kicked 0.0386111,0.243186,-0.105862,0.0281017,-0.0283279,0.0526948,-0.0352257,0.0162876,0.00646805,0.00705317,-0.119731,-0.155516,-0.228633,-0.00150173,-0.0398793,0.147199,0.0781196,0.0653685,-0.124529,-0.00234176,-0.045521,-0.136544,-0.0150048,0.242307,0.172078,-0.0848441,-0.0219617,0.0310929,-0.0358462,0.000169001,-0.128579,0.227553,-0.0219791,-0.0703257,-0.0832935,0.149531,0.0403735,0.142436,0.0658773,-0.0507146,-0.114365,0.0538217,0.000321858,-0.1412,-0.134936,-0.0930071,-0.0614595,-0.0789143,0.174018,0.0946003,0.0943734,-0.0485688,-0.0439922,-0.0919382,0.00546555,-0.0750392,-0.0371345,-0.0481762,-0.0266884,0.00145622,-0.112103,0.0656139,0.203757,0.101014,0.121079,-0.111734,-0.0918968,0.0575401,0.159437,-0.0252934,0.0218361,0.0737246,0.0471688,0.051305,-0.0928492,-0.0392408,0.021683,0.0759319,0.0462437,0.00947095,-0.048959,0.0391499,0.0286956,-0.152304,-0.162475,-0.0805115,-0.0930979,-0.161938,0.0881252,-0.0871045,-0.203431,-0.18332,0.0350174,0.0513011,-0.0283397,0.0629103,-0.0244418,-0.0114857,0.142703,-0.0934117
hero 0.0218018,-0.142159,0.181873,-0.0511729,0.121001,-0.0738953,-0.0527212,0.0207851,-0.103008,-0.0330476,0.109501,0.113141,0.148305,0.153968,-0.0077646,-0.0632899,0.0391038,-0.0938407,0.0862741,0.0467715,0.0251315,0.0168043,0.0552429,-0.124226,-0.0473427,0.228298,-0.12516,-0.0210273,-0.108347,0.00156518,-0.049352,-0.0253843,0.114106,0.0471895,-0.0471684,-0.114723,0.0616145,-0.111535,-0.023567,0.0615205,-0.0756531,-0.000597032,0.028355,0.0412443,0.214323,-0.0332201,0.0476749,0.127053,-0.13914,0.096657,-0.047226,0.151857,-0.0112739,0.18109,0.0782063,0.0559888,0.0126823,0.109786,-0.12166,-0.15485,-0.0121778,-0.0304923,-0.287137,-0.130717,-0.0434175,0.0926999,-0.119482,-0.186966,-0.164243,0.050643,0.0754905,-0.108366,0.0202085,-0.13017,-0.0574935,0.0259713,-0.109351,-0.118197,-0.111004,0.0828935,0.0311471,-0.10999,-0.0337254,0.0786742,0.146957,0.0102509,-0.0397592,0.166965,-0.0618209,-0.0136109,0.18799,0.111173,-0.00877227,0.0811229,0.0241871,-0.00565312,0.0784247,-0.00248096,-0.161413,-0.0288812
men 0.060925,0.237661,-0.118589,0.0507193,-0.0200779,0.0663984,-0.0227559,0.0193232,0.0252279,0.00477516,-0.146207,-0.137901,-0.219788,-0.0158036,-0.0569584,0.139997,0.0993157,0.0300579,-0.0829441,-0.00404297,-0.0684339,-0.165827,-0.00379992,0.242974,0.138363,-0.0934256,-0.000749386,0.0676317,-0.00522099,-0.018473,-0.135807,0.190102,-0.0355449,-0.0296945,-0.0589327,0.124193,0.00797014,0.183832,0.0391737,-0.0283857,-0.101374,0.013692,-0.0160548,-0.159458,-0.149466,-0.0552572,-0.106692,-0.0627052,0.166546,0.0733438,0.112735,-0.0758312,-0.0821823,-0.108192,-0.0367907,-0.116124,-0.0337936,-0.0277012,-0.0458584,-0.0197957,-0.102244,0.0458553,0.213841,0.109875,0.118083,-0.0931401,-0.0620314,0.101458,0.181824,-0.0321727,0.0250831,0.065951,0.0299496,0.091313,-0.0658601,-0.0323887,0.0627455,0.0690453,0.0348363,-0.00941058,-0.0381883,0.0225396,0.035869,-0.17287,-0.186109,-0.0495292,-0.073583,-0.140895,0.0641944,-0.0669905,-0.224175,-0.166654,0.0429043,0.0035011,-0.0102503,0.0257396,-0.00374807,-0.0359221,0.159153,-0.0560469
here 0.0545046,0.244335,-0.124481,0.048837,-0.014981,0.0617038,-0.0181216,0.0252235,0.0296738,0.013397,-0.141052,-0.140983,-0.218364,-0.0248064,-0.0506425,0.14242,0.101108,0.0337937,-0.0820491,-0.00140915,-0.070217,-0.162728,0.00187249,0.238942,0.130989,-0.108558,0.011039,0.0779533,-0.00208461,-0.0116667,-0.136611,0.182114,-0.0392957,-0.0180743,-0.0578027,0.133,0.00682078,0.187159,0.0435987,-0.0265841,-0.0984871,-0.00111619,-0.0141541,-0.157019,-0.144112,-0.0441414,-0.103267,-0.0627111,0.160879,0.0646407,0.10146,-0.0785519,-0.0861989,-0.103686,-0.0338953,-0.127047,-0.0464824,-0.0252251,-0.0411118,-0.00920039,-0.102843,0.0477069,0.217839,0.1115,0.118368,-0.0899287,-0.0539748,0.0980111,0.184971,-0.032824,0.0270579,0.0678848,0.0329541,0.103359,-0.0683341,-0.0285274,0.0663925,0.066127,0.039526,-0.0157577,-0.0341089,0.0261732,0.0323386,-0.165829,-0.186824,-0.0399028,-0.072125,-0.149402,0.0709518,-0.0645873,-0.22135,-0.168143,0.0486529,-0.00330468,-0.0153765,0.0182225,-0.00337473,-0.0321883,0.160852,-0.0561411
nanny -0.00645677,0.265627,-0.172196,0.0534361,-0.00303699,0.0931517,0.0243392,-0.00590985,0.0752245,0.0541678,-0.1036,-0.11872,-0.181578,-0.0238068,-0.119652,0.102159,0.0306557,0.08589,-0.0217213,0.053221,-0.0152247,-0.165441,0.0797329,0.265299,0.0339307,-0.172548,0.00543175,0.0626099,0.0480039,0.0324259,-0.058003,0.0632092,-0.041221,0.053996,-0.0134479,0.106095,0.0102799,0.213193,0.0674879,6.31408e-05,-0.0112479,-0.0624002,0.00906567,-0.104536,-0.16245,0.0447129,-0.17189,-0.0392267,0.0618732,0.0386152,0.0905067,-0.102001,-0.0961193,-0.155965,-0.0687258,-0.155322,-0.00627925,-0.0130471,0.0351468,0.0755895,-0.0391266,0.0027839,0.259239,0.12991,0.0369844,-0.0814694,-0.0046895,0.0755061,0.168171,-0.108872,0.0389001,0.0947501,0.0158775,0.14577,-0.0642847,-0.0464613,0.128138,0.120498,0.0755145,-0.0817901,0.00988115,0.0464327,0.0314552,-0.104726,-0.163584,0.0366563,0.0238103,-0.139638,0.0727455,0.0113835,-0.166813,-0.0594842,0.0955633,-0.0999255,-0.105774,0.0249179,-0.0451696,-0.104493,0.184103,-0.0460253
dork -0.0609143,0.266556,-0.108432,0.114991,0.0484655,0.146886,0.137765,-0.0639342,0.106522,0.0545378,0.0251743,-0.156592,0.00569343,-0.0120587,0.0097722,-0.101597,0.0769739,0.107989,0.0257411,0.0407947,0.0414699,-0.103923,0.15629,0.0672477,0.00637357,-0.111663,0.116005,0.0616699,0.111061,-0.0235289,0.0289782,-0.0918128,-0.165774,0.162147,0.104641,0.00696268,-0.0096085,0.142089,0.0223036,-0.00289705,-0.0105422,-0.159252,0.0841799,-0.00645295,-0.138753,0.0481953,-0.174116,-0.0856298,-0.110687,-0.106538,0.014475,0.0512788,0.00755497,-0.0985975,-0.108453,-0.175421,-0.0395017,-0.012288,0.196642,0.0721203,-0.0443827,-0.069143,0.2027,0.11097,-0.0100338,-0.0383134,0.036966,0.0934381,0.15438,-0.151765,-0.0211218,0.12781,0.025185,0.200294,0.00865135,0.0299167,0.176307,0.0851156,0.0502965,-0.205868,-0.0561501,0.105319,0.0407446,-0.00987289,-0.064401,0.0755663,0.137649,-0.147287,0.0428082,0.138879,-0.0356493,-0.00591749,0.0225374,-0.0339243,-0.100225,-0.0224377,-0.12744,-0.0320364,0.0233124,0.0937869
kids 0.0656494,0.235194,-0.130703,0.0414201,-0.00830374,0.0598885,-0.0334119,0.0367832,0.0186924,0.00376831,-0.151329,-0.147155,-0.217898,-0.0140821,-0.0517507,0.146719,0.0956574,0.0246484,-0.0972127,-0.00140558,-0.0733663,-0.159258,-0.00496448,0.240895,0.139352,-0.0932876,0.0125128,0.06624,-0.0126309,-0.0247,-0.135583,0.186912,-0.0360354,-0.0367905,-0.0748531,0.133855,0.0071754,0.174295,0.0355895,-0.034974,-0.106996,0.00976835,-0.00732773,-0.164788,-0.137461,-0.0563612,-0.0954095,-0.0577901,0.171308,0.0704548,0.109774,-0.0729664,-0.080056,-0.100388,-0.0358366,-0.124767,-0.0458631,-0.0221413,-0.0511074,-0.0139142,-0.0974535,0.0528572,0.214334,0.0958958,0.126567,-0.100037,-0.0552146,0.0987786,0.183575,-0.0287577,0.0285019,0.0762202,0.0242232,0.0856017,-0.0711831,-0.0258954,0.0639827,0.0670215,0.0461632,8.15951e-05,-0.0336224,0.0287128,0.0222995,-0.159712,-0.179008,-0.0550657,-0.078722,-0.133567,0.0694794,-0.0618717,-0.233628,-0.165304,0.0498906,0.0109,-0.018267,0.0219215,0.0082545,-0.0293512,0.15461,-0.0585966
study 0.0587207,0.225174,-0.149055,0.0416343,-0.0404044,0.0595373,-0.0215885,0.0384446,0.0215211,-0.00579863,-0.164124,-0.167588,-0.220522,0.00738821,-0.0624087,0.163414,0.111062,0.0288001,-0.0658502,-0.0250504,-0.0601749,-0.182756,0.0173356,0.240709,0.119478,-0.107827,-0.0144166,0.068498,-0.0150012,-0.0412484,-0.133637,0.195946,-0.0305764,-0.0404447,-0.0755229,0.117968,0.00776362,0.194009,0.0198124,-0.0273584,-0.108234,-0.00506378,-0.0259376,-0.138023,-0.170132,-0.0270697,-0.125301,-0.0424919,0.162988,0.063533,0.0857049,-0.0687698,-0.0627126,-0.106732,-0.0442742,-0.103019,-0.0305033,-0.0515588,-0.0465935,-0.0100838,-0.0911436,0.0261303,0.209497,0.103926,0.106612,-0.120262,-0.0563882,0.08422,0.178204,-0.055128,0.0104284,0.0773202,0.00345639,0.068659,-0.0481117,-0.0473945,0.060927,0.064138,0.0237922,-0.0106412,-0.0252848,0.0203198,0.0474856,-0.144485,-0.164542,-0.0368705,-0.104546,-0.122685,0.064061,-0.0524828,-0.233606,-0.185929,0.0418423,-0.0122527,0.00676238,0.0127834,-0.0273466,-0.0512097,0.146197,-0.0397573
changed 0.179587,0.1252,-0.047969,0.00678043,0.0443382,-0.0825898,-0.172954,0.0152622,-0.0914734,0.00717832,0.0174216,-0.0602143,-0.17539,0.0627837,0.0997369,0.0525055,0.0923308,0.117859,-0.0349239,-0.128335,-0.140952,-0.118771,-0.124492,0.02376,0.0989863,-0.113737,-0.0581069,-0.0853116,-0.0221809,-0.0301262,-0.113838,0.0978343,0.0744929,-0.039302,-0.0642952,0.108565,0.0106691,0.00350388,-0.0517106,0.028866,-0.0784881,-0.00856777,-0.15863,-0.0240459,-0.169352,-0.188252,-0.0522214,0.0466577,0.217262,0.130081,0.194656,-0.0628527,-0.106633,-0.070261,0.111406,-0.157502,-0.00862552,-0.0283964,0.0152875,0.017512,-0.0222216,0.0499983,0.0724396,-0.0804484,0.190367,-0.0296058,-0.0823051,-0.0679841,0.0665177,-0.0722077,-0.0692922,-0.0631023,-0.0367846,0.116504,0.0405092,-0.0688792,-0.129873,0.0727437,0.145753,0.106955,-0.130192,-0.131847,0.0381666,-0.221862,-0.0240126,0.0342256,-0.232642,0.0534008,-0.106629,-0.0855668,-0.0501998,-0.128488,0.0933763,0.0907744,-0.0347607,0.146416,-0.0146051,0.0939978,0.134715,-0.0946635
controversy 0.0502385,0.247205,-0.125073,0.0442656,-0.0302874,0.0611247,-0.0143587,0.00504826,0.0283263,0.0148043,-0.137063,-0.141427,-0.214972,-0.0297015,-0.0678227,0.136341,0.0854098,0.0501744,-0.070746,0.00575442,-0.0511577,-0.167116,0.0106986,0.250366,0.111229,-0.104611,0.0129625,0.0650569,-0.000440119,-0.0198287,-0.119454,0.176304,-0.0437954,-0.0193981,-0.0512799,0.12159,-0.0023425,0.18992,0.047302,-0.0110237,-0.0911316,-0.00085242,-0.0146017,-0.150201,-0.139691,-0.0433521,-0.100946,-0.0634355,0.144778,0.0609325,0.0978995,-0.0839608,-0.0924649,-0.125188,-0.0522337,-0.125413,-0.0464859,-0.0399271,-0.0215415,0.00947904,-0.1045,0.0504326,0.222663,0.11423,0.123768,-0.0847611,-0.0474521,0.0933069,0.193316,-0.0338502,0.0302625,0.0818521,0.0357056,0.107918,-0.0680187,-0.0391188,0.0602323,0.0781701,0.0542252,-0.0280916,-0.0261086,0.032258,0.0428956,-0.173163,-0.188257,-0.0349916,-0.0749859,-0.138636,0.0661495,-0.0650958,-0.233736,-0.163974,0.0528249,-0.0174697,-0.0328568,0.0206687,0.00279531,-0.0360677,0.162428,-0.0573961
jame -0.0741811,-0.234571,0.0927774,-0.00528509,0.0306282,-0.0879824,0.0420983,-0.0151294,-0.0579613,0.013328,0.158054,0.113372,0.239458,0.0202716,0.0794489,-0.118303,-0.0665913,-0.0746514,0.0740226,-0.0153133,0.0602016,0.134287,0.000195822,-0.19905,-0.171211,0.0843588,-0.000799036,-0.0364268,0.050942,0.00217482,0.120996,-0.238241,0.00779007,-0.00738073,0.103511,-0.084714,-0.0302365,-0.174289,-0.057236,0.0403763,0.0847666,-0.0243657,0.0533259,0.119826,0.162913,0.087163,0.135301,0.106022,-0.16164,-0.0512429,-0.113241,0.0697865,0.0585127,0.0663586,-0.0101567,0.0978742,0.0630819,-0.0227791,0.0664354,0.00392554,0.0869985,-0.0170897,-0.173368,-0.126066,-0.131653,0.141317,0.0954402,-0.0626684,-0.194244,0.0670673,-0.0106428,-0.0586144,-0.0265551,-0.0963945,0.105531,0.0426148,-0.0333929,-0.0417517,-0.0591515,0.0028865,0.0734335,0.0306765,-0.0420189,0.174558,0.15922,0.0775248,0.081796,0.111838,-0.0192981,0.0450127,0.230167,0.147782,-0.0292149,0.0229651,0.0235266,0.0143435,-0.0261032,0.0431662,-0.197206,0.0840107
jill 0.0438449,0.251199,-0.135366,0.059305,-0.0101282,0.058798,0.00434104,0.00267267,0.0327031,0.0358439,-0.136192,-0.147172,-0.201707,-0.0422992,-0.0554078,0.116432,0.0988734,0.0339961,-0.0512363,0.00882215,-0.0498005,-0.173895,0.0171271,0.243843,0.116141,-0.118209,0.0239368,0.0825382,0.00844453,-0.0237957,-0.119169,0.166517,-0.0460302,-0.00241231,-0.0494898,0.117213,-0.00880313,0.202603,0.0432577,-0.0179439,-0.0829936,-0.0191496,-0.0103102,-0.140472,-0.143205,-0.0100029,-0.118896,-0.069739,0.144702,0.0462541,0.0972662,-0.0800457,-0.0928039,-0.115958,-0.0505525,-0.135191,-0.0358587,-0.0260928,-0.0191967,-0.00110563,-0.0781836,0.038491,0.238503,0.121505,0.0969497,-0.07701,-0.0379227,0.106502,0.182394,-0.0533173,0.0290179,0.0783629,0.0382047,0.113904,-0.0498971,-0.0431433,0.0859466,0.0868977,0.0406484,-0.0326657,-0.0261029,0.0360884,0.0423768,-0.170695,-0.195019,-0.0293191,-0.0515799,-0.157715,0.0771188,-0.053765,-0.231541,-0.159271,0.0632771,-0.0219793,-0.0237868,0.00506113,-0.0159795,-0.0399652,0.167546,-0.0530093
aka 0.0554479,0.256565,-0.130022,0.0568855,-0.0153002,0.0643361,-0.00785603,0.00450343,0.0338676,0.0176835,-0.125412,-0.152927,-0.223404,-0.0393021,-0.0574072,0.120765,0.091981,0.0381963,-0.0569631,0.0161018,-0.0636611,-0.17022,0.0246313,0.236498,0.104114,-0.121747,0.00634864,0.0687119,-0.00240905,-0.00718926,-0.13038,0.153742,-0.0511228,-0.00132362,-0.0542886,0.133297,0.00132994,0.196014,0.0453874,-0.0105354,-0.0694649,-0.0152286,-0.0106706,-0.1432,-0.154226,-0.0278795,-0.125233,-0.0752767,0.151381,0.0500505,0.10081,-0.0708468,-0.0890815,-0.109442,-0.047402,-0.122848,-0.0424837,-0.0334849,-0.0151497,0.0114152,-0.0985404,0.0509589,0.245671,0.116059,0.104017,-0.0826599,-0.0331213,0.10087,0.181875,-0.0425695,0.0228235,0.0748401,0.0250842,0.117094,-0.0646257,-0.0390127,0.0691508,0.0869883,0.0407486,-0.0231316,-0.0249676,0.0455691,0.0398956,-0.161761,-0.193069,-0.0354206,-0.0482499,-0.155055,0.0831659,-0.036981,-0.234251,-0.145741,0.0519225,-0.0177941,-0.034099,0.0191046,-0.00773817,-0.0462255,0.165333,-0.036781
otters 0.0661806,0.251382,-0.128267,0.0542687,-0.0124273,0.0677515,-0.000681006,0.0126544,0.0590701,0.0215801,-0.111436,-0.16602,-0.200554,-0.0450272,-0.0583573,0.150499,0.10715,0.0630767,-0.0556826,-0.00763265,-0.0844804,-0.148775,0.017488,0.254607,0.123613,-0.100827,-0.00632285,0.088588,0.00457998,-0.0139712,-0.133557,0.178074,-0.0370913,-0.0279283,-0.0585877,0.133109,-0.0199399,0.175915,0.0395749,-0.000791608,-0.0702517,-0.0107317,-0.0122555,-0.154952,-0.166094,-0.00845618,-0.0918066,-0.0899177,0.151393,0.0605803,0.114617,-0.0689078,-0.0608519,-0.102557,-0.0333667,-0.112846,-0.0336962,-0.0543246,-0.0104097,0.00713031,-0.0820809,0.0429978,0.243109,0.121977,0.124719,-0.0681882,-0.0352305,0.0927376,0.199859,-0.022086,0.021661,0.0669303,0.0082972,0.0799133,-0.0699106,-0.047514,0.0819411,0.0516361,0.0544203,-0.0453184,-0.0337117,0.0257934,0.0546316,-0.138406,-0.179893,-0.0209981,-0.0553868,-0.160985,0.097023,-0.0685227,-0.212517,-0.174927,0.0639874,-0.020613,-0.0244103,0.00433742,-0.0265032,-0.0463711,0.15129,-0.030205
changes 0.0556291,0.199057,-0.0997225,0.040899,-0.0425276,0.0756342,-0.0513265,-0.00560587,-0.0146287,-0.0396147,-0.171984,-0.137828,-0.243618,-0.000574196,0.00220612,0.18334,0.143487,0.0638519,-0.152684,0.0255768,-0.0775347,-0.183945,-0.0100869,0.22454,0.110624,-0.0410535,0.0192546,0.093659,0.00836238,-0.0314118,-0.13528,0.206667,-0.0614042,-0.00974319,-0.10527,0.166645,-0.023823,0.13054,0.0405985,-0.0186718,-0.157724,0.0602408,-0.0284433,-0.146059,-0.0868277,-0.12077,-0.0795594,-0.0613296,0.208154,0.103479,0.146172,-0.054425,-0.0786254,-0.0465032,-0.0234401,-0.116779,-0.0835553,0.00674356,-0.0610051,-0.0285452,-0.0946732,0.00464297,0.199847,0.0567024,0.0972664,-0.0936006,-0.111593,0.0869479,0.213694,-0.0217293,0.0446115,0.0264929,-0.0179121,0.0493156,-0.0889371,-0.0454946,0.0213501,0.0618705,0.0671573,0.0674526,0.00260261,-0.00104387,-0.000612562,-0.144234,-0.118713,-0.0889075,-0.0518075,-0.10876,0.0739982,-0.0428819,-0.169241,-0.145805,0.0215207,0.0430661,0.0193979,0.0114366,-0.0360058,0.011473,0.11959,-0.109506
campaign 0.0460946,0.269323,-0.129396,0.0518264,-0.0247823,0.0666425,-0.01112,0.00195562,0.0518438,0.0301215,-0.130253,-0.137105,-0.230786,-0.0094419,-0.0450323,0.124442,0.103846,0.0475382,-0.0899492,0.0100112,-0.056544,-0.168835,-0.00455267,0.254198,0.107671,-0.116723,-0.005576,0.0552227,-0.00811754,-0.000322356,-0.137927,0.153857,-0.0450839,-0.0327442,-0.0642719,0.109895,0.00768872,0.168354,0.0622444,-0.0323128,-0.104146,0.0108584,-0.0238046,-0.13825,-0.137351,-0.0395871,-0.117655,-0.0560457,0.153171,0.073802,0.0995525,-0.0887383,-0.0664942,-0.101613,-0.0233285,-0.139025,-0.028044,-0.0472466,-0.0213577,-0.00632709,-0.083515,0.0621192,0.210346,0.10683,0.0973082,-0.098175,-0.046014,0.0998345,0.196472,-0.0470628,0.0185521,0.0616491,0.0189747,0.0927181,-0.0686823,-0.0285313,0.0881723,0.089743,0.0564472,-0.0196394,-0.0319523,0.0469931,0.0309785,-0.171803,-0.175261,-0.0412629,-0.0485862,-0.15402,0.0705937,-0.0414463,-0.232163,-0.158512,0.0695784,-0.0171131,-0.0354413,0.00401815,-0.000111594,-0.0331395,0.182719,-0.0315028
blashpemies 0.0715242,0.230491,-0.115235,0.0486658,-0.0122568,0.0427425,-0.0369052,0.0496191,0.0308253,0.000356747,-0.133406,-0.150171,-0.213901,0.00783143,-0.047116,0.132761,0.102245,0.0268693,-0.0891531,-0.0163416,-0.0736133,-0.169332,-0.0161247,0.230501,0.147458,-0.0777179,-0.0107955,0.0703545,-0.0153997,-0.0226902,-0.127153,0.209332,-0.0296006,-0.0286793,-0.0579441,0.142946,0.0285286,0.163345,0.039033,-0.0327943,-0.116569,0.0286228,-0.0289267,-0.163355,-0.1274,-0.0557433,-0.0855451,-0.0667943,0.177216,0.0818509,0.12583,-0.081494,-0.063146,-0.109768,-0.0440278,-0.103124,-0.0315291,-0.00283471,-0.0595829,-0.0395581,-0.106679,0.0566664,0.209725,0.0990142,0.132515,-0.0985137,-0.0838726,0.084412,0.175805,-0.0344316,0.0105132,0.0443252,0.0356572,0.0750733,-0.0696673,-0.0253526,0.0483088,0.0728013,0.0379823,0.00616098,-0.055385,-0.00341767,0.0231097,-0.170904,-0.171106,-0.0688291,-0.0808848,-0.12923,0.0523502,-0.0865107,-0.232442,-0.194461,0.0506873,0.00659001,0.00707128,0.0263286,0.00234134,-0.0222212,0.15595,-0.0559795
julia 0.0488117,0.214157,-0.139169,0.0158875,-0.031337,0.0684576,-0.0369286,0.0341873,0.00291614,0.0271141,-0.156563,-0.159224,-0.19816,-0.0304821,-0.0679569,0.115423,0.135463,0.0495939,-0.128828,-0.0373559,-0.0570159,-0.155889,-0.0198457,0.236657,0.139984,-0.0832619,-0.0110927,0.0779342,0.00829524,-0.0412072,-0.130713,0.219696,0.00157961,-0.0580528,-0.0900501,0.0959767,0.00954087,0.144389,0.0114073,-0.0132565,-0.0975607,0.00792856,0.00435024,-0.136702,-0.109325,-0.0701523,-0.10877,-0.0588862,0.208268,0.0514612,0.0990593,-0.0541637,-0.0678121,-0.112849,-0.0418342,-0.09668,-0.0147684,-0.0406433,-0.0493742,-0.0357375,-0.112977,0.0583488,0.159632,0.0999149,0.155779,-0.130133,-0.0706844,0.117476,0.16849,-0.0394316,0.0545676,0.0581517,0.0216288,0.0935969,-0.0801722,-0.0359175,0.0693813,0.0569769,0.00416904,0.0241039,-0.0477738,-0.0107393,0.0429974,-0.142685,-0.157995,-0.0572227,-0.0906233,-0.140269,0.0773091,-0.0852182,-0.23863,-0.202723,0.011049,0.0472255,0.0309121,0.00921918,-0.000329486,0.00391826,0.153553,-0.0697902
highly 0.0342124,0.226089,-0.133431,0.0655073,-0.00525008,0.0670928,-0.0125406,0.0409376,0.0278889,0.0197544,-0.125366,-0.103137,-0.230597,0.0144652,-0.0127231,0.113435,0.086664,0.0122587,-0.0678711,-0.0131184,-0.0987097,-0.139362,-0.0322157,0.240686,0.123079,-0.0721717,-0.0313353,0.079335,-0.0244478,-0.0461295,-0.119668,0.197167,-0.0158902,-0.00903322,-0.0677949,0.0937184,0.015033,0.188567,0.015644,-0.0304638,-0.143632,0.0423255,-0.012337,-0.187564,-0.162389,-0.0681334,-0.0995852,-0.0424065,0.166015,0.0778834,0.133785,-0.0445541,-0.0925801,-0.0842648,-0.0232157,-0.108016,-0.0236913,0.00961689,-0.0911666,-0.0280347,-0.127203,0.0277677,0.198599,0.116686,0.0943395,-0.106145,-0.0702772,0.0627412,0.158641,-0.0447228,0.041675,0.0930359,-0.0041989,0.0958985,-0.103761,-0.045505,0.0334408,0.0535153,0.0236536,0.0241973,-0.025271,-0.0237056,0.0113369,-0.164021,-0.195353,-0.0231363,-0.0903731,-0.105768,0.0564923,-0.110844,-0.246137,-0.178256,0.0165212,0.0400054,-0.00492487,0.026519,-0.0208997,-0.0121396,0.182868,-0.0660891
total 0.0701517,0.233673,-0.115392,0.0472419,-0.0156955,0.068581,-0.0165275,0.0269628,0.0274005,0.0194386,-0.1417,-0.146538,-0.211335,-0.00556194,-0.0556882,0.147015,0.107646,0.0388197,-0.0821132,-0.00844571,-0.0662358,-0.159441,-0.00872736,0.238349,0.139825,-0.107428,-0.00160032,0.0762955,-0.00771007,-0.0103826,-0.144426,0.200207,-0.0371158,-0.0330061,-0.0610406,0.120727,0.0103705,0.174813,0.0378484,-0.0192012,-0.0943896,0.00451373,-0.0141479,-0.158905,-0.146098,-0.0476048,-0.104756,-0.0588693,0.177835,0.0719778,0.10824,-0.0745385,-0.0911246,-0.102958,-0.0288797,-0.112335,-0.0462586,-0.0363082,-0.0466013,-0.012618,-0.0929981,0.0538532,0.199044,0.0945229,0.130613,-0.0994441,-0.0698183,0.0963548,0.187116,-0.0210553,0.0123194,0.0622831,0.0357922,0.0930289,-0.0648529,-0.0364497,0.0733336,0.0571231,0.0299706,-0.00435616,-0.0340709,0.0224618,0.0200936,-0.176599,-0.189331,-0.0472582,-0.0794208,-0.146669,0.0604458,-0.0705516,-0.215937,-0.181153,0.0375139,0.0136069,-0.0257327,0.0359812,0.0014912,-0.0290677,0.156864,-0.0490992
plot 0.0460871,0.267139,-0.134341,0.0502113,-0.0086548,0.062268,-0.00622399,-0.00248071,0.0536014,0.0270621,-0.130749,-0.155949,-0.195637,-0.0402176,-0.0721171,0.11398,0.109665,0.0434591,-0.0564565,0.00179687,-0.0633703,-0.14732,-0.000543581,0.226281,0.101534,-0.128358,0.0170683,0.0825108,0.0150503,0.0037359,-0.121197,0.156365,-0.0382767,-0.0122943,-0.0335186,0.121935,0.00590726,0.202514,0.0285065,-0.0164362,-0.0791903,-0.0242408,0.00803897,-0.134367,-0.152756,-0.0230612,-0.128329,-0.0710457,0.163472,0.0475123,0.108846,-0.0685045,-0.092163,-0.127887,-0.0507984,-0.124531,-0.0610991,-0.0158488,-0.0376798,-0.00512111,-0.107368,0.0416269,0.227067,0.120633,0.100357,-0.100221,-0.0286172,0.0953159,0.194289,-0.0274378,0.0304156,0.0869655,0.0231932,0.107596,-0.0745122,-0.0247933,0.0585254,0.0817316,0.0419117,-0.0249961,-0.0287951,0.0549352,0.044266,-0.174085,-0.197574,-0.0476763,-0.0736319,-0.139248,0.0597221,-0.0616689,-0.201646,-0.164534,0.0403692,-0.0239335,-0.0472372,-0.00583018,-0.0292419,-0.0517141,0.177078,-0.0610458
spoke 0.0549755,0.20859,-0.0951954,0.0067585,-0.00746044,0.0251348,-0.0739718,0.0293216,0.0143616,0.0201666,-0.159136,-0.13122,-0.226117,-0.0123684,-0.0465702,0.162338,0.128296,-6.86559e-05,-0.110149,-0.0340985,-0.0398403,-0.178902,-0.0164362,0.252931,0.134349,-0.0904921,0.0159099,0.0538164,-0.0278027,-0.0163152,-0.156993,0.20448,0.00495651,-0.0272726,-0.0606239,0.149927,0.0425182,0.178424,0.0243095,-0.0111766,-0.14581,0.0525318,-0.018457,-0.155428,-0.148301,-0.0983869,-0.0874963,-0.0401763,0.199453,0.106161,0.128904,-0.0966674,-0.0546664,-0.0987329,-0.00891986,-0.0751851,-0.0584766,-0.0181791,-0.0882352,-0.0645256,-0.083796,0.0447169,0.153414,0.0537327,0.130365,-0.125157,-0.110878,0.0977127,0.182233,0.00969462,0.0106901,0.0697987,0.0399767,0.0650504,-0.0488124,-0.0395052,0.0145752,0.052297,0.0397389,-0.000647034,-0.0158816,-0.0128708,0.0467404,-0.141853,-0.144106,-0.062334,-0.111608,-0.0953462,0.0654861,-0.0603713,-0.19382,-0.191128,0.0598796,0.0502805,0.00190855,0.00878501,-0.00784581,-0.035809,0.152707,-0.0602778
would 0.0574083,0.255992,-0.128408,0.0553862,-0.0211135,0.0635782,-0.0155199,0.0176553,0.0351219,0.021401,-0.135386,-0.146688,-0.217381,-0.0285054,-0.061409,0.133103,0.0955055,0.0394702,-0.071766,0.00378465,-0.0636148,-0.169429,0.0113798,0.242251,0.121951,-0.115618,0.00933643,0.0761922,0.00365202,-0.013693,-0.127213,0.17346,-0.0464568,-0.0122635,-0.0529704,0.124699,-0.000552272,0.189641,0.0459489,-0.0201315,-0.085665,-0.00271523,-0.00809591,-0.146161,-0.150791,-0.0348684,-0.112701,-0.0657366,0.15103,0.0611109,0.106248,-0.0797619,-0.0837248,-0.110578,-0.0389361,-0.127028,-0.0417808,-0.0308247,-0.0252453,-0.00113296,-0.0929428,0.0490341,0.227564,0.11718,0.112393,-0.0898334,-0.0416939,0.102126,0.182303,-0.0424138,0.0221193,0.0735777,0.0278248,0.10509,-0.0624349,-0.0338597,0.0697893,0.0730485,0.0455617,-0.0218373,-0.0328928,0.0343691,0.0373859,-0.165921,-0.184967,-0.0384102,-0.0657634,-0.149064,0.0733205,-0.0517599,-0.225914,-0.160426,0.0545417,-0.00829997,-0.0277123,0.0188534,-0.00694265,-0.0390462,0.165769,-0.0518784
geisha 0.106009,0.218756,0.00270834,0.000247477,-0.0960009,-0.0121027,-0.11012,-0.0506817,-0.00393288,-0.0300679,-0.0516461,-0.112064,-0.235632,-0.06764,0.00338251,0.158774,0.0606749,-0.0138676,-0.0313554,-0.0205575,-0.0340684,-0.0599387,-0.00647588,0.26841,0.19296,-0.113937,-0.0664041,0.0429008,0.0962267,-0.0885465,-0.124531,0.159494,0.050972,0.0268297,-0.0621287,0.179944,0.00456676,0.219443,-0.0144835,-0.0901024,-0.141155,0.0359724,0.0830626,-0.0276651,-0.165489,-0.124489,-0.167013,0.00189128,0.0919933,0.035479,0.0615776,-0.0389269,-0.148874,-0.131695,0.0596365,-0.159336,-0.0419516,0.0363443,-0.0129575,0.0591988,-0.0622484,0.0483604,0.0751057,0.0283547,0.179266,-0.155981,0.000108871,0.164174,0.11046,-0.027417,-0.0830121,0.0461209,0.105934,0.0105997,-0.0172675,0.0328618,0.0934681,0.0263831,0.0826096,-0.05522,0.026136,0.0583846,0.0128459,-0.115672,-0.134427,-0.0621624,-0.0561135,-0.016336,0.107821,-0.0155585,-0.189735,-0.209905,0.106684,-0.0677753,0.0752116,0.115314,-0.0840827,-0.0492567,0.05317,0.0235382
music 0.0573216,0.225388,-0.125132,0.0523456,-0.0219468,0.0684822,-0.0367679,0.0231709,0.012224,-0.00123208,-0.14426,-0.133582,-0.213341,-0.0194602,-0.0617003,0.132883,0.0953012,0.0185434,-0.0985775,-0.0152411,-0.0491715,-0.181245,0.00353219,0.252045,0.148071,-0.104119,0.0206339,0.0647264,1.88021e-05,-0.0276,-0.153807,0.193223,-0.0299711,-0.0115927,-0.0696613,0.127287,0.0200355,0.164199,0.0424629,-0.0103949,-0.0882213,-0.00351003,0.00345626,-0.141016,-0.157002,-0.0589753,-0.120466,-0.0636452,0.15716,0.0803841,0.114914,-0.0933902,-0.0752281,-0.105842,-0.0466073,-0.106156,-0.0550202,-0.0220902,-0.0504429,-0.0204054,-0.105697,0.0456583,0.223388,0.100529,0.140435,-0.0874539,-0.0478277,0.0963345,0.17114,-0.0301634,0.0119741,0.0524544,0.0418564,0.0938846,-0.0725575,-0.024324,0.0650438,0.051514,0.0263924,-0.0141955,-0.0306333,0.0173665,0.0190288,-0.171898,-0.16863,-0.0456065,-0.0867747,-0.136048,0.0558353,-0.0686552,-0.229259,-0.174555,0.0361155,0.0126256,-0.0288548,0.00961058,0.000758219,-0.0339802,0.165364,-0.0490619
type 0.0839208,0.225814,-0.121954,0.0789179,-0.053256,0.0961946,-0.0239256,0.0234979,0.0669221,0.0173507,-0.170422,-0.172234,-0.202509,-0.0544935,-0.0495508,0.110454,0.0931976,0.011303,-0.0516918,-0.00428041,-0.0957321,-0.19584,0.000930415,0.215284,0.118678,-0.0913612,0.00924827,0.0500908,-0.00648139,-0.0157559,-0.116839,0.175197,-0.0561549,0.0121675,-0.0719342,0.114826,0.0237697,0.183875,0.0681546,-0.017456,-0.0919168,0.0119359,0.0166092,-0.114932,-0.141041,-0.0625062,-0.0856799,-0.0737154,0.132915,0.0464577,0.101849,-0.0581143,-0.0710343,-0.128242,-0.0761184,-0.102767,-0.0491351,-0.0649307,-0.063903,0.0198459,-0.103404,0.0629747,0.194642,0.113356,0.116348,-0.102436,-0.0256934,0.103104,0.186066,-0.00680061,0.0563663,0.0591789,0.0302632,0.0836272,-0.0936482,-0.041514,0.0338421,0.0410952,0.0560902,-0.00437439,-0.00962264,0.0610458,0.0143396,-0.178767,-0.206863,-0.0142247,-0.0853562,-0.173313,0.0891557,-0.0914746,-0.227137,-0.148168,0.0615847,0.00867623,-0.062509,-0.000910017,0.00883105,-0.0618374,0.152745,-0.0263842
until 0.0643851,0.256376,-0.133373,0.0532515,-0.0209985,0.073561,-0.00398648,0.00986318,0.0280336,0.0270326,-0.131832,-0.134512,-0.224421,-0.0344994,-0.0650963,0.125323,0.0960033,0.0358348,-0.058244,0.00118033,-0.0531566,-0.171702,0.0131687,0.242138,0.113835,-0.124582,0.00287903,0.0797701,-0.00724734,-0.0151883,-0.122791,0.162958,-0.0509394,-0.0239069,-0.0481617,0.118621,-0.0120976,0.192794,0.0518125,-0.014579,-0.095403,-0.01786,-0.0122754,-0.149226,-0.156915,-0.0369634,-0.115277,-0.0621479,0.155627,0.0602174,0.0973716,-0.0806084,-0.0763641,-0.122257,-0.049323,-0.133578,-0.0328939,-0.0275094,-0.0294508,0.00938131,-0.095869,0.0433467,0.221225,0.119861,0.106978,-0.0794315,-0.032288,0.0989849,0.189998,-0.048091,0.00942036,0.0716484,0.0422028,0.0998177,-0.0511384,-0.0225504,0.064588,0.0708052,0.0500932,-0.0146049,-0.0333604,0.0483045,0.0351212,-0.159258,-0.189863,-0.0456021,-0.0531842,-0.143965,0.0795645,-0.0435752,-0.228596,-0.165397,0.0493,-0.0184517,-0.0155688,0.00276907,-0.015214,-0.0439967,0.176894,-0.0377732
oscar 0.0545472,0.251052,-0.12095,0.0462318,-0.0118528,0.0547165,-0.0152341,0.0233695,0.0298468,0.00478355,-0.134722,-0.138163,-0.227997,-0.0179828,-0.0469816,0.142367,0.103516,0.0448575,-0.0796925,-0.00631433,-0.0688833,-0.165839,0.00687885,0.236748,0.125705,-0.108533,0.0148442,0.0683627,0.00166017,-0.0156839,-0.141186,0.186955,-0.0407831,-0.0307696,-0.0623945,0.124207,0.0116043,0.175506,0.0453972,-0.0336619,-0.0928295,0.0147317,-0.0165356,-0.160196,-0.14529,-0.0520191,-0.100284,-0.0707967,0.164256,0.0727265,0.112829,-0.0799715,-0.0806594,-0.102656,-0.0423481,-0.115167,-0.0471423,-0.0304295,-0.0399788,-0.019785,-0.100661,0.0523656,0.210746,0.110701,0.115828,-0.100166,-0.0492001,0.0962538,0.179669,-0.03373,0.0192598,0.0732569,0.0219508,0.100712,-0.0618121,-0.0230615,0.0696305,0.0643093,0.0423453,-0.00990661,-0.0323418,0.0211117,0.0236589,-0.170727,-0.182558,-0.048413,-0.0835885,-0.142962,0.060582,-0.0643847,-0.220813,-0.17022,0.0504858,0.0068571,-0.0128933,0.0230063,-0.000877381,-0.0327723,0.172237,-0.0582979
yahoo 0.0492391,0.234945,-0.10942,0.0641692,-0.0247359,0.0464446,-0.0186718,0.0277949,0.0185865,0.0283318,-0.148029,-0.148462,-0.207977,-0.0287204,-0.0589901,0.138035,0.094384,0.0381963,-0.076964,-0.00722509,-0.0722078,-0.17454,0.0138674,0.24138,0.121912,-0.100499,0.0142031,0.0563792,-0.0212652,-0.0252159,-0.140008,0.191436,-0.038692,-0.0192787,-0.057203,0.108501,0.0157807,0.16973,0.0575558,-0.0361371,-0.096066,0.00538759,-0.0151123,-0.140549,-0.142372,-0.0593648,-0.0857979,-0.0660655,0.173751,0.0676976,0.0981348,-0.0745963,-0.0926663,-0.112597,-0.0478203,-0.124099,-0.0303101,-0.0367298,-0.0277222,-0.0317383,-0.0912956,0.0512267,0.195601,0.115231,0.118002,-0.106698,-0.0515632,0.0925812,0.1844,-0.046628,0.0271584,0.0492588,0.0217565,0.104349,-0.0667012,-0.0164109,0.0561502,0.0491909,0.0432602,0.00500695,-0.0543145,0.0235362,0.0449695,-0.182778,-0.197822,-0.0560633,-0.0812582,-0.15746,0.0547315,-0.079426,-0.233236,-0.188568,0.0572382,0.0135936,-0.0198274,0.0401617,-0.0197452,-0.0263381,0.154882,-0.0432955
award 0.0798994,0.2365,-0.107312,0.060778,-0.00855329,0.0785568,-0.035947,0.0268554,0.00931757,0.0152589,-0.157635,-0.159717,-0.218832,-0.0135068,-0.05886,0.126435,0.11951,0.0346384,-0.103956,-0.00581401,-0.0678056,-0.162233,-0.0111698,0.226075,0.124108,-0.102524,0.0191816,0.0549321,-0.00466525,-0.012715,-0.151709,0.208118,-0.0220978,-0.0185597,-0.063323,0.112726,-0.00435917,0.162071,0.0568467,-0.0289574,-0.107109,0.00906963,-0.0262561,-0.140179,-0.139616,-0.0682769,-0.104615,-0.0706957,0.149385,0.0791388,0.090348,-0.0862201,-0.0789093,-0.107575,-0.0393087,-0.13462,-0.0190194,-0.0143033,-0.0411311,-0.012276,-0.0939367,0.0640895,0.209272,0.11244,0.122246,-0.0987681,-0.0507134,0.110041,0.162569,-0.0364214,0.0401922,0.0691249,0.0134649,0.113652,-0.0600288,-0.0122504,0.0799512,0.0499922,0.0243692,0.00208381,-0.04569,0.0327252,0.00973801,-0.154051,-0.164372,-0.0504984,-0.0632887,-0.149029,0.0674881,-0.0675784,-0.239721,-0.192043,0.0375929,-0.00284928,-0.00707836,0.0236118,0.0183068,-0.0414771,0.150439,-0.074778
phone 0.0455696,0.254742,-0.135668,0.0633543,-0.0263079,0.0552617,-0.0113764,0.0101216,0.0452454,0.0242503,-0.14337,-0.150351,-0.227456,-0.0153201,-0.053249,0.143225,0.0925399,0.0301362,-0.0823824,0.0108894,-0.0534,-0.17071,0.0112743,0.248739,0.111151,-0.105525,0.0173135,0.0793055,0.00158105,-0.0110078,-0.11938,0.168058,-0.0492308,-0.0106021,-0.0509215,0.136462,0.0079028,0.179708,0.0403788,-0.0100912,-0.0775946,-0.0119415,0.00330642,-0.136825,-0.162567,-0.0384632,-0.106349,-0.0665709,0.162411,0.0492744,0.100273,-0.0768395,-0.0895725,-0.107451,-0.0410498,-0.132584,-0.0431857,-0.035032,-0.0242783,0.00363187,-0.0856419,0.0492348,0.223161,0.110003,0.108817,-0.0829429,-0.0438607,0.0996076,0.176905,-0.0350897,0.025749,0.07408,0.0371116,0.101713,-0.0581269,-0.0440368,0.0683612,0.0690291,0.0396213,-0.0130907,-0.0368749,0.0422665,0.0318553,-0.164605,-0.197666,-0.036504,-0.0647839,-0.147559,0.0682543,-0.0657898,-0.220384,-0.167608,0.0535044,-0.0168253,-0.0151494,0.0272038,-0.000393156,-0.0399197,0.164151,-0.0609472
adult 0.0504574,0.258083,-0.116822,0.0602094,-0.0135964,0.049808,-0.00238751,0.015688,0.0210614,0.0291236,-0.140603,-0.127867,-0.224397,-0.017308,-0.0430584,0.140998,0.088744,0.0515944,-0.0524858,0.0134879,-0.0715281,-0.175713,0.012337,0.246832,0.110763,-0.111279,0.0176486,0.061431,0.0177626,0.000906742,-0.111366,0.152455,-0.066964,0.00284357,-0.0534461,0.11462,0.0141771,0.20646,0.0276187,-0.0218761,-0.0826028,-0.0242007,-0.014552,-0.125511,-0.134712,-0.0364446,-0.114952,-0.0596948,0.126858,0.0600755,0.113734,-0.0953012,-0.101562,-0.110503,-0.0540131,-0.130306,-0.0428903,-0.0357257,-0.0276206,-0.00103678,-0.0939491,0.0469064,0.215409,0.116934,0.11874,-0.0978354,-0.0471801,0.113126,0.183708,-0.0561523,0.00776841,0.0616759,0.0348549,0.0931017,-0.0589737,-0.0467483,0.0603784,0.0926399,0.0464468,-0.0128811,-0.0195457,0.0404961,0.0458476,-0.180385,-0.190638,-0.0321017,-0.0663358,-0.166244,0.0843103,-0.0644415,-0.226845,-0.165057,0.0759026,-0.0159998,-0.0225041,0.0157669,-0.00920068,-0.051821,0.159302,-0.0424082
excellent -0.0127594,0.215145,-0.0861522,0.0662056,-0.0591882,0.0338331,0.158541,-0.0983597,0.0887309,0.0961813,0.0047901,-0.0224377,0.0125683,-0.09306,-0.0741976,-0.067339,-0.047692,0.0894334,0.125409,0.0880632,0.0425201,-0.0592014,0.0958059,0.0413745,-0.118374,-0.14097,0.0377209,0.0352066,0.0636364,-0.0126439,0.0556799,-0.161228,-0.140411,0.0938739,0.0671152,0.0315144,-0.0801889,0.145165,0.0465512,0.098537,0.129981,-0.170662,0.0341402,0.0735415,-0.0804907,0.171926,-0.123205,-0.0366708,-0.143933,-0.0745662,-0.0209168,-0.0231788,-0.0774351,-0.0954912,-0.0803679,-0.110147,-0.0580295,-0.0660939,0.196238,0.149811,0.0601025,0.0315094,0.195558,0.146643,-0.0801134,0.0453983,0.153782,0.0448562,0.0886079,-0.141606,-0.0290438,0.100866,0.0446,0.149951,0.0804756,-0.0451003,0.0945965,0.105158,0.0586118,-0.175334,0.0297811,0.165739,0.0774348,0.0116044,-0.11628,0.0737413,0.154382,-0.10753,0.0931299,0.151242,-0.0445297,0.0994638,0.0635016,-0.180926,-0.135621,-0.0945643,-0.0909498,-0.0580275,0.0223304,0.0683624
hold 0.0597436,0.256529,-0.118118,0.0534229,-0.00303674,0.0833508,-0.0208789,0.0197261,0.0277753,0.0138488,-0.136049,-0.13814,-0.212356,-0.0194173,-0.0606458,0.141068,0.0817325,0.0560879,-0.0567675,0.00471776,-0.0766064,-0.158012,0.0174316,0.231296,0.112153,-0.116862,0.0156259,0.0726725,0.0107712,-0.0310539,-0.141216,0.148562,-0.0712456,-0.00642922,-0.0680071,0.123417,-0.0124261,0.193374,0.028229,-0.0309462,-0.0854064,-0.0137316,-0.0115891,-0.143686,-0.143959,-0.0149684,-0.102328,-0.0692017,0.138907,0.050701,0.121293,-0.0681333,-0.0786066,-0.111604,-0.0400428,-0.141574,-0.0460573,-0.0444705,-0.00968353,0.000676983,-0.107128,0.0465582,0.223427,0.11,0.0983274,-0.0792859,-0.0468754,0.0947243,0.198329,-0.031718,0.00683214,0.0874892,0.0488492,0.105561,-0.0749748,-0.0177777,0.0663687,0.0838873,0.0593884,-0.0160932,-0.0362098,0.0563949,0.0223711,-0.166804,-0.199085,-0.0489794,-0.0554091,-0.141566,0.0884311,-0.0418444,-0.212468,-0.169877,0.0764408,-0.0213914,-0.0311251,-0.00686334,-0.00757252,-0.0582986,0.177456,-0.0459008
must 0.0519761,0.246165,-0.130363,0.0545712,-0.0225602,0.0579372,-0.0278545,0.0136384,0.0264218,0.0106812,-0.138094,-0.1519,-0.226254,-0.019394,-0.0483881,0.141618,0.10785,0.0344641,-0.0799299,0.00112171,-0.0625465,-0.175066,-0.00270674,0.2404,0.12361,-0.113684,0.00391638,0.070045,-0.0045495,-0.0233182,-0.136229,0.175714,-0.0363716,-0.0224566,-0.0572814,0.129488,0.0083676,0.183328,0.0432364,-0.0206631,-0.0978637,0.00565138,-0.00841282,-0.145638,-0.141952,-0.0474413,-0.0978871,-0.0686007,0.165275,0.0660128,0.0999996,-0.0839335,-0.0908539,-0.111867,-0.0396974,-0.114297,-0.0441436,-0.0200262,-0.034122,-0.00112142,-0.0897905,0.0461947,0.224406,0.108463,0.121591,-0.0861158,-0.0434929,0.104666,0.17396,-0.0286685,0.0191122,0.0632088,0.0338968,0.0917402,-0.0568896,-0.0298747,0.0641907,0.0638624,0.0487419,-0.0120875,-0.0377593,0.032514,0.0278034,-0.171931,-0.178499,-0.0377868,-0.0733687,-0.152034,0.0663452,-0.0658065,-0.22995,-0.168357,0.0581796,0.00112154,-0.0159393,0.0218729,-0.00511175,-0.0325421,0.162681,-0.0613668
me 0.0538494,0.257657,-0.124959,0.0552334,-0.019763,0.0664321,-0.0100106,0.0142446,0.0391267,0.0215991,-0.136195,-0.14515,-0.217087,-0.0278239,-0.0598478,0.131018,0.0941915,0.0418452,-0.0694045,0.00857772,-0.0640103,-0.165612,0.0113383,0.242291,0.116783,-0.115499,0.0127047,0.0743831,0.00299217,-0.015164,-0.126417,0.168316,-0.0498185,-0.0103131,-0.0520066,0.126029,-0.00287354,0.1916,0.0444626,-0.0171194,-0.0848139,-0.00899887,-0.00439432,-0.143537,-0.151635,-0.0293658,-0.112812,-0.0688127,0.150069,0.0561315,0.104364,-0.0809708,-0.0869123,-0.113606,-0.0424608,-0.127687,-0.0422827,-0.0324875,-0.0230406,0.00106337,-0.0912252,0.0479359,0.229573,0.118321,0.113049,-0.0873187,-0.0387446,0.103431,0.184888,-0.045848,0.0197372,0.0770711,0.0292705,0.105566,-0.0604875,-0.0332437,0.0743908,0.0744008,0.0439055,-0.0222619,-0.0344997,0.0391219,0.0374819,-0.164602,-0.189487,-0.0365225,-0.0618477,-0.152739,0.0760552,-0.0523367,-0.225532,-0.157788,0.0573805,-0.0131511,-0.0299363,0.0149995,-0.0114383,-0.0410116,0.166607,-0.0478181
royally 0.0398712,0.227563,-0.00632136,0.0741628,0.130096,0.116886,-0.0343359,0.130496,-0.0218458,-0.085805,-0.00289807,-0.125989,0.0120137,0.103513,0.107348,0.117101,0.179456,-0.0625276,0.0810928,0.146385,0.0380212,-0.139582,-0.0677281,0.23267,0.0682898,-0.148711,-0.0185545,-0.0681589,0.128858,-0.0281293,-0.144013,-0.0122597,-0.143583,-0.0301719,-0.0990914,-0.0081579,0.0080794,0.251713,-0.0777819,0.0238499,-0.121288,-0.105992,-0.112362,0.0333162,-0.011919,0.054079,-0.00827863,0.0410556,0.0927124,0.182274,0.0347251,-0.102645,-0.0474799,0.0563463,0.00983448,-0.0195814,-0.0833484,0.0553212,-0.141514,-0.144144,0.0695573,0.00657512,0.112379,-0.0670757,0.018793,-0.0227459,-0.159966,0.123424,0.0111812,-0.100777,0.082757,-0.0864868,0.168895,0.205543,-0.104745,-0.0524347,0.00972303,-0.00301717,0.0598888,0.086449,-0.0913542,-0.0608243,-0.128324,-0.0400221,0.0404686,0.103916,0.0981975,-0.213492,0.0723982,0.0959836,0.0272941,-0.0623852,0.128134,0.136154,-0.0442739,0.0716704,-0.0809608,-0.0201522,0.111132,0.0145579
word 0.0590513,0.25037,-0.120693,0.0408451,-0.0115383,0.0569408,-0.0217148,0.0173313,0.0387306,0.00693926,-0.131242,-0.134257,-0.224875,-0.0268079,-0.0607315,0.138581,0.0992059,0.0489865,-0.0876936,0.00222493,-0.0543699,-0.159268,0.00611098,0.24525,0.145387,-0.111929,0.0114582,0.0664643,-0.00798392,-0.0093954,-0.145956,0.183699,-0.0318842,-0.0236531,-0.0511528,0.133623,0.0114493,0.173258,0.044053,-0.0241606,-0.108003,0.0113823,0.00176989,-0.151671,-0.142675,-0.0487011,-0.114983,-0.0592849,0.171211,0.0741876,0.107498,-0.0834244,-0.0748938,-0.11694,-0.0472899,-0.11813,-0.0373721,-0.0234681,-0.0504997,-0.0121816,-0.107581,0.0510111,0.21659,0.0944804,0.118646,-0.0932806,-0.0488105,0.087639,0.169307,-0.0361972,0.0170601,0.0619798,0.0336122,0.0812305,-0.0593982,-0.0311828,0.0643017,0.0764977,0.0503782,0.0062614,-0.0498233,0.0350782,0.0182723,-0.178015,-0.193365,-0.0486684,-0.0682081,-0.140647,0.0673054,-0.0597046,-0.219799,-0.165094,0.0539767,0.00235474,-0.0153719,0.00934372,0.0015553,-0.0393943,0.154598,-0.0642251
room 0.0490199,0.244916,-0.110477,0.0639886,0.00304452,0.0658245,-0.0443595,0.0407255,0.0312791,0.00576454,-0.125149,-0.148677,-0.208689,-0.0102108,-0.048543,0.154437,0.106086,0.0161117,-0.0976417,0.00885264,-0.0671751,-0.158055,-0.00377877,0.238133,0.12432,-0.0997943,0.0128011,0.0529637,-0.0203672,-0.0325191,-0.145871,0.197154,-0.0320269,-0.0234935,-0.0509719,0.130373,0.0235325,0.186349,0.0263868,-0.0327562,-0.0964765,0.0126331,-0.00373074,-0.165125,-0.1256,-0.0552128,-0.102867,-0.0517923,0.177407,0.0566756,0.105343,-0.0686967,-0.0618256,-0.0924454,-0.0504036,-0.134901,-0.0312157,-0.0328568,-0.0492166,-0.000657399,-0.0880957,0.0546387,0.219576,0.0998629,0.117814,-0.112416,-0.0748689,0.094382,0.160873,-0.0285856,0.00875819,0.0730603,0.00937489,0.0929015,-0.0735638,-0.0448311,0.0664007,0.0742907,0.0466201,-0.000103284,-0.026425,0.0128858,0.031252,-0.159494,-0.167727,-0.0675696,-0.0727253,-0.129507,0.0540435,-0.074114,-0.243635,-0.193035,0.0348043,-0.00641191,-0.000185141,0.0383442,0.0185643,-0.0485427,0.159503,-0.062936
work 0.0599612,0.21355,-0.0618501,-0.024867,-0.0455942,0.0467837,-0.0961222,0.0571999,0.0615947,-0.0380268,-0.146451,-0.117718,-0.2103,0.00594625,0.0125366,0.189601,0.0771035,0.0849166,-0.109639,0.0141836,-0.0765428,-0.211802,0.0289388,0.246738,0.188699,-0.0231674,0.00992651,0.0645249,-0.0662641,-0.0109726,-0.136691,0.182979,0.0132169,-0.0534563,-0.00403499,0.186111,-0.0439602,0.170092,0.0553315,-0.091395,-0.156944,0.0340346,-0.0129465,-0.131033,-0.144209,-0.102807,-0.104533,-0.00698661,0.138413,0.0525221,0.100401,-0.0252765,-0.115881,-0.0954734,-0.0514774,-0.128179,0.0244776,0.049233,-0.0828791,-0.01916,-0.0897694,0.0633344,0.186757,0.114353,0.0592879,-0.037971,-0.110519,0.0920246,0.172416,-0.0450807,0.0168583,0.0226566,0.0386055,0.0400806,-0.0933913,-0.0296362,-0.00623289,-0.0127342,0.0362505,-0.0457267,-0.0715107,-0.0158653,0.0852633,-0.137603,-0.20929,-0.00163318,-0.110356,-0.073348,-0.0106309,-0.00434081,-0.217423,-0.101862,0.0688374,0.0102006,-0.0312303,-0.0319101,0.0117574,-0.0638188,0.164852,-0.0188659
mi 0.0605419,0.260228,-0.122193,0.0646235,-0.0284424,0.06047,-0.0266686,0.0103596,0.030381,0.0190746,-0.148029,-0.134447,-0.215697,-0.0308556,-0.0514009,0.137602,0.093267,0.050635,-0.0713879,-0.00281917,-0.0537671,-0.163325,-0.00171059,0.247421,0.128176,-0.0998472,0.00505222,0.0708866,-0.00512481,-0.0198615,-0.122015,0.170493,-0.0476204,-0.00889464,-0.0662405,0.126786,0.00821949,0.180105,0.0384918,-0.0119606,-0.093276,0.00406718,-0.00468203,-0.14558,-0.146358,-0.036634,-0.110858,-0.0593616,0.164377,0.0521963,0.114982,-0.0871512,-0.0930215,-0.122766,-0.0462178,-0.120089,-0.0349601,-0.0222961,-0.0213849,0.00222093,-0.102948,0.0381545,0.213164,0.118067,0.108763,-0.09584,-0.0496994,0.101037,0.176316,-0.0343293,0.0150274,0.079937,0.0279927,0.093763,-0.0624784,-0.0412761,0.0748758,0.0733556,0.038154,-0.00969119,-0.045524,0.0268286,0.0336706,-0.165569,-0.177652,-0.0373522,-0.064042,-0.159582,0.0758005,-0.0565542,-0.232091,-0.159867,0.0453083,-0.000801378,-0.0175072,0.0252176,-0.0174093,-0.0344756,0.173871,-0.0613913
theories 0.0178874,0.0132319,0.0448046,-0.0355496,0.0166175,-0.0495029,-0.0993739,0.106749,-0.0295292,-0.106496,-0.147179,0.0174284,-0.163778,0.03495,0.0669008,0.0912753,0.0877989,-0.0300352,-0.155776,-0.120536,-0.0717313,-0.0874759,-0.10177,0.144744,0.141139,0.1563,-0.101626,-0.0703656,-0.031462,-0.0037753,-0.10476,0.253388,0.127616,-0.104171,-0.135234,0.126784,0.124537,0.0492221,-0.0018569,-0.0333685,-0.128028,0.201299,-0.0168753,-0.0794847,-0.0217004,-0.150995,0.0104589,-0.0622052,0.194578,0.0654415,0.0511062,-0.0395233,0.09346,-0.0322684,-0.0401979,0.0790659,-0.0609789,-0.0178684,-0.179578,-0.0805218,-0.0416669,-0.0487194,-0.121377,-0.0127866,0.1861,-0.0574581,-0.183847,-0.0701399,-0.0228581,0.0482043,-0.0470744,-0.0550534,-0.0458528,-0.0276758,-0.0791805,0.0703645,-0.0298231,-0.102138,0.0228673,0.12881,0.0111745,-0.154951,-0.0300301,-0.162346,-0.0277624,-0.145627,-0.202805,0.032017,-0.114328,-0.163788,-0.0658116,-0.214606,-0.0151028,0.0817077,0.0662871,0.0617825,0.133139,0.0262063,0.0343127,-0.0710252
movies 0.0467965,0.276199,-0.129538,0.0630265,-0.0263863,0.0697905,0.00781579,0.000115006,0.0500384,0.0327311,-0.125228,-0.143867,-0.207298,-0.0409151,-0.0680064,0.114272,0.0838445,0.048336,-0.0471174,0.019072,-0.0608008,-0.164064,0.0262929,0.238308,0.0953758,-0.130153,0.0204058,0.0755948,0.0136854,-0.0144687,-0.110921,0.143338,-0.0634142,0.00715965,-0.0386871,0.122628,-0.0149937,0.199504,0.0463059,-0.00428638,-0.0635565,-0.0287496,0.00559066,-0.131526,-0.158736,-0.00115334,-0.121778,-0.0710132,0.129446,0.0424095,0.0952248,-0.0810831,-0.0928045,-0.124655,-0.0491451,-0.138366,-0.0439917,-0.0404828,-9.72053e-05,0.0208254,-0.08252,0.0456783,0.245618,0.132937,0.0995305,-0.0759145,-0.0130165,0.107409,0.189889,-0.0570605,0.0153978,0.0831319,0.0376216,0.118657,-0.0495179,-0.0378572,0.0859903,0.0831478,0.0502566,-0.041985,-0.0253916,0.0561083,0.0426846,-0.1609,-0.1929,-0.0215956,-0.042076,-0.164731,0.0856889,-0.0330951,-0.22274,-0.137274,0.0667263,-0.0361419,-0.0418222,0.00420606,-0.0189533,-0.0528252,0.166974,-0.0342365
erm 0.0688063,0.231558,-0.149554,0.0667092,-0.0587077,0.0875774,0.00656772,-0.0535812,0.0507865,0.083165,-0.0858274,-0.0956559,-0.219749,-0.0636762,-0.0800782,0.0722711,0.115157,0.0764337,0.00146795,0.0555493,-0.0338398,-0.116446,0.00193265,0.243443,0.0793545,-0.193786,-0.0219221,0.0733745,-0.0217954,-0.0443911,-0.0998094,0.131822,-0.108178,0.0524858,-0.0325214,0.0825052,-0.00317432,0.185542,0.0112486,0.024477,-0.0328707,-0.0692654,0.0223461,-0.11128,-0.118274,0.05068,-0.0848841,-0.0714071,0.088235,0.0677376,0.0978357,-0.115834,-0.0983816,-0.107909,-0.0979424,-0.187645,-0.0768313,-0.0921328,0.073949,0.0274598,-0.0741036,0.0245659,0.226193,0.150369,0.0939285,-0.071775,0.0164262,0.141785,0.20824,-0.112659,-0.0295261,0.107337,0.0417954,0.113062,-0.0603333,-0.0530836,0.0768157,0.111716,-0.00309186,-0.096537,-0.0283476,0.0509819,0.0744756,-0.107205,-0.212841,0.00746551,-0.0115544,-0.120736,0.0588956,-0.0327602,-0.220226,-0.101529,0.0297175,-0.00492153,-0.0896621,-0.00474838,0.0112126,-0.081355,0.129073,-0.0184182
my 0.0530096,0.257881,-0.12655,0.0574756,-0.0204761,0.067308,-0.00867254,0.0135856,0.0393681,0.0227137,-0.135806,-0.146055,-0.214167,-0.0281603,-0.0598106,0.128495,0.095581,0.0419653,-0.0674964,0.00798147,-0.0631044,-0.167509,0.0143333,0.243116,0.113564,-0.116734,0.0114954,0.0751453,0.00425935,-0.0147933,-0.124152,0.167913,-0.0505401,-0.00931972,-0.051508,0.126649,-0.00174551,0.192612,0.0449767,-0.0164889,-0.0830196,-0.0113335,-0.00526178,-0.143018,-0.152367,-0.0260257,-0.115057,-0.0675793,0.146886,0.0555377,0.103252,-0.0794046,-0.0877763,-0.115771,-0.0417041,-0.128603,-0.0418469,-0.0326688,-0.0191717,0.00359985,-0.0917596,0.0478333,0.230752,0.121159,0.111349,-0.0852363,-0.0359734,0.103735,0.183836,-0.0475192,0.019819,0.0774616,0.0313097,0.107824,-0.0593355,-0.0342552,0.0767794,0.076094,0.046397,-0.0253406,-0.033108,0.0404722,0.0364378,-0.166338,-0.18876,-0.0351335,-0.0594792,-0.15453,0.0773228,-0.0501862,-0.225878,-0.154869,0.0593836,-0.0146351,-0.0288845,0.0124894,-0.00994263,-0.0416221,0.165657,-0.0480731
example 0.0490092,0.227964,-0.12511,0.055567,-0.000896063,0.0617994,-0.0494929,0.0493137,0.0237768,-0.0125887,-0.129277,-0.131186,-0.231919,-0.00393001,-0.0379275,0.157441,0.0995447,0.0235733,-0.0974945,0.00466531,-0.0685105,-0.180574,-0.00282705,0.232668,0.13413,-0.0996992,0.00584586,0.0526469,-0.024315,-0.0182537,-0.152555,0.206464,-0.0168297,-0.0480595,-0.0645048,0.117727,0.0214026,0.171142,0.0295024,-0.0210796,-0.123506,0.0114165,-0.0140139,-0.175215,-0.148012,-0.0829212,-0.1051,-0.0565429,0.188798,0.0653,0.115099,-0.0730565,-0.065312,-0.0879442,-0.0445941,-0.0948135,-0.0380891,-0.00377449,-0.0523868,-0.0430532,-0.111724,0.051891,0.195408,0.0895554,0.136928,-0.0870347,-0.083016,0.108391,0.177551,-0.0172125,0.0258494,0.0469305,0.0139795,0.0712407,-0.0575116,-0.0269559,0.0666621,0.0619257,0.0541845,0.0201039,-0.0355569,0.0144483,0.0179271,-0.158059,-0.160771,-0.057429,-0.101406,-0.14826,0.0468776,-0.074061,-0.209244,-0.176726,0.0262503,0.0163858,-0.0169858,0.0378249,0.00953151,-0.0157687,0.162229,-0.0618228
mindedness 0.0699243,0.258954,-0.112412,0.0546028,0.00628085,0.0690728,-0.00755524,0.0119663,0.0225727,0.0269349,-0.127793,-0.125725,-0.219072,-0.0252759,-0.0671031,0.135105,0.0939349,0.05018,-0.0712618,0.0107471,-0.0834881,-0.155638,0.000476061,0.22642,0.116562,-0.0859302,0.0163891,0.0762957,-0.000774293,-0.00109487,-0.141891,0.209427,-0.0585171,-0.0333657,-0.0775277,0.12276,0.0226388,0.168027,0.0457839,-0.0109247,-0.118822,0.00355372,0.00668865,-0.156254,-0.145909,-0.0427382,-0.123347,-0.0814495,0.151628,0.0540011,0.101866,-0.0706358,-0.0791605,-0.125763,-0.0418333,-0.14269,-0.0431888,-0.0159679,-0.0418687,-0.0310258,-0.12094,0.0375187,0.199752,0.130089,0.144044,-0.0716053,-0.054092,0.105764,0.157772,-0.0353677,0.0387359,0.0891057,0.0113482,0.105054,-0.0816662,-0.0531445,0.050522,0.0614663,0.026002,0.013626,-0.0152853,0.0212771,0.041277,-0.182374,-0.159837,-0.0599523,-0.0641396,-0.146342,0.0598186,-0.047056,-0.209307,-0.151229,0.055235,-0.00933566,-0.00410615,0.0427881,0.00499344,-0.0502298,0.18482,-0.0375337
give 0.0542919,0.244623,-0.123774,0.0543002,-0.0167229,0.0620648,-0.0173386,0.0234979,0.0298363,0.0179496,-0.141828,-0.144959,-0.215625,-0.022129,-0.0553637,0.129593,0.101862,0.0348433,-0.08482,-0.00186766,-0.0702475,-0.166833,0.00947443,0.241695,0.130104,-0.107132,0.0122956,0.0784396,0.00420358,-0.021175,-0.133748,0.182126,-0.0458628,-0.0162846,-0.0573981,0.123559,0.00530605,0.185984,0.0426177,-0.0231012,-0.0881623,-0.00158698,-0.00617638,-0.154784,-0.1491,-0.0426909,-0.109402,-0.0607006,0.164138,0.0629804,0.109243,-0.0744028,-0.0860415,-0.107578,-0.043915,-0.127411,-0.0472254,-0.0243173,-0.0383542,-0.0132607,-0.0894613,0.0434663,0.216486,0.114762,0.122837,-0.0896047,-0.0540502,0.102368,0.184125,-0.0398667,0.0181694,0.0763142,0.0251522,0.0979395,-0.062103,-0.0336959,0.0652803,0.0713973,0.0394154,-0.00896426,-0.0413503,0.0286526,0.0302634,-0.162097,-0.179641,-0.0395206,-0.0647233,-0.143059,0.0739604,-0.0643424,-0.228851,-0.163631,0.0566043,-0.00741013,-0.0160287,0.0224896,-0.00648715,-0.0423872,0.172094,-0.048694
dragons 0.00931746,0.312284,-0.131078,0.116936,0.0140541,0.0735302,0.072112,0.0245459,0.0734955,0.0254005,-0.12143,-0.084544,-0.160295,-0.0962124,-0.123766,0.120981,0.0853755,0.0741775,0.0281974,-0.00776628,0.00130156,-0.149622,0.0368817,0.217014,0.0708655,-0.166285,0.0718417,0.0306837,0.0756254,-0.001919,-0.0650178,0.123337,-0.0277219,0.0171732,0.0162729,0.074669,-0.0457383,0.166176,0.0482035,0.00295712,0.0155751,-0.100457,-0.00650572,-0.123479,-0.158436,0.0550266,-0.14986,-0.0441974,0.0721362,0.0106587,0.112568,-0.032879,-0.138152,-0.156009,-0.0874032,-0.123955,-0.0887217,-0.0642529,0.0278451,0.0796974,-0.101289,0.0223162,0.235433,0.0988814,0.0283347,-0.048984,-0.0174187,0.0849105,0.20062,-0.0448481,0.000799639,0.100891,0.0446007,0.178674,-0.007967,-0.0446302,0.0569028,0.0585967,0.0734243,-0.0183635,-0.00773655,0.0547839,0.00808498,-0.145643,-0.225261,-0.00259513,-0.0416389,-0.149314,0.111954,0.0443277,-0.193271,-0.0771136,0.0435587,-0.0751652,-0.107743,-0.0271525,-0.0294022,-0.0899011,0.145329,-0.0525478
involve 0.0757048,0.257581,-0.116224,0.0541481,-0.027365,0.0425614,-0.0427903,0.0294559,0.0122163,0.0140597,-0.146371,-0.161256,-0.226517,-0.00413544,-0.0394269,0.129425,0.111878,0.0358698,-0.0654698,-0.0149141,-0.0598486,-0.146009,0.0154027,0.225691,0.125818,-0.096955,0.00216226,0.0790408,0.00955577,-0.0205721,-0.149898,0.206611,-0.0286274,-0.0192258,-0.0421664,0.136249,-0.00270608,0.181301,0.0274468,-0.0366684,-0.0850933,-0.00416582,-0.0207884,-0.15638,-0.135667,-0.0538328,-0.119507,-0.0823769,0.150924,0.0852289,0.0924247,-0.0632747,-0.0825274,-0.0913017,-0.0269133,-0.111771,-0.0195446,-0.0140434,-0.0522204,0.00701256,-0.0864069,0.0525305,0.198915,0.107687,0.107097,-0.0784765,-0.0548354,0.0894142,0.179777,-0.0367456,0.00309643,0.0745306,0.0164052,0.0795313,-0.0468281,-0.0208998,0.0718596,0.0743312,0.0235256,-0.0256477,-0.0366211,0.0180688,0.0421108,-0.18489,-0.198011,-0.0547852,-0.0670676,-0.164348,0.0475435,-0.049117,-0.24042,-0.165961,0.0533982,-0.0161383,-0.0066999,0.0252177,0.0134311,-0.0311262,0.174811,-0.0685839
want 0.0549603,0.244901,-0.123703,0.0484209,-0.0188975,0.0622302,-0.0202096,0.0216344,0.0289427,0.0122628,-0.139232,-0.14568,-0.219612,-0.0202639,-0.0513234,0.137622,0.100926,0.035854,-0.0793323,0.00161567,-0.0645218,-0.165328,0.0080756,0.239873,0.127226,-0.107011,0.00755478,0.0758713,-0.00015551,-0.0175874,-0.128863,0.184486,-0.044331,-0.0191134,-0.0610021,0.128006,0.00785422,0.184224,0.0443775,-0.0228894,-0.0966963,0.00585742,-0.00729925,-0.153219,-0.148145,-0.0435168,-0.110386,-0.0700546,0.158276,0.0657847,0.106014,-0.081885,-0.0801337,-0.109299,-0.0342861,-0.123374,-0.0390196,-0.0301882,-0.0342532,-0.011581,-0.0937129,0.0502757,0.220045,0.107111,0.117204,-0.0886514,-0.0500454,0.0976774,0.183013,-0.0344327,0.0234705,0.0698158,0.0253586,0.101195,-0.0618471,-0.0303172,0.0681034,0.0702255,0.0434769,-0.0104281,-0.0357415,0.0286559,0.0308531,-0.166592,-0.18718,-0.0466276,-0.07371,-0.146468,0.0712664,-0.0642439,-0.228131,-0.168472,0.053151,-0.000275708,-0.0236281,0.0227458,-0.00182176,-0.0375117,0.166595,-0.0531053
