 -0.381306,0.690782,0.0061212,0.00260396,-0.000801912,0.00676807,-0.00277155,0.00941529,-0.00345279,0.013302
suspenseful 0.0663622,-0.112896,0.00891084,-0.0257331,0.0321368,-0.0402124,-0.0847475,-0.0578921,-0.00675282,-0.0118971
four 0.0925197,0.0826531,0.00782569,-0.00438313,0.0130806,-0.01427,0.00729854,-0.00498529,-0.012066,-0.0168788
asian 0.108502,0.0095097,-0.00333108,0.00868814,-0.00520199,-0.013685,0.00445095,-0.00523611,0.0169385,-0.00153088
mcgarther 0.103145,-0.0543862,0.0232753,0.0157027,0.0187103,-0.00233121,-0.0089964,0.00477989,-0.0161,0.0231265
hanging -0.0041774,-0.144564,0.0681511,-0.101794,-0.0314738,0.0459831,-0.046659,-0.105171,-0.0886097,-0.0295899
captain 0.122718,-0.0906902,-0.0084986,-0.00244098,0.00552503,0.0099634,0.00909002,0.00435386,-0.00953745,-0.00288768
hate -0.0367967,0.371004,0.0024063,0.0026376,-0.00272668,0.006194,-0.00368895,0.0088101,-0.00230351,0.00606221
poorly 0.0710032,-0.38935,0.0320258,-0.046459,-0.0156345,-0.0323469,0.0236775,0.0027481,-0.00176023,-0.0479272
stinks -1.75743,0.255549,-0.00452651,0.0150398,-0.00784877,-0.0183369,0.00461414,-0.0147912,-0.00941642,0.0127177
voted 0.0821425,0.0958563,-0.00652342,-0.00711569,-0.00832076,-0.00826943,-0.013582,-0.00391753,-0.0281514,-0.039454
trousers 0.108794,0.0123785,0.00214467,-0.00128771,-0.00596702,-0.00726112,0.00431257,-0.011798,0.00143514,0.0163109
lore -1.85137,-0.162596,0.00411242,0.00453053,-0.0103796,0.00880759,0.00552753,0.0310615,0.0147227,-0.04456
lord 0.123825,-0.172911,-0.00199417,-0.0118212,0.00548029,-0.00467937,0.0100127,-0.000162736,0.0159035,-0.000501081
sorry 0.0338095,0.102961,0.075304,-0.0146586,-0.0255732,-0.0152743,0.00265547,0.0722929,-0.0250223,-0.00770444
spec 0.106993,-0.0407748,0.0188996,-0.00413058,-0.00983375,-0.0325798,-0.0261925,0.032396,0.0136204,0.00855437
oceans 0.119133,-0.0555375,-0.00558895,-0.00243737,-0.00705471,-0.00380323,0.00198365,-0.00728224,0.00338284,0.0104397
every 0.100678,0.056819,0.000880132,0.00917935,0.000174318,0.00202198,-0.000875409,0.00475266,-0.00265888,-0.00299262
jack 0.104232,-0.0138953,-0.000694672,0.0311955,0.0130582,-0.0217048,-0.0368583,0.00815142,0.00734571,-0.000464247
bringing 0.114997,-0.0604799,-0.0113762,0.0172806,0.0189774,0.00354767,0.00729501,-0.0128612,0.00545438,-0.0107222
tickets 0.0886336,-0.00175566,0.0031252,-0.0301217,0.0071167,0.000464698,-0.00778263,0.0146255,-0.0151034,-0.00887628
school 0.0969443,0.0712942,-0.00271481,-0.00105238,-0.00416164,0.00189023,-0.00280768,0.000931126,-0.00312045,-0.00352457
publicly 0.11351,-0.110897,-0.0297054,-0.000781903,-0.0150895,-0.0243794,0.00982179,-0.0345637,-0.021597,0.00946397
clothed 0.0577491,0.166086,-0.0186531,-0.00491954,-0.012376,0.00336236,-0.00686336,-0.0120384,-0.0208733,0.00295402
undercover -0.349907,-0.597406,-0.0756626,0.0465972,0.00738325,0.0899196,-0.0721838,-0.0564676,-0.11005,-0.0287654
enjoy 0.112981,-0.00140504,-0.00261909,-0.00844084,-0.00579093,-0.00721343,0.000915747,0.00349774,0.00406288,-0.00343267
jamaica 0.1085,-0.00215491,0.0090762,0.00296741,-0.0147233,-0.00120926,0.00385543,-0.0128987,-0.00251511,-0.0169901
tired 0.0877219,0.0969985,0.00463658,-0.00983483,0.00219499,0.0127325,-0.0130717,-0.00165558,0.00919753,0.0119182
warns 0.0740867,-0.365018,-0.0148039,-0.0363848,-0.0618933,-0.0228529,-0.0141923,0.026355,0.00667245,-0.0165504
hating 0.114564,-0.113746,-0.0133454,-0.0155233,0.00576504,-0.0135024,-0.00503491,-0.00393764,0.00895451,0.00056438
feathers 0.107809,0.0204052,0.00340593,-0.000529021,-0.00293611,0.00786506,-0.00673812,-0.00442332,0.000152285,0.00976196
talks 0.120566,-0.131105,-0.00269013,-0.0189145,-0.0146453,-0.000730253,0.00578402,0.000358024,-0.0024628,-0.00867821
second 0.0998384,0.0607175,0.000246958,-0.000575678,-0.00514782,-0.00112926,0.000486914,-0.00290937,0.0016843,-0.00470784
street -0.761045,-0.74594,0.102762,0.171927,0.0128974,-0.0142469,0.00349176,0.247815,0.129477,0.150139
friendships 0.12427,-0.124356,0.00363705,0.0183979,0.0190227,-0.00974745,-0.0133958,0.00375468,0.00544943,-0.00414114
even 0.0958955,0.0774029,-0.000500585,5.57387e-05,-5.56186e-05,0.00228339,-0.00183984,0.00180202,-0.000399791,-0.000185839
hide 0.102117,0.0215256,-0.0112909,0.00159732,0.00507491,0.00211539,0.0155503,0.00862923,0.012549,0.0185218
christ 0.0994973,-0.249477,0.0286081,0.00122647,-0.0144035,-0.0302304,0.00947808,0.00637987,-0.0281888,-0.012854
musiclove -0.500827,0.631338,-0.033119,0.0115323,0.00231404,-0.013748,0.141095,0.0801516,0.0372751,0.0677849
new 0.102387,0.0516369,0.00121909,0.0019176,-0.00366081,0.00318182,0.000505624,0.00227025,-0.000367351,0.000388002
increasing 0.0785301,0.0928105,0.00186801,0.00617462,-0.0103285,0.0310698,0.0335779,0.000905809,-0.0175677,-0.0108556
ever -0.0538016,0.394725,0.00473232,0.00726226,-0.00110458,0.00523063,0.00191064,0.0101719,-0.0017469,0.013951
disney 0.0988317,0.0544457,-0.00190647,-0.00105576,-0.00570668,0.00305169,-0.00244951,0.00567423,0.000314417,0.00186674
told 0.118173,-0.0390476,-0.00432706,-0.00656315,0.0027511,-0.00223972,-0.00350094,-0.0100485,0.00677375,-0.00258422
deemed 0.0874815,0.0357553,-0.0179122,-0.0137592,0.0387113,-0.0234986,0.00766626,-0.00335512,-0.0169967,0.00971849
kicked 0.108293,-0.141512,-0.0230059,0.000274806,0.00417713,-0.0168567,0.0324096,-0.0140645,0.00878851,0.0127272
viewings 0.084286,0.0720623,-0.00870883,-0.0214805,-0.0108757,-0.00374994,0.00294147,0.0187489,-0.00854434,0.00602033
men 0.115646,-0.0157066,-0.000608095,0.00998531,0.00275079,-0.00305091,-0.00298772,0.00153749,-0.000465941,-0.00151621
here 0.111343,0.00901888,-0.00480026,0.00812822,-0.00417799,-0.00266882,0.00654241,-0.0031768,0.000211178,-0.00311962
nanny -0.0922148,0.400469,0.00955895,-0.0500008,-0.0380945,-0.0148291,0.0113472,0.0385654,0.0229352,0.0193057
dork -0.644802,0.634359,0.0227524,0.0605539,-0.0484788,-0.0172953,0.0904419,-0.0157891,-0.0454883,-0.0747433
kids 0.118801,-0.0429316,-0.0018186,-0.000195278,-0.00896825,0.00365217,0.00828806,0.000483317,0.000712886,0.001872
study 0.101988,-0.00734092,0.022584,0.00429581,0.0121356,-0.0195096,0.0070035,-0.0119709,0.0109328,-0.00411809
changed -0.301848,-0.483508,-0.176974,-0.177631,0.149847,0.267947,0.0664839,0.0560247,-0.151613,-0.0823067
controversy 0.0993802,0.0529192,-0.0149425,-0.00491216,0.00892659,-0.000152625,-0.00432408,-0.00411634,0.00854001,-0.00120832
jame -1.83007,-0.280995,0.0434248,-0.00482937,-0.00703953,-0.0235252,0.0472393,0.015506,-0.00264886,-0.0176194
hogwarts 0.110926,-0.0450604,-0.0204486,0.0296823,0.00301408,-0.00777254,-0.00259975,-0.01366,-0.0218267,-0.00727195
aka 0.0855071,0.108188,-0.0108181,0.00150841,-0.0016718,0.0054533,-0.0012849,0.00102557,0.00442417,-0.00865601
otters 0.0838518,0.0840591,-0.00487373,-0.00140957,0.0115166,-0.0136265,-0.00325799,0.00866074,0.00601821,0.026255
changes 0.0888766,-0.172591,0.00948749,-0.0239848,-0.0193203,-0.0129343,0.0476025,0.0166233,-0.00338324,-0.035356
campaign 0.0934897,0.0629473,0.00914185,0.00348177,-0.0140053,0.00824617,-0.00892784,-0.00290917,-0.0162521,0.00448884
blashpemies 0.124361,-0.118201,-0.0218358,0.00467005,-0.00590381,-0.000304878,-0.00809294,-0.000561591,-0.0101023,-0.00267101
julia 0.111416,-0.134454,0.0220209,-0.0120882,-0.00417758,-0.045865,-0.0100153,0.00111077,-0.0146707,-0.00862662
highly 0.108926,-0.137128,-0.00571975,0.0186238,0.00716736,-0.0215372,0.000388985,-0.00619814,0.00170348,0.010288
total 0.11641,-0.0317674,0.0141184,0.000637959,0.00375979,-0.00390872,-0.00626877,0.00251007,0.000189926,-0.00303277
plot 0.083943,0.0974892,-0.00400381,-0.00922889,-0.00411409,-0.00593644,0.00430327,-0.00339037,-0.0199107,0.00406604
spoke 0.112643,-0.183141,0.0282327,-0.0157935,-0.0173942,0.0231337,0.0121399,0.0293513,0.0256479,-0.0239137
would 0.0990959,0.065213,0.00121025,-0.000414942,-0.00106381,0.000889851,0.00299517,0.000468626,-0.00205955,-0.000633442
geisha -0.073372,-0.0534887,-0.00190464,0.0603439,-0.00755062,0.102252,0.0511766,0.0907038,0.0606655,-0.0379709
music 0.111633,-0.0185051,0.0176029,-0.0115453,0.0012616,-0.00598707,0.00324254,0.0118208,0.0197049,-0.0110647
type 0.0816874,0.0488149,-0.0157698,-0.0156581,0.0275423,-0.0355012,-0.00637409,-0.0109508,0.0174652,-0.0121255
until 0.0920884,0.082504,0.00591865,0.0101042,-0.00725029,-0.000215439,-0.00907294,0.00693473,-0.00698499,0.00941298
oscar 0.113776,-0.00731731,0.00763034,-0.000195798,0.0023364,-0.000413454,0.0045112,-0.00587975,-0.000927161,-0.000756843
yahoo 0.112125,-0.0224562,-0.000714608,-0.00833905,0.0242935,-0.00556147,-0.0220541,-0.0143095,-0.0102886,-0.00553226
award 0.111814,-0.03449,0.0260551,-0.00292323,0.000251458,-0.00311399,-0.0191157,-0.0157029,-0.00239495,-0.015846
phone 0.09763,0.0624704,-0.0144777,-0.00731356,-0.000356361,-0.00451722,-0.00232482,0.0109944,0.00569087,-0.00789279
adult 0.0874746,0.087158,-0.0118068,0.00824928,0.0198649,0.00913294,-0.00682275,0.010209,-0.00650553,-0.0209787
excellent -1.02088,0.791695,0.00118044,0.00558502,0.0105142,0.0130417,6.18175e-05,-0.00808478,-0.0140785,0.00570908
hold 0.0906569,0.0734256,0.00540831,0.00088864,-0.00154368,0.0100518,0.0100124,-0.00183701,-0.0185502,0.00281298
must 0.111592,0.00419917,-0.00667438,-0.00459882,-0.00502711,0.00126951,0.00855471,0.00357273,0.00259528,-0.000574142
me 0.0944802,0.0830279,0.00022645,0.000313045,0.000892107,0.00244002,-0.000152379,0.00153286,-0.0013499,0.00139249
enjoying -0.752882,-0.50626,0.179775,0.569525,-0.265991,0.14282,0.000360955,-0.0563112,0.0159388,0.0679016
word 0.111202,-0.00415412,-0.00137443,0.0044987,-0.00244986,0.00293692,0.00268683,0.0116045,0.00107749,0.00726782
room 0.115768,-0.0531958,-0.0102769,0.00221353,-0.0029971,0.011578,0.00256955,0.00104962,0.0146821,-0.0172724
work 0.0553057,-0.120232,-0.0466324,0.0739093,0.00183295,0.0240373,0.0301344,0.0167245,-0.0470026,-0.0319088
mi 0.105701,0.0294366,-0.00559905,-0.0039134,-0.000572149,-0.0105438,-0.00743292,0.0118228,-0.00772979,0.00994742
worth 0.0522491,0.191319,-0.0102221,-0.00226774,-0.0078782,0.0049759,-0.00615833,0.0126791,-0.00171539,0.0358662
movies 0.0530615,0.203365,-0.00150442,0.00128119,0.00136617,0.00241939,-0.000196825,0.00163374,0.00207169,0.00293397
erm -0.0580404,0.31607,0.00479815,0.019195,-0.00101958,-0.00611547,-0.0227126,0.0360162,0.0259341,-0.0139751
my 0.0904257,0.0974784,7.06688e-06,0.00195519,-0.000660711,0.000255457,0.00045429,0.000759651,-0.00142291,-0.000289436
example 0.124037,-0.142905,0.00481155,-0.00639501,-0.00543076,0.00488632,0.0125536,0.0128194,-0.00455013,-0.0132918
mindedness 0.101966,0.00504626,-0.00898241,0.00675387,0.004187,-0.0114003,-0.0181826,0.0222964,-0.0324001,-0.00991553
give 0.106985,0.0280188,-6.79349e-05,0.00186172,0.000584169,0.0089202,-0.00494084,0.011315,0.000173767,-0.00116531
dragons -0.082849,0.356527,0.0501913,-0.0248659,0.0239821,0.0178983,-0.00533521,-0.00306153,0.012892,0.03101
involve 0.106072,-0.00139736,0.00150499,0.0320679,0.00965003,-8.05361e-05,-0.016506,-0.0195797,-0.00376716,-0.0244458
want 0.109467,0.0187685,-0.00125903,-1.63733e-05,0.000135881,-0.00134858,0.00143402,-0.00236628,0.00171687,-0.00181705
times 0.0989215,0.0640523,0.0078104,0.000763307,0.00183897,0.00226945,0.004394,0.00364876,-0.001646,0.00135227
absolute 0.0838047,0.103425,-4.40949e-05,-0.00352326,0.00132553,0.00925595,-0.00495439,0.0216891,0.0057625,0.00926828
end 0.0921278,0.081536,0.00593926,0.000507831,0.00879917,-0.00333895,0.00204885,0.0015566,0.00479482,-0.00583846
turn 0.0991572,-0.0569416,0.0305406,0.0043854,0.00653969,-0.0074675,-0.0166375,0.00240866,0.00550774,-0.00373476
travel -0.415606,-0.551149,0.156239,-0.107545,-0.033272,-0.273056,-0.0513438,-0.0061197,0.184406,-0.046205
song 0.104213,-0.353405,-0.0212055,-0.0287707,-0.0356319,-0.00221004,-0.0245772,-0.017591,0.00685009,-0.0172505
machine 0.115123,-0.158008,-0.0393089,-0.00515313,0.0129133,0.0108253,-0.0042562,0.00311454,0.00337113,-0.00141756
how 0.0750102,0.145541,-0.00129097,-0.00113052,-0.000485466,0.00419817,-0.000701398,0.00461029,-0.00218465,0.00197477
amazing 0.0517057,0.20365,-0.00258667,0.0015935,0.00724162,0.00188065,-0.0110397,-0.00188245,-0.00932381,-0.00198585
writers 0.0905397,-0.078813,0.0365061,0.0495715,0.00847946,-0.000392698,-0.0136125,0.0511506,-0.00755582,-0.00952573
aching 0.118482,-0.0651761,0.00210518,-0.00313595,0.013089,-0.0155112,0.00590922,-0.0129627,-0.00320562,-0.00724068
interview 0.0942819,0.0455783,-0.0197406,-0.0105279,0.0157219,-0.00344447,0.00866888,0.00564665,0.00872413,0.0276435
blanks -0.318935,0.365225,0.0127484,-0.0550021,-0.0429033,0.099536,0.163049,-0.000152126,-0.150798,-0.096601
bday 0.109562,-0.203897,-6.91488e-05,-0.04707,-0.00998892,-0.0112767,0.0181072,-0.0194145,0.00986602,0.0213753
after 0.110448,0.0159441,-0.000244797,4.60891e-05,0.00149421,-0.00036278,-0.000268294,0.000307228,-5.36568e-05,-0.00011614
possum -0.842467,0.723709,-0.0017245,0.0202267,-0.0268081,0.0226531,0.0369891,-0.102862,-0.0818866,0.0438201
wrong 0.122852,-0.0849288,-0.00119421,0.0227754,0.00109801,-0.010237,-0.00390863,-0.00928089,-0.00354852,-0.00699642
suing 0.0719958,-0.268483,-0.00935596,-0.0344488,0.0101857,0.0218723,0.0470367,-0.0367035,0.0568811,-0.0194893
attempt 0.124585,-0.150315,-0.00646472,-0.00869748,-0.0129293,-0.0114416,-0.0157539,-0.00332978,-0.0199204,0.00687898
third -0.952923,0.39403,0.214212,-0.0396763,0.100072,-0.207852,-0.216268,0.12098,-0.00379294,-0.288388
wins 0.113691,-0.0778759,-0.00389316,0.0149704,0.00488309,-0.0231672,-0.0127426,0.0340494,-0.00299364,0.0128607
ossana 0.12022,-0.0810526,-0.0114184,0.00805494,-0.00896935,0.0188571,0.0162397,-0.0198893,0.00665306,-0.00769524
motherfuckers 0.100348,0.012613,0.00967172,-0.0137086,0.00389503,0.0151093,-0.0141592,0.0230065,-0.0266413,-0.00213907
funniest -0.151923,0.436165,-0.0361144,0.0674892,0.0166968,-0.00267182,0.0304262,-0.0244109,0.0946995,-0.0286318
ultimate 0.0946801,0.0469683,-0.0218569,0.0130432,-0.00113624,0.00925469,0.00771729,0.0244664,-0.0179077,-0.00365894
worst 0.121141,-0.120695,-0.00537232,-0.0118509,-0.0137716,-0.00985952,-0.023573,0.0262991,-0.00971795,0.00694954
backdrop 0.0116933,-0.326052,0.0166306,-0.0138737,0.028771,0.0990458,0.0335119,-0.036434,0.109062,0.0615797
executed 0.114628,-0.0288985,0.00829344,-0.00523488,-0.00951842,0.00723859,-0.0124529,-0.000644126,-0.00453753,0.0127945
office 0.122176,-0.190699,-0.00656012,-0.00865608,-0.00937191,-0.000996476,0.0018056,-0.00444015,0.0107696,-0.0303826
over 0.108192,0.0263479,0.0014021,0.000783216,-0.00152407,-0.00256088,0.00056052,-6.06026e-05,0.000287835,-0.00122512
zen 0.11771,-0.0896975,-0.00822402,-0.0216382,0.00300544,0.00105178,-0.00515094,0.0258399,-0.000336383,-0.0148573
vito 0.0742789,0.127181,-0.00327698,-0.0101787,-0.0149797,-0.0100144,-0.0097772,-0.00549585,-0.00688769,-0.0196344
frakking -0.147908,-0.512217,0.129268,-0.0829896,-0.148713,0.0386621,-0.132166,0.0121592,0.0813742,0.0541029
thesis 0.0975524,0.0556093,-0.0119327,-0.00580013,-0.00427355,-0.00592939,-0.00497669,-0.00949887,-0.00905391,-0.0147099
before 0.112417,0.00548501,-0.00221106,0.00485545,-0.000405534,0.00333497,-0.00351762,-0.00187537,-0.00116604,-0.00180245
fit 0.0995106,-0.022993,-0.0166686,0.0421391,0.0337824,-0.0188311,-0.0166207,-0.0178935,0.0228127,-0.0184633
fix 0.047152,-0.0529382,-0.00540809,-0.00229746,-0.00741778,-0.0112275,-0.0489981,-0.0114297,-0.0167893,-0.0324335
writing 0.121034,-0.101207,0.0108219,-0.00328169,-0.00321066,-0.0118358,-0.0110148,-0.0173748,0.0126045,0.00153693
better 0.107636,0.027853,0.000523131,-0.000266509,-0.00298625,0.00208534,0.00118497,0.00521316,0.00179545,-0.00198162
fic 0.11063,0.00572846,0.00233129,0.00362302,0.000985596,0.00219879,0.000606372,-0.00837653,0.00633157,-0.0049501
differently -0.166363,0.422498,-0.127049,0.00204863,-0.121015,0.0271558,-0.0141945,-0.05616,0.0125839,0.0381028
fade 0.0273003,-0.133206,0.0174776,0.0244884,0.0381826,-0.0850857,0.00879491,-0.0169173,0.044015,-0.112336
then 0.0948347,0.0812072,0.000817719,-0.00197561,-0.000820193,0.00293982,0.00075081,0.00296637,-0.000111216,0.00164454
them 0.117341,-0.0264004,0.00267389,0.00200672,-0.000532822,-2.92258e-05,0.00171914,-0.00540945,-0.000600603,-0.00200096
pegg 0.0675277,0.104949,0.0219196,0.0141965,0.0199003,0.0269997,-0.0223898,0.00538775,-0.00452192,-0.0220267
roommate 0.0950231,0.0626879,-0.00155969,0.0171117,-0.0212575,-0.000726348,-0.00762481,0.0102551,-0.00505965,0.00898307
shameful 0.0626572,-0.196825,0.0562961,-0.0087876,-0.00287474,-0.0394509,0.0258213,-0.00361869,-0.0453657,0.0279432
they 0.0900607,0.0985066,0.00294011,0.00148538,-0.00224174,0.00231417,-0.000601347,0.00228486,-0.00172259,0.000890642
schools -0.848572,-0.951356,0.0301647,-0.0505013,-0.00892317,0.0804063,0.0568272,0.133336,0.0972889,0.00146318
silver 0.100208,0.0554368,-0.00199383,0.00302996,-0.000528407,-0.000197212,-0.00127704,-0.00526438,0.000664501,-0.00556767
meat 0.0889555,0.0880529,0.0148789,0.00618301,0.00284063,0.00905086,-0.00296958,-0.00162022,-0.0137909,0.00908288
rocks -1.85288,-0.0567464,0.0223866,0.0262852,-0.00541556,-0.0142575,-0.00766698,-0.019961,0.0456944,-0.0030177
acoustic 0.110359,-0.0537665,-0.00187579,0.0447883,0.00627875,0.0138726,0.0421415,0.0261334,-0.0116362,-0.00115916
went 0.110135,0.0168583,0.00502186,-9.7018e-05,-0.000800381,-0.00147454,0.00136195,0.000221231,0.0008925,-0.000849896
side -1.23897,0.705819,0.0471718,0.00507104,0.0114975,-0.0233757,-0.0171148,0.0590876,0.0107277,-0.0388297
luck 0.110918,0.00539754,0.00015586,0.00560417,0.00384916,-0.004815,0.00641953,0.00210781,-0.0023413,0.00979994
independent 0.101074,0.0315629,-0.00524823,0.00621222,0.00876046,0.00771261,-0.0267491,-0.00597485,0.000741025,0.00457204
diana 0.122896,-0.092757,0.0030458,-0.00208891,0.0121865,-0.0140537,-0.0024188,0.00293012,-0.00217192,0.0158146
series 0.12137,-0.0523389,-0.00390675,-0.00593999,-0.00474278,0.00255755,-0.00375423,-0.000749763,-0.00045686,-0.00219567
group 0.0831542,0.106088,0.00461764,0.00920176,0.00412758,0.0028268,0.0146821,0.00130128,0.00534316,-0.0141294
literature -0.419331,0.451394,-0.00365262,0.105854,0.0796335,0.021679,0.0170893,-0.042045,0.264954,-0.118865
combining 0.114936,-0.0469963,0.00229748,-0.0123488,0.0183247,0.00391152,-0.000644192,-0.0134669,-0.00709062,0.00367464
saturday -0.0108042,0.296292,0.0124401,-0.0219057,0.0207472,0.00408777,-0.0128779,0.00242315,0.0236006,-0.000818737
rv -0.122458,-0.0327791,0.0580271,0.0297905,-0.032061,0.094106,-0.00474492,-0.0241246,-0.116755,-0.0478329
god 0.100975,0.0559514,0.00577196,0.000810005,-0.00233625,0.00203971,0.00233172,3.62243e-05,0.005214,0.00104077
re 0.104111,0.0402094,0.000847663,-0.00582714,-0.00270807,0.00580457,-0.00280725,0.00657533,-0.00161525,0.00138852
encourage 0.0310244,0.110311,0.0624102,-0.0532859,0.000480966,-0.0648294,-0.0019573,0.0749124,-0.050647,-0.00969956
daniel 0.113652,-0.0083783,-0.000723946,0.000152945,0.00487088,-0.000215293,0.00110603,0.000615931,-0.0030191,0.000588924
reader -1.59596,0.337798,0.0347046,0.0259874,0.000127196,0.0352427,-0.0855518,-0.00842568,0.0342949,-0.0082485
got 0.0989428,0.0652349,-0.000478551,0.00469792,-0.000436686,0.00327084,0.000427197,-0.000679319,-0.00501617,-0.0012896
quaintly 0.117315,-0.0406908,-0.00510289,-0.00767859,0.00925754,0.000670413,-0.00206691,-0.00294771,-0.00277256,0.00607288
tautou -1.4309,0.0562843,-0.272879,0.229167,0.0721338,0.210911,-0.20766,0.0553327,0.030112,0.179423
given 0.10278,0.0391327,-0.00256348,0.0022067,0.00836176,-0.00846144,-0.0142692,0.00124102,-0.00173339,-0.00139864
free 0.118314,-0.150079,-0.000453916,-0.00250631,0.00559223,-0.0130793,-0.00557819,-0.0173122,-0.00710414,0.0183601
wanted 0.0798215,-0.0962567,0.00829165,-0.00925228,0.0206843,-0.0118917,-0.0476179,0.013521,-0.00746829,0.00766649
ate 0.0926492,-0.210428,-0.0220318,-0.00897243,0.00681957,-0.00268655,0.0162625,-0.032454,0.0523319,-0.0261341
created 0.113505,-0.00730133,0.00478704,0.0017427,0.00111159,0.000287443,-0.00217154,0.00148999,-0.00550159,-0.00603204
days 0.0890736,0.0974487,0.00201326,0.00168122,-0.00104787,-0.00197196,0.00410416,0.00444017,-3.9299e-05,-0.00239298
lousy -0.308092,0.522053,-0.0126188,0.0497846,-0.0333568,-0.0178465,0.0541459,-0.103282,-0.0672634,-0.0628118
isn 0.0786885,0.0411107,-0.00822331,-0.00847386,0.00561571,0.0240224,0.00515026,-0.00450792,-0.0362896,-0.022356
ism 0.0954836,-0.203163,0.0391821,-0.0104005,-0.02399,-0.0278487,0.0206502,-0.0517731,0.00984327,0.0254961
moving 0.060546,0.0947268,0.0111618,-0.00879178,-0.0239525,0.0162629,-0.0531472,-0.00273923,-0.0183939,0.0295836
onto 0.0789219,-0.204453,-0.0158788,0.0327561,0.0393878,-0.041748,-0.0148831,0.00932717,0.0627817,-0.0243879
already 0.076385,0.120247,-0.0020387,-0.0055229,-0.00389605,-0.0072282,-0.0137802,0.000397329,0.00337305,-0.00568139
fantasy 0.10284,0.018616,-0.00875105,0.012675,0.00962901,0.00868009,0.00615192,0.00445918,-0.0107162,-0.037565
featured 0.102171,-0.0166652,0.00203133,-0.0105423,-0.0111991,0.00879285,0.00298631,-0.000815528,-0.00636736,-0.0144207
delicious 0.0663235,-0.195658,-0.0639954,0.00440103,-0.023068,-0.0628931,0.0626206,0.0216715,0.00297389,-0.0628079
wasn 0.123924,-0.0924996,0.00665595,0.0100944,-0.00789255,-0.000718662,-0.00742231,-0.00716401,0.0126938,-0.00111619
immensely 0.0867644,0.0763252,-0.0112172,0.0134928,-0.0090985,0.00230815,0.0137655,0.0113346,-0.0179348,0.00420834
patirot 0.0858243,0.0959161,0.0135725,0.0173778,-0.00830117,0.0103007,-0.00275007,-0.019804,0.000586687,-0.011409
afterschool 0.100569,-0.0582734,-0.0286997,0.0111239,0.0087776,-0.00392282,0.0146269,0.00151169,0.0068464,0.0526159
top 0.050525,-0.32011,0.0343644,0.0204613,0.0589377,-0.0551205,0.0209731,0.0323903,0.0617455,0.0396636
girls 0.109286,-0.0943484,0.00192002,0.00608572,-0.00881492,-0.00643811,0.040578,0.0334895,0.00935021,-0.00724155
master 0.113141,-0.0730464,-0.0247396,0.0111853,-0.0154175,-0.00762731,-0.00360873,0.00401994,-0.0288098,-0.00514454
too 0.00589104,0.300841,0.00189625,0.00150361,0.00406627,0.00574744,0.00512017,0.00573035,-0.00263308,0.00605608
tom 0.0941158,0.0844373,0.000428206,0.00123024,-0.000309872,0.00533165,-0.000987366,-0.00164604,-0.000279186,-0.00400561
hollywood 0.111326,0.00853123,0.00496447,-0.0057858,0.00503577,0.000226298,-0.00183159,0.00307243,-0.000583055,-0.00261365
john 0.120546,-0.0774905,-0.00998256,-0.012434,0.00115898,-0.00319989,-0.000165601,-0.020301,0.0172932,0.0144336
bitter 0.110573,-0.0537673,-0.0168994,0.0066577,0.00426563,-0.0198314,-0.00362921,0.00744012,0.0207043,0.00408564
gym -0.823295,-0.630916,0.16432,-0.15361,-0.0414742,0.018656,0.185091,0.0367961,-0.27714,0.0582928
took 0.0746906,0.103151,0.0261451,0.0067872,-0.0171067,0.0156366,0.0241383,0.0208696,-0.031609,-0.0166193
predictable 0.0753604,-0.0799715,0.00246454,0.0305929,0.0172899,-0.00809885,0.0438429,-0.021086,0.0184427,0.0147628
ew -0.359395,-0.71204,-0.22311,-0.0282313,-0.22887,0.00170197,-0.0389767,0.0935651,0.191418,-0.139762
scenes -0.00192054,-0.343824,0.0267062,-0.0225089,0.0411244,0.0145539,0.0633755,-0.0510774,-0.0573982,-0.000490816
project -1.44787,0.122734,-0.188134,0.177995,-0.0150612,-0.257833,0.0603876,0.222047,-0.0636807,-0.0494598
matter 0.0955547,-0.254793,-0.0101543,-0.0145043,-0.0436457,-0.000742713,0.00522629,-0.0115674,-0.00762605,0.0321268
classes 0.106063,0.0270347,-0.00661358,0.00482028,0.00521745,-0.000116122,0.00493567,0.00148488,-0.00334481,-0.00697245
silly 0.0944219,-0.272108,-0.0108841,0.0301486,-0.00158951,-0.00218267,-0.00110016,0.00484892,0.0322731,-0.0243064
speaking 0.0946746,0.0744121,0.0059139,0.0158705,0.00209452,-0.0112089,0.00785505,0.0036836,-0.00385274,0.00801971
knights 0.0891285,0.0908361,0.011391,-0.00612411,0.00588371,0.000437845,0.0009067,0.0138483,0.00419814,0.0056323
feeling 0.1193,-0.10031,0.00378693,0.009184,0.0163883,0.00688931,-0.00972861,0.0050851,0.00968503,-0.0143166
donkey 0.122379,-0.103575,-0.00438336,-0.00443493,-0.00406709,-0.0165034,-0.00215062,-0.00205594,-0.0175978,0.0121188
groaning 0.123283,-0.0951472,-0.0029933,-0.00316445,-0.0131281,-0.00624215,0.0102748,0.00178003,0.00937254,-0.00972375
mind -1.79694,0.119085,0.0281819,-0.0280763,0.0121772,0.00514995,-0.00820898,0.00204113,-0.0376814,-0.0149121
fandom 0.0531004,0.180639,0.0109145,0.0335242,-0.0138226,-0.0016873,6.0712e-05,-0.00799406,-0.0405358,-0.00121448
talking 0.103358,0.0451655,-0.0032468,0.00127938,0.00143234,0.000718787,-0.00595662,-0.00155102,-0.00151008,-0.00171265
seen 0.0645392,0.172765,-0.00244951,-0.00291303,0.00289958,0.00539509,-0.00623328,-0.00108251,0.00346976,0.00372781
seem 0.0487291,0.153548,0.0216166,0.00626215,-0.00676192,-0.0263372,0.0246008,-0.0318206,0.00713238,0.00550553
tells 0.0986364,-0.102993,0.0166302,0.0292294,-0.00454818,-0.0155271,0.00907314,-0.0102877,-0.0136619,0.0328862
wholesome 0.10428,-0.0855428,0.0188773,-0.00850333,-0.0366667,-0.0405594,0.0129395,0.00779632,0.0153167,-0.0241788
allegedly 0.117128,-0.0754826,-0.00343888,-0.0128546,-0.0113248,-0.00693903,0.00112145,0.00105742,-0.00985465,-0.016569
subjects 0.103097,-0.128233,0.019278,-0.0326257,-0.000256077,0.0497665,-0.0174614,-0.0105877,0.0119307,-0.0181308
derek 0.0523359,0.118295,-0.0037671,-0.00758248,0.0114315,-0.0026742,-0.00728787,-0.0289655,-0.0195895,-0.00171138
doors 0.121464,-0.0871855,-0.00281277,-0.000501295,-0.0131374,0.000909341,0.0117834,0.0100542,0.00449969,0.00889779
laughed 0.0914851,-0.255565,0.0219485,-0.0164858,0.00530857,-0.00304329,0.0222699,0.0423089,0.0095809,-0.00113135
panties 0.0853848,0.0377758,-0.0156691,-0.00559469,-0.0129283,-0.00717942,0.0187612,0.0226862,-0.0153743,0.00246121
rides 0.0586017,-0.0650075,0.0489216,0.0885182,-0.0585191,-0.0864775,-0.000266684,0.0153479,-0.0176373,-0.0113859
though 0.050275,0.20977,0.0018152,-0.00142106,0.00342217,0.000482782,-0.000982839,0.00325567,-0.00572265,0.00564766
tye 0.121154,-0.244626,0.00325387,-0.0154807,0.00492896,0.0118978,-0.0265797,0.00153934,-0.0077366,-0.004722
what 0.100749,0.0588889,-0.00126244,0.00160761,0.000362901,0.00149793,0.00140278,0.000554558,-0.00124201,-9.80683e-05
involving 0.0570803,-0.0211989,-0.0307195,-0.0273802,0.0398382,-0.0344878,0.0227267,0.0262386,0.0058494,0.0328209
mouth 0.0560801,0.182839,0.0159214,-0.00669891,0.00118731,0.012695,-0.0101653,-0.0122239,3.35369e-06,0.00827558
letter 0.0870147,0.0642957,-0.0102111,-0.00606199,-0.00623541,0.0214408,6.40773e-05,0.0133003,-0.00603336,-0.00331084
phase -0.381985,-0.131761,-0.207321,-0.0654192,0.303889,0.0196438,-0.140301,-0.0838709,0.224453,0.220905
thriller 0.00265464,0.211132,0.017059,-0.0122576,-0.0177359,0.0133295,0.0257292,-0.0188448,-0.0263619,0.0254285
don 0.112074,0.00661008,0.00119431,0.000801779,0.000453595,0.000464306,0.000433281,-0.00228025,-0.00123873,-0.000980317
consumed 0.0849672,0.105587,-0.00767604,-0.00258516,-0.000729865,0.0208644,-0.00912116,-0.00334522,0.00109892,0.00259297
camp 0.0905379,-0.0403733,-0.000792926,-0.0593369,-0.0480702,-0.0236691,-0.0402817,0.00958533,-0.0147547,-0.0231758
ridiculous 0.0427528,-0.0540109,0.00643283,-0.0504108,0.0319717,-0.07538,-0.01489,0.0144159,0.00884095,0.02648
left 0.0763657,0.14045,-0.000173576,-0.00031808,-0.00156974,0.00395199,-0.0024738,0.0017302,-0.00118238,0.00485766
sum 0.106876,0.0212744,0.0105341,0.000971134,-0.0107113,0.00217622,-0.00377026,-0.0037854,0.000118864,-0.00684287
came 0.106538,-0.0675157,0.0120017,0.0227197,0.0175902,0.000775915,-0.0278655,0.0304944,0.0244253,-0.0132499
marvel 0.106798,-0.000363339,0.00466188,0.00628726,0.00624837,0.00267681,0.00486443,0.00757559,0.0274485,0.00892227
saying 0.106785,0.0314183,-0.00112962,-0.00225645,-0.0013061,-0.0025848,-0.00378862,0.00194031,0.000256948,-0.00117358
random 0.099494,0.0237556,-0.00886411,0.00630611,0.00788201,-0.0103463,-0.00175164,0.00954699,0.0210159,-0.00988237
ending 0.123938,-0.182638,-0.00722237,0.00648988,-0.00584606,0.00704604,0.0181151,0.00191359,0.0117137,0.00334943
rife 0.115029,-0.236803,-0.0039092,0.00620805,-0.00869892,0.00365877,-0.00683166,0.00533836,-0.00930046,-0.0143096
queer -0.0552776,0.369542,0.0122074,0.0036612,0.0120587,0.0135762,-0.0109175,-0.00930578,0.0183766,-0.0304467
enjoyed 0.0997855,0.0601942,0.00516612,-0.00137141,0.00139158,0.00761999,-0.00180962,0.00230314,-0.00981517,0.000275863
spite 0.0673003,-0.0810506,0.0328884,-0.0297486,-0.0196243,-0.0202646,-0.0245275,-0.0535797,0.0902103,0.0168389
acne 0.0798033,0.0257706,-0.00732898,-0.0170727,0.0129172,-0.00450985,0.0312659,-0.0192705,0.00585648,0.0241185
theme -0.293549,0.506066,-0.0302172,0.0327408,-0.0506231,-0.0507465,-0.0638372,-0.0326477,-0.0407761,-0.0564809
screening 0.102765,-0.165891,-0.00458291,0.0672354,0.0204166,0.0050413,-0.0205723,-0.0036786,-0.00377661,0.0357381
rice 0.10571,0.0142126,0.00498594,-0.0291487,-0.0128119,-0.00243365,-0.00734329,0.00896428,-0.00089638,-0.00639922
do 0.112102,0.00535241,-0.00179534,-0.00406511,-0.000375017,0.000353541,0.0033896,0.000817751,-0.000750935,0.000131368
kaka -1.21726,-0.682246,0.04441,0.267109,-0.00234254,0.041011,-0.0705354,-0.048384,-0.110805,-0.292955
watch 0.114123,-0.006974,0.00139886,0.000960914,0.000438194,0.0015386,0.00710352,0.000788348,0.00265612,-0.00326367
television 0.102354,-0.224064,0.0292076,-0.0317642,0.0120315,-0.0474541,0.0168843,-0.0168736,-0.00179894,0.0275771
da -0.0242793,0.344854,0.019593,-0.00352668,0.00602346,-0.011778,-0.008086,0.036628,0.00151284,0.00683693
geek 0.0754004,-0.00392864,0.0106747,-0.0129285,-0.0170766,0.0631254,-0.00789488,0.041543,0.0201197,0.00990602
watson 0.117093,-0.0319972,-0.00539992,0.00456019,0.000751375,-0.00472207,0.00522445,0.00837335,-0.000597041,-0.00166635
haunted 0.0132921,-0.264219,-0.0216738,-0.0706197,0.0086422,-0.0513846,-0.0374289,-0.0101353,0.0956858,0.00674179
runs 0.0930462,0.0539227,-0.00941076,0.01654,-0.0239237,0.00920107,-0.00857698,-0.0020649,0.00343577,-0.0140113
chronological 0.0900248,0.0736292,0.0157467,0.00314903,-0.00858521,0.00897907,-0.0086677,0.0229459,-0.00432153,-0.0103581
nicely 0.117648,-0.10984,-0.00977556,0.0203129,0.0087958,-0.0216851,0.00959824,0.00398756,-0.0106953,0.00740605
officially 0.125992,-0.11649,-0.00731396,0.0034239,-0.00396804,-0.00346736,-0.00407663,0.00248609,0.00109645,-0.0067997
emo 0.084573,0.0867822,-0.00878519,0.00970269,0.00206803,-0.00410201,0.00140554,-0.00221751,0.0152938,-0.00429617
twice -0.108584,0.319138,0.00245119,-0.0158883,0.0092731,0.0152213,-0.0378486,-0.0161381,-0.038872,-0.042426
bad 0.0812384,0.125076,-0.000823204,-0.00682094,0.00699367,0.000371552,0.00218904,0.00252054,0.00377844,0.00447296
ban 0.0889793,0.0992486,0.00443617,0.00602727,-0.00457736,0.00704398,-0.000882426,0.00345775,-0.00369309,0.00365913
wiccans 0.0976419,0.0507373,-0.0184773,-0.0200674,-0.0149158,-0.0129806,-0.00913965,-0.00436844,0.0139586,0.00294295
decides 0.0889666,0.0887178,-0.00185157,0.000200851,-0.00827824,-0.00257217,-0.00355039,0.00126996,-0.0145932,-1.07551e-05
reference -0.310761,0.532531,-0.00397097,-0.0886793,-0.0291718,0.0280547,-0.0538593,-0.0546357,-0.017465,0.0272535
decided 0.120898,-0.0611987,-0.00156646,0.00580546,-0.001319,0.0125955,0.00177519,0.00739299,-0.0038924,0.00373694
hero -1.53057,-0.761298,0.0307063,0.0880018,-0.0290284,-0.0579621,-0.0218264,0.0234544,-0.0334878,-0.0417656
best 0.101997,0.052827,-0.00116321,0.00516275,-0.00303576,0.00249897,-0.00243149,-0.0009412,0.00332302,0.00118105
said 0.103021,0.0484399,-0.00472806,0.00251197,0.00195967,6.03972e-05,-0.00245797,-0.00170195,0.000852579,0.00144656
inappropriate 0.120946,-0.241758,-0.0188899,0.00159812,0.00164098,-0.00997172,-0.0230046,-0.00738063,-0.00878557,0.00664739
lotr 0.0885983,0.0949138,-0.00827563,-0.00385764,-0.00228195,-0.00408004,0.00576456,-0.00564883,-0.005959,0.0182089
away 0.0699299,0.137069,-0.0179603,-0.00569938,-0.00101587,-0.0216237,-0.0153405,-0.00937943,0.00294791,-0.00473872
rings 0.0996618,0.0360219,0.00223834,-0.0044039,0.00854706,-0.00556453,0.00417541,-0.00881152,-0.0118778,0.0229722
unable 0.0696649,-0.0293077,0.0125764,0.0820723,0.00848716,0.0275412,-0.0213925,-0.0123423,0.0997781,-0.028381
hopefully 0.087919,0.096959,0.00617517,0.0032862,0.0102489,-0.00273789,-0.00719851,-0.00169441,0.00410552,-0.00251027
drawn 0.104794,-0.0728905,-0.0216566,-0.0182279,0.00961617,-0.00716011,0.00361436,-0.00353488,-0.0219084,-0.0227788
shields 0.11038,0.00494864,0.00464044,-0.00995247,-0.00214195,0.0133796,0.00553057,6.57602e-05,-0.00696273,0.00609769
we 0.107029,0.0321265,-0.0027466,0.00192928,-0.000798284,0.000430522,-0.00166638,0.00201797,-0.000647356,-0.00139673
never 0.110753,0.0127716,-6.28321e-05,0.00541006,-0.00174847,0.00284099,0.00356152,-0.00315401,-0.00605564,-0.000847823
omg 0.113735,-0.11442,0.0302747,-0.0139549,-0.0050236,0.0141759,0.0115593,-0.000670556,-0.0124543,0.0138249
nature -1.59839,-0.407577,0.0222294,0.112541,-0.0686982,0.0103163,-0.0650957,0.0602837,0.00522169,-0.0511299
however 0.119362,-0.152915,0.0174816,0.00653894,-0.00887965,0.00151443,-0.0367148,-0.0230114,-0.00494747,0.000343304
extent -0.187655,0.458055,0.0343282,0.0484317,-0.0301742,0.0534535,-0.0251958,-0.0575048,0.0433696,0.0137216
news 0.0737789,0.140033,0.0124671,-0.011922,0.0179221,-0.00679648,0.006797,-0.00672205,0.00468056,0.00664243
fanfic 0.124982,-0.10341,-0.00438077,0.0112996,0.00826401,0.00552444,-0.00741808,-0.00474407,0.00359632,-0.00992604
cos 0.103041,-0.0472136,0.0259034,-0.00569694,0.00129493,-0.0301179,0.00646173,0.0189459,0.0044141,0.0118947
cow 0.0109932,0.142485,-0.00243757,-0.072299,-0.0279858,-0.0567761,-0.0309754,-0.0538075,-0.0262632,0.0198004
jelly -0.432106,-0.899579,0.0427525,-0.0992763,0.106501,0.0457457,0.194856,-0.0329426,-0.0787515,0.0313844
against 0.119554,-0.0510355,-0.0093652,-0.00150239,0.00232811,-0.01162,-0.00111651,-0.0161492,0.00076315,-0.00239296
games 0.0951406,0.0606013,-0.00279992,-0.00161931,0.00454946,-0.010845,-0.0130095,0.00414664,-0.00158086,-0.000164046
planned 0.0666255,0.141729,-0.0190294,0.0082145,0.00857275,-0.00299154,0.0226732,0.0254865,0.0180566,-0.00860454
had 0.099983,0.061682,-0.00066576,0.00201582,-0.000543331,0.00278711,0.000287072,0.000670947,-0.00204344,0.000985998
blonds 0.120225,-0.0764263,-0.0162582,0.000174178,-0.00322239,-0.00895494,-0.00619997,0.00310009,0.00703039,-0.029972
mcphee 0.051369,0.1746,-0.0148587,-0.0118199,0.00302672,0.0184166,-0.0124077,-0.0265973,-0.00253857,-0.0153078
tons 0.000410186,0.25821,-0.000127245,0.0171484,0.0153269,-0.0206714,0.00977234,-0.0173345,-0.00803172,-0.0167493
three 0.106106,0.0318446,-0.00386503,0.00499487,-0.00366773,0.0016539,-0.00196847,0.0040341,-0.0044634,-0.00258744
been 0.109422,0.0197207,0.00322735,-0.00246882,-0.00116462,-0.00254282,0.00121956,0.00503184,-0.0014398,-0.000111227
fowl 0.0962593,0.0628779,0.00545208,-0.000821122,0.00789582,0.00462222,-0.00584678,0.00318345,0.00399334,0.0071092
much 0.0143803,0.284977,0.00337149,-0.00163116,-0.00422085,0.00249572,-0.00186576,0.00530981,-0.00154533,0.0056745
interest 0.1118,-0.0558236,-0.00499893,-0.00941494,-0.00543205,-0.002862,0.00907018,0.0144935,-0.00863923,0.0255645
basic 0.107188,-0.0257388,-0.00210139,-0.00652161,0.00178993,0.00634993,-0.00980726,0.00120725,-0.0137577,0.0232825
expected -0.488763,0.643857,0.0217679,-0.0157465,0.00851832,-0.0702922,-0.0410441,0.0354812,0.0254091,-0.0352132
kelse 0.0620983,-0.0946407,-0.0365866,-0.0244562,-0.0949051,0.0470092,-0.0662773,-0.042844,-0.0751794,0.0545612
life 0.105998,0.0329454,0.00201963,0.000103422,-0.00446265,-0.000519438,0.0012061,-0.00110754,-0.0072735,0.00116241
families 0.0860045,0.0035754,-0.0249843,0.0199584,-0.0084898,0.0105679,0.0178249,-0.005416,-0.0305706,-0.0198585
coherent 0.108301,-0.0379381,-0.0063671,-0.00160674,0.00103265,-0.00971457,0.00207834,0.00784514,0.00119477,-0.0100293
kudos 0.0795431,0.0604905,-0.0216426,-0.000576911,0.00319517,-0.000228162,0.0201754,0.000505521,0.0175031,0.00165044
personally 0.104711,0.0251695,0.00740094,-8.66749e-05,0.00199242,0.00743813,-0.0107244,-0.00841179,-0.0169832,-0.00643678
catch 0.0728193,0.100927,-0.00614428,-0.00746627,-0.0272997,0.0144072,-0.0061071,0.01419,0.01921,0.0197959
spin 0.0878243,-0.0378162,-0.0113574,0.0193335,0.0192619,0.0612599,-0.0084544,-0.0178388,0.0508614,0.00301657
exception -0.581127,-0.0139292,-0.156799,-0.554523,0.00308261,0.0846605,0.0595685,-0.0919697,-0.0927394,-0.186278
cheapened 0.0840336,-0.133493,-0.0119703,0.0366013,-0.0191882,-0.0159003,-0.0192003,-0.0292187,0.0471457,-0.0313594
bobbypin 0.11059,-0.108652,0.013293,0.0138352,-0.0269664,0.00639131,-0.00782103,0.0155317,-0.00478024,0.0286875
fallon 0.0995883,0.0354709,0.0235341,0.00295821,0.0121812,0.0146059,-0.00172719,0.00106293,0.0222121,0.00802981
spontaneously 0.0858214,-0.214136,-0.00951356,0.00655817,0.0408036,-0.0107012,0.0573459,0.0518069,-0.0258667,0.0234054
near 0.0914433,-0.0108649,0.0146483,0.04269,0.00661039,0.0205112,-0.00622276,-0.0296759,0.00973823,-0.0140013
ain -1.49596,0.344337,-0.0310741,0.0243431,-0.0139785,0.0350238,-0.120329,-0.118385,-0.00335361,-0.0409418
suppose 0.10037,0.00151553,0.0175435,0.00239709,0.00503005,0.0225258,-0.00459453,-0.00711895,-0.0140531,0.0205923
depp -0.0203767,0.269415,-0.0492014,0.0342027,-0.00495446,0.0153644,-0.0259633,0.0479317,0.00812227,0.0383816
mpreg 0.11769,-0.0745007,-0.00677245,0.00934299,0.00751506,0.00289806,-0.00729355,0.0189473,0.0156448,0.000699106
iq 0.116008,-0.146416,0.0272601,0.0218656,-0.00759601,0.043616,0.0206981,-0.0109055,0.015199,-0.027329
is -0.028075,0.358164,0.00143347,0.000339803,-0.00094953,0.00606345,0.000101703,0.00336444,-0.00203218,0.00527321
it 0.0550166,0.198763,0.00259792,-3.47579e-05,-0.000850689,0.00454684,5.20833e-05,0.00396807,-0.0025084,0.00245951
audrey 0.0445589,-0.0903815,0.0307745,-0.0178785,0.0474449,0.0124578,-0.0368431,0.0531981,-0.0432535,0.0138478
shame -0.032824,-0.533734,-0.0381949,-0.00469158,-0.0158425,0.081711,0.0270139,0.0349697,0.0272163,0.00604554
cant 0.0922079,-0.0276878,-0.0132345,-0.0473738,-0.0239212,0.00926989,0.0235683,-0.022736,0.0116368,-0.0259913
im 0.088228,0.102207,0.00150316,0.00686914,-0.00104395,0.00560241,0.00224919,0.00267339,-0.003719,0.00410921
in 0.0724649,0.153254,0.000778241,0.00164507,-0.000828727,0.00290374,0.000249236,0.00307226,-0.000588971,0.00192247
faked 0.116971,-0.0563893,0.0142566,0.0102993,-0.00116497,0.00934958,0.00267518,-0.00876494,-0.00943181,0.0125886
if 0.101138,0.0574314,-0.00140648,-4.44667e-05,-0.000714132,0.00307437,-0.00168226,0.00185077,0.000493452,-0.000468392
grown -0.0699765,-0.22588,0.129435,-0.0140836,0.0141014,0.109989,0.0279145,-0.0217436,-0.00400449,-0.0930088
colfer 0.0999483,0.0549098,0.00374922,0.0100909,-0.0181209,-0.00649463,-0.00876946,-0.00675405,0.00111525,0.00700013
things 0.0914351,0.0908594,0.00327089,-0.00427128,-0.00131826,-0.000689006,0.00500438,0.00145445,-0.000807404,0.00145363
make 0.123878,-0.0793878,-0.00312996,0.000602299,-0.000899995,-0.00042596,-0.00100517,0.00348867,-0.00433965,-0.00571912
clearly 0.0579783,0.165415,0.0110775,0.0156258,-0.0120051,-0.00943546,0.00166877,-0.0106943,0.0125733,-0.0038667
complex 0.110885,-0.0388394,-0.0148509,0.012826,-0.0225224,0.00412046,0.00123264,-0.00869995,0.0134166,-0.0107649
unfortunate 0.089473,0.0514447,-0.00993378,0.00621211,0.00893975,-0.000809421,-0.0028929,0.00597979,0.0121643,0.00433956
showing -0.0470446,-0.388474,-0.0763353,-0.049907,-0.117532,0.0752176,-0.0690737,-0.0968324,-0.0854489,0.0265279
entitled 0.126207,-0.154698,0.000541341,0.00122257,-0.0154374,0.00700429,-0.00297588,-0.00424935,-0.00232096,-0.00253444
hank 0.112548,-0.0628637,-0.00804085,-0.0113425,0.033034,0.0227597,-0.0168482,0.0129819,-0.0128764,0.0163715
fairly 0.113421,-0.0188245,-0.0183533,-0.007838,-0.00261742,0.00418802,0.00126839,0.00479843,0.00203233,-0.0110929
evil 0.0298548,0.25407,-0.0012818,0.000243282,-0.000302849,0.0067727,0.00125896,0.000398053,-0.00144459,0.00793664
hand 0.0833254,-0.0754945,0.0695763,0.0244755,-0.019003,-0.0625938,-0.00448897,-0.0262516,0.0045843,0.0270992
characters 0.0639033,0.11193,-0.0161197,0.00322627,-0.0246207,0.0107429,-0.000157478,0.0544275,0.0112269,-0.0230995
thoughts 0.0999219,-0.013131,-0.00581062,0.00547183,0.0130642,-0.0204999,0.0407242,-0.0101028,-0.0180126,-0.00556846
kid 0.096204,0.0131997,-0.00878618,-0.0326165,-0.00217167,-0.0123224,0.00385753,-0.0114258,-0.0228445,-0.01086
mckellen 0.0866815,0.090986,0.000599246,-0.0165915,-0.0243963,-0.0105689,-0.00165493,-0.00240414,-0.00432746,0.00618286
postponed 0.0586157,0.145617,-0.00308359,0.0173443,0.00265194,0.00862938,-0.0292435,0.0174566,-0.0158711,0.0320282
kept 0.101746,-0.0896257,0.0121013,0.0133198,-0.00703669,-0.0252682,0.00118706,-0.00655673,0.0292879,0.00337879
scenario -1.70519,-0.583291,0.0445857,0.0179137,0.00883774,0.0785526,-0.0131924,-0.0706112,-0.06777,-0.0414375
tho 0.0703146,0.0665965,-0.021608,-0.0430625,-0.021518,-0.0015213,-0.0448016,0.056681,0.000532381,-0.0280672
mother 0.104621,0.0407715,-0.00467784,0.00274385,0.000390648,0.00186992,-0.000143795,-0.00150662,0.00348798,0.00522069
the 0.0242347,0.265914,0.00491943,0.000651146,0.00333472,0.000516307,-0.00174986,0.00877671,-0.00155016,0.00551139
smoked 0.10924,0.0149958,-0.00480111,-0.00040651,0.00717204,-0.00216005,-0.00868577,0.000300151,-0.00659618,0.000812314
outnumbered 0.10518,-0.00096902,-0.000497623,-0.00984851,0.00227676,0.00184849,0.00763512,0.00905386,0.0132243,0.0213709
just 0.0683888,0.164416,0.000379438,-0.000308606,-0.0018605,-0.00093874,0.00104861,0.00344478,-0.00171336,0.000377668
gaither 0.102131,0.0503841,-0.000624785,0.00383012,-0.000165955,-0.0014504,-0.00586942,0.00106887,0.00837095,-0.00248435
thanks 0.11526,-0.115859,-0.0105617,-0.0213351,-0.00749617,0.0208649,0.0222428,-0.0249146,-0.0346655,0.0123
yes 0.0731952,-0.060027,0.00324307,-0.0136089,-0.0451754,-0.0135047,-0.00732614,0.00681565,0.0319671,0.0373826
yet 0.0745776,0.139182,0.00203976,0.00452795,-0.003174,-0.0022972,-0.00255599,0.00347496,0.0193364,0.0132006
character -0.238431,0.423439,-0.00356923,-0.102995,-0.033494,-0.0759693,-0.0620312,0.0775802,0.0287461,0.0717018
clarksville 0.0900832,-0.286729,-0.0342331,-0.0203439,0.0536037,-0.0113992,0.0200277,0.00454021,-0.0182197,-0.00176259
board 0.121143,-0.0518623,-0.00131506,0.00463811,0.0026502,0.000793443,0.00547874,0.00225352,-0.00247137,0.00055502
has 0.0974242,0.0718922,-0.000389655,-0.00157835,-0.000247986,-8.32314e-05,0.00377648,0.000634688,-0.000769539,-0.00136819
hat 0.102162,-0.00922799,-0.0166307,-0.0286165,-0.0345202,-0.0121349,0.00419939,0.00442648,-0.0200797,0.00779558
possible 0.0853629,0.108349,0.00346955,0.00246322,-0.00147332,0.00474403,-0.000243673,0.00406727,-0.0146869,-0.00159143
indicative 0.093568,-0.0663818,-0.0199894,0.0193068,0.0170052,0.0211581,-0.0706166,-0.0150916,0.0288439,-0.0417275
background 0.110167,-0.0632411,-0.0144973,0.00483888,-0.0141598,-0.00160627,-0.0115688,0.0099197,-0.002048,-0.0290401
lynne 0.101892,-0.178171,0.0064102,0.0337652,-0.0254517,0.00298101,0.0258753,-0.00773095,0.000158314,-0.00395839
burnt 0.102039,-0.203271,-0.00391689,-0.0112153,-7.26152e-06,0.0283092,-0.038252,0.00581196,0.00214039,-0.0347852
apart 0.061506,-0.0230418,0.012532,-0.0209466,-0.0281356,0.00086853,0.0437344,0.00295431,0.0125764,-0.0229634
gift 0.101699,0.0401598,0.00744068,-0.00969654,-0.00343644,-0.00429156,0.0124581,-0.0092895,0.0182479,0.0104709
bentlys 0.109621,-0.00397983,0.00382819,-0.018067,0.00421649,-0.00462522,-0.000584315,0.00505591,0.000105127,-0.00744265
festivities 0.0877831,0.000164123,-0.00536451,0.0189053,-0.00935208,-0.0502014,0.0108599,-0.00440295,0.0253092,-0.0125299
avatar -1.7818,0.155546,0.0146784,-0.0016083,-0.0213065,0.0478806,-0.0146871,-0.00327887,0.0208595,0.0293609
night 0.108451,0.021033,-0.00227374,-0.000726783,0.00397158,-0.0052953,0.00445391,0.000417325,-0.00260958,0.0042098
ennis 0.112644,-0.0579935,-0.000969201,0.0215297,0.00841621,-0.0160777,0.000465207,0.00779179,-0.00759887,-0.0163417
overslept 0.065204,0.140164,-0.0115066,-0.0165747,0.0077423,0.00300781,0.0265593,-0.0212939,-0.0109635,-0.0164912
portuguese 0.0877119,-0.373623,0.0082183,0.0346911,0.0331292,-0.00769462,-0.00172546,0.000311576,-0.00147667,0.0188464
right 0.0808202,0.127586,0.00181614,-0.00157036,-0.0022135,-0.00198228,-0.0016515,0.00300082,0.000284747,0.00360858
old 0.109059,-0.0188047,0.0263556,-0.0244269,0.00860284,0.0213603,0.00284039,-0.0209546,-0.000906216,-0.000147481
deal 0.109189,0.0190589,0.00230564,0.00650511,-0.0103933,-0.00379961,-0.00293076,-0.00630541,0.00115424,-0.00190032
people 0.0938783,0.0846936,0.00198365,0.00159992,-0.00101343,0.00288,1.489e-05,0.00136236,-0.00110376,-0.000466186
creed -1.49115,-0.646569,-0.0673062,-0.0570848,-0.00919713,-0.0617677,-0.0628135,-0.0810694,0.0153325,-0.0111679
hoover -0.0736154,0.277129,0.0178686,0.00242278,-0.00186933,0.0372607,-0.0366404,-0.0712794,0.0881924,-0.0224676
humor -0.168214,0.388695,-0.00394291,-0.0392951,0.0155643,-0.017009,-0.0929808,-0.0102878,0.0111094,0.0481624
for 0.0898188,0.0995433,-0.000124278,-0.000193319,-0.00107248,0.00188832,-0.000383091,0.000980077,-0.000800736,0.000105297
comments 0.110702,-0.0365345,-0.0148102,0.0126132,0.000562037,0.0207161,0.00145718,-0.0105046,-0.00705854,-0.0027932
everything 0.101456,0.0183886,0.0104212,0.023017,-0.00570052,-0.00675509,0.00011648,-0.0202579,0.00135514,-0.00832722
conquering 0.121395,-0.171935,-0.0214993,0.00329101,0.00279236,0.0319924,0.0119289,0.00499585,-0.00519238,-0.0130457
beating 0.0946787,-0.0966912,-0.0126826,0.0127869,-8.24472e-05,0.00410535,-0.0178145,-0.0401122,-0.0153079,-0.00352534
adorable 0.108433,-0.00669123,0.00506113,-0.0214859,0.00928903,-0.00318527,0.00231843,-0.0115831,-0.0102011,0.000402741
christmas -0.0777119,0.384999,-0.0439836,0.0634148,0.0150727,-0.0125647,0.0173144,-0.0444852,-0.0223516,-0.0358952
theological 0.104897,-0.105776,-0.00282937,0.0163606,-0.0137191,-0.0127269,0.00722735,-0.0189424,-0.00752425,-0.00207121
defensive 0.099301,-0.0500805,0.038926,-0.0135435,0.00290188,-0.00930175,0.0117682,0.00421708,-0.0382858,-0.0135132
super 0.100754,0.0553672,0.0106065,-0.0111721,-0.000288347,-0.00365014,0.000948543,0.0126263,-0.00424115,0.00211019
cowboy 0.08533,0.0998157,-0.00999567,0.0159307,0.00710891,-0.00341082,-0.00486646,0.0101145,0.005484,-0.00597989
months 0.0589793,0.146711,0.0340657,-0.0261245,0.013294,0.0248225,0.0386717,-0.00897021,0.0142691,-0.0290562
burbank 0.106357,-0.000726524,-0.0116823,-0.00169882,0.021336,0.00561483,-0.0180323,0.00224264,-0.00685815,0.0426764
bound -1.68729,-0.158518,-0.0235784,0.0683777,0.0187714,-0.023263,0.0669747,-0.13504,0.0245075,-0.114003
intellectual 0.112634,-0.0873981,0.000366515,-0.00262724,0.00118219,-0.0400138,0.00298225,-0.0117383,-0.0142775,0.0135518
down 0.104027,0.0448373,-0.00228371,0.000137168,0.00126438,-0.00403448,0.000745527,-0.000798139,-0.00286126,-0.00596335
raises 0.0485521,-0.026579,0.0250331,-0.0203607,-0.0136371,0.057363,0.0618815,-0.0862372,0.00753416,0.0502227
jenn 0.0739015,0.125157,0.00619262,-0.0100547,-0.0117758,-0.00151416,-0.000454322,0.0230088,0.00491151,-0.00676704
rant 0.107592,0.0240442,0.00338634,0.00393065,0.00166701,-0.00108356,0.00327279,0.00675145,0.00226916,-0.00503368
strangely 0.125735,-0.119381,0.0111821,0.00720708,-0.000794929,0.0154624,-0.000395086,0.00100243,-0.0127919,0.00418615
despised 0.0218767,0.0114394,0.0549827,-0.0162605,-0.122006,-0.0105234,-0.046158,-0.0152227,0.0516173,-0.0952496
class 0.0921452,0.0418216,0.0127629,0.0165581,0.0338587,-0.0135142,0.0179536,-0.00392955,-0.00695234,0.0273708
absolutely 0.0847699,0.115168,0.00080581,-0.00420814,0.00559348,0.000799374,-0.00510868,0.011059,-0.00146943,0.00174589
editor 0.0765312,0.108632,-0.0115543,-0.0175556,-0.013892,0.00968766,-0.00889156,0.00921503,0.0188327,0.0418309
way 0.0994827,0.062972,-0.000850245,-0.00192846,0.00752923,-0.00131434,-0.00140371,0.00712101,0.00100173,0.0024875
jane 0.121189,-0.280405,-0.000353988,0.00683524,0.0126111,-0.0112152,-0.0157536,0.00553055,0.00390215,-0.00407652
quirky 0.112118,-0.139126,-0.0191234,-0.0075655,0.00342373,-0.00406845,0.00894785,-0.0426087,0.0183897,-0.0119483
was -0.0879588,0.441561,0.00019272,0.00112741,-0.00131794,0.0063572,-0.00265359,0.000503995,-0.00184484,0.00735961
war 0.113387,-0.263373,0.0473898,0.0406182,0.0187647,0.0190119,-0.0152125,-0.0183374,0.0238238,0.00142445
happy 0.108371,0.00704106,-0.0161941,0.00486617,0.00555621,-0.00322692,0.0113502,0.0230653,-0.000774245,0.00764218
head 0.123263,-0.133899,0.00422853,-0.000772758,-0.0128281,0.00662136,-0.00228193,0.0202745,-0.00559126,-0.00552151
form 0.0766357,-0.269598,0.0343903,-0.0229909,-0.0812752,-0.0379818,-0.046174,-0.010007,-0.0482056,-0.0147197
becoming 0.0884079,0.0928549,-0.00398946,-0.00777264,-0.00224187,0.00420896,-0.00134895,0.0163429,-0.00287259,-0.00692479
hear 0.0958892,0.0766461,-0.00278935,0.00176923,-0.0037175,0.0057911,-0.0051227,-0.000753922,-0.00296078,-0.000121264
true 0.0930054,0.0439006,0.00959887,0.0161604,-0.0070572,0.00804618,-0.00668989,0.0192506,0.0218508,-0.0132097
especially 0.119256,-0.056259,0.00167583,0.00335042,0.00222395,0.00383059,0.000852321,0.00141041,0.00423186,0.000863135
inside -1.34769,0.532093,0.0905684,-0.00650511,-0.133409,0.0891154,0.0379179,-0.0453979,0.0324754,-0.0438212
attached 0.0686413,0.0986207,-0.0293827,-0.00255223,0.00378435,-0.0024916,-0.0361523,0.00489328,-0.0209958,-0.00300109
tell -0.131839,0.12386,-0.0907349,-0.0665347,0.0959102,-0.136682,-0.0278984,0.0677484,0.10586,0.00772763
crystal -0.000444117,0.128055,-0.0290275,-0.0529952,-0.0297991,-0.0396922,0.00436739,0.0516602,0.0049745,-0.0274716
adore 0.0912217,-0.0819019,-0.00716568,0.0555167,-0.0198729,0.00262898,-0.00853779,-0.0551329,-0.0355504,0.0258803
proud 0.0911894,-0.250556,-0.0408731,-0.00550124,0.0168838,0.00177452,0.0127199,0.0135973,-0.029484,-0.0354818
liberal 0.0966234,-0.184477,0.0448235,0.0311936,-0.0025746,0.0335658,-0.00956822,0.0317119,0.0180366,-0.000980362
believably 0.115769,-0.0530824,-0.00285805,0.0089896,0.0229674,-0.0101588,0.00441548,-0.0018799,0.0205898,0.00670559
classic 0.0759965,0.0963366,-0.0166778,-0.00481419,0.00825931,-0.00579272,0.0036877,-0.00126726,-0.00955643,0.0229848
sometime -0.0133434,0.287602,-0.0199583,0.00236575,-0.0470374,-0.00721321,0.0126075,0.00889753,-0.0248196,-0.00773967
trip 0.0877384,0.0176931,-0.00804736,0.00844885,0.0205268,-0.022242,0.00273653,0.00933844,0.0172147,0.0665152
shit 0.0650611,0.170282,-0.0018818,0.00409404,0.00398744,0.00127896,0.00176736,0.00227799,0.000189746,0.00606825
us 0.112809,1.87699e-05,0.000966732,0.00692214,0.00527224,0.000172524,0.00390492,-0.000549582,-0.00186113,-0.000241512
no 0.094606,0.0804786,0.00181279,0.000207487,0.00188349,-0.000448574,0.00713432,0.0051648,-0.0010857,0.00192006
nc 0.117013,-0.310814,-0.0153468,-0.0150697,-0.00199816,0.000653076,-0.00169298,-0.00173442,-0.00481716,0.0029563
generally 0.111744,-0.00966648,-0.007465,-0.0099333,0.00624367,0.00276687,0.0122152,0.00611091,-0.0031578,0.00478991
actor 0.0913924,0.0503963,0.0244711,-0.00975591,-0.000395562,-0.0108913,0.0358165,-0.0101667,-0.00177157,-0.0077894
reality -0.231754,0.423859,0.0800362,0.0434776,-0.12311,-0.0807843,0.0111721,-0.138286,0.00648765,0.0462117
interested 0.0891544,-0.0106596,-0.0181061,-0.0144012,0.00877288,0.0145339,-0.00479745,0.0176602,0.0277628,0.0103966
holding 0.106155,0.0224539,0.00557079,0.00744086,0.00390934,0.0144464,-0.00348392,-0.000357906,-0.00552416,-0.000258465
picture 0.12757,-0.172458,-0.000699939,-0.00887762,0.0115239,-0.00503781,0.0130224,-0.00608484,0.00321554,0.00625506
phoenix 0.113718,-0.0317543,-0.00835963,0.00114769,0.00725716,-0.0149412,0.0109395,-0.00504131,-0.000159056,0.00263536
dies -0.0306243,0.339229,0.0211892,-0.00444885,0.0124784,-0.0226501,-0.0157016,-0.0125167,-0.026098,0.0232416
felt 0.0908888,0.0865111,0.00213668,0.00647372,-0.00885304,0.0149666,-0.00646302,0.00235039,-0.00535178,0.00464817
update 0.103942,0.0373904,-1.09444e-05,0.00219357,0.00330586,0.00777328,0.00440718,0.00232965,-0.00268376,0.00642378
trailers 0.116273,-0.0545135,-0.00148601,0.0285852,0.00445759,0.00990415,0.00246893,0.00431798,-0.00690853,-0.0210307
frodo 0.115371,-0.0548155,0.00149385,0.0211699,0.00643588,0.00403479,-0.000407938,0.0155875,0.0085524,-0.0113178
fell 0.108554,0.0216625,0.000451635,0.00524929,-0.00372257,-0.00683235,-0.000661639,0.00256524,0.00142475,-0.00391533
spy 0.0836904,-0.172304,0.0241933,0.0418924,0.0363863,0.0309056,0.0318751,-0.00691064,-0.011436,0.00233244
weekend 0.0483826,0.212006,-0.0142126,0.00630785,0.00429692,0.00336643,0.000174265,0.00884615,0.000269184,-0.000828829
explosions 0.0854644,-0.0825367,0.0287,-0.0591581,-0.0409703,-0.0141642,0.0778279,0.00877766,-0.0224645,0.0151478
younger 0.0983093,-0.0104045,-0.0270571,0.000937899,-0.0400893,0.0156797,-0.0144819,0.00748557,-0.0137583,-0.00641871
longer 0.0804043,0.0087165,0.0407709,-0.017687,-0.0409522,0.0743188,-0.0318607,0.0574478,0.0151286,-0.0173628
together 0.0836407,0.0964615,0.0155762,0.0129002,0.0036781,-0.0241807,-0.00784043,-0.0145493,-0.0154915,-0.00431494
time 0.0935939,0.0858858,0.00157396,0.00215439,0.00229043,0.00308498,-0.00242873,0.00241998,-0.000437306,-0.00233493
serious 0.0669752,-0.273662,-0.0545691,-0.0399004,0.045932,-0.00306371,0.0017099,-0.0277064,-0.0106629,-0.0109502
surprised 0.0853056,-0.0717345,0.0102028,-0.0136532,-0.0204404,0.0276991,-0.0335222,-0.0365348,-0.0114663,-0.0457168
songs 0.100387,0.0046784,6.00209e-05,0.00420283,0.0109234,0.0263533,-0.0135207,-0.0153718,-0.0265377,-0.000278784
ron 0.0270427,0.246571,0.0113463,-0.00479959,0.00180884,0.00449714,-0.00416304,-0.00963504,0.0222368,0.0256749
themed 0.106241,0.00828367,0.0031237,0.00969792,-0.00954296,-0.00621546,0.0101004,-0.00691616,-0.00980861,0.00884593
dance 0.104097,-0.00440586,0.00140223,0.00211849,-0.0230631,-0.00267495,-0.0286212,-0.00473313,-0.0189818,-0.0148611
fabricated 0.11017,-0.00545535,-0.0018386,0.0114779,0.000920352,0.00426787,0.0138753,0.00936353,0.00677663,-0.0105652
leads 0.088201,0.0352021,-0.0038659,0.0232718,-0.0229905,-0.0320973,0.0285428,0.00755678,0.00103753,0.0102746
theaters 0.0954758,-0.151209,-0.0343741,-0.00841082,-0.0282151,-0.00402074,0.0231942,-0.0571715,-0.0263341,0.0181368
skin 0.113612,-0.0303491,-0.0245264,0.000899001,0.00825441,-0.0128065,-0.00699185,-0.0177352,0.00519831,0.0238354
row 0.105103,-0.274402,0.0106963,0.0275606,0.0292459,0.0119691,0.0123067,-0.00607789,0.0229321,0.0125973
finally 0.113515,-0.150556,-0.0167631,-0.00112864,0.0228836,-0.0127668,-0.00648382,-0.0198226,0.00727358,-0.0275826
brown 0.0810024,0.0478378,-0.0302826,0.0106627,0.00580409,0.00644506,-0.00330016,-0.008121,0.0198955,0.00334077
choice 0.110559,-0.0188329,0.00415798,-0.00268583,0.011293,0.0066612,-0.00367509,0.00732524,0.0185972,0.0113042
chunnel 0.0864288,-0.208833,0.0455047,0.0139449,0.0434057,0.00167006,0.0520401,0.0319607,-0.00871062,6.17653e-06
cool 0.105519,0.0293894,0.00286058,0.000350799,-0.001705,0.0190718,0.00252734,-0.0102971,0.00552507,-0.00745845
dim 0.120327,-0.0649056,0.00526465,-0.0127205,0.00132968,-0.0161412,0.00370242,-0.00967679,-0.00936328,7.72523e-05
impressive 0.106648,0.00201876,0.0140222,0.0214587,-0.000848447,-0.00850928,-0.0143871,0.00532165,0.0179508,0.0154872
level 0.100322,0.0492501,-0.00178442,0.00824769,0.00833882,0.00166313,0.0099011,0.0029732,-0.000352265,0.000949142
did 0.0806423,0.128601,-0.000141068,0.00263374,-0.00120308,0.00297191,0.000416209,0.00251947,-0.00195625,0.000771658
die 0.0988955,0.0318092,-0.0119854,0.0020461,-0.000205455,-0.00204275,-0.00454634,-0.00390084,-0.00290778,-0.00899207
posts -0.0224338,-0.00341243,-0.0865926,-0.0602463,-0.0574619,-0.0260248,0.0631821,-0.0755666,-0.0572001,-0.0150773
gun 0.0501696,-0.0573656,-0.0177749,0.0220434,0.0397079,-0.00916896,0.124949,-0.0258998,0.0396094,-0.0364088
hooray 0.0977609,0.0336214,0.0157107,-0.0102484,0.0074454,0.0136579,0.0204034,-0.0123975,-0.00327056,0.00883345
soooo 0.107389,-0.216176,-0.0213082,0.0205326,0.016673,-0.0237783,-0.0322323,-0.0304032,0.0071947,-0.0360616
planning 0.113882,-0.0761195,0.0123659,-0.0124129,-0.00542033,-0.012877,0.0262698,-0.0333724,0.00189763,-0.00805161
team 0.103879,0.0253274,0.00218558,0.002594,0.00438098,-0.00735666,-0.0110775,-0.0100835,-0.00378393,0.000985815
quick 0.10186,0.0344169,-0.00109418,-0.0033001,-0.0188115,0.0140044,-0.00979537,0.0149055,0.00549552,0.00190344
guy 0.0755635,0.14029,0.00211955,-0.00807709,5.9206e-05,0.00577862,-0.00711514,-0.00130551,-0.00422685,0.00369155
talked -0.360053,-0.180563,-0.169237,0.236561,0.120803,-0.0647262,-0.376124,-0.0152565,-0.227671,0.0894116
says 0.087466,0.106072,0.000211752,-0.00132271,0.00210618,0.00196897,-0.00184999,5.94994e-05,-0.00131316,-0.0024959
prediction 0.118287,-0.0917946,-0.0165811,0.00507053,0.00995556,0.0126102,0.00322636,0.00228695,-0.00171527,0.0100245
run -0.0311817,0.0898657,0.0345679,-0.0291219,-0.0559133,-0.0296981,-0.143456,-0.171792,-0.0460485,0.119682
theories -0.309128,-0.881114,-0.0794933,-0.058812,0.0892041,-0.0177163,-0.04153,-0.0214309,0.0499017,-0.0216449
dogfucking 0.121193,-0.168928,0.0172926,0.000502004,0.00496879,-0.00299166,-0.00851546,0.0275002,0.0150722,0.00068279
deluded 0.0821149,-0.121869,0.0373137,-0.0188734,-0.0115244,0.0204423,0.0212216,0.0513306,-0.0147334,-0.0147674
axes 0.0208291,0.247673,-0.0165619,-0.0123673,0.00216331,0.0334844,-0.0270067,-0.01726,-0.00160192,0.00888894
reply 0.0746908,0.136514,0.00722533,0.000948452,0.00274542,0.00871575,-0.00388736,0.00365141,-0.0111898,-0.00431994
appeal -0.0113213,-0.0527229,-0.0553455,0.0254412,-0.0553663,0.0499311,0.014671,-0.00234627,-0.00237861,-0.0778537
hairy 0.080042,0.098386,0.0022253,0.00803867,-0.0108075,0.0259259,-0.000379978,0.0316584,-0.00574663,-0.0155997
supporting 0.0921351,-0.0753012,-0.00889572,0.00614057,0.00603353,-0.0351651,-0.0453617,-0.0353828,0.0534498,-0.0189643
along 0.041026,0.222396,-0.00306886,0.0150538,0.00288783,0.00673372,0.0110203,0.0112754,-0.00435041,-0.00671842
teaches 0.0940429,0.0785728,0.0100844,0.00272886,0.00564362,0.00615576,-0.00314214,-0.00151664,0.00395419,0.00161401
change 0.0406934,-0.0799617,0.0518656,-0.0288072,0.0268642,0.0472829,-0.0722248,0.0246225,-0.0577494,0.028332
wait 0.119807,-0.0486168,0.00922316,0.0112961,0.0103741,0.000176027,0.00351876,-0.00547733,0.00820871,0.00387514
brilliant -1.78972,0.0460559,0.00220741,-0.0153696,0.00637579,-0.00181925,-0.0231987,0.0110575,0.030086,-0.0762353
exploitation -0.884969,0.585601,0.0552654,-0.0497343,0.00312839,0.239203,0.135363,-0.0463412,-0.0281033,-0.109845
usually 0.103976,-0.0794344,0.0113287,0.0148946,0.0375568,-0.000983514,-0.0271421,0.0337769,-0.00298422,0.00220137
weird 0.0496236,0.146363,0.00765827,-0.0103784,0.031916,-0.0244064,0.0199861,-0.00554392,-0.024605,-0.0055121
love -0.00657749,0.323021,0.00384095,0.00132027,-0.00269264,0.00379227,-0.000616816,0.000427229,-0.00358149,0.00507857
starring 0.104236,-0.00670039,-0.00461963,-0.00239862,-0.0173076,0.002967,-0.00111169,0.00731906,0.0111569,-0.0166219
suicides 0.120393,-0.106819,-0.0161856,-0.024673,0.014707,0.00198561,0.0142279,0.00593891,-0.0109891,0.00178745
shipmates -0.328973,-0.0337587,-0.184646,0.0682126,0.401098,0.0732984,0.12793,0.00834994,0.215572,0.109206
everybody 0.0698041,-0.18651,0.0458962,0.0346632,-0.0484597,-0.0170966,0.0324626,0.0097316,0.071046,0.0389014
working 0.105914,0.0314365,0.0009508,0.0106207,0.000967716,-0.00197679,0.00851635,-0.0118475,0.00144609,0.000195954
by 0.104232,0.0438787,-0.00148822,0.00101995,-0.00113141,0.00151096,0.00086307,0.00238496,-0.00282957,0.00184238
live 0.119545,-0.155083,0.00629109,-0.00496164,-0.0163648,-0.0174713,-0.00843442,0.0254355,0.0137923,0.0137717
wondering 0.0828247,0.110618,0.000622924,-0.00824466,0.00299043,0.0241007,0.00170123,-0.00464847,-0.00803587,0.00272823
films -0.189272,0.469684,-0.0130353,0.0741127,-0.0441509,0.0119614,-0.00403745,-0.0105298,0.0218539,-0.00556376
angels 0.120724,-0.0565667,0.00746137,-0.0014806,0.00444918,0.00439721,0.0030487,0.00226831,0.00525273,-0.00594038
today 0.0865524,-0.119569,-0.00437813,0.00294364,-0.0139666,0.00470216,-0.0195743,0.00280645,-0.010943,-0.0471117
wicked -1.82053,-0.226624,0.0406634,0.012202,0.00173981,-0.0377262,0.03791,-0.0286206,0.0428581,0.00220013
symantec 0.0798932,0.0771077,-0.0089242,-0.000694055,0.00112793,0.0201448,0.00244992,0.0125358,-0.00707014,0.00127119
club 0.114315,-0.00836288,0.00167174,0.00168521,0.00545474,-0.000739735,0.00101058,0.0019198,-0.000791578,0.00357876
acceptable 0.0784759,0.0229423,-0.00511976,-0.0534954,0.0222134,0.0174882,0.0172971,0.0251533,-0.0122173,-0.00905383
ignorant 0.0829234,0.0400476,0.00569038,-0.0151346,0.0125361,0.000609534,0.00600466,-0.00178251,-0.0349607,0.0266356
effort 0.0983308,-0.0255387,0.0315308,-0.0120132,-0.0307384,-0.0245657,-0.034564,-0.00878052,0.00700625,0.0108838
shraddha 0.00154534,-0.0245661,0.0719498,0.112685,-0.0650713,-0.00130865,-0.000257166,-0.102864,-0.070069,-0.00923114
douche 0.125539,-0.160808,-0.00579541,0.00584954,0.0109043,-0.0150133,0.0118132,0.00432337,-0.00748537,-0.00380204
deserved 0.120983,-0.17186,-0.00723697,0.00676858,-0.00727612,0.00866012,0.00284227,0.00725064,-0.00638159,0.00137102
abortion 0.101276,0.0373834,0.0144516,-0.0049387,-0.00824272,0.00521913,-0.00377948,-0.00322279,0.000576524,0.0106922
soul 0.0890128,0.0969058,-0.000749922,-0.00753086,0.00506524,0.00576709,-0.00506486,0.012502,-0.000279301,-0.00468655
reviews 0.0966593,0.00580212,-0.00744633,0.0216416,-0.0122734,0.0379895,-0.0132779,-0.0198304,-0.00909345,0.0102454
can 0.108986,0.0227826,-0.00120758,2.84089e-05,-4.57494e-05,0.00182718,0.00074059,-0.000441461,-0.000117563,-0.000588929
following 0.0875073,0.0317719,0.0050176,-0.0256603,-0.0146814,0.00407944,-0.0158724,-0.0147359,-0.00551222,-0.00740689
making 0.103047,0.047933,-0.00214731,0.00175281,-0.00322242,0.00254756,0.00155287,0.00331451,-0.00275368,0.00021698
lords 0.121459,-0.0586591,0.00128518,0.00342574,-0.00377718,0.00254891,-0.0121105,-0.00908026,0.00246644,-0.00583861
crazy 0.0614125,0.14467,0.00261735,0.0314045,0.0371252,0.0162719,0.0266682,-0.00159847,0.00538499,-0.0123034
figure 0.0755591,-0.115217,-0.0250372,-0.0348881,-0.0203732,0.0114383,-0.0294542,-0.00250651,0.0300423,-0.0352082
concocted 0.10393,-0.00224229,0.0198496,-0.0118169,-0.00799833,0.00254252,-0.0104457,0.00734073,-0.0028275,-0.0117245
awesome -0.248426,0.60084,0.00960463,0.000442099,0.0112501,0.00253076,-0.000768445,-0.00104051,-0.00559611,0.0134067
fuck 0.0819811,0.119851,-0.000719013,0.00220393,-0.00110762,0.00538082,0.00349243,0.00141906,-0.000681748,0.0119915
topic -1.61797,-0.487803,-0.0141111,0.00964528,-0.00278082,-0.0324078,-0.00963409,0.102389,0.0774074,0.00414625
heard 0.105047,0.0386818,0.00537011,-0.00395101,-0.00737802,-0.00122612,0.00207409,0.00296836,-0.00437287,-0.00307867
counting 0.121638,-0.0803623,-0.00438165,0.000564402,-0.00243579,0.00904528,0.000901505,0.00374647,-0.0173794,-0.00731632
craze 0.104939,0.0297776,-0.00899275,0.00892818,0.0220168,-0.010662,-0.0053814,0.00391302,-0.00297643,-0.00968896
listens 0.0996579,0.0348076,-0.0122599,0.0024369,0.00874845,0.0107265,-0.00305489,0.00661611,0.0106925,0.0109747
pink -0.0625763,0.0499412,0.0843156,0.090616,0.0994895,-0.0586396,-0.039933,-0.0952833,-0.049794,-0.105879
scar 0.101122,0.0214569,0.00470913,0.0104168,0.00561864,0.000117815,0.0176745,-0.00559044,-0.00782244,-0.0148868
durno -0.17306,0.0908123,-0.00479453,-0.0399791,-0.0801184,0.0511536,-0.0653958,-0.0126158,-0.0819944,0.000946574
write 0.128461,-0.166416,0.00352718,0.00624767,-0.0157603,0.00348131,0.00892057,-0.00272478,0.00222473,-0.00974942
till 0.112462,-0.0772247,0.0378583,-0.00364265,-0.0292904,-0.021419,-0.00517564,-0.00535174,-0.0104032,-0.0321689
theatan 0.113093,-0.0785733,0.0102363,-0.00476499,0.00307946,0.0312598,0.00729812,-0.0178262,-0.0209501,0.0114185
loathe 0.114473,-0.261744,0.0221742,-0.0187948,0.0271789,-0.00397825,-0.0141251,0.00474906,-0.0190403,-0.00883453
staying 0.082964,0.110355,-0.0100535,-0.0046316,-0.0138681,0.00737746,0.000444451,0.00663803,-0.000449284,0.00924
wicca 0.110937,-0.268078,-0.0167687,0.0307768,-0.000288237,0.00560605,-0.0461131,0.0229505,-0.0180409,0.00891819
critics 0.121777,-0.15598,-0.0138991,0.00220155,-0.0111177,0.00428826,-0.00600377,-0.00601348,0.00358682,0.00487459
heartbreaking -0.924443,-0.0749879,0.532854,-0.225321,0.385749,-0.0210798,0.0756529,-0.0340599,-0.194887,0.0427896
mad 0.0877867,0.045284,0.0261534,0.00373859,0.0103696,0.0243757,0.0137407,-0.00423756,0.00219586,-0.00156189
date 0.114368,-0.0183817,-0.00281072,0.0144315,0.0057812,-0.00582155,0.00139832,0.0122808,-0.0119338,-0.00576493
such 0.121601,-0.0628403,0.000458158,0.00497502,-0.00797706,-0.000831286,-0.00623146,-0.00434887,-0.00834591,-0.0115712
suck -0.00856532,0.325999,0.00255047,-0.00426794,0.00232393,-0.000202623,0.000240289,0.00691116,-0.00435912,0.0080143
guys 0.0310472,-0.304378,-0.0257125,0.000104264,-0.0266227,0.0127086,-0.0715932,-0.0252404,0.00416855,-0.0224708
unbelievably 0.0962919,0.0514708,-0.00766915,0.00851417,-0.00352775,0.0205177,0.00248486,-0.0020083,0.0118266,0.00649209
man 0.119966,-0.0486775,0.00483386,0.00238233,-0.00587814,-0.00535832,0.00342314,0.00233577,-0.00276272,0.00384218
poseidon 0.0587884,-0.100536,-0.0587347,0.0391279,0.0378646,-0.0537057,-0.0688699,0.0361027,0.0321745,0.00117996
whenever 0.0827707,0.0730944,-0.00942662,-0.000808103,-0.0230983,0.0121854,-0.00845556,0.029723,-0.0167354,-0.00143657
maybe 0.102852,0.0238356,-0.0204288,-0.0165155,-0.00702444,0.0136733,-0.00924525,0.0063796,0.000415988,0.00388515
majorly 0.0792347,0.0521276,0.00468782,0.00410681,-0.000430801,0.00137637,0.011283,0.0129808,-0.00269265,-0.00840057
st 0.0932703,0.0764011,-0.010606,0.0156462,-0.0011638,-0.0164651,0.0114704,-0.00889771,-9.71626e-05,0.00801995
tale 0.0899131,0.0920544,0.00591183,-0.00211574,0.0103133,-0.00377451,-0.00122918,0.00598035,-0.00726924,0.00981521
so 0.0138502,0.286583,0.00210953,-0.000209375,-0.000209437,0.00447766,-0.00237968,0.00369681,-0.0017477,0.00502467
trece 0.0362853,0.0359679,0.00877011,-0.027572,-0.0281968,0.0462522,0.0129905,-0.0428344,0.0174952,-0.00548831
talk 0.105049,0.0366525,-0.00413908,0.00497658,0.00149868,-0.00907167,0.00364907,-0.000796374,-0.00268092,-0.00315051
cute 0.0734788,0.112503,0.0174503,-0.00152657,0.0170742,0.0352157,0.0156291,0.0139612,-0.0121574,-0.0154015
shoes -0.670372,-0.824152,0.267892,-0.0149955,0.0408312,0.00552806,-0.187673,0.0602181,-0.0961289,-0.165124
barnyard 0.106556,-0.129996,-0.0316625,-0.0226384,0.0145222,0.0253427,-0.0266223,0.00820063,-0.00521335,-0.031782
haircut -1.76524,0.0630886,-0.0327912,0.0263344,-0.0392519,0.00642803,-0.0807116,0.0127728,-0.068515,0.0141458
professors 0.085031,-0.12802,-0.0300949,0.0425622,-0.00930637,-0.0488475,0.0274654,-0.0138701,-0.00963335,0.00607465
course 0.125317,-0.254487,-0.00413505,0.00512182,-0.00622077,-0.00752278,0.00361796,-0.0117733,-0.0025825,-0.0140801
cold 0.0902517,0.08346,0.00674755,0.0099369,-0.00762904,0.0136355,0.00779161,0.0081859,-0.0167694,-0.00242522
still 0.104104,0.0442175,-0.000777997,-0.00241929,-0.00346309,-0.00202137,-0.000151544,-0.00132211,-0.00168165,-0.000613268
police 0.114945,-0.0519853,0.00548132,-0.0252406,0.011136,0.0179426,-0.0281656,-0.013857,0.00123496,0.0274988
thank 0.105563,0.00817115,-0.00762061,0.00183282,0.000360647,0.0142732,-0.00491826,-0.00858389,-0.00680314,-0.0108703
interesting 0.0521907,0.199038,0.000241801,-8.18633e-07,0.00364175,-0.000126722,0.0106957,-0.00159621,0.00348918,0.0109362
attraction 0.116715,-0.0786996,-0.00238567,-0.00788817,0.0035549,0.00488622,-0.0129129,-0.0197887,0.00821856,0.003991
hanks 0.000774629,0.223131,0.00770544,-0.034226,0.00420864,0.026889,0.00928373,0.00835063,0.0306514,-0.0334089
main 0.086196,0.101888,0.000836541,0.0152189,-0.00711458,0.00543017,0.00101503,-0.00777624,-0.0156938,0.00431654
happened 0.110805,-0.0268832,0.000883047,0.00958453,0.00876062,0.00212435,-0.0276632,0.0128159,-0.00629962,0.00672384
freagin -1.24076,-0.627567,-0.0995056,-0.171976,0.171431,0.0800351,-0.082419,0.0766806,-0.0973774,0.293591
conversations 0.115572,-0.0533322,-0.017973,-0.0104966,0.0118181,0.00461527,0.00280859,-0.0245924,-0.0200102,0.00872939
sarcastic 0.113459,-0.141945,0.0258289,0.0053134,0.0296656,-0.0354691,-0.00652683,0.0471944,-0.0337038,0.00459985
touching -0.280899,0.525229,-0.0674401,0.0211601,-0.040329,0.0621553,0.0152004,0.0630377,-0.0948323,-0.000748288
soo -1.26071,0.589232,-0.0450463,-0.0292853,-0.0287069,-0.0319646,0.0204141,-0.00586364,0.033393,-0.047348
half 0.106125,0.0349328,-0.00175255,0.00122906,-0.0033202,-0.00509832,0.00107729,-0.00270829,0.00207878,-0.00313093
not 0.0867292,0.109751,0.000901112,0.00235498,-0.000916457,0.00373087,0.000748272,0.00189855,-0.00228584,0.00225398
now 0.0984938,0.0667137,0.00025005,0.000526125,-0.00185394,0.00171434,0.00338735,-0.000833193,7.11507e-06,-0.00298265
twilight 0.112673,-0.176258,0.000113409,0.0280594,-0.027013,0.0142024,0.0208749,-0.0231514,0.00807226,-0.0281572
hall 0.106786,-0.085813,-0.0467709,0.0405203,-0.0268963,0.0163663,0.0115398,-0.0113156,-0.0297622,-0.0137296
nor 0.0526808,0.147224,0.0168662,-0.0216275,-0.0189811,-0.0138203,-0.0135687,0.00919897,0.00108833,-0.0118729
name -1.81943,-0.406138,0.00824792,-0.00181094,-0.0107049,-0.00421131,0.012089,-0.0382113,-0.03072,-0.0150202
teri -0.290433,0.24279,-0.0430596,-0.107425,0.0786516,-0.090409,0.184943,-0.0803675,0.0303419,-0.0348655
didn 0.104802,0.0399984,-0.000107242,-0.00596076,0.00377473,0.000586515,-0.0016127,-0.00264062,-0.00152277,0.000548799
intrigued 0.0161622,0.170575,-0.00175028,0.0058892,0.00718867,-0.0239883,0.0372586,0.0284724,-0.0221371,0.0177867
heresies 0.118611,-0.0930639,0.0040327,-0.00482829,-0.022888,-0.00217049,-0.00993874,0.0100093,0.00223383,0.0122042
rock 0.121757,-0.103103,0.0121978,0.0211418,0.0043923,-0.0119056,0.00548882,-0.00341045,-0.00392432,0.00146864
showcasing -0.0314174,0.0365365,0.00585019,0.0379225,-0.0296019,0.0459552,-0.0610438,-0.0105921,0.0221898,-0.0337915
yeah 0.119851,-0.0428928,0.00744428,0.00439399,-1.12811e-05,0.00317785,0.000146774,-0.00229591,-0.000931749,-0.000207604
year 0.0878554,0.102146,0.00327767,0.00501069,-0.00141931,-0.00514099,0.0121051,-0.00035374,-0.0022646,0.00636687
et 0.0976459,-0.031459,0.0330644,0.0158157,-0.00153301,0.00438645,0.0468449,-0.00433669,-0.0164334,-0.0445438
happen 0.116474,-0.0391405,0.0139107,0.0181671,-0.00643749,0.00920137,-0.00325265,0.00549306,-0.00597186,0.00312678
living 0.0939498,-0.0730915,0.0151229,-0.016174,0.00108652,0.0182316,0.0123369,-0.0412396,0.00480425,-0.0256147
opened 0.0846741,0.0961162,0.00551054,0.00321392,-0.0057476,0.0133134,0.0107521,-0.00544903,0.0144996,-0.00667801
ultimatly 0.114894,-0.0918607,0.0149341,-0.0139415,0.00699593,0.00383715,-0.000559069,-0.00617122,0.0256508,0.00801489
looking 0.11474,-0.0277638,0.00225256,0.00211283,0.0180945,0.00935765,-0.00840003,-0.00943298,-0.00670933,-0.00356004
seriously 0.0540804,-0.291142,0.0273708,-0.0130533,0.0399347,-0.00188981,0.0227212,-0.0345679,0.0499821,0.052187
christain 0.0695571,-0.236304,0.0358717,0.0187715,0.00607178,0.00100942,0.00587921,-0.0468703,0.0602369,0.00560305
correct 0.113917,-0.0590117,0.0055524,0.0103799,-0.00702182,-0.0113101,0.000172839,0.00142045,0.000638472,-0.0156011
shows 0.095493,0.0597077,0.0168664,-0.00338799,-0.00253237,-0.0131315,0.0118558,3.59116e-05,-0.00295118,-0.0137349
goth 0.0841871,0.0963002,0.0114048,-0.00587975,0.00963814,-0.00197319,0.00239534,-0.0014793,0.00468439,0.000985662
joiners 0.105781,-0.0222043,0.0185601,0.0126024,0.000929805,0.010516,-0.0151241,0.00648547,-0.00766159,-0.000280656
state 0.118067,-0.0898017,-0.0125809,-0.00773956,-0.0153684,-0.00427298,0.0122793,-0.0093103,-0.0135734,0.00125278
cars 0.0796139,0.070741,-0.00188131,0.0245685,0.0269019,0.00339248,-0.00430185,0.0269606,-0.0186207,0.0158396
bootlegged 0.0956096,0.0473526,0.00310315,-0.00503577,0.0184137,-0.0156157,0.00138415,0.0324402,0.00922891,0.00996694
million -1.09641,0.416282,-0.117878,0.0498947,0.135007,0.0843118,0.0457814,0.205166,-0.194998,0.0433759
quite 0.0970563,0.060057,0.00861832,-0.00154856,-0.00347784,0.00557864,-0.00655455,0.00491426,-0.00266827,0.0124034
besides -0.645245,-0.125066,0.418455,0.0363547,-0.00250072,-0.011408,0.0793739,0.452416,0.0681959,0.313658
brooke 0.112367,-0.0106322,-0.00803883,-0.00340496,0.0118749,-0.00252247,0.00165959,0.00964707,-0.0117216,0.00520053
care 0.102502,0.0479634,-0.00552285,-0.000856173,-0.00365911,-0.00208353,0.00657082,0.0023795,0.00594565,-0.00386228
discussing 0.110861,-0.265159,-0.0120476,0.00836683,0.044451,-0.0116483,-0.010125,-0.0167152,-0.00835161,-0.0115958
honest -0.662873,0.0485792,-0.233374,-0.201755,0.0168233,-0.129965,-0.164393,0.071276,0.397918,-0.322833
thing 0.0917635,0.0912133,7.13859e-05,0.00282709,0.00570906,-0.00200249,0.00413393,0.000996833,0.00733437,-2.35504e-05
place 0.11662,-0.0196275,0.00311868,0.0014035,-0.00343491,-0.000496998,0.00148846,-0.00239558,0.00132813,0.000889576
heteronormativity 0.0410853,0.119383,-0.00584725,-0.00409441,-0.00409607,0.0265211,0.0475445,0.033671,0.00031593,0.0205657
brokeback -0.113284,0.471833,-0.000502761,-0.00261527,-0.00588361,0.00697337,-0.00358177,0.00354177,-0.00441088,0.0111996
think 0.097227,0.0724321,-0.00242937,0.000156334,0.000950501,0.00351156,0.00165181,0.00271424,-0.00252963,0.00033327
waited 0.105221,-0.0265058,0.0111115,-0.0159838,0.00682617,-0.00285086,0.0104392,-0.00316242,0.0153659,-0.0301177
first 0.101726,0.0528789,0.00406028,-0.00376905,0.00499381,-0.00109748,-0.00712268,0.00118464,-0.00090908,-0.00259656
rachel 0.0860722,0.0636501,-0.00563474,-0.0160435,-0.000684857,0.00432647,-0.00793228,-0.00788195,-0.0192578,-0.0151194
potter -0.040814,0.376325,0.000571802,0.00559978,-0.00863344,0.00778287,-0.000711245,0.00417545,-0.000953212,0.0018771
one 0.089883,0.0991705,-0.000175667,-4.57298e-05,-0.00175939,0.00258962,0.00109176,0.00112179,-0.00269852,-0.000550729
ony -0.0782086,-0.124942,0.0218003,-0.0968415,0.18123,0.0238571,0.0588484,0.0762775,-0.0628446,-0.00539499
spanish 0.0904921,-0.338652,0.0335399,-0.0113029,0.0104585,-0.00586719,-0.00470235,-0.00460667,0.0200039,0.0211707
impossible -0.0816996,0.43292,-0.00370706,0.00408843,0.00132501,0.00366698,-8.66614e-05,-0.00197023,6.40824e-05,0.00317442
sounds 0.0877317,0.0884722,0.0132824,0.0115827,-0.00568944,0.0133321,0.00211939,0.00793644,-0.0134072,-0.00278083
drove 0.0855205,-0.0714892,-0.0116518,-0.00975529,-0.00747354,-0.0320899,-0.0135024,-0.00805598,0.0585405,0.0369314
open 0.120193,-0.0524959,0.000808812,-0.00219679,-0.000762871,0.00470165,-0.00808021,0.00315434,-0.00575869,-0.00948806
tomorrow 0.105693,-0.0220091,-0.00847309,0.00565404,0.0155802,-0.0103585,-0.0141277,0.0152656,-0.00291005,0.0184088
ripping 0.0983018,0.0447933,-0.0253682,0.0152272,-0.0134245,0.00620816,0.00953375,-0.00856835,0.01381,-0.0114119
rented 0.104743,-0.202677,-0.0564988,-0.0199218,0.0147387,-0.00241416,-0.0213741,-0.0310949,-0.00776197,0.00943641
little 0.107541,0.028374,0.00213415,-0.00277984,0.00127448,0.00401063,-0.00193162,-0.00157813,0.00201712,-0.003035
ian 0.0925073,0.070887,0.00149498,-0.00838124,0.00681543,0.00672083,0.0118804,-0.0229913,-0.0107436,-0.0152837
wussies 0.0939419,-0.00496656,0.0290874,0.0172684,-0.000501708,-0.0137125,0.0182062,0.00332515,-0.0230514,0.0060374
virgin 0.124559,-0.171197,-0.00412663,-0.0114108,0.00301982,-0.00549695,-0.0152937,0.00491963,-0.00238945,-2.67681e-05
plastic 0.0255216,0.23846,-0.00925557,-0.0238558,0.00994687,0.0139622,-0.037865,0.00546544,-0.0118788,-0.00276815
anyone 0.101911,0.0518711,-0.00335802,0.000287253,-0.00588777,0.00363564,0.00660402,-0.00100955,-0.00642711,-0.00187734
gyllenhaal 0.0951579,0.0683057,-0.00293763,-0.000524848,-0.0165787,0.00925186,0.0164695,0.00118599,0.00392037,-0.00188962
tragic 0.11101,-0.100264,-0.018523,-0.00747894,0.0104934,0.00778407,-0.0113576,-0.0134637,0.00932752,-0.00819759
white 0.115855,-0.0417458,0.00226373,0.0165171,-0.00167259,0.00605972,0.0170767,-0.00556282,-0.0101428,0.00206412
independant 0.103852,0.00256409,-0.0112038,0.0125965,-0.0260041,0.0189925,0.0017719,-0.000605829,-0.00960316,0.00444183
friend 0.113491,-0.00614216,0.00397332,-0.00458783,0.0044847,0.000859474,0.00138593,-0.00237174,-0.00805398,-0.00553462
gives 0.0843656,0.0648284,0.0110556,-0.000460692,-0.0185741,0.0196069,-0.0223188,-0.000844916,-0.028268,0.00564902
eyes 0.109556,-0.0105099,0.0027642,-0.00347307,-0.00189576,-0.0114127,-0.0157201,-0.000490217,-0.00820213,0.00557312
mostly -0.115554,-0.40971,-0.0225387,0.0414325,0.0573503,0.122448,-0.0526553,0.246466,0.0537733,0.0068078
that 0.0772615,0.139354,0.00254576,0.000344001,-0.00106811,0.00323743,-0.000591117,0.00223616,-0.000976191,0.00177388
indoctrinate 0.11667,-0.0773927,-0.0137026,-0.00553939,-0.00784992,-0.00762093,0.00575442,-0.0106933,-0.00593376,-0.00963879
sequels -0.756817,0.712239,-0.040892,-0.024218,0.0661665,0.0612563,0.0852737,-0.0116625,0.0302346,-0.0247625
butt 0.105217,0.0125904,0.00536529,-0.00775218,0.0144376,-0.00551486,0.00272648,0.0323278,-0.019461,-0.00546379
copy 0.0630183,0.0898578,0.0042528,0.0187697,-0.0371711,-0.00711197,-0.019221,-0.00210231,-0.00829018,-0.0130898
than 0.0934936,0.0860987,0.00215334,-0.000247842,0.00203669,-0.00205927,0.00294877,0.00162863,0.000490781,0.00124139
infiltrate 0.108277,0.0123418,0.0140373,-0.00050144,-0.003353,0.00244587,-0.000370608,-0.00697004,0.00394831,0.0101126
malaguena 0.0897544,-0.00124196,-0.000630409,-0.0201853,-0.0399463,0.0394694,0.0159134,0.0283182,0.0261879,0.0541521
unfortunately -0.250336,0.237145,0.061297,-0.00501106,0.07993,0.0775694,-0.151535,-0.031851,-0.0208162,0.0575114
gotta 0.121681,-0.0922144,0.00316187,0.00536747,-0.00296491,0.00763628,0.00708295,0.00921826,-0.0102195,-0.0169356
future 0.0373268,0.083498,0.031274,0.0022157,-0.0606171,0.000336614,0.0328401,-0.0358478,0.0410493,0.00595916
were 0.0816874,0.125856,0.00316364,0.000359188,0.00201471,0.00147791,0.000367596,0.000618272,-0.00153891,0.00290638
asleep 0.106866,-0.00577938,-0.0102117,0.00213171,-0.00403628,-0.0142829,0.00982893,-0.00362428,-0.0123799,-0.0181188
dissapointed -0.014926,-0.4071,0.00149899,-0.000713507,-0.0098578,0.0351293,-0.00925825,-0.0187623,-0.0394563,0.0374495
sean 0.0948445,0.00727151,-0.00982432,-0.0304668,0.0152737,-0.00399826,0.0214723,-0.0216821,-0.0103223,-0.0122841
and 0.0458617,0.220259,0.00228689,0.00169606,-0.00133049,0.0033357,-0.000850601,0.00481474,-0.00116936,0.00374256
ang 0.0643929,0.17034,0.0114988,-0.000923332,0.00239679,0.000961241,-0.00513288,-8.31382e-05,-0.00363797,0.00876412
sam -0.0200987,0.300294,0.0161788,0.0326221,-0.0386872,0.0110953,-0.0139385,-0.0249951,0.0144091,-0.0115579
slap 0.0783655,0.0749548,-0.0001502,-0.0327872,0.0235409,0.0165688,0.000163773,-0.031481,0.0262094,-0.00595508
sad 0.0925655,0.0530661,-0.00238244,-0.00122061,0.0166698,-0.0195024,0.0120504,-0.0363668,0.0268637,-0.00569463
dash 0.0744732,-0.153206,-0.00493925,-0.00804091,-0.0287692,0.0605928,-0.0190693,-0.0196107,0.0536457,0.0185486
eoin 0.0955366,0.0749708,-0.00687597,0.00537007,-0.00133042,-0.00310833,-0.00191666,-0.00501921,0.00302175,-0.00524529
say 0.103395,0.0464589,0.00282474,0.00127922,0.000705981,0.000121328,0.000879662,0.00376385,-0.00372682,0.00214899
rent 0.0393756,0.223711,0.00744887,-0.0139471,0.00875302,0.00822521,0.0162119,0.013366,-0.00682905,-0.000353063
turner -0.173706,0.410568,0.0391993,0.00387164,0.0255136,-0.0529786,-0.058676,-0.00953361,0.101691,0.0841374
saw 0.0917806,0.0917358,0.00335058,-0.00657729,0.000132903,0.00553697,-0.00379953,0.00145556,-0.00357793,0.00233547
any 0.100303,0.0552071,0.00271815,0.0115835,-0.00611273,0.000852093,-0.00337063,-0.000247583,-0.00256262,0.0039602
superman 0.0892713,0.0917126,-0.0196751,-0.00121934,0.00472313,0.0049377,0.000883427,0.00672384,-0.00764165,0.00699153
astonishingly 0.0857265,-0.0078615,-0.0362791,0.0161907,0.0320893,-0.0520798,-0.00318751,-0.0186605,0.0610027,-0.0518718
chessboard 0.0371372,0.0127975,-0.0018374,0.00616193,6.1065e-05,0.0672504,-0.0400163,0.00381545,-0.00426105,0.0476604
ideas -0.797576,0.713608,-0.0202342,0.0227167,-0.0621693,-0.038779,0.000363857,-0.000329874,0.0519185,-0.0267538
take 0.123693,-0.0884166,-0.0130092,0.00633145,-0.00781507,-0.00737116,0.0036692,0.00459819,-0.00864025,0.000469416
performance 0.10975,-0.109991,0.00121373,0.0261406,-0.00491539,0.00375683,-0.0214337,-0.00241188,0.00634998,0.0079494
begin 0.0946322,-0.0638122,-0.0123646,-0.0304441,0.0100493,0.017971,-0.0218249,0.000570586,0.0367428,-0.0473571
sure 0.114276,-0.00623651,-0.0036547,-0.00061253,-0.00207522,-0.00351781,-0.00245342,0.000721148,0.00306278,-0.00397946
rereading 0.112549,-0.126952,0.0125834,0.0143322,0.0257119,-3.5855e-05,0.0122937,-0.0116265,0.00205481,-0.0116552
normal 0.094729,0.0655409,0.0113099,0.0161568,-0.0113051,-0.00225554,-0.003514,0.00777305,-0.00180866,0.0132861
track 0.0936028,0.0194723,0.0165727,0.0275984,0.000703938,-0.00606396,0.0225733,-0.015058,-0.0156302,-0.0134663
knew 0.101934,0.0402126,-0.0129092,-0.00193094,0.00614376,0.000156289,0.00562637,0.0104442,-0.00359387,-0.0185681
rehearsal 0.0894775,-0.127275,0.0247552,-0.00406232,0.0185551,-0.0351193,0.0269634,-0.0168114,-0.00973895,0.0130555
horridly 0.0944416,0.0473433,-0.00718618,0.0190151,-0.00407547,0.00205392,-0.0150368,-0.00237856,-0.00563079,0.00192999
complaints 0.0613885,0.0734908,-0.0392125,-0.0014571,0.00172868,0.0409069,-0.00618101,0.024496,0.0442659,-0.0220527
america 0.109195,-0.050472,-0.00187216,0.0341272,-0.0135881,-0.0106801,0.00391428,0.0184561,0.00737376,-0.0282912
pages 0.0488986,0.205126,-0.0160729,-0.00291607,0.0055569,0.00243024,0.00415709,0.0106938,0.00373204,0.00852577
queens 0.045879,0.201095,-0.00910182,-0.00982619,0.00835539,-0.00285134,-0.000172146,-0.00346563,-0.00524318,0.00882563
forever 0.090428,0.0648369,-4.74127e-05,0.00164893,-0.00573051,-0.010032,0.00241304,0.0187865,-0.00205415,-0.00262633
sivullinen 0.064813,0.142975,0.0296276,-0.0248864,0.0111681,-0.0125414,-0.0262144,-0.0166501,-0.00582955,0.00360668
wacked -1.75217,-0.547924,-0.0478392,0.0353951,-0.0436722,-0.0137258,0.000891134,-0.00282791,-0.0319839,-0.0409315
dream 0.113855,-0.326202,0.00482408,0.00187463,-0.00275814,-0.0119273,0.00390397,-0.0146821,0.000340272,-0.0125735
later 0.0656084,0.123807,0.0379954,0.0178031,0.0019247,-0.0106893,0.039105,-0.0280894,-0.0158746,-0.0192477
drive 0.12431,-0.212256,-0.0123996,-0.00618608,-0.00642278,-0.00287434,-0.00555234,-0.00623355,0.0225591,0.00223772
mrs 0.121214,-0.141004,-0.0202721,-0.0148973,0.0139489,0.0150214,0.00527967,0.00970784,-0.0149413,0.00881295
potterholic -0.0683423,-0.0710775,0.14789,0.0727274,-0.094518,-0.0184845,0.0810011,0.180788,0.0439916,0.0312946
shop 0.101752,-0.0724273,0.00633411,-0.0133306,-0.0100815,0.0398632,0.00675504,-0.060844,-0.0109483,0.0211323
show 0.0892341,0.0957439,-0.00562252,-0.0126741,0.000845076,0.000938745,-0.00701107,-0.00230861,-0.0058557,-0.00810203
german -1.43515,0.369562,0.0663105,-0.0908325,0.0337519,0.0931643,-0.0819084,-0.0738185,0.0164644,-0.117817
cheap 0.116098,-0.0658544,-0.00702569,-0.0201964,-0.0203499,0.00422158,0.0090772,0.00526378,0.0133866,-0.00619455
discovered 0.100333,-0.00697645,-0.02189,-0.0027242,0.00479741,-0.00503574,-0.0149517,0.0046519,0.00700334,-0.000603005
ground 0.0947645,0.0325633,0.000483642,0.00813216,0.0052165,-0.00179265,-0.0154461,0.00328673,-0.0276501,0.0242484
dick -1.62781,0.00911337,-0.0704749,-0.0327382,0.0579013,0.0235016,0.112608,0.179274,-0.119509,0.0106684
cloak 0.111602,-0.0876809,0.00445322,-0.00882409,0.0027686,-0.00262303,0.0104826,-0.00494791,0.0225221,-0.0118763
only 0.0951383,0.0800549,-0.000327076,0.00115997,-0.00143652,0.00272317,0.000789758,0.00078951,-0.000410203,-0.0012868
going 0.109223,0.0202227,-0.000133359,0.00796194,3.15066e-05,-0.00165701,-0.00320647,0.00197338,-0.0082684,-0.00359772
black -0.0491784,0.331907,0.00422395,0.00260945,-0.0130764,0.00555569,-0.000391116,-0.00238719,0.00387913,0.0409785
robe 0.124716,-0.133377,0.0104496,-0.0130611,0.0029768,-0.00620761,-0.00213448,-0.00697951,0.0159294,0.00794269
lapse 0.117617,-0.0499227,-0.00338637,0.00381062,0.00189516,0.00757933,-0.00995142,0.0163972,-0.0060463,-0.00371026
requim 0.0115985,-0.503222,0.0174733,-0.0311537,-0.0343773,0.0145681,0.0037123,-0.0557039,-0.0224438,0.00669185
beatles 0.114683,-0.0824965,-0.0200245,-0.00142969,-0.0237273,-0.0174781,-0.0194241,-0.0105126,-0.0097151,0.00890406
get 0.104971,0.0406622,0.000329628,-0.000857583,-0.00166008,0.00166055,-3.71244e-05,0.00146192,-6.38505e-05,0.00270284
mormon 0.103016,0.0280137,0.000881798,-0.00278305,0.000680048,0.0115389,-0.000487117,0.000584817,-0.00923327,-0.00064544
freezing 0.0899737,0.0685814,0.000692938,0.0112607,-0.0117517,0.0024447,-0.0144875,0.018346,-0.024039,0.0131636
truly 0.106677,0.00855196,-0.0144476,0.0122535,-0.00206762,0.0101041,0.000884234,0.0171838,0.00525497,0.00420268
nearly 0.120312,-0.0518033,0.000691287,0.00350972,0.00710889,-0.00332939,0.0127401,0.00205719,0.000217306,-0.00333823
hedge 0.115012,-0.0329958,-0.00570499,0.0110995,0.0106652,0.0158548,0.0131943,-0.00259273,0.000979127,-0.0107453
freaking -0.975052,0.480783,0.0933623,-0.218618,-0.079144,-0.215706,0.0233309,0.0748399,0.00955623,0.00667984
oceanwalk 0.0974285,0.0465742,0.00528633,-0.00155595,-0.00726356,-0.0139607,0.0052776,-0.0166366,0.00648617,0.00269661
jokes 0.0761336,0.122451,0.000432767,0.00405564,-0.000937471,-0.0124142,0.00423917,0.00377434,-0.0189964,0.00449721
stupid 0.0369144,0.239758,0.00136095,-0.00142256,-0.00563994,0.00146906,0.00110951,0.000382943,-0.000449541,0.00692921
tent 0.0281976,0.0768292,0.0240899,0.0258049,0.0240472,0.0258153,-0.0176183,0.0142912,0.0530029,0.0385665
where 0.11608,-0.0170491,5.94975e-05,0.00490417,0.00644548,-0.00243714,-0.00410186,0.000533812,0.00144817,-0.00191429
husband 0.0659385,0.069867,0.00125723,-0.0137694,0.0278067,-0.0325525,-0.00813878,-0.0184294,0.0372964,0.00303872
mtv 0.105329,0.0161548,0.0176401,0.00781172,0.00890585,0.00951251,0.0117969,-0.0120891,-0.0142948,-0.00661211
college 0.12177,-0.0714695,0.00282657,0.00364025,-0.00077304,0.0113572,0.000341776,0.00107737,0.00414706,-0.0049214
anyways -1.80845,-0.360574,0.016495,0.0347318,-0.0705666,-0.00787331,0.0193972,-0.0326937,0.0650282,-0.0114983
ruined -0.572974,0.527845,-0.150046,-0.0654823,-0.239263,-0.0028716,-0.0633111,-0.0645333,0.0155647,-0.0143361
review 0.114036,-0.0133004,0.00148941,-0.0129726,-0.000924852,-0.00214424,0.000928454,0.00585173,-4.53107e-05,0.00788517
folows 0.0681322,0.0345019,-0.00437685,-0.0280782,-0.0427101,0.0105451,-0.0436364,0.0152667,0.00532092,-0.00216136
between 0.113495,-0.0998603,-0.0112066,-0.0109339,0.00816634,0.012834,-0.0113999,-0.010258,0.0263462,-0.00313427
enjoys 0.107815,-0.0661492,-0.0164727,-0.0188777,-0.0177838,-0.0125385,0.0156852,-0.00630053,-0.0171099,-0.00258448
reading 0.0911818,0.094142,0.000633473,0.00279856,-0.00213888,0.00393123,-0.000672021,-0.00260529,0.00115488,0.00387038
moives 0.0665205,-0.046245,-0.0142139,0.0426862,0.0135759,-0.0161671,0.00596101,0.0251703,-0.00157456,-0.00571322
blame 0.11467,-0.0726634,0.0132473,-0.0167746,0.00791139,0.0118017,-0.00505872,-0.00257462,-0.00319815,0.00761831
awards 0.11355,-0.0198729,-0.00320383,0.00609745,-0.00137244,0.00467995,-0.00304816,0.00781509,-0.00766997,0.0122409
tun 0.0709585,0.127929,0.0112607,0.00486338,0.0228541,0.00932345,-0.00340356,0.00463802,0.00856908,-0.012504
article 0.104594,0.0292819,0.00831057,-0.0011169,0.0133307,0.00521692,0.00233815,-0.00197017,-0.00397567,-0.000866981
come 0.109549,-0.243524,-0.00322799,-0.00429893,-0.00932754,0.0198489,0.0221783,-0.00866286,-0.00467528,-0.014289
many 0.110006,0.00677812,-0.00140652,-0.00723384,0.00202051,0.00817846,0.00431148,0.0015405,-0.00629788,0.00273629
stupidest 0.116996,-0.0472358,-0.0135326,7.67837e-05,0.00180444,0.007063,0.00150955,0.00588258,-0.000838712,0.00535485
according 0.09675,-0.185752,-0.00488196,-0.00773092,0.0197252,-0.0311643,-0.0180949,-0.00518839,-0.0493628,0.0338395
tour -0.27379,0.509211,-0.0593374,-0.000523135,-0.0253419,0.00748749,0.0191852,0.0940869,-0.0366599,-0.00689116
comes 0.123421,-0.103014,-0.00849404,0.0105818,-0.0013124,-0.0021093,0.0207416,-0.0067334,0.00485541,-0.0102299
characterization 0.111081,-0.0704517,0.0276965,0.00357989,0.034209,0.0298017,0.020205,0.00189411,0.00959165,-0.000829121
color 0.101495,0.0492148,-0.00285783,0.00201473,-0.00225953,-0.00245014,-0.0142708,-0.00874468,-0.00885163,0.00130149
colony 0.10028,0.0547635,-0.00680366,0.00343641,-0.00592968,-0.00136707,0.00569827,-0.00358768,-0.00077182,-0.00431629
period -0.0202662,-0.134625,0.0544508,-0.0194976,0.153536,-0.00763925,-0.077293,-0.0141804,-0.00878457,0.00088565
pop 0.111555,0.000892661,0.000692679,0.000137139,0.00921276,-0.000662628,0.00240761,0.0051462,0.000595526,0.000103543
homosexuality 0.0880306,-0.0863846,-0.0446501,0.0289087,0.053491,-0.000972068,0.0704642,0.0294373,-0.00657304,0.0392279
rickards 0.100673,-0.0583809,-0.00985049,0.00694198,0.0222866,0.0148798,-0.0132256,-0.0156189,0.00691859,-0.0246327
howard -0.2312,0.509146,0.0020057,-0.0194663,0.0275423,0.0298429,-0.0305511,0.0251804,-0.00340443,0.0390158
judging 0.0591033,0.00931683,-0.0563479,-0.0353519,-0.00829313,-0.028959,-0.0400426,0.00677328,-0.00602363,-0.0696855
mary 0.119637,-0.104449,-0.018116,0.00887355,-0.00434972,-0.0146182,-0.00165277,-0.00645868,0.0198724,0.00934398
bullshit 0.0943222,0.074195,-0.00965459,-0.00905572,0.00438699,-0.0052251,-0.0107541,0.00669731,-0.00158183,-0.000734186
marisa 0.075284,-0.0225596,0.0120632,-0.00941141,-0.00741875,0.0057533,0.0390677,0.026779,0.0588916,-0.0170497
wants 0.115337,-0.0593638,-0.0101292,0.0162137,0.0146642,0.00689843,-0.0164117,0.0133849,0.00312011,-0.015502
shopping 0.0972671,0.00855418,-0.00729423,0.0357314,0.0344528,0.00674592,0.00336397,-0.0306733,0.001236,-0.0243618
robbed 0.0971255,0.0325397,0.00141444,-0.00649409,0.0192546,-0.000141213,-0.00257049,0.012523,0.0112931,0.00156943
thousand 0.112259,0.00111261,-9.76995e-05,0.00846709,0.002233,0.00400208,-0.000478458,-0.00584329,0.00104648,-0.00299829
formed 0.0430519,0.212179,-0.00895443,0.00620913,-0.0172145,-0.00857723,0.000290085,0.0118029,-0.00681592,0.000264639
dramatic 0.0999639,0.015187,0.000251905,-0.000154346,0.0014017,-0.00150758,-0.0339462,0.00108696,-0.000955764,-0.0371798
hardcore -0.79423,0.574335,-0.030724,0.224376,-0.0164379,0.179216,-0.0382857,0.0153647,0.0703464,0.00691308
those 0.0885088,0.102988,-0.00395206,0.000344131,-0.00190171,0.00117544,0.00115135,-0.0013656,-0.00385784,2.3853e-05
case 0.0680988,0.123551,0.0306229,0.0224951,-0.0158409,0.00709046,-0.0115679,0.035337,-0.00978928,0.0388694
myself 0.0777878,-0.0060723,-0.0144928,-0.0151957,0.0143228,0.0192552,-0.0141387,-0.00226654,-0.00853611,-0.0131805
these 0.0950107,0.0799924,-0.00375664,-0.00271221,-0.00368246,-0.00042063,0.00197226,0.000184967,-0.000533717,0.00118839
cast 0.0860822,0.0688441,0.0317446,-0.000644384,-0.00519447,0.00404786,-0.0273937,-0.00456647,0.0262005,-0.00465941
dorks -0.239485,-0.588011,0.014843,-0.104972,0.135378,-0.0499357,0.161451,0.00874791,0.11676,-0.0562366
irrespective 0.100969,-0.335422,-0.00333435,0.0150218,0.0233429,-0.00240717,-0.000546398,-0.0312603,-0.00695855,0.012501
mound 0.0973773,-0.00505433,-0.0121646,0.0121165,-0.0340477,0.0135793,-0.0242931,-0.00473424,-0.0272268,0.00207124
cock 0.0784729,0.132517,0.00361307,-0.00203593,-0.00529865,0.00746303,0.00156699,0.00249196,0.00236457,-0.00239363
aniwae 0.0674839,0.0205963,0.0213854,0.0440688,-0.0436054,-0.00263,0.0138517,0.0299076,-0.00859871,-0.00692218
canceled 0.107303,0.00602825,0.00688971,0.0071079,-0.0137907,0.00504298,-0.0164085,0.00732818,-0.0120423,0.00971296
someone 0.110256,0.0138876,-0.00504955,-0.00327893,-0.000393811,-0.00482283,-0.00050692,0.0015529,-0.00330258,0.00211165
whimpering 0.0989514,0.0524647,0.00426946,0.0100159,0.00111038,-0.00363608,-0.00197364,-0.0108766,-0.00201961,-0.00588661
obnoxious 0.114405,-0.0134665,0.00483812,-0.00421827,-0.000821221,-0.00196899,0.00547223,-0.00162135,0.00364277,-0.0058969
different 0.0163862,0.264663,-0.00117667,0.0157816,-0.00742962,0.00447262,-0.0285921,-0.0294652,-0.0187531,-0.0075396
author 0.0958356,0.0665698,-0.006454,0.0061653,-0.00712241,0.00809913,-0.00862152,0.00214052,0.00677094,-0.0055378
media 0.0976157,-0.324857,0.00505201,0.00878118,-0.00903734,-0.00908832,0.0139198,-0.0321339,0.00946303,0.00259379
combonation -0.0792244,-0.446049,-0.111518,-0.0225216,-0.0717667,-0.037204,-0.0919385,0.0477827,-0.0852967,0.0522117
same 0.103868,0.0450375,0.00196721,-0.00393026,-0.00212028,-0.00097854,0.00119941,-0.00115411,-0.00140201,0.00201262
check 0.0994515,0.0280307,0.00703876,0.0108615,-0.000802699,0.0291671,0.00200455,0.00922167,-0.032362,0.0136181
arguments 0.100006,0.042722,-0.0263345,0.0132587,-0.0030466,-0.00192534,0.00604638,0.0064254,0.00093826,0.00602589
events 0.11397,-0.0105634,0.0127315,0.00254089,0.00333097,-0.00271034,0.00204544,0.000568066,-0.00963321,0.000314667
homophobic 0.121696,-0.11627,-0.0137782,0.0112852,0.00331559,0.00803158,-0.0218243,-0.0189077,0.00115952,0.00812433
week 0.0991911,0.0642187,-0.00109694,-0.0011763,0.0001836,0.00352378,-0.00170039,0.00511789,-0.000357416,-0.00146675
visually 0.0989533,0.0478922,-0.00734807,0.0110459,-0.0136798,0.00252087,-0.00745159,-0.00801873,-0.00955243,0.0109403
finish -1.84092,-0.205418,-0.0334525,0.00849273,0.0243471,-0.04357,-0.00623329,0.0190111,0.00686444,-0.0137109
enjoyment 0.114863,-0.073415,0.00147619,0.00043308,-0.0180911,0.00105133,-0.0365733,0.0178363,0.0214797,0.00254178
director 0.0188114,0.0647995,0.0188718,-0.00774581,0.00911004,0.000594531,0.0504934,0.0643325,-0.0332733,0.0469191
totally 0.0981218,0.0541878,-0.00478618,-0.00774481,0.00929688,-0.00270078,-0.00466004,0.00400694,-0.0051507,0.00747009
drain 0.0744388,0.0852432,-0.0235129,-0.00684504,-0.00387954,-0.0567644,-0.0194063,0.0133636,-0.0298357,-0.00877327
theater 0.115368,-0.0647868,0.00568807,0.0101183,0.00551925,-0.00731902,0.00949216,-0.00959274,0.0182438,0.00859307
amazes 0.056833,-0.0848712,-0.00953688,0.0361614,0.0705665,-0.021398,-0.0015883,0.00230782,0.0660235,0.0361764
magical -1.8158,-0.27084,0.0462205,-0.0200878,-0.0422605,-0.0381844,0.00176428,-0.00208353,0.079511,-0.0176131
nothin 0.103413,0.00325279,0.0133864,0.00802311,0.0229264,0.0123925,-0.0153718,-0.00241214,-0.0119907,-0.00929771
without 0.0907752,0.0555573,-0.00820824,-0.0139032,0.00850658,-0.0204975,-0.0145111,-0.00475235,0.00644039,-0.0194722
effects 0.115753,-0.201862,-0.00601349,-0.0242952,0.00529544,0.000702245,0.0043506,0.016652,-0.0107209,0.00504905
summer -0.422635,0.285054,0.112965,0.163159,0.34166,-0.201142,0.132794,-0.175461,-0.115273,-0.111686
being 0.0813172,0.126361,0.000341992,0.00195636,-0.000358514,-0.00490682,0.00429868,0.00251082,-0.00101633,0.00145666
money 0.0884421,0.10093,-0.0110109,-0.00266946,-0.00206195,0.00294493,-0.00220339,0.00607094,-0.000341156,-0.00234089
shadeslayer 0.10449,0.00755893,0.0124837,0.0044403,0.00917553,0.00802525,-0.0279821,-0.00771689,-0.00899071,0.0210595
rest 0.106291,0.00353476,0.00647549,-0.00969364,-4.94542e-05,-0.000561326,0.00726935,-0.0160384,-0.0171545,0.00665323
personaly -0.0129948,0.202179,-0.0613487,-0.00995047,0.00917115,-0.0370696,-0.0510723,-0.0235058,-0.0787565,0.069582
kill 0.0395918,-0.213372,0.0643986,0.0460903,0.0204678,-0.04245,0.00606652,0.0650713,0.0307385,0.000819124
harrison -0.128807,-0.395683,0.122515,0.0956077,-0.0671276,0.142942,0.0381909,-0.0222153,-0.14949,0.139876
halfway 0.0719983,0.0958233,-0.0155222,-0.0165781,0.00885494,0.000103816,-0.0122009,-0.00856066,0.0200206,-0.00315207
japenese 0.0578414,-0.428907,0.0066486,-0.00373516,-0.00509858,0.0362126,0.0191587,-0.00810125,0.0158133,-0.00585482
death 0.125989,-0.172599,-0.0111969,0.0070216,-0.00988489,0.00271287,0.00843364,-0.00141821,0.00100161,-0.0307162
thinking 0.117523,-0.0429069,-0.00691103,0.00233096,-0.00194591,0.00465979,0.0153091,-0.00256007,-0.00361252,-0.00178197
seems 0.090829,-0.324563,0.0150155,0.0494949,-0.018026,-0.00550436,-0.00952472,0.00994848,0.0208586,-0.00605179
except 0.0934969,0.0776699,-0.00416034,0.00531118,0.0028151,0.00115712,0.00100738,0.00270274,-0.00174669,0.00518885
blog 0.0879954,0.0482445,0.0180565,0.0128946,-0.00146906,-0.0229257,-0.00299221,0.0111867,0.0153841,0.00748496
lets 0.11421,-0.177573,-0.0375823,0.0275085,0.0273707,0.00292216,0.00344853,-0.0141827,0.00323027,0.027885
setting 0.0939499,0.0496171,0.0104339,-0.00582071,0.0079771,0.000152568,0.0043808,0.00789381,-0.0015297,0.0281709
subtitles 0.069418,0.132167,-0.011632,-0.00283211,0.0105999,-0.00642171,0.00793559,0.0112406,-0.00262211,0.0174673
versa -0.0879093,0.29968,0.0120725,-0.0139002,-0.00955964,0.0400583,0.0427383,0.0379656,-0.0246081,-0.0377694
real 0.103125,0.0449734,0.0039838,0.00716639,-9.5157e-05,0.00417696,0.00228968,0.000682265,-0.00177773,0.00333991
jake 0.109524,0.0177346,-0.00485227,0.00121568,-0.000297104,0.00332944,0.00413139,-0.00377363,0.00483575,0.00213129
around 0.0956116,0.0766634,-0.000873828,0.001033,0.00127489,0.00427696,0.00491697,-0.000705522,0.00349378,0.000570586
rules -0.13387,0.414311,0.049257,0.0129687,0.00245415,-0.0490372,-0.0486686,-0.00345995,-0.0386393,0.0660636
offence -0.477837,0.596018,0.0602519,-0.00299348,0.0244174,-0.00574716,0.0755913,-0.0206707,-0.0113699,-0.100488
gonna 0.10978,-0.0899152,-0.000549911,-0.0226017,0.00604651,0.00519329,0.00164855,0.00158321,0.0419489,-0.0206443
simmons 0.111792,-0.0582325,-0.00066907,-0.0124498,0.013778,-0.00547338,-0.00530433,-0.0141193,-0.0113836,-0.0336082
mom 0.114576,-0.0128133,-0.00273867,0.00631532,-0.00276591,-0.00105331,-0.0050436,-0.000970102,9.39337e-05,-0.00282071
mob -0.557371,0.584024,-0.0406246,0.0713954,0.0415641,-0.0720607,-0.00277826,0.189726,-0.145716,-0.16377
boycotted -0.0332181,-0.141233,-0.145263,-0.0415035,-0.0613019,0.0558764,0.102662,-0.00584072,0.102129,0.0223363
disappointed -0.105655,-0.658395,0.0730732,-0.00269214,0.0172616,0.0488623,0.0495099,-0.00381958,0.0317945,0.00565283
oddly 0.0971033,0.059011,-0.00677028,0.00623922,0.00267796,0.0135896,-0.00322232,0.0111053,-0.00305739,-0.00098082
facing 0.109218,0.0118825,-0.00808601,-0.0024326,0.00290212,-0.00435755,-0.0114328,-0.000738851,-0.00163205,0.00131532
chamber 0.0981723,0.0465131,-0.0122901,3.56995e-05,-0.0105309,0.010608,-0.00224674,-0.01652,0.00925056,-0.00157109
benefit 0.10321,-0.293899,0.00466335,0.0146486,-0.00490056,0.0132232,-0.0433601,0.0067513,-0.0302953,-0.00952406
either 0.111194,0.00124234,-0.00600929,-0.00107165,-0.00681039,-6.89696e-05,0.00976177,0.000732204,0.0046492,0.00733064
fully 0.112648,-0.0546851,-0.0146862,-0.000722372,-0.000435028,0.00959033,0.00165982,-0.00316545,0.00910253,-0.00313445
nice 0.115418,-0.0230522,0.0110219,0.00801588,0.00511132,-0.0115293,0.0106577,-0.00721103,0.00368904,0.00171181
witchcraft 0.115662,-0.221696,-0.0106227,-0.00527018,0.0137063,0.00343569,0.00356584,0.00472494,-0.0104879,-0.0103496
cowboys 0.107796,0.023121,-0.00381444,0.0026172,0.00338351,0.00122164,-0.00369775,0.00753396,0.00709702,0.00776042
images 0.055132,-0.141677,0.00365535,0.0450577,-0.0519596,0.08731,0.0250246,-0.0192625,0.00293809,0.0347093
thinks 0.0963541,-0.0231609,0.0220717,-0.0404947,0.00814059,-0.00648313,-0.0238139,-0.014097,0.00808353,0.0252413
caribbean 0.108661,-0.101521,0.0270573,-0.000121182,0.00473376,0.0107576,0.0315138,-0.00261884,0.00618409,0.0161118
mood 0.0774028,0.0313619,-0.00279279,0.0278842,-0.0126759,0.041267,-0.0306449,-0.0793617,4.60185e-05,-0.0190004
throat 0.0981806,0.0452187,0.00925189,0.0072455,-0.0227959,0.00448596,0.0125611,0.00245554,-0.00638869,0.00432965
brigid -0.0216642,-0.622884,-0.0291307,0.0110774,0.0554918,-0.000810107,-0.0406492,-0.00257521,-0.0636829,-0.00468762
biased -0.390479,0.634557,-0.00334143,0.0255283,0.0242968,0.0238932,-0.0170401,-0.0520191,-0.0369544,0.0190012
sixth 0.115777,-0.235641,0.000128191,-0.00672108,-0.00235472,0.00283369,0.000128163,0.00363783,-0.00729494,-0.0114029
standpoint 0.0960692,0.053813,0.00630985,-0.0142539,-0.00170828,0.016618,0.00752389,0.00546538,-0.00970205,0.00511614
exciting -1.78971,-0.408182,-0.0209139,0.0198643,0.025093,0.0201843,-0.0703653,-0.0479838,-0.00813829,0.00460352
on 0.0908591,0.0959924,-0.000175538,0.0005668,0.00105286,0.000599337,0.000760254,0.00340932,-0.00097895,0.00245513
