 0.00284073,0.269652,-0.106901,0.0872068,-0.0346072,0.0588912,0.0950645,-0.065804,0.0941544,0.0824629,-0.0244411,-0.0744269,-0.097606,-0.090353,-0.0956319,0.0149249,0.0113858,0.0703039,0.0794757,0.0704625,-0.020671,-0.105707,0.08502,0.166803,-0.0501176,-0.177263,0.0457316,0.0696721,0.0663663,0.000911855,-0.0128967,-0.0296515,-0.112916,0.0853993,0.0436385,0.0679268,-0.0651061,0.214939,0.0484111,0.0489358,0.049844,-0.125696,0.044995,-0.0269734,-0.160896,0.131505,-0.151078,-0.0620228,-0.011443,-0.0373249,0.0389564,-0.0522983,-0.101508,-0.130698,-0.0650186,-0.146162,-0.0501883,-0.0699283,0.127359,0.111123,-0.0138149,0.0336156,0.277144,0.168698,0.00252798,0.000697951,0.104685,0.102663,0.145667,-0.118512,-0.00461286,0.101111,0.0451661,0.155065,0.0165224,-0.0518122,0.119577,0.104109,0.0521966,-0.125201,0.00698952,0.125256,0.0637803,-0.0744425,-0.158252,0.0563818,0.0761198,-0.164965,0.111301,0.0758768,-0.134402,-0.000137888,0.0974114,-0.122619,-0.096806,-0.0545533,-0.0761498,-0.114828,0.198354,0.0221155
suspenseful 0.0232179,0.261667,-0.104537,0.106867,-0.0638335,0.0527452,-0.0118672,0.0674622,0.000832837,0.0289304,-0.144195,-0.107505,-0.188916,0.00455074,-0.000118184,0.0914313,0.0506041,-0.0141045,-0.0915339,-0.0576819,-0.0860784,-0.122989,-0.0333864,0.213015,0.0940734,-0.080975,-0.012522,0.102518,0.0248733,-0.00234252,-0.112568,0.238443,0.0180426,-0.0115351,-0.0617788,0.115889,0.0536406,0.134873,-0.0023142,-0.0714259,-0.135356,-0.039013,-0.0708225,-0.0967298,-0.0909274,-0.08072,-0.0704303,-0.122454,0.182503,0.101493,0.093313,-0.0889763,-0.0825082,-0.0691248,-0.0876663,-0.100851,-0.0370022,0.0256913,-0.0808294,-0.042194,-0.113515,0.0612546,0.176553,0.054512,0.097411,-0.122083,-0.0332588,0.105509,0.19968,0.00472398,0.0347836,0.0978967,0.0300029,0.0728532,-0.0126775,-0.0680815,0.0354594,0.0110959,-0.00305291,-0.0315907,-0.0392857,-0.036882,0.0878072,-0.215868,-0.151078,-0.0626183,-0.0633776,-0.197098,0.0906906,-0.0196678,-0.25077,-0.17577,0.0304279,-0.0236779,-0.04812,0.0686232,0.0327986,-0.0697999,0.178991,-0.00809275
four 0.0542955,0.258007,-0.124571,0.0550545,-0.0253092,0.0782189,-0.010391,0.0116488,0.0334321,0.022181,-0.150807,-0.150498,-0.215498,-0.0193441,-0.0634998,0.129035,0.0860239,0.0522674,-0.0759963,0.0119347,-0.0552078,-0.178083,0.0113671,0.233236,0.111723,-0.119886,0.0120575,0.0820618,0.00483787,-0.0164936,-0.128567,0.169837,-0.0617806,-0.00200129,-0.053974,0.120876,0.00305602,0.188469,0.0396181,-0.0268381,-0.0784037,-0.0186176,0.00319766,-0.146047,-0.145942,-0.0153417,-0.10324,-0.0684603,0.157314,0.0682924,0.108957,-0.068128,-0.0836488,-0.11084,-0.0306173,-0.131807,-0.0399875,-0.04413,-0.0093093,0.0106236,-0.0955374,0.0560348,0.224445,0.111395,0.109556,-0.0805964,-0.0447549,0.105594,0.180661,-0.0469119,0.030498,0.0699859,0.029441,0.118685,-0.0532751,-0.0330119,0.083614,0.0750159,0.0538543,-0.0275887,-0.0238629,0.0447197,0.0316596,-0.168501,-0.197096,-0.0290292,-0.058083,-0.152337,0.0869313,-0.0380853,-0.220629,-0.164386,0.0504244,-0.0220716,-0.0219272,0.023155,-0.0192138,-0.0312725,0.14627,-0.0478391
asian 0.0494114,0.24743,-0.114822,0.0572642,-0.018735,0.0690539,-0.0200422,0.0341948,0.0309808,0.00436131,-0.151501,-0.162189,-0.217488,-0.0281469,-0.0526873,0.142513,0.095321,0.0474631,-0.0852281,0.00988267,-0.0625943,-0.162887,0.0106321,0.253755,0.137351,-0.0937819,0.013972,0.0583058,-0.0113219,-0.0198273,-0.13226,0.17668,-0.0395635,-0.0120731,-0.066875,0.137528,-0.00262908,0.186449,0.0295231,-0.0340786,-0.104911,0.00920758,0.00266186,-0.142918,-0.130924,-0.0510201,-0.103694,-0.0609247,0.14468,0.078565,0.100112,-0.0671491,-0.0841423,-0.114655,-0.0485051,-0.13372,-0.0258106,-0.0337083,-0.0436159,-0.0183031,-0.104688,0.0429998,0.214994,0.109442,0.129819,-0.087054,-0.0466808,0.107792,0.173039,-0.0411987,0.0136409,0.0762542,0.03081,0.0959064,-0.0713175,-0.0201977,0.0780564,0.0678806,0.0316554,-0.0212021,-0.0264304,0.0273494,0.042024,-0.158749,-0.18468,-0.0367652,-0.0659129,-0.160708,0.0633126,-0.0561261,-0.234703,-0.155345,0.0418001,0.00284219,-0.026192,0.0158098,0.0128018,-0.029444,0.14701,-0.0585892
mcgarther 0.0511995,0.259931,-0.0974229,0.0478733,0.00994171,0.0366004,-0.0265187,0.0313545,0.00662927,-0.014992,-0.138396,-0.125519,-0.227635,0.0121992,-0.073837,0.145676,0.10714,0.052981,-0.114043,-0.00756525,-0.0371279,-0.136498,0.0123979,0.266416,0.160028,-0.0756974,-0.0052939,0.0980691,0.0154615,-0.020272,-0.116057,0.168729,-0.0332935,-0.0449911,-0.0821657,0.0991056,-0.00925385,0.175423,0.0463022,-0.00134982,-0.105589,0.0187703,-0.00705501,-0.161798,-0.117824,-0.0474136,-0.111756,-0.0761693,0.136694,0.0948421,0.0965241,-0.0596585,-0.0510107,-0.080328,-0.0105019,-0.138034,-0.0488597,-0.0397366,-0.0669968,-0.00584214,-0.0873811,0.0746865,0.194114,0.131523,0.143232,-0.106816,-0.0605154,0.0942453,0.19777,-0.0618182,0.0350687,0.0404382,0.0553584,0.0733685,-0.0710887,-0.00657109,0.0395222,0.0381347,0.0321372,-0.016239,-0.0410379,0.0479566,0.032296,-0.17304,-0.172662,-0.0463102,-0.0551962,-0.155032,0.0943932,-0.0760753,-0.210663,-0.182774,0.0557158,-0.0130505,-0.0285735,0.0417889,-0.0032869,-0.0451642,0.156545,-0.0411875
hating 0.0489907,0.243815,-0.137275,0.0226868,-0.0442601,0.0739243,-0.0200394,0.0109427,0.0329149,-0.000962212,-0.139146,-0.134712,-0.222966,-0.018174,-0.0740231,0.167201,0.104733,0.0157498,-0.0777407,0.0227564,-0.0415871,-0.160143,0.00156834,0.237227,0.128131,-0.073353,-0.00045096,0.0719106,0.0129617,-0.0300501,-0.165126,0.215328,-0.0538821,-0.0258122,-0.073477,0.1424,0.0153503,0.148457,0.0212335,-0.0546575,-0.124273,0.0367681,-0.00690865,-0.174372,-0.12322,-0.0723369,-0.114148,-0.0398984,0.187497,0.0503036,0.111471,-0.0767183,-0.0668254,-0.0844934,-0.0373056,-0.0891634,-0.055509,-0.00907222,-0.0755245,-0.0342676,-0.0899788,0.029532,0.175773,0.079241,0.137522,-0.0683381,-0.0606505,0.0775726,0.201941,-0.0291864,0.0171964,0.0449398,0.00279915,0.0932681,-0.0421308,-0.0258441,0.0575341,0.0587254,0.0634364,0.013723,-0.0307454,0.0064316,0.0374982,-0.162927,-0.197105,-0.076413,-0.0980678,-0.115863,0.0623198,-0.0826376,-0.218905,-0.189009,0.0628979,0.027024,-0.0262806,0.0050529,0.0280511,-0.00618717,0.115051,-0.0738848
captain 0.0534278,0.236875,-0.134034,0.0382686,-0.0176869,0.0624434,-0.0335515,0.0232589,0.01899,0.0142064,-0.157933,-0.157007,-0.217423,-0.0197282,-0.0600404,0.148086,0.102327,0.0421637,-0.0892237,-0.00981842,-0.0716557,-0.160278,-0.0130481,0.2318,0.153856,-0.0984784,0.00424141,0.0765022,-0.0225644,-0.0241194,-0.152914,0.21053,-0.0245635,-0.0323194,-0.0590213,0.123607,-0.0014396,0.168142,0.0334676,-0.0387469,-0.111339,0.0069108,-0.0240494,-0.150606,-0.13198,-0.0692539,-0.079242,-0.0634693,0.180182,0.0628775,0.0978453,-0.0819399,-0.0675829,-0.1081,-0.0384379,-0.107454,-0.0412679,-0.0102296,-0.0657315,-0.0091051,-0.106588,0.0488717,0.180515,0.104176,0.12938,-0.0846079,-0.0766952,0.0953385,0.172259,-0.02117,0.0214068,0.0662021,0.0362066,0.0857714,-0.0745874,-0.015292,0.0644758,0.0731135,0.052242,0.00968181,-0.051546,0.0275227,0.0139012,-0.172816,-0.1697,-0.0415529,-0.0933757,-0.143407,0.0650187,-0.0832498,-0.217394,-0.189916,0.050854,-0.00154533,0.00178939,0.0359483,0.0225368,-0.00654397,0.135665,-0.0562234
hate 0.0350818,0.283443,-0.127409,0.0754264,-0.0259025,0.0697042,0.0346258,-0.0222138,0.0679874,0.0510146,-0.107524,-0.134109,-0.18176,-0.0578008,-0.0822823,0.0888571,0.0626458,0.0514997,-0.0145937,0.0349743,-0.050911,-0.153491,0.0489168,0.235436,0.056051,-0.155459,0.0243785,0.0789423,0.0317936,-0.008342,-0.0899308,0.092912,-0.0817164,0.0332413,-0.0122991,0.114282,-0.0265948,0.210833,0.0539223,0.011938,-0.0312792,-0.0599387,0.0181562,-0.104203,-0.167052,0.0405558,-0.138261,-0.066907,0.0957044,0.0184882,0.0852431,-0.0773394,-0.102268,-0.132644,-0.0579794,-0.144749,-0.0479218,-0.0537028,0.0444245,0.0537782,-0.0641583,0.0432575,0.265997,0.151635,0.0756648,-0.0544009,0.0213302,0.107822,0.184614,-0.0808981,0.0101374,0.101619,0.0374777,0.139327,-0.0331059,-0.0418921,0.0998952,0.0949789,0.0497968,-0.0720202,-0.0174408,0.0828597,0.0517972,-0.138786,-0.193022,0.0044294,-0.0075881,-0.168366,0.0969834,0.00297714,-0.208256,-0.101543,0.0799408,-0.061689,-0.0595232,-0.0151802,-0.0350891,-0.0728213,0.183276,-0.0200858
poorly 0.0254239,0.156992,-0.0803359,0.0129096,0.0371103,0.0375516,-0.0931056,0.07838,-0.0554003,-0.0374858,-0.16228,-0.181581,-0.191513,0.00486968,-0.0127713,0.157535,0.15407,-0.0268896,-0.116782,-0.0785331,-0.0943317,-0.149204,-0.0307265,0.214304,0.181934,0.017516,-0.0440921,0.0665872,-0.0390629,-0.0602404,-0.168084,0.279058,0.0586353,-0.0815673,-0.111625,0.150264,0.0798377,0.0481351,-0.016322,-0.048677,-0.187504,0.0610364,-0.0749825,-0.134955,-0.122182,-0.168873,-0.0616009,-0.030368,0.199119,0.084008,0.0927883,-0.0120002,0.0147424,-0.07602,-0.028068,-0.107124,0.0235621,-0.034089,-0.113529,-0.0998171,-0.0677204,0.0646487,0.0673027,0.0371846,0.1742,-0.155799,-0.0774081,0.0604099,0.115539,-0.0150797,-0.0085418,0.0617481,-0.0112254,-0.00944629,-0.117461,0.000749044,0.0333177,0.017574,0.00491735,0.0488282,-0.00712995,-0.053895,-0.0207275,-0.116528,-0.156628,-0.0540362,-0.13938,-0.0800048,0.0552652,-0.162346,-0.148574,-0.173745,-0.00465631,0.0419439,0.00515891,0.0169686,0.012297,0.0588097,0.0189086,-0.117538
stinks -0.0568957,-0.114063,0.0830617,-0.0144947,-0.00842714,-0.0257342,0.111287,-0.0849759,0.0338472,0.0224591,0.146531,0.160789,0.1979,-0.0448831,-0.0198977,-0.183761,-0.124051,0.00524714,0.16858,0.0255656,0.0422773,0.120347,0.0496571,-0.165983,-0.217446,-0.0104833,0.0324026,-0.0234097,0.0554586,0.03399,0.167059,-0.239027,-0.0442766,0.0746213,0.102141,-0.133809,-0.0436169,-0.0591693,0.00357225,0.0855644,0.149116,-0.117824,0.0533853,0.191353,0.0610217,0.168344,0.00837622,0.0531038,-0.213117,-0.113892,-0.0872931,0.0738605,0.0202538,0.0664606,0.00181457,0.0329931,0.0157197,-0.0409203,0.145015,0.112931,0.0933423,-0.054468,-0.0573364,-0.0386813,-0.154779,0.119415,0.163426,-0.0574271,-0.12914,-0.0504195,-0.0254828,-0.0199182,-0.00992112,-0.0168543,0.0705963,-0.010074,0.0102097,0.0022702,-0.0259314,-0.0775588,0.0481505,0.0607911,0.0258454,0.172927,0.105869,0.0816111,0.140245,0.0588614,-0.0248826,0.135077,0.208253,0.226095,0.00402704,-0.0674125,-0.0470912,-0.0491457,-0.0461273,-0.0286249,-0.0480693,0.0900459
spec 0.0409691,0.262438,-0.13836,0.0673326,-0.0267172,0.0694573,-0.0115232,0.0444707,0.0265291,0.030888,-0.129406,-0.177512,-0.227738,0.00425211,-0.03004,0.143372,0.0915853,0.0171098,-0.0936248,0.00381474,-0.0552184,-0.143847,0.00758148,0.234834,0.133006,-0.100557,-0.020854,0.0453377,0.0125915,-0.00895828,-0.145994,0.188,-0.0436802,-0.00171107,-0.0767856,0.119341,-0.0162329,0.160619,0.0575326,-0.0194443,-0.109327,-0.00388702,-0.0248618,-0.141074,-0.162713,-0.0357995,-0.12561,-0.0459611,0.173353,0.0645464,0.117391,-0.081279,-0.0827607,-0.112724,-0.0422179,-0.0914635,-0.0224306,-0.0492959,-0.0732505,-0.0356593,-0.0697864,0.0271089,0.194318,0.0858695,0.142298,-0.107817,-0.0384527,0.0759147,0.176771,-0.0318774,0.0466037,0.0651362,0.0408764,0.0839941,-0.0431877,-0.0451243,0.056745,0.0404166,0.0233265,0.00987129,-0.0542717,0.0375592,0.00695058,-0.161198,-0.197844,-0.0448886,-0.0828004,-0.166396,0.0643646,-0.0404021,-0.206367,-0.179572,0.0594178,0.00799703,-0.00354344,0.0490944,0.0200036,-0.0452261,0.150022,-0.0560057
voted 0.0753416,0.268521,-0.152268,0.0456099,-0.0178787,0.0870658,-0.0220309,-0.0078677,0.0247911,0.0357751,-0.129476,-0.133129,-0.193901,-0.0316355,-0.062545,0.127843,0.0896996,0.0419966,-0.0471902,-0.0138693,-0.0686191,-0.172766,-0.00641468,0.244486,0.111816,-0.112645,0.034598,0.0725386,-0.0153377,-0.00944141,-0.140973,0.178518,-0.0735326,0.0126826,-0.0682399,0.11144,0.0149926,0.166835,0.0249832,-0.0364446,-0.0947296,-0.0216908,-0.0198508,-0.116113,-0.153275,-0.0141675,-0.10388,-0.045422,0.134196,0.0417361,0.0991582,-0.0606264,-0.104537,-0.125121,-0.038289,-0.145879,-0.0281724,-0.0122051,-0.0285721,0.0218749,-0.0652357,0.0579366,0.243188,0.12905,0.105879,-0.0968991,-0.0516396,0.115876,0.186055,-0.053098,-0.00227326,0.0832647,0.00919922,0.108178,-0.0589431,-0.0237412,0.0650212,0.0640161,0.0493441,-0.0239999,-0.0354018,0.0505579,0.0585698,-0.157117,-0.202261,-0.0335709,-0.0717879,-0.133686,0.0882233,-0.0242224,-0.222885,-0.173184,0.0554089,-0.0378534,-0.0490254,0.0265229,-0.0146554,-0.0215352,0.132691,-0.0551832
trousers 0.0598509,0.252676,-0.138239,0.0517105,-0.0265737,0.0636073,-0.0164404,0.0287829,0.0474729,0.0294068,-0.152799,-0.14517,-0.216414,-0.0254448,-0.0660089,0.134495,0.106399,0.0459413,-0.071993,0.0052161,-0.0673049,-0.166155,-0.00459129,0.238119,0.112552,-0.113418,0.00133495,0.0695981,0.00714659,-0.013714,-0.134069,0.169481,-0.0538477,-0.0150524,-0.053478,0.12476,-0.00254785,0.182547,0.0368019,-0.0271439,-0.100341,0.00363886,-0.0166859,-0.156427,-0.147338,-0.0258855,-0.116613,-0.0724434,0.145731,0.0657246,0.0976848,-0.0812489,-0.0832629,-0.10851,-0.0402086,-0.112836,-0.0375001,-0.0195511,-0.0295047,-0.0160098,-0.0882283,0.0357758,0.221378,0.107508,0.107349,-0.0850459,-0.0346025,0.0955803,0.181697,-0.0383251,0.0187792,0.0668652,0.0375046,0.104479,-0.0702807,-0.0272909,0.0693925,0.0801601,0.0501959,-0.0249539,-0.0248547,0.0315956,0.0385773,-0.170152,-0.18685,-0.0513381,-0.0642815,-0.158453,0.0803433,-0.0652667,-0.230941,-0.169983,0.0532633,0.0036825,-0.0320828,0.0279235,0.00436208,-0.0302452,0.148847,-0.0447501
lore -0.0803073,-0.224546,0.105564,-0.0378389,0.0435251,-0.0583192,0.00974141,-0.0261132,-0.0355495,-0.00320307,0.17468,0.169042,0.206126,-0.00619637,0.0690669,-0.155703,-0.0999727,-0.0322772,0.0827661,0.0464921,0.0533332,0.181836,0.0413748,-0.205608,-0.160786,0.0468931,0.0153022,-0.0917764,0.0236333,0.0240299,0.160592,-0.21358,0.000174975,0.0318836,0.105723,-0.117991,0.0131391,-0.161448,-0.017285,0.0317934,0.0944671,-0.0138646,0.0217642,0.19145,0.0891913,0.0839463,0.103158,0.0768664,-0.170471,-0.0688039,-0.0776434,0.0663599,0.0413929,0.0929318,-0.00240285,0.0822462,0.0363289,0.0400288,0.0862443,0.0239069,0.0780897,-0.0132922,-0.164987,-0.0812266,-0.125249,0.0900245,0.063442,-0.119729,-0.199102,0.0143548,-0.0579228,-0.0564132,-0.0203896,-0.0455309,0.0495896,0.000377447,-0.0774145,-0.0578609,-0.0681497,-0.00692344,0.0475512,0.0165133,-0.0374518,0.205074,0.138319,0.0363351,0.120115,0.149803,-0.0260795,0.0658804,0.253926,0.191505,-0.00517241,-0.0549047,-0.0236499,-0.0322757,0.00552843,0.00246703,-0.116418,0.0657288
lord 0.0541759,0.23331,-0.111405,0.0570467,-0.026582,0.0604893,-0.0585803,0.0191892,0.0169617,0.00447421,-0.15838,-0.163447,-0.235982,0.00658547,-0.0405594,0.160739,0.112631,0.0264854,-0.116914,-0.0156585,-0.0475163,-0.176676,-0.015342,0.238618,0.15272,-0.0690641,-0.0156007,0.0509638,-0.00962895,-0.036691,-0.158333,0.188638,-0.0382635,-0.0545425,-0.0565831,0.10888,0.0142829,0.144835,0.0364538,-0.0480726,-0.131944,0.0248399,-0.0353628,-0.162464,-0.106331,-0.0696559,-0.0800852,-0.0567917,0.195183,0.0729777,0.0937146,-0.0816248,-0.0563136,-0.11169,-0.0397917,-0.114033,-0.0421386,-0.0330812,-0.081394,-0.0264252,-0.115444,0.0357984,0.19346,0.0716357,0.148532,-0.096297,-0.0621668,0.0848843,0.157582,-0.0122342,0.0186732,0.0587915,0.023961,0.08335,-0.0615118,-0.0322956,0.0495188,0.0749279,0.0247477,-0.00336972,-0.0397848,-0.000285775,0.0132531,-0.15153,-0.18131,-0.0598901,-0.0822616,-0.133779,0.0374822,-0.0848253,-0.226194,-0.191126,0.0529432,0.0157608,-0.0114783,0.0408937,0.0298524,-0.0125315,0.128564,-0.0588383
sorry 0.0962201,0.211449,-0.135578,0.0230523,-0.0206381,0.0741466,0.021316,0.00444645,0.0288606,0.0225533,-0.164271,-0.113954,-0.238736,-0.035991,-0.0153575,0.162356,0.0859831,0.0890698,-0.0340832,0.0314948,-0.0170442,-0.210494,-0.008769,0.279494,0.135643,-0.0868631,-0.0298331,0.125056,0.0376676,-0.0144926,-0.155935,0.155716,-0.0731732,0.00443038,-0.00371466,0.0897599,-0.0292627,0.158211,0.0364221,-0.0216148,-0.108729,-0.0155795,0.0271211,-0.0856026,-0.130265,0.0108676,-0.0742235,-0.0187446,0.136521,0.0751643,0.12627,-0.0492343,-0.0520126,-0.137141,-0.0568715,-0.179236,-0.0927047,0.00753809,-0.0415687,-0.0322349,-0.101927,0.0127587,0.24868,0.0703831,0.112346,-0.0381911,-0.0783795,0.13042,0.13159,-0.0691935,0.0676639,0.060949,0.0469223,0.0927254,-0.056174,-0.0763866,0.0974531,0.0284917,0.0663129,-0.0351947,0.0178055,0.0645879,0.0169571,-0.112635,-0.140439,0.0082585,-0.0274399,-0.161969,0.0293271,-0.0108075,-0.193942,-0.179696,0.0249914,-0.0360253,-0.0582935,-0.00445155,-0.0574529,-0.0273618,0.201746,-0.0226398
worth 0.0655484,0.275504,-0.143299,0.0661901,-0.0281791,0.074548,-0.011956,0.00261644,0.0659565,0.037512,-0.127349,-0.146391,-0.207303,-0.0423432,-0.0685075,0.12134,0.0888762,0.0628137,-0.0683699,0.00875778,-0.0633127,-0.153798,0.0304231,0.235492,0.0904958,-0.133065,0.00152904,0.0733753,0.0215973,0.000319448,-0.121615,0.134166,-0.042777,0.0135143,-0.042583,0.129805,-0.0112372,0.209236,0.0298427,-0.0181825,-0.0654223,-0.0261834,-0.0121843,-0.116207,-0.154894,0.00369033,-0.106797,-0.0592246,0.143656,0.0566486,0.0864877,-0.0906148,-0.105663,-0.104175,-0.0424432,-0.121792,-0.0498988,-0.0498825,0.0120403,0.0259563,-0.0805279,0.0316897,0.257057,0.119847,0.11508,-0.0650087,-0.0144376,0.10638,0.195988,-0.0619443,0.0323874,0.091386,0.0269209,0.105134,-0.0589068,-0.0314644,0.0795394,0.0800084,0.0599737,-0.0283448,-0.0455457,0.0660284,0.0296807,-0.148512,-0.17989,-0.0375087,-0.0399534,-0.167084,0.0770192,-0.0420086,-0.225762,-0.133686,0.072951,-0.0393039,-0.0343628,-0.00319618,-0.0335323,-0.040268,0.154631,-0.0494685
oceans 0.067087,0.246485,-0.12056,0.0446513,-0.0209318,0.0587398,-0.0309698,0.0179283,0.0389027,0.0120521,-0.155346,-0.158907,-0.230977,-0.0216098,-0.0420969,0.132922,0.102702,0.0368295,-0.0934145,-0.00525179,-0.0514285,-0.156988,-0.0138259,0.224387,0.129311,-0.0957973,0.00602674,0.0561801,-0.0138936,-0.0285384,-0.134795,0.194269,-0.0459639,-0.023095,-0.0683434,0.138341,0.00274474,0.177671,0.0494825,-0.0332487,-0.109414,0.0216422,-0.014235,-0.156946,-0.1453,-0.0449514,-0.0985934,-0.0670652,0.176322,0.0862468,0.0942466,-0.0926478,-0.0780086,-0.107993,-0.0334096,-0.112506,-0.0463992,-0.017655,-0.0379558,-0.0144706,-0.104234,0.0612073,0.207118,0.102344,0.125367,-0.0977904,-0.0478576,0.0909283,0.180016,-0.0191184,0.0324375,0.0823912,0.0274506,0.0916425,-0.0709555,-0.0160694,0.0657093,0.0783823,0.0290096,-0.00126828,-0.0538403,0.00680647,0.0255319,-0.161411,-0.168486,-0.0533913,-0.0917398,-0.140934,0.0527185,-0.0544914,-0.229958,-0.18073,0.0403558,0.0063406,-0.013361,0.0160448,0.0175844,-0.010872,0.14292,-0.0529987
every 0.0620884,0.253859,-0.125668,0.0524012,-0.0146775,0.0705538,-0.0152953,0.0128592,0.0367142,0.0247512,-0.137997,-0.155328,-0.215224,-0.0228727,-0.0597093,0.127915,0.0952162,0.0346692,-0.0707471,0.0109906,-0.0657765,-0.172619,0.0132445,0.248194,0.125675,-0.107392,0.00660123,0.0772129,-0.00377139,-0.0100123,-0.124974,0.17596,-0.0514558,-0.0126066,-0.0500459,0.122652,0.000515748,0.189562,0.0415973,-0.0200925,-0.0858966,-0.00850832,-0.00573725,-0.147624,-0.144981,-0.0379412,-0.114004,-0.0716751,0.145939,0.0621268,0.103303,-0.079756,-0.0822216,-0.110835,-0.0387949,-0.123173,-0.0373074,-0.0290334,-0.0272096,0.000524568,-0.0947703,0.0452716,0.230423,0.121602,0.120238,-0.0852379,-0.0375193,0.10629,0.18703,-0.0474206,0.0238603,0.0823782,0.029386,0.104634,-0.0614386,-0.0356674,0.0694883,0.0782896,0.0409962,-0.0227008,-0.0342477,0.0386326,0.0387963,-0.167592,-0.191603,-0.0324782,-0.0594326,-0.146692,0.0722599,-0.0508834,-0.226477,-0.159313,0.0560028,-0.00822505,-0.0251603,0.0169015,-0.0109588,-0.0286246,0.144261,-0.042383
jack 0.0648994,0.231603,-0.124325,0.0687379,-0.0377104,0.0669093,-0.0414744,0.0152309,0.0430911,0.034106,-0.133255,-0.153876,-0.215994,-0.0339952,-0.0310528,0.116967,0.088812,0.0286341,-0.056155,-0.0038753,-0.0594348,-0.137288,0.0193155,0.226246,0.152286,-0.125216,-0.00067003,0.0842585,-0.0238211,-0.0274068,-0.116775,0.179574,-0.0590157,0.00105847,-0.0659394,0.138986,0.00111881,0.189869,0.0614255,-0.0182247,-0.0726078,-0.00142673,-0.0320056,-0.171775,-0.162482,-0.0454295,-0.0848618,-0.0360052,0.155337,0.0688368,0.103659,-0.0682051,-0.0670282,-0.086521,-0.0449906,-0.096341,-0.0158462,-0.0186098,-0.0650285,-0.00900884,-0.0804501,0.0414839,0.233836,0.117528,0.13769,-0.0791064,-0.0559,0.104513,0.196666,-0.0219285,0.0489142,0.0837731,0.00786081,0.0731851,-0.0849183,-0.0342356,0.073435,0.0444779,0.0417116,0.00308847,-0.053729,0.0212276,0.0374752,-0.184601,-0.188263,-0.0625515,-0.0831304,-0.147706,0.083947,-0.0566766,-0.239649,-0.179914,0.0332881,0.0240984,0.00164443,-0.00321903,0.0184891,-0.0206827,0.131652,-0.0384874
bringing 0.0475577,0.249424,-0.117248,0.0378503,-0.00666641,0.0571526,-0.0416501,0.049027,0.0079516,-0.0130944,-0.162303,-0.164037,-0.212526,-0.0269209,-0.0408326,0.158656,0.10763,0.0207646,-0.099257,0.01459,-0.0795996,-0.154687,-0.0215997,0.235612,0.138611,-0.0966326,0.0218396,0.052918,0.00666798,-0.0259165,-0.152198,0.195736,-0.0540189,-0.00574459,-0.0624192,0.128126,0.0304592,0.180509,0.0282108,-0.0159088,-0.0860793,0.0237753,-0.00389878,-0.156125,-0.142414,-0.0667192,-0.0836996,-0.0668386,0.184506,0.0519451,0.0923078,-0.0589501,-0.0967551,-0.0820785,-0.0434257,-0.122531,-0.0474942,-0.0166301,-0.0554221,0.00277736,-0.111518,0.0376705,0.19312,0.104774,0.1109,-0.100078,-0.0389889,0.077724,0.163664,-0.0362205,0.0202309,0.0838432,0.0117459,0.101218,-0.080877,-0.00772837,0.0696607,0.0739469,0.0179077,-0.00833639,-0.0195678,0.035485,0.0437173,-0.177681,-0.18871,-0.0524847,-0.065922,-0.137012,0.0718646,-0.0671387,-0.23493,-0.171378,0.054827,0.00775057,-0.0196474,0.0156119,0.0201598,-0.0284906,0.134077,-0.0403193
tickets 0.0781392,0.232325,-0.128124,0.0625684,0.001621,0.0414623,-0.0249796,-0.00999505,0.0511812,-0.0069086,-0.12771,-0.168241,-0.191114,-0.050783,-0.0574264,0.146141,0.080064,0.0126733,-0.0831697,-0.0194456,-0.0601705,-0.160801,-0.0221632,0.276683,0.147058,-0.118315,0.0249975,0.071598,-0.0131285,-0.0447425,-0.132652,0.168843,-0.0657487,-0.00755041,-0.0597222,0.124748,0.0355524,0.143001,0.0430526,-0.0390425,-0.0636215,-0.00632839,-0.0484969,-0.121955,-0.124607,-0.0245286,-0.0960421,-0.0292873,0.205141,0.0597461,0.080291,-0.0436926,-0.0467364,-0.0859849,-0.0611803,-0.139509,-0.0318306,-0.0198358,-0.00961423,0.0250773,-0.0970807,0.0306477,0.178664,0.113335,0.135987,-0.13394,-0.0878516,0.0626051,0.16676,-0.0445413,-0.0104504,0.0615741,0.00612862,0.0816928,-0.0315611,-0.0381511,0.101106,0.0573816,0.0740694,-0.0399439,-0.0386164,0.040837,0.0541247,-0.161195,-0.176378,-0.0808859,-0.0609842,-0.186626,0.105957,-0.0744997,-0.209561,-0.189101,0.0873623,-0.0237852,-0.0108715,0.0355625,-0.0340671,-0.0188208,0.152984,-0.0716988
school 0.049393,0.255311,-0.12593,0.062625,-0.0194646,0.0727133,-0.0093808,0.0166786,0.0403634,0.0210411,-0.138374,-0.149539,-0.217387,-0.0228173,-0.061653,0.12666,0.0973383,0.0357583,-0.0706532,0.00287721,-0.0677291,-0.172039,0.00648859,0.245517,0.12305,-0.109814,0.0102302,0.0773376,-0.00401228,-0.0125014,-0.133115,0.171038,-0.0467239,-0.00801799,-0.0578131,0.127064,0.00484361,0.187537,0.0422653,-0.0162464,-0.0799459,-0.0116987,-0.0106487,-0.13674,-0.147084,-0.0287613,-0.11653,-0.0651446,0.14447,0.0553965,0.109703,-0.0743665,-0.080943,-0.118285,-0.0411235,-0.123308,-0.0446099,-0.0349845,-0.0226644,-0.00189005,-0.095486,0.0431406,0.223587,0.123549,0.112797,-0.079657,-0.0360592,0.102556,0.18759,-0.0470003,0.0176416,0.0778367,0.0312083,0.108537,-0.065943,-0.0366619,0.0763876,0.0819059,0.0489066,-0.0202661,-0.0344826,0.04454,0.033191,-0.170819,-0.192798,-0.0379378,-0.0613786,-0.15604,0.0716991,-0.054691,-0.226458,-0.152217,0.0532634,-0.0174074,-0.0233085,0.0187476,-0.00561748,-0.0336489,0.149003,-0.0504436
cheapened 0.0243754,0.231393,-0.107331,0.0443599,-0.0218628,0.0861131,0.00528204,-0.0014445,0.0418025,-0.0235768,-0.155241,-0.153948,-0.219707,-0.00886233,-0.0587374,0.164335,0.0538224,0.0406379,-0.110791,-0.00737007,-0.0261438,-0.138866,0.00926938,0.205464,0.137668,-0.0746915,-0.0198164,0.0415903,-0.00982175,-0.014139,-0.173479,0.226697,-0.0536584,-0.0164293,-0.0561831,0.142883,0.017935,0.171128,0.0348011,8.9283e-05,-0.133994,0.0238959,-0.0084598,-0.136399,-0.141081,-0.0347218,-0.0674143,-0.0712731,0.114056,0.0627788,0.0690237,-0.0794122,-0.0359591,-0.0665905,-0.08313,-0.122913,-0.00625184,-0.0259477,-0.0117425,0.0224077,-0.115553,0.0689769,0.213372,0.0754618,0.133523,-0.100163,-0.0758561,0.0661763,0.22322,-0.0402479,-0.0161491,0.0595457,0.0579652,0.0501179,-0.054695,0.00907042,0.0362813,0.0800004,0.044868,-0.0137146,0.00379892,0.0556465,0.00961176,-0.200065,-0.166494,-0.040667,-0.0676082,-0.13128,0.106412,-0.0982396,-0.266757,-0.185015,0.00188642,0.0477818,0.0120689,0.0321793,0.047808,0.0174824,0.0985864,-0.0858671
clothed 0.0427128,0.256036,-0.143168,0.0686499,-0.0315584,0.0520054,0.00509197,0.0223511,0.0343826,0.0541347,-0.121221,-0.161102,-0.196816,-0.0334604,-0.078044,0.120157,0.0878932,0.0535457,-0.0328289,0.0260001,-0.0712763,-0.156521,0.00907067,0.251253,0.102293,-0.128734,0.0395491,0.0908544,-0.00736395,-0.0307146,-0.0933937,0.161685,-0.0457287,0.00733437,-0.0282781,0.138934,0.0121239,0.178031,0.0529244,-0.00898513,-0.0802997,-0.0384642,-0.0217696,-0.139153,-0.137532,-0.00461945,-0.129366,-0.0533837,0.152353,0.0643556,0.114484,-0.0750769,-0.105711,-0.135777,-0.0210128,-0.135575,-0.0466465,-0.0367474,0.0198042,0.0377932,-0.0599027,0.0525297,0.233588,0.128346,0.0824355,-0.0627075,0.00209182,0.0956702,0.180783,-0.0551828,0.018636,0.0846569,0.0472361,0.132696,-0.0324063,-0.0356619,0.0623531,0.0742493,0.0655866,-0.0353283,-0.036656,0.0326331,0.0614541,-0.16569,-0.206745,-0.045023,-0.0369461,-0.151281,0.0848463,-0.0329678,-0.222265,-0.13246,0.0893904,-0.0322057,-0.0323835,-0.00958978,-0.00459594,-0.0466402,0.169269,-0.0228312
undercover 0.0542798,-0.0851549,-0.0332869,-0.100179,0.0274445,-0.0580697,-0.145704,0.131641,-0.142744,-0.0750332,-0.0425088,-0.110251,-0.183062,0.114191,0.0223189,0.120451,0.00801101,0.0942651,-0.0898951,-0.0991697,0.0618306,0.00219641,-0.00387107,0.0746865,0.103044,0.146195,-0.0616685,0.11704,0.0190101,-0.0413283,-0.00452102,0.237891,0.0759158,-0.16701,-0.163481,0.00961785,0.162118,0.0113238,-0.00441425,0.0628662,-0.201476,-0.0369723,-0.148551,-0.00357872,0.0200219,-0.221803,0.0910832,0.00738467,0.227859,0.0564034,-0.0628663,-0.121873,-0.0692283,0.115824,-0.0474657,-0.107897,-0.12002,0.101441,-0.0903752,-0.0867681,-0.149672,0.0180426,0.0175715,0.0930334,0.001278,0.028522,-0.181099,0.0382018,0.0709292,0.0918261,-0.0338124,0.111083,0.00898309,-0.135962,0.00109297,0.0754245,-0.110824,-0.115987,0.0609822,-0.0543188,-0.097925,0.0576632,0.011362,-0.121481,0.0683746,-0.116135,-0.155109,0.0824343,-0.126789,-0.204984,-0.154371,-0.0332883,-0.04627,0.00467991,0.00561309,-0.0551433,0.00432661,0.0202796,-0.0766933,-0.0947477
enjoy 0.0535698,0.250934,-0.130818,0.0534506,-0.0109527,0.0717102,-0.0246417,0.0165734,0.0303364,0.0193032,-0.147314,-0.149474,-0.21868,-0.0130765,-0.0555311,0.134333,0.104662,0.0417987,-0.081525,-0.00371579,-0.0568102,-0.162391,0.00311407,0.24102,0.125302,-0.108611,0.0103892,0.0661174,-0.00926724,-0.0115067,-0.134699,0.179073,-0.0430402,-0.0254358,-0.0583362,0.135374,0.0029204,0.180231,0.0392857,-0.0233557,-0.0915933,0.00567084,-0.00707395,-0.143981,-0.138944,-0.0410296,-0.1095,-0.0694835,0.165898,0.0705642,0.101231,-0.0741337,-0.0853626,-0.109623,-0.0432409,-0.117436,-0.0350447,-0.0201032,-0.0408453,-0.00799917,-0.0956488,0.0526199,0.21573,0.1046,0.126402,-0.0961232,-0.0480766,0.102921,0.186033,-0.0301557,0.0271372,0.0755196,0.0307108,0.0955761,-0.0681773,-0.0323796,0.0710171,0.0736277,0.0419463,-0.0152048,-0.031623,0.025828,0.0351461,-0.167601,-0.19103,-0.0416741,-0.0776582,-0.143641,0.0698015,-0.0669609,-0.232963,-0.164772,0.0519401,-0.00546731,-0.0268267,0.021101,-0.00222516,-0.0300938,0.138787,-0.0574263
jamaica 0.0677455,0.24627,-0.13781,0.0556576,-0.0157832,0.075166,-0.0143654,0.025713,0.0418446,0.0185235,-0.161056,-0.167241,-0.2284,-0.00569045,-0.0587428,0.122588,0.092169,0.0328755,-0.0871948,0.0170501,-0.0496554,-0.169871,0.0101921,0.239686,0.13829,-0.106333,-0.00654894,0.0722675,-0.0165099,0.00118188,-0.14283,0.181512,-0.043986,-0.00558531,-0.0425887,0.109901,-0.000633323,0.186898,0.0253014,-0.015707,-0.0903885,0.0231122,-0.00237607,-0.138936,-0.139049,-0.0349646,-0.117759,-0.050608,0.169677,0.0703951,0.113597,-0.0793699,-0.0659287,-0.0967879,-0.022492,-0.120034,-0.0516453,-0.0374443,-0.0447913,-0.00384093,-0.0842926,0.0623005,0.194707,0.105107,0.110926,-0.0842816,-0.0609798,0.0968242,0.179572,-0.0308524,0.00904314,0.0606523,0.012283,0.0888923,-0.0813898,-0.0135805,0.0738507,0.0713246,0.0456651,-0.0171506,-0.0251179,0.0131643,0.0278237,-0.157291,-0.194519,-0.0595135,-0.0877784,-0.157173,0.0820929,-0.0748467,-0.23187,-0.17737,0.0381024,0.00976154,-0.0290138,0.0084309,0.00731105,-0.0337576,0.127616,-0.0665051
tired 0.0606724,0.254932,-0.119839,0.0613091,-0.0177488,0.0601873,-0.00871425,0.015941,0.0524193,0.026248,-0.148007,-0.140828,-0.21261,-0.0341423,-0.0629851,0.135703,0.0908646,0.0505626,-0.0678963,0.021822,-0.0703893,-0.167052,0.0224438,0.249761,0.111572,-0.109723,0.0124105,0.07173,0.0151564,-0.0221941,-0.131689,0.154586,-0.0439778,-0.00388084,-0.0419223,0.123337,-0.00255774,0.196676,0.0505868,-0.0128171,-0.0686456,-0.00701634,-0.0125688,-0.138874,-0.150971,-0.0142463,-0.114128,-0.0702591,0.151867,0.0454897,0.0937715,-0.0888102,-0.0961734,-0.127461,-0.0464696,-0.131407,-0.0338035,-0.0339467,-0.00816183,0.013485,-0.0820552,0.0557815,0.228745,0.117908,0.09886,-0.0897372,-0.0194127,0.101486,0.187684,-0.0435929,0.0205191,0.0829778,0.036332,0.11855,-0.0663309,-0.0267704,0.0825652,0.0812357,0.0495844,-0.0238644,-0.0302607,0.0373992,0.0304696,-0.166171,-0.186629,-0.0250257,-0.0516341,-0.145546,0.088037,-0.0551662,-0.229684,-0.159236,0.066416,-0.018774,-0.0282618,0.0200518,-0.00240424,-0.046708,0.146171,-0.0482348
warns 0.0948454,0.165096,-0.135712,0.037307,0.0383035,0.0599559,-0.0702269,0.0863066,-0.0340288,0.0223849,-0.180556,-0.170707,-0.237067,-0.0251324,-0.0309653,0.132268,0.15294,-0.0041636,-0.125509,-0.0306383,-0.0254775,-0.108123,-0.0375,0.229394,0.135549,-0.0506736,-0.0463178,0.0827887,0.00839222,-0.00103011,-0.180654,0.270603,0.0185366,-0.0933095,-0.0978604,0.112256,0.0592996,0.133847,-0.0158758,-0.0252931,-0.136088,0.080569,0.00520827,-0.131988,-0.0703119,-0.118027,-0.0706029,-0.0728069,0.223713,0.0798802,0.131228,-0.0805648,-0.0778076,-0.0623964,-0.00600206,-0.0657879,0.0158269,-0.0351936,-0.139024,-0.09476,-0.131394,0.0468239,0.111335,0.0175151,0.0993047,-0.0815953,-0.0791785,0.0552952,0.178524,0.0381453,0.068128,0.00805036,0.0128521,0.0846814,-0.126316,0.0022159,0.0300749,0.072327,0.0252525,0.07533,-0.0183508,-0.0559158,0.0318298,-0.124938,-0.113435,-0.0518296,-0.115718,-0.128405,0.00440474,-0.0679325,-0.208133,-0.160885,0.0297625,0.0416417,0.0421237,0.0929189,0.0713108,0.00352517,0.0714667,-0.0409818
hanging 0.0643381,0.132725,-0.0761831,0.0250737,0.0338173,-0.0104706,-0.0719537,0.0732475,-0.0456465,0.0742059,-0.210364,-0.205047,-0.170566,0.0708226,-0.0670353,0.13551,0.134683,-0.00991006,-0.0823724,0.0568377,-0.0646521,-0.172756,-0.0316644,0.196175,0.179708,-0.0778639,-0.00773847,0.00158722,-0.0752088,-0.0257633,-0.155065,0.186149,-0.0849139,0.0332635,-0.120491,0.0684561,0.083004,0.156663,0.0685902,0.0129498,-0.0960616,0.0816379,-0.0954154,-0.0896599,-0.0600717,-0.0652111,-0.00848737,0.00322706,0.108296,0.101614,0.0497227,-0.094967,-0.140535,-0.0614831,-0.0975615,-0.114629,-0.0806001,-0.0559789,-0.00191442,0.0203617,-0.0484614,0.0777445,0.23925,0.117378,0.156321,-0.115422,-0.0311815,0.0166909,0.11508,-0.100751,0.0228294,0.0620254,-0.0473706,0.0464834,0.00708905,0.0149109,0.0850437,0.0515174,0.0722863,0.0356567,-0.0760139,-0.0363634,-0.0531752,-0.242866,-0.104676,-0.0987132,-0.0860838,-0.0480751,0.093248,-0.0269942,-0.145481,-0.194203,-0.0144685,0.0394554,-0.087275,0.10321,-0.0680877,-0.0235805,0.171913,-0.140398
feathers 0.0540275,0.253587,-0.117516,0.0514958,-0.0137034,0.0763414,-0.0198686,0.0293503,0.0329989,0.0185824,-0.138793,-0.153024,-0.221288,-0.0240148,-0.0549381,0.13306,0.105206,0.032459,-0.0687828,0.00157804,-0.0656924,-0.169537,0.0156254,0.241918,0.115531,-0.106326,0.00152644,0.0672513,0.00529516,-0.00528046,-0.137985,0.176968,-0.0447527,-0.0129095,-0.0653336,0.119878,-0.00142923,0.189441,0.0529892,-0.025171,-0.0871088,0.00910735,-0.009539,-0.137266,-0.138687,-0.044354,-0.0990115,-0.0684634,0.154215,0.0718358,0.108332,-0.0891241,-0.0888962,-0.120983,-0.0280017,-0.126343,-0.0480061,-0.0395228,-0.0330792,-0.00906326,-0.0930252,0.0489035,0.209885,0.107938,0.125251,-0.0987933,-0.0409169,0.107039,0.183756,-0.043129,0.0240275,0.0792786,0.0272311,0.102013,-0.055664,-0.0251809,0.0737249,0.0760257,0.0510092,-0.00843598,-0.0440062,0.0275753,0.0399289,-0.175315,-0.185524,-0.0444112,-0.0700674,-0.146439,0.0689057,-0.0569141,-0.226094,-0.161288,0.056967,-0.0067263,-0.0238864,0.0173221,-0.0116282,-0.0371418,0.151938,-0.0525464
messy 0.0662814,0.246299,-0.125307,0.0550125,-0.0226108,0.0792249,-0.0355275,0.0357144,0.0228948,0.00273411,-0.143476,-0.162695,-0.228045,-0.0085811,-0.0588233,0.134493,0.100162,0.0310484,-0.0827687,-0.0106897,-0.0612457,-0.162211,0.00345355,0.251348,0.143801,-0.103544,0.0154719,0.0717547,-0.0134821,-0.0138898,-0.144407,0.188927,-0.0425877,-0.0283647,-0.0708502,0.118492,-0.00301758,0.177462,0.0525478,-0.0165692,-0.0981492,0.0120414,-0.0187517,-0.147288,-0.138708,-0.0567014,-0.0965745,-0.0716077,0.159048,0.0561877,0.0991876,-0.078815,-0.0804605,-0.112239,-0.0248061,-0.109288,-0.0421999,-0.0177881,-0.0304083,-0.0233103,-0.10082,0.0577518,0.207112,0.0983433,0.112751,-0.0921075,-0.0427165,0.10515,0.188824,-0.0363694,0.0228635,0.0653205,0.0393301,0.0939625,-0.0577045,-0.0296761,0.070191,0.0613649,0.0517199,-0.00189457,-0.0353452,0.0172003,0.0276006,-0.173063,-0.194103,-0.0443526,-0.0679086,-0.137658,0.0693766,-0.0694999,-0.227796,-0.163263,0.0559741,0.00527891,-0.00640185,0.0339507,-0.00316276,-0.0337843,0.125535,-0.0576299
second 0.0590632,0.249504,-0.126063,0.0482723,-0.0225627,0.0691159,-0.0141096,0.0205625,0.0368609,0.0210575,-0.139524,-0.158744,-0.220479,-0.0234733,-0.0579735,0.13962,0.0967076,0.0327613,-0.0778556,0.0100522,-0.0568989,-0.164386,0.00606912,0.248048,0.122707,-0.109152,0.0151783,0.0737947,-0.00484644,-0.0128075,-0.127249,0.182633,-0.0490865,-0.0225194,-0.0584146,0.124615,-1.8234e-07,0.183638,0.041298,-0.0214681,-0.0900622,0.00157475,-0.00352388,-0.14918,-0.146402,-0.0376651,-0.100801,-0.0655089,0.150389,0.0596018,0.105156,-0.084425,-0.0800367,-0.111601,-0.0403295,-0.125548,-0.033484,-0.0270998,-0.0249176,0.00186674,-0.092365,0.0457785,0.220481,0.110406,0.120472,-0.0825092,-0.0412821,0.107057,0.188556,-0.0339368,0.0195735,0.0712061,0.0352631,0.105188,-0.0643085,-0.0350386,0.0643401,0.0721103,0.0495205,-0.0174143,-0.0285032,0.0328471,0.0321519,-0.169116,-0.191613,-0.0373601,-0.0748065,-0.15629,0.0741737,-0.0511537,-0.220685,-0.170461,0.0505211,-0.0112161,-0.0290826,0.0174876,-0.00280994,-0.0298955,0.146893,-0.0514657
street 0.057118,-0.0290029,0.0635854,-0.173984,0.0511542,0.0590982,-0.224075,-0.00609485,0.0127541,0.00330943,0.070184,-0.00903993,-0.115017,0.0416995,-0.0342198,0.113995,0.127031,0.0767795,-0.149863,-0.15488,0.131703,0.157371,0.0543979,-0.0658356,0.215434,0.136501,-0.0811411,-0.108183,-0.122901,0.0345468,-0.000750094,0.0198785,0.152742,-0.200742,0.0335651,0.033567,0.00516926,-0.107832,0.0212766,-0.012423,-0.0797444,-0.0118078,0.0704306,-0.0359829,0.0107264,-0.132318,-0.027594,-0.073206,0.0116004,0.193371,-0.0837303,-0.00365926,0.0208059,-0.0576948,-0.0643976,0.17169,0.0172034,0.0787522,-0.0985347,-0.0368895,0.0469693,-0.0127069,-0.225358,-0.0582916,0.0550118,-0.1316,-0.0297565,0.0347226,-0.180945,0.00148461,0.0926589,0.00602148,0.0440094,-0.23542,0.0376469,-0.0386822,-0.210499,-0.192263,-0.15112,0.0459865,0.0287015,0.00866034,-0.053747,0.0736884,0.13073,0.0510979,-0.0294532,0.0038535,-0.0184788,-0.189571,-0.0681179,0.0186275,-0.104222,0.064449,0.20355,0.13063,0.043063,0.0393893,-0.0396953,0.0494408
friendships 0.0715844,0.22538,-0.130526,0.0588485,-0.0266893,0.0581613,-0.0398318,0.0338374,0.0203046,0.00576736,-0.162987,-0.151967,-0.211774,0.00145069,-0.0591655,0.152193,0.10566,0.0387292,-0.0837407,-0.00854453,-0.063168,-0.154441,0.00792132,0.239349,0.144006,-0.104214,-0.00304109,0.0712162,-0.00808469,-0.0174585,-0.15156,0.212128,-0.0353153,-0.0288843,-0.0813892,0.139795,0.00129372,0.165507,0.0433137,-0.0187224,-0.100181,0.00984912,-0.0219655,-0.162187,-0.132124,-0.0669094,-0.0802199,-0.0630052,0.159079,0.0861815,0.119144,-0.0739738,-0.080966,-0.0962268,-0.0358048,-0.124566,-0.025182,-0.00679203,-0.0561779,-0.0178517,-0.103161,0.048021,0.183301,0.0843326,0.136888,-0.0928569,-0.0768003,0.0856432,0.186263,-0.0134309,0.0316538,0.0689365,0.0110568,0.0767468,-0.0702808,-0.0358092,0.0537302,0.0538365,0.0266973,0.0156386,-0.0477916,0.0216925,0.0324129,-0.174225,-0.188321,-0.0571897,-0.0806991,-0.127543,0.0758046,-0.0819002,-0.230292,-0.190747,0.0401203,0.0224833,0.00131411,0.0226542,0.00912406,0.00025694,0.112205,-0.0465523
even 0.0553902,0.260582,-0.130312,0.0601422,-0.0192018,0.0668882,-0.00786994,0.0160083,0.0404131,0.0247978,-0.144282,-0.153562,-0.214761,-0.0300756,-0.0580052,0.129293,0.0957415,0.040633,-0.067609,0.00773057,-0.0616663,-0.164702,0.0145833,0.240784,0.114523,-0.115024,0.0103617,0.0722472,0.00219891,-0.0166478,-0.126681,0.170837,-0.0504421,-0.0100486,-0.049854,0.125723,-0.00342817,0.189462,0.0445053,-0.0171242,-0.0844457,-0.00993149,-0.0055395,-0.140401,-0.148644,-0.0266517,-0.114915,-0.0658067,0.149938,0.0547673,0.102681,-0.0799004,-0.0865115,-0.11408,-0.0411875,-0.130042,-0.0424192,-0.0334865,-0.0218918,0.000121278,-0.0889083,0.0463515,0.227292,0.118007,0.112581,-0.08473,-0.034597,0.103328,0.185887,-0.0440088,0.0203948,0.0788485,0.0310501,0.108601,-0.057493,-0.0359578,0.0727926,0.0764259,0.0461191,-0.0237087,-0.0351112,0.0403,0.0354427,-0.170204,-0.191886,-0.0344854,-0.0598698,-0.155409,0.0758748,-0.0519881,-0.228294,-0.15662,0.0560116,-0.0149887,-0.0311334,0.0161145,-0.00869313,-0.0347456,0.150979,-0.0461594
hide 0.047537,0.269756,-0.133555,0.0395857,-0.0389424,0.0603602,-0.00357806,0.0361382,0.0475092,0.0297429,-0.149923,-0.154235,-0.206314,-0.030056,-0.0733473,0.153556,0.118399,0.0429117,-0.0938514,0.00294595,-0.0641536,-0.156779,0.016839,0.229812,0.133115,-0.113661,0.0194605,0.0919371,0.0192311,-0.028834,-0.122232,0.164586,-0.0518712,-0.0160497,-0.0685709,0.125576,0.0113804,0.18353,0.0401073,-0.00384609,-0.0765424,0.00202324,0.00904966,-0.144689,-0.153526,-0.0463286,-0.0924216,-0.0509464,0.15995,0.0628008,0.122311,-0.0965076,-0.0755107,-0.0982407,-0.0425142,-0.103484,-0.056254,-0.0156837,-0.0434374,-0.011529,-0.0947281,0.0331814,0.232372,0.120338,0.115071,-0.0724236,-0.0332771,0.109315,0.166077,-0.0482059,0.00145156,0.0614739,0.0238653,0.0979427,-0.0582003,-0.0410456,0.0783779,0.0712003,0.0552418,-0.0143736,-0.0536156,0.0229442,0.0294682,-0.152867,-0.197008,-0.057051,-0.0562245,-0.143202,0.0546406,-0.0630266,-0.239364,-0.158314,0.0333713,0.0112233,-0.0276958,0.0231772,-0.0031419,-0.0191976,0.132712,-0.0410227
christ 0.100398,0.212417,-0.0901419,0.0238977,-0.0302729,0.0798708,-0.0118669,0.0388514,-0.0177012,-0.0427803,-0.127939,-0.158135,-0.202382,0.0228323,-0.0445279,0.145158,0.152171,0.0198868,-0.103485,-0.00732609,-0.0477291,-0.135248,-0.0368715,0.252074,0.148607,-0.0817801,-0.0117959,0.0890953,-0.0272222,-0.0270382,-0.154244,0.240702,-0.031712,-0.0793082,-0.107012,0.108751,0.0191298,0.113023,0.00782318,-0.0342972,-0.141979,0.00247362,-0.026107,-0.145742,-0.161475,-0.0455884,-0.106646,-0.0179278,0.180713,0.110086,0.133988,-0.110868,-0.0309715,-0.10289,0.00780068,-0.0804716,-0.00129538,0.00599111,-0.0601277,-0.0654716,-0.129219,0.054512,0.193721,0.102787,0.104084,-0.063266,-0.0866216,0.0734017,0.1831,-0.0550613,0.0328889,0.0401216,0.0310865,0.0591857,-0.0570607,0.0151112,0.0812749,0.0896225,0.00628743,0.0598691,-0.0457497,0.00193236,-0.00718091,-0.157352,-0.156227,-0.0330479,-0.111068,-0.159058,0.0252443,-0.0454496,-0.206798,-0.187833,-0.0013271,0.0170011,0.0340878,0.0693394,-0.0108353,0.00993089,0.0659943,-0.093619
musiclove -0.0206853,0.249022,-0.144745,-0.0178618,-0.0752743,0.10054,0.16075,-0.0654002,0.163654,0.126143,0.0695884,-0.103646,-0.00678274,-0.132581,-0.0624858,-0.0126187,-0.011626,0.0551018,0.131702,0.0116193,-0.0308246,-0.152959,0.036036,0.0755087,-0.0889968,-0.162359,-0.0432649,0.0340222,0.106711,-0.0722047,0.0877798,-0.0579793,-0.057644,0.0365589,0.0975101,0.077816,-0.0744496,0.193804,0.114347,0.0981001,0.0829757,-0.161123,0.0804412,0.0208824,-0.133915,0.0782814,-0.189951,-0.0643951,0.00947965,0.0380296,-0.000393168,-0.0856453,-0.0121528,-0.0773973,-0.00324767,-0.197231,-0.0512546,0.00750124,0.185303,0.149132,0.0473895,0.0463583,0.186066,0.10277,-0.0209548,-0.0342579,0.100268,0.010379,0.0296761,-0.0717144,-0.0361995,0.114186,0.056083,0.100116,0.0560595,-0.0727059,0.0993319,0.0996173,-0.0224226,-0.167571,-0.0583877,0.0397104,0.0157521,0.0201082,-0.166857,0.0946126,0.0892828,-0.150516,0.09219,0.0880381,-0.168164,-0.022229,0.12414,-0.157363,-0.124717,-0.0685124,-0.119978,-0.00792148,0.154216,0.0420624
new 0.0575462,0.257446,-0.130294,0.0536267,-0.0173644,0.0655934,-0.0098672,0.0145046,0.0395327,0.0183379,-0.144251,-0.151257,-0.219248,-0.0284099,-0.0611125,0.135214,0.0983087,0.0376323,-0.0740936,0.00450381,-0.0618261,-0.164421,0.0121856,0.245803,0.124448,-0.11276,0.00776435,0.0726298,0.00167891,-0.0148314,-0.127291,0.175425,-0.0465149,-0.0113359,-0.0519859,0.126653,0.00332895,0.18211,0.0426655,-0.0153655,-0.087339,-0.00173347,-0.0078238,-0.147216,-0.148452,-0.0348332,-0.107873,-0.064726,0.15164,0.0591575,0.105695,-0.0777029,-0.087715,-0.113103,-0.0357942,-0.127643,-0.041394,-0.033276,-0.0249561,-0.00417282,-0.0959343,0.0494111,0.223726,0.114135,0.114153,-0.0893386,-0.0416316,0.106223,0.182769,-0.0416134,0.0238815,0.0766673,0.0311765,0.106678,-0.0646707,-0.0323542,0.0711726,0.0732239,0.0456229,-0.0166625,-0.036489,0.0320178,0.0339261,-0.168691,-0.190459,-0.0393687,-0.066026,-0.148902,0.076873,-0.0538163,-0.224432,-0.159266,0.0568747,-0.00990342,-0.0285899,0.0149147,-0.00787322,-0.0310676,0.145023,-0.0498084
increasing 0.0446586,0.231758,-0.116266,0.0303428,-0.0111545,0.0972813,-0.0213926,0.0124292,0.0122756,0.0420342,-0.143767,-0.16836,-0.193539,-0.0427952,-0.0565483,0.11745,0.102064,0.0392009,-0.0646223,0.000489625,-0.0887482,-0.136552,-0.0076577,0.217909,0.111593,-0.139414,0.0134125,0.0932858,0.00117335,0.00444335,-0.138394,0.170907,-0.0579679,-0.00856211,-0.0657979,0.129778,-0.0225486,0.211583,0.0240097,-0.0171223,-0.0707144,-0.00503419,0.0125659,-0.141422,-0.1687,-0.0294857,-0.116001,-0.0673775,0.138408,0.0517033,0.0861004,-0.106807,-0.090845,-0.112516,-0.0205785,-0.136921,-0.0488061,-0.00975321,0.00825125,0.0287207,-0.113005,0.0342338,0.232082,0.117711,0.113003,-0.0899155,-0.0549396,0.107457,0.190613,-0.0254926,0.0190752,0.0530229,0.051512,0.101545,-0.0430842,-0.0385858,0.0854852,0.0643306,0.0269126,-0.0203463,-0.0395311,0.0577818,0.0269401,-0.190177,-0.171543,-0.0313657,-0.0774743,-0.180588,0.0803519,-0.0188721,-0.213601,-0.130404,0.0672458,-0.0316915,-0.0308276,0.0264443,-0.0165474,-0.00862293,0.176159,-0.0278515
officially 0.0588717,0.234305,-0.112723,0.0384654,-0.0167083,0.0621855,-0.0413843,0.0273583,0.021791,0.00698719,-0.163578,-0.149224,-0.224266,-0.0089254,-0.0385015,0.150564,0.100648,0.0259386,-0.100676,-0.00648395,-0.0567106,-0.17036,-0.0110244,0.239933,0.153873,-0.0763364,0.00879902,0.0585325,-0.0135198,-0.0175501,-0.149905,0.215044,-0.0269667,-0.0315871,-0.0738853,0.121583,0.025962,0.163131,0.0436433,-0.0414502,-0.119712,0.0316536,-0.0227555,-0.152066,-0.130361,-0.077591,-0.09415,-0.0613703,0.183952,0.0852255,0.104802,-0.0857895,-0.0757695,-0.104609,-0.0272309,-0.112242,-0.0414535,-0.0158608,-0.0512951,-0.0241648,-0.0955986,0.0373436,0.183011,0.0994803,0.123423,-0.0921571,-0.0790725,0.0849854,0.181444,-0.0292863,0.0200944,0.0611791,0.0329149,0.0856541,-0.0670454,-0.0234938,0.0463527,0.0617905,0.0414491,0.0107798,-0.0380331,0.00715136,0.0219804,-0.165614,-0.187397,-0.0591249,-0.0927089,-0.13794,0.0566941,-0.0774936,-0.222669,-0.177968,0.0351467,0.024678,-0.0019976,0.0413379,0.0194012,-0.0189552,0.129438,-0.0633317
disney 0.0677423,0.263057,-0.123732,0.059821,-0.00747864,0.0802393,-0.000789422,0.0178628,0.0511099,0.023933,-0.14179,-0.165639,-0.226011,-0.0172654,-0.0470322,0.118882,0.0801108,0.0485811,-0.0745084,-0.00695553,-0.0607464,-0.175429,0.00404358,0.251502,0.130394,-0.105717,0.0244918,0.0711334,-0.00164842,-0.00564262,-0.139674,0.17872,-0.0330199,-0.0286394,-0.0605419,0.109567,0.00969496,0.194097,0.0533883,-0.0148971,-0.0691958,-0.000934733,-0.0193957,-0.157006,-0.1507,-0.0284019,-0.104772,-0.064573,0.149578,0.0706983,0.108693,-0.0875775,-0.0791723,-0.104659,-0.0340684,-0.130345,-0.0504737,-0.0273174,-0.0204462,-0.00496484,-0.0881508,0.0491971,0.218153,0.127596,0.100141,-0.0817374,-0.035971,0.105174,0.183428,-0.0334685,0.0302877,0.0608076,0.0267655,0.0885435,-0.061732,-0.0335586,0.0621259,0.0797739,0.0343832,-0.0278213,-0.0427765,0.0373301,0.020968,-0.164705,-0.183974,-0.0389917,-0.0586148,-0.150384,0.0632894,-0.0533317,-0.217871,-0.165619,0.0578855,-0.00998594,-0.02937,0.0168152,0.0103211,-0.0301046,0.142018,-0.0620058
told 0.0620351,0.24259,-0.120174,0.056318,-0.0255382,0.0586707,-0.0169957,0.032851,0.0262115,0.0052945,-0.158752,-0.151028,-0.220881,-0.0153908,-0.0570834,0.146936,0.104955,0.0432112,-0.0870519,0.00244566,-0.0610285,-0.173866,0.00393903,0.243958,0.141495,-0.108435,0.0111489,0.0743799,-0.00555101,-0.0177244,-0.128295,0.185814,-0.0316341,-0.0264778,-0.0573184,0.13514,0.0154919,0.170541,0.044512,-0.0275658,-0.100679,0.0170032,-0.00936917,-0.145581,-0.145114,-0.0523438,-0.105567,-0.0595198,0.166339,0.0671219,0.105285,-0.0804697,-0.088125,-0.102663,-0.0260728,-0.116058,-0.029946,-0.0268202,-0.0510659,-0.0208813,-0.0933086,0.0520633,0.211374,0.100534,0.118675,-0.0852041,-0.0521951,0.106738,0.176826,-0.024552,0.028215,0.0673173,0.0240221,0.102735,-0.0671707,-0.0375868,0.0651973,0.074248,0.0433907,-0.0101836,-0.0286284,0.014618,0.0341137,-0.178553,-0.177107,-0.0564127,-0.0715278,-0.139827,0.0621592,-0.0637085,-0.235223,-0.173308,0.0395299,0.00862888,-0.0193541,0.0259557,0.00720729,-0.0314281,0.127231,-0.0488378
deemed 0.0843486,0.24718,-0.108849,0.0721309,-0.0464561,0.0584858,-0.0373892,-0.00754489,0.0136605,0.00122777,-0.162201,-0.164739,-0.237069,-0.00726119,-0.0561498,0.144142,0.0706499,0.0554626,-0.052971,0.00913752,-0.0836536,-0.185461,0.0149976,0.224608,0.128054,-0.0775318,0.0261075,0.0767196,0.0102007,-0.029275,-0.107639,0.168448,-0.0649306,-0.0406383,-0.0429832,0.148435,0.0163808,0.198847,0.0506299,-0.0278369,-0.117934,0.0251149,-0.0329465,-0.127922,-0.139851,-0.0199092,-0.131513,-0.0739274,0.137653,0.0670961,0.0914806,-0.0966717,-0.106768,-0.106997,-0.0408897,-0.130725,-0.0147313,-0.0436704,-0.012537,-0.0225845,-0.112127,0.0632262,0.236508,0.0856402,0.146707,-0.067904,-0.0314687,0.0841292,0.157739,-0.0279082,0.0512897,0.0826113,0.00149675,0.0724699,-0.0465652,-0.0544684,0.0425502,0.0616766,0.0278597,-0.0248549,-0.0161635,0.0425711,0.0388658,-0.187545,-0.172159,-0.0146219,-0.0456727,-0.143681,0.0944283,-0.0879583,-0.203132,-0.144079,0.0319362,-0.023056,-0.0476067,0.0453454,0.0239835,-0.0451985,0.14836,-0.0268753
kicked 0.0413606,0.248957,-0.109606,0.0290101,-0.029389,0.059871,-0.0360553,0.0200768,0.0097155,0.00712942,-0.13605,-0.172767,-0.229708,0.000570348,-0.0380124,0.14886,0.0796928,0.0611373,-0.127598,-0.00411872,-0.0444856,-0.13729,-0.0170293,0.240574,0.175554,-0.0806131,-0.0217083,0.03102,-0.0385409,0.00022484,-0.13181,0.229196,-0.0194166,-0.0705371,-0.0827107,0.149807,0.04119,0.131569,0.0636736,-0.0510894,-0.11458,0.0569492,-0.0018322,-0.137853,-0.127197,-0.0961388,-0.0568424,-0.0743593,0.172039,0.0963862,0.0937782,-0.048111,-0.0439644,-0.0915937,0.00601638,-0.0726618,-0.0341505,-0.0447958,-0.0306977,-0.000325327,-0.110221,0.0644193,0.1967,0.0980338,0.122893,-0.111307,-0.0924687,0.0567146,0.162067,-0.0241181,0.0239373,0.0746714,0.0461375,0.0506452,-0.0931272,-0.0366414,0.0230446,0.0750968,0.045612,0.0101981,-0.0495801,0.0376965,0.0281668,-0.156349,-0.166236,-0.0817517,-0.0962164,-0.160214,0.088049,-0.0880345,-0.206523,-0.185933,0.03342,0.0516139,-0.0270997,0.0641663,-0.0152716,0.0035897,0.0994884,-0.0866384
hero 0.0353098,-0.108002,0.180344,-0.0466046,0.130754,-0.0631588,-0.058005,0.0260851,-0.10284,-0.0294694,0.0845956,0.0829615,0.125783,0.167527,-0.021466,-0.0474265,0.0615646,-0.0987048,0.0851661,0.0560188,0.0186718,-0.0137523,0.0661789,-0.0931694,-0.0316822,0.234735,-0.138479,-0.00924853,-0.122119,-0.000131658,-0.079904,0.000821158,0.118237,0.0537971,-0.060212,-0.104847,0.06851,-0.0964072,-0.0184436,0.0678987,-0.0975818,-0.00344116,0.0320325,0.0253444,0.217228,-0.0405394,0.0342072,0.133562,-0.13428,0.119727,-0.0354306,0.157717,-0.030304,0.181138,0.0805701,0.0391366,0.00782109,0.118121,-0.138779,-0.171276,-0.0283541,-0.0257537,-0.281401,-0.12331,-0.0293877,0.0908171,-0.138244,-0.192265,-0.147576,0.0459161,0.0908003,-0.104461,0.0295092,-0.12506,-0.0750748,0.0231827,-0.106313,-0.117096,-0.116314,0.0855991,0.0291723,-0.113415,-0.0299085,0.0555552,0.125478,0.00601204,-0.0549297,0.157426,-0.0520789,-0.0214328,0.167699,0.0971883,0.0023277,0.0859626,0.0191184,-0.00422848,0.0917569,0.00107208,-0.191531,-0.0334488
men 0.0605947,0.247648,-0.122266,0.0535801,-0.0224986,0.072618,-0.0180961,0.0178615,0.030956,0.00847833,-0.15481,-0.150579,-0.21923,-0.0178743,-0.0585461,0.13809,0.0976091,0.030188,-0.0800852,-0.00184197,-0.0663806,-0.166325,-0.00157201,0.243433,0.135929,-0.0959463,0.000754255,0.0680128,-0.00464764,-0.0174639,-0.135073,0.185759,-0.0377521,-0.026157,-0.0552082,0.125011,0.00603167,0.180596,0.0394303,-0.0262182,-0.0967454,0.0107714,-0.0147313,-0.153702,-0.147518,-0.0508422,-0.106864,-0.0609211,0.16013,0.0716844,0.110903,-0.0750706,-0.0839719,-0.111071,-0.0375219,-0.117121,-0.0328871,-0.0285508,-0.0409962,-0.0147532,-0.0991625,0.0457752,0.216195,0.112792,0.116207,-0.0906938,-0.0567159,0.102056,0.185599,-0.0361753,0.0257472,0.0700089,0.0311788,0.0947959,-0.0641014,-0.0324193,0.0669172,0.0719732,0.0359905,-0.0145182,-0.0375343,0.0275898,0.0377697,-0.174443,-0.1913,-0.0471394,-0.0703951,-0.144408,0.0684546,-0.0625966,-0.226322,-0.164132,0.0447793,-0.00127548,-0.0140826,0.024334,-0.00124223,-0.0288779,0.131542,-0.0492382
here 0.0543395,0.253215,-0.12782,0.0513042,-0.0170218,0.0670136,-0.0142629,0.024175,0.0344196,0.0164081,-0.148597,-0.151919,-0.217998,-0.0264463,-0.0518481,0.140973,0.099752,0.0337418,-0.0797979,0.000299677,-0.0684889,-0.163106,0.00362549,0.23924,0.129128,-0.110438,0.0122785,0.0782099,-0.00169654,-0.0108442,-0.136094,0.178551,-0.0409341,-0.015195,-0.0546171,0.133624,0.00535609,0.183873,0.0437519,-0.0248327,-0.0947094,-0.0032785,-0.0131733,-0.152126,-0.142026,-0.0407341,-0.103078,-0.0610502,0.155432,0.0634386,0.0998688,-0.0778218,-0.0875746,-0.105881,-0.0343481,-0.127571,-0.0456166,-0.0257485,-0.0373232,-0.00515299,-0.100229,0.0475746,0.219211,0.11361,0.116818,-0.0878656,-0.0497746,0.0982945,0.187909,-0.0359134,0.0276648,0.0711398,0.033947,0.105976,-0.0668778,-0.0283607,0.0696559,0.0683344,0.0403876,-0.0198312,-0.0335647,0.0302013,0.0338105,-0.167097,-0.190995,-0.0380333,-0.0695882,-0.152078,0.0743493,-0.0610287,-0.222935,-0.166006,0.0499994,-0.0071478,-0.0183534,0.0172263,-0.000976885,-0.0258706,0.136789,-0.0504397
nanny -0.0100461,0.260962,-0.171619,0.0526823,-0.000768682,0.0881825,0.0249357,-0.00808136,0.0730101,0.053759,-0.0904015,-0.103617,-0.176467,-0.0237202,-0.121727,0.0986898,0.0267332,0.0884015,-0.0173368,0.0552151,-0.0136701,-0.162882,0.0826951,0.263043,0.0272375,-0.17466,0.00499441,0.0614068,0.0510968,0.0341428,-0.0524291,0.0562486,-0.0408101,0.0567682,-0.0119973,0.102757,0.0102632,0.218333,0.0684912,0.00102498,-0.00815224,-0.0658872,0.0100446,-0.104199,-0.165244,0.0492036,-0.175904,-0.0395384,0.058583,0.0364094,0.089603,-0.102721,-0.0956831,-0.156083,-0.0699593,-0.156356,-0.00587724,-0.0128771,0.0382132,0.0780675,-0.0371476,0.000767037,0.260607,0.129524,0.0324227,-0.0808387,-0.00331084,0.0741878,0.163478,-0.110702,0.0381833,0.0929237,0.0147084,0.146216,-0.0636054,-0.0473341,0.128372,0.120828,0.0761074,-0.0832191,0.0122436,0.0455011,0.0306234,-0.0984077,-0.157672,0.0406556,0.0289811,-0.136653,0.0703829,0.0141331,-0.159997,-0.0526946,0.0966805,-0.102953,-0.108072,0.0243282,-0.0512154,-0.116478,0.213255,-0.0504034
dork -0.0605653,0.256529,-0.105014,0.113037,0.0518718,0.134116,0.133819,-0.066007,0.0987839,0.0510473,0.0484885,-0.127036,0.00194248,-0.0126166,0.00796443,-0.0987175,0.0801396,0.111851,0.0258156,0.0398822,0.0362003,-0.106593,0.156089,0.0724293,0.00643452,-0.115527,0.114866,0.063619,0.114134,-0.0254804,0.0292564,-0.0867516,-0.166527,0.159291,0.0995089,0.00671813,-0.00939492,0.162083,0.0244209,-0.00444905,-0.0169962,-0.160627,0.0841429,-0.0198413,-0.152271,0.0471911,-0.182376,-0.0930419,-0.0981647,-0.105686,0.0195641,0.0476123,0.00689845,-0.0982345,-0.109911,-0.180412,-0.0443659,-0.0144295,0.193329,0.067172,-0.0511324,-0.0674465,0.211393,0.112551,-0.00716205,-0.0427091,0.0318033,0.0971857,0.150564,-0.148933,-0.0234095,0.122383,0.0245855,0.199662,0.00661452,0.0275573,0.172206,0.0829105,0.0498709,-0.200835,-0.0564301,0.100318,0.0394356,-0.00780192,-0.0579198,0.0745025,0.136308,-0.1458,0.0378739,0.134014,-0.0341006,-0.008433,0.0228683,-0.0301551,-0.0966482,-0.023116,-0.139359,-0.0584459,0.108416,0.0777192
kids 0.0654161,0.24476,-0.134246,0.0440687,-0.0106963,0.0663865,-0.0291326,0.0357448,0.0243226,0.00720863,-0.160958,-0.160734,-0.21777,-0.0159211,-0.0532332,0.145219,0.0942023,0.024566,-0.0949417,0.000558162,-0.0713803,-0.159967,-0.00306572,0.24158,0.137581,-0.0954834,0.0139303,0.0665714,-0.0123686,-0.0237494,-0.135235,0.18314,-0.0379168,-0.0335606,-0.0713427,0.134847,0.0055377,0.170233,0.0357616,-0.0330127,-0.102702,0.00746047,-0.0062012,-0.159067,-0.13495,-0.0527091,-0.0950452,-0.0557043,0.165231,0.0692549,0.108045,-0.0720791,-0.0816148,-0.102978,-0.036359,-0.125299,-0.0447294,-0.0226679,-0.0470021,-0.00936199,-0.0944734,0.0527282,0.215865,0.098327,0.124951,-0.0977647,-0.0504301,0.0991429,0.187282,-0.0323674,0.0293814,0.0801417,0.0253913,0.0885968,-0.0696269,-0.0256544,0.0678801,0.0697317,0.0471763,-0.00457129,-0.0331479,0.0333733,0.0240509,-0.161476,-0.184255,-0.0531166,-0.0760022,-0.136723,0.0735615,-0.0578249,-0.235931,-0.163226,0.051514,0.00659841,-0.021791,0.0208781,0.0114787,-0.0212008,0.124247,-0.0516316
study 0.058287,0.236631,-0.15317,0.0450204,-0.0428817,0.0657562,-0.0163133,0.0364986,0.0276289,-0.00166614,-0.17215,-0.17985,-0.219649,0.00485633,-0.0643026,0.161073,0.109,0.0291431,-0.0621697,-0.0224552,-0.0580309,-0.183109,0.0200247,0.241109,0.116192,-0.110941,-0.0126419,0.0690063,-0.013942,-0.0402142,-0.132359,0.190585,-0.0331845,-0.0363207,-0.0712389,0.118437,0.00546261,0.191106,0.020142,-0.024796,-0.102871,-0.00865976,-0.0243218,-0.131828,-0.168364,-0.0218155,-0.12576,-0.0407746,0.155874,0.0614015,0.083682,-0.06797,-0.0647195,-0.109846,-0.0452668,-0.104311,-0.0297926,-0.0526457,-0.0408986,-0.00442154,-0.0877772,0.0260553,0.212533,0.107362,0.104112,-0.117347,-0.0503031,0.0849582,0.181756,-0.0594555,0.0109379,0.0814983,0.00479113,0.0724472,-0.0459224,-0.047549,0.0652939,0.0672256,0.024967,-0.0163017,-0.0244473,0.0258366,0.0495243,-0.145547,-0.169635,-0.0340519,-0.100563,-0.126314,0.0684973,-0.0474239,-0.235292,-0.182571,0.0440102,-0.0176326,0.00257155,0.0110511,-0.0253463,-0.0449783,0.11984,-0.0327479
changed 0.184291,0.11625,-0.0409631,0.00360822,0.0457482,-0.0834955,-0.177891,0.0155491,-0.0933401,0.00945723,0.0134165,-0.0731395,-0.163522,0.0686949,0.11202,0.0413488,0.0865902,0.118634,-0.0300249,-0.135679,-0.139621,-0.109219,-0.132374,-4.55463e-05,0.0936591,-0.108688,-0.061427,-0.098365,-0.025291,-0.0288766,-0.109162,0.0838187,0.0836696,-0.0380237,-0.0592009,0.103507,0.0111803,-0.0288234,-0.0604653,0.0336765,-0.0702238,-0.00760625,-0.16736,-0.00180464,-0.155262,-0.195338,-0.0385382,0.061274,0.206501,0.131716,0.192906,-0.0564786,-0.10457,-0.063973,0.123251,-0.151259,-0.001408,-0.0252001,0.0208726,0.0224892,-0.0096318,0.0472105,0.0488136,-0.0975254,0.188755,-0.0196786,-0.0796499,-0.0846977,0.0555969,-0.074179,-0.073645,-0.070144,-0.0415734,0.113823,0.0502825,-0.0676938,-0.141659,0.0712463,0.150633,0.111547,-0.134564,-0.139693,0.0376805,-0.221051,-0.0123395,0.0405199,-0.239669,0.0701263,-0.116713,-0.0822952,-0.0328207,-0.119026,0.0935067,0.0943452,-0.0368686,0.154448,-0.00564529,0.123197,0.0633222,-0.0838995
controversy 0.050279,0.253809,-0.127641,0.046001,-0.0317297,0.0649579,-0.0120953,0.00468079,0.031411,0.0165959,-0.142971,-0.149644,-0.214741,-0.0305169,-0.0684152,0.135509,0.0845847,0.0498899,-0.0697003,0.00669772,-0.0498776,-0.167317,0.0115504,0.250367,0.11042,-0.105367,0.0136599,0.0650194,-0.000528616,-0.0192449,-0.119323,0.174328,-0.0445469,-0.0177325,-0.0492513,0.122072,-0.0031006,0.186854,0.0472814,-0.0100162,-0.0888249,-0.00178897,-0.0141342,-0.146727,-0.137658,-0.0416635,-0.100286,-0.0619915,0.141094,0.0604087,0.0967356,-0.0832992,-0.0931738,-0.126492,-0.0523556,-0.125308,-0.0456489,-0.040031,-0.0195047,0.0118993,-0.102731,0.0503287,0.222809,0.115223,0.122978,-0.0834693,-0.0449922,0.0932694,0.195279,-0.035666,0.0308659,0.0839907,0.0363032,0.10935,-0.067229,-0.0388055,0.0622245,0.0795258,0.054724,-0.0305649,-0.0258415,0.0347121,0.0437691,-0.174234,-0.191113,-0.0340126,-0.0736995,-0.1401,0.0682911,-0.0630083,-0.234864,-0.162826,0.053446,-0.019701,-0.0346941,0.0202868,0.00500198,-0.0308391,0.143829,-0.0534347
jame -0.075314,-0.244692,0.0971708,-0.00724938,0.0331517,-0.0956384,0.0393184,-0.01555,-0.0632826,0.0107001,0.171247,0.130447,0.240519,0.0207041,0.0798781,-0.11824,-0.0660598,-0.0735246,0.0741686,-0.0161194,0.0583291,0.135171,-0.000233609,-0.199631,-0.172232,0.0845091,-0.00156425,-0.0362771,0.0522289,0.00122521,0.1223,-0.237304,0.00821513,-0.00909508,0.101161,-0.0862144,-0.029821,-0.167326,-0.0569535,0.0395611,0.0821924,-0.0245438,0.0532644,0.114578,0.158511,0.0863541,0.133149,0.103207,-0.157015,-0.0515542,-0.111883,0.0688298,0.059327,0.0682251,-0.0105137,0.0971352,0.0612019,-0.0232816,0.0647702,0.000967266,0.0845242,-0.0168749,-0.172438,-0.127011,-0.131513,0.140076,0.092831,-0.062317,-0.198471,0.0694537,-0.0120971,-0.0622583,-0.0273727,-0.0982564,0.105067,0.0418097,-0.0364748,-0.0437876,-0.0599395,0.00594612,0.0735929,0.027404,-0.0432877,0.177812,0.16493,0.0770705,0.0813903,0.114348,-0.0228377,0.0428799,0.233564,0.147964,-0.0297637,0.0254856,0.02595,0.0141575,-0.0315116,0.0315141,-0.159413,0.077097
jill 0.0440281,0.255146,-0.137048,0.0602448,-0.0108791,0.0610188,0.00533615,0.0028148,0.0342753,0.0366542,-0.140053,-0.15228,-0.201687,-0.0425167,-0.0553816,0.116135,0.0986086,0.0334635,-0.0510575,0.00899358,-0.0489978,-0.174009,0.0172054,0.243725,0.116322,-0.118073,0.0242024,0.0824173,0.00797144,-0.0234987,-0.119396,0.165973,-0.0459545,-0.00187987,-0.0485881,0.117502,-0.00891531,0.200342,0.0432092,-0.0176364,-0.0821655,-0.0190957,-0.0102691,-0.13861,-0.14161,-0.00960047,-0.118119,-0.0687242,0.142952,0.0463528,0.0967147,-0.0796125,-0.0929911,-0.116457,-0.0503977,-0.134851,-0.0351885,-0.0258344,-0.0187946,-0.000234994,-0.0772586,0.038363,0.237848,0.121602,0.0968461,-0.0764708,-0.0371121,0.106426,0.183444,-0.0540944,0.0295446,0.0794007,0.0384435,0.114285,-0.0496847,-0.042838,0.0868475,0.087486,0.0407961,-0.0335913,-0.0260255,0.0370639,0.0427227,-0.171619,-0.196641,-0.0291165,-0.0513878,-0.158213,0.0780814,-0.0530308,-0.232328,-0.159103,0.0632845,-0.0227736,-0.0244208,0.00521818,-0.0142709,-0.0364033,0.156253,-0.0510685
aka 0.055255,0.262232,-0.132125,0.0585714,-0.016484,0.0669027,-0.00540161,0.00357805,0.0364979,0.019453,-0.128479,-0.15784,-0.222434,-0.040349,-0.0582148,0.119371,0.0908525,0.0383142,-0.0550679,0.0172275,-0.0625529,-0.170014,0.02573,0.236171,0.10232,-0.122948,0.00715696,0.0687773,-0.00188053,-0.00671053,-0.129462,0.151014,-0.0521652,0.000508125,-0.0521472,0.133202,0.000252453,0.194565,0.0454952,-0.00938366,-0.0670594,-0.01684,-0.00989933,-0.140185,-0.153297,-0.0253959,-0.125375,-0.0743561,0.14783,0.0490997,0.0997026,-0.070361,-0.0898341,-0.110705,-0.0476922,-0.123242,-0.0420814,-0.0339313,-0.0126282,0.013908,-0.0968222,0.05087,0.246609,0.117361,0.102904,-0.0812848,-0.0303841,0.101122,0.18322,-0.0445412,0.0230141,0.0766128,0.025706,0.118602,-0.0635437,-0.0389467,0.0710582,0.0881813,0.0412379,-0.0256735,-0.0245746,0.0479683,0.0407599,-0.162091,-0.195078,-0.0340491,-0.0464138,-0.156406,0.0850136,-0.0347207,-0.234599,-0.144025,0.0527739,-0.0202053,-0.0359005,0.0182669,-0.00695987,-0.0437144,0.154511,-0.033926
otters 0.065825,0.256237,-0.129936,0.0557818,-0.0137167,0.0710694,0.00260563,0.0113887,0.0627476,0.0240058,-0.11501,-0.172618,-0.199456,-0.0468221,-0.0594468,0.149068,0.105979,0.0636304,-0.0530275,-0.00622462,-0.083485,-0.148627,0.0192073,0.254744,0.121434,-0.102494,-0.00544582,0.0890402,0.00541282,-0.0133747,-0.132676,0.174737,-0.038606,-0.0256068,-0.0561273,0.133415,-0.021522,0.174307,0.0396427,0.00086203,-0.0669267,-0.012953,-0.0113464,-0.151366,-0.165313,-0.00490438,-0.0918275,-0.0892492,0.147085,0.0591946,0.113452,-0.0682586,-0.0615968,-0.103984,-0.0338202,-0.113336,-0.033116,-0.0552262,-0.00684941,0.0104083,-0.0799175,0.042818,0.244839,0.123871,0.123282,-0.0661749,-0.0316008,0.0929618,0.201907,-0.0242361,0.0218269,0.0691791,0.0087645,0.0817541,-0.0686445,-0.0477992,0.084538,0.0530647,0.0551923,-0.0488778,-0.0331514,0.0288188,0.056017,-0.138421,-0.182465,-0.0190437,-0.0528934,-0.163115,0.0997901,-0.0657683,-0.213125,-0.172994,0.0652973,-0.0238694,-0.0267397,0.00311769,-0.0257927,-0.0431232,0.136632,-0.0259618
changes 0.0552628,0.218697,-0.107159,0.0465333,-0.0458152,0.0854517,-0.0425938,-0.00742615,-0.00378391,-0.0316675,-0.184926,-0.15838,-0.243494,-0.00529289,-0.00275963,0.179571,0.139979,0.0640124,-0.145706,0.0289593,-0.0743945,-0.185534,-0.0054076,0.227794,0.10714,-0.048656,0.0217286,0.0945394,0.00967509,-0.0295335,-0.134379,0.199393,-0.0653203,-0.00391411,-0.0980187,0.167529,-0.0265394,0.129186,0.0415049,-0.0150852,-0.148535,0.0530528,-0.0254312,-0.137878,-0.0871909,-0.110774,-0.0819888,-0.0594943,0.197174,0.0995363,0.142916,-0.0546405,-0.0826235,-0.053988,-0.0256736,-0.120024,-0.0816019,0.00384965,-0.05178,-0.0193325,-0.090308,0.0060614,0.206932,0.0645501,0.0950705,-0.0898633,-0.100886,0.0892995,0.220165,-0.0293507,0.0449873,0.035091,-0.0142664,0.057655,-0.0854943,-0.0457599,0.0302595,0.0676867,0.0688063,0.0561663,0.00246424,0.00869454,0.00385657,-0.148279,-0.130329,-0.0836742,-0.0469051,-0.117141,0.0815407,-0.0361048,-0.175883,-0.142894,0.0263908,0.0333601,0.0115427,0.00914666,-0.0319535,0.0199954,0.0800083,-0.0972417
campaign 0.046157,0.274314,-0.131317,0.0530496,-0.0260889,0.0703819,-0.00899476,0.00159276,0.0549142,0.0319503,-0.136065,-0.145097,-0.23084,-0.0102012,-0.0455964,0.123834,0.103203,0.0472941,-0.0890775,0.0108788,-0.0554121,-0.169151,-0.00374941,0.254449,0.107067,-0.117545,-0.00490837,0.055308,-0.00818291,0.000208816,-0.13793,0.15209,-0.045774,-0.0312685,-0.0624874,0.110323,0.00702661,0.165399,0.0622251,-0.0314361,-0.102039,0.0100301,-0.0233721,-0.135098,-0.135499,-0.0380563,-0.117017,-0.0547383,0.149984,0.0733822,0.0985633,-0.0881972,-0.0671312,-0.102797,-0.0234404,-0.139006,-0.027248,-0.0473323,-0.0195108,-0.00418172,-0.0818876,0.0620243,0.210503,0.107822,0.0965306,-0.0970089,-0.0437425,0.0997878,0.19835,-0.0487082,0.0190823,0.0636131,0.0195068,0.0940263,-0.0679603,-0.0282738,0.0900564,0.0910219,0.0568877,-0.021839,-0.0317471,0.0492213,0.0317791,-0.172821,-0.17795,-0.0404402,-0.0474569,-0.15546,0.0726198,-0.0395289,-0.233318,-0.157604,0.0702217,-0.0191084,-0.0371086,0.00366916,0.00197653,-0.0281066,0.164903,-0.02769
blashpemies 0.0713939,0.24477,-0.120611,0.0526007,-0.0153298,0.0511525,-0.0314211,0.0483475,0.0380814,0.00487363,-0.145901,-0.16782,-0.21366,0.00547675,-0.0488881,0.130839,0.100344,0.026707,-0.0861628,-0.0138258,-0.0710049,-0.170234,-0.013618,0.231364,0.145195,-0.0805141,-0.00901398,0.0708413,-0.015037,-0.021457,-0.126755,0.204546,-0.0321516,-0.0244208,-0.0533342,0.144328,0.0263572,0.158236,0.0392475,-0.0302516,-0.111073,0.0255855,-0.0274905,-0.156104,-0.124307,-0.0508064,-0.0852684,-0.0642961,0.169343,0.0802321,0.123749,-0.0806203,-0.0654643,-0.113552,-0.0449387,-0.104258,-0.0301899,-0.00367731,-0.0538854,-0.0333683,-0.102927,0.0566464,0.212553,0.102771,0.130478,-0.0956042,-0.0774494,0.0851136,0.181109,-0.039359,0.0115706,0.0496874,0.0372434,0.0794072,-0.0677034,-0.0251986,0.0536527,0.0766068,0.0394038,-0.000135938,-0.0547874,0.00276157,0.0255165,-0.173549,-0.178378,-0.0663131,-0.0773786,-0.133855,0.0578553,-0.0813307,-0.235933,-0.192016,0.0530173,0.000798131,0.00240951,0.0248896,0.00629967,-0.0118597,0.11697,-0.0468954
julia 0.0492962,0.225354,-0.143439,0.0185907,-0.0339722,0.0770463,-0.0334753,0.034596,0.00907913,0.0302322,-0.171333,-0.178384,-0.198757,-0.0311949,-0.0683757,0.114991,0.134414,0.0482207,-0.128424,-0.0360891,-0.0546646,-0.156681,-0.0189368,0.237068,0.140434,-0.0836891,-0.00996195,0.0778247,0.00715196,-0.0399891,-0.131769,0.217514,0.000868357,-0.0557594,-0.0869456,0.0975121,0.00886206,0.136281,0.0111542,-0.0120337,-0.0939963,0.00759939,0.00468431,-0.130334,-0.104285,-0.0684714,-0.106188,-0.0556046,0.201911,0.0514291,0.0972049,-0.0530646,-0.0688987,-0.114986,-0.0416549,-0.0959139,-0.0127106,-0.0401325,-0.0467618,-0.0318779,-0.109713,0.0579682,0.15873,0.101218,0.154802,-0.127952,-0.0669359,0.116847,0.172853,-0.0422322,0.0559725,0.0624037,0.0225841,0.0957263,-0.0791528,-0.0349746,0.0730278,0.0594257,0.00512043,0.0200806,-0.0476864,-0.00654609,0.0443718,-0.145756,-0.164231,-0.0562932,-0.0894793,-0.143046,0.0813378,-0.0820087,-0.241674,-0.201897,0.0120822,0.043768,0.0277359,0.00931565,0.00570071,0.0172368,0.108817,-0.0611581
highly 0.0342343,0.239062,-0.1383,0.0689657,-0.00819168,0.0753315,-0.00766837,0.0399672,0.0347801,0.0239312,-0.138006,-0.120526,-0.231388,0.0123963,-0.0144419,0.112439,0.0854288,0.0120913,-0.0658921,-0.0109384,-0.0965398,-0.140806,-0.0300934,0.242371,0.121882,-0.0748822,-0.0296883,0.0799717,-0.0243458,-0.045037,-0.120096,0.193832,-0.018128,-0.00554327,-0.0640732,0.0955364,0.0132697,0.183836,0.01594,-0.0283973,-0.139068,0.0400023,-0.0112147,-0.181318,-0.159395,-0.064406,-0.0990423,-0.0400426,0.159455,0.0767887,0.132085,-0.0438328,-0.0946379,-0.087658,-0.0238902,-0.108909,-0.0223946,0.00902455,-0.0867137,-0.022887,-0.124072,0.0277699,0.200707,0.119778,0.0931051,-0.103902,-0.0651375,0.0634445,0.163802,-0.0488938,0.0428205,0.0979322,-0.00279076,0.0996896,-0.102294,-0.0453196,0.0382064,0.0568896,0.0250214,0.0187954,-0.024933,-0.0182455,0.0134348,-0.166994,-0.202302,-0.0212734,-0.0878603,-0.110101,0.061484,-0.106595,-0.249828,-0.176806,0.0185233,0.0351194,-0.00901975,0.0255848,-0.0167157,-0.00183602,0.145601,-0.0578914
total 0.0700079,0.245029,-0.119675,0.0504089,-0.0181072,0.0749994,-0.0122311,0.0258812,0.0329898,0.0229309,-0.150961,-0.15981,-0.21099,-0.00748823,-0.0571287,0.145344,0.106039,0.0386611,-0.0796164,-0.00638065,-0.0641949,-0.159978,-0.00672427,0.238826,0.137815,-0.109665,-0.000123651,0.076587,-0.00727139,-0.00941923,-0.143911,0.196158,-0.0389909,-0.0296751,-0.0574383,0.121542,0.0087325,0.170774,0.0379448,-0.0172068,-0.0901,0.00218544,-0.0129747,-0.15317,-0.14366,-0.0437851,-0.104453,-0.0568761,0.171538,0.0706583,0.106413,-0.0737106,-0.0926348,-0.10548,-0.0294488,-0.112819,-0.045089,-0.0368173,-0.0423591,-0.00805549,-0.0899694,0.0537082,0.200507,0.096919,0.128907,-0.0971224,-0.0650438,0.0966522,0.190682,-0.0246374,0.0131282,0.0662549,0.0368887,0.0960617,-0.0632621,-0.036258,0.0771606,0.0598176,0.0309987,-0.00901115,-0.0335484,0.0270877,0.0218389,-0.178205,-0.194393,-0.0452946,-0.0766326,-0.149759,0.0644517,-0.0665087,-0.218072,-0.178913,0.0391744,0.00927671,-0.0291806,0.034897,0.00451682,-0.0211946,0.127415,-0.0422729
plot 0.0459194,0.273102,-0.136625,0.0518451,-0.00984564,0.0653463,-0.00381554,-0.00334403,0.0565464,0.0288916,-0.134978,-0.162395,-0.194822,-0.041288,-0.0728877,0.112639,0.108728,0.0433934,-0.054755,0.00285012,-0.0621694,-0.147125,0.000402863,0.225892,0.0999925,-0.129479,0.0178172,0.0825525,0.0153584,0.00443946,-0.120599,0.153737,-0.0391665,-0.0104685,-0.0312965,0.122133,0.00496749,0.20064,0.02848,-0.0152987,-0.0766983,-0.0257823,0.00879105,-0.13108,-0.151503,-0.0207671,-0.128396,-0.0700009,0.159991,0.0466142,0.107778,-0.0678663,-0.0929481,-0.129267,-0.0511179,-0.124739,-0.0606554,-0.0160771,-0.035337,-0.00259825,-0.105731,0.0414935,0.227856,0.121864,0.0992039,-0.0989211,-0.0258032,0.0954287,0.196082,-0.0293174,0.0308362,0.0890254,0.0237445,0.10922,-0.0736323,-0.0246171,0.0604404,0.0831492,0.0423944,-0.0276106,-0.0283965,0.0576164,0.0452442,-0.174789,-0.200151,-0.0464849,-0.0719529,-0.140671,0.0617187,-0.0594048,-0.202262,-0.163027,0.0410664,-0.0264659,-0.0492844,-0.00667069,-0.0280637,-0.0482181,0.163111,-0.057713
spoke 0.0549493,0.22592,-0.1017,0.0113265,-0.0113029,0.0354848,-0.0674384,0.0276969,0.0234653,0.0260133,-0.174746,-0.152933,-0.227171,-0.0153603,-0.0490266,0.160931,0.126749,-0.000117959,-0.107099,-0.0311497,-0.0370574,-0.180925,-0.0133999,0.255423,0.132209,-0.0945403,0.0182673,0.0547822,-0.0273254,-0.0149535,-0.157275,0.199762,0.001876,-0.0223745,-0.0555449,0.152153,0.040163,0.17318,0.0246318,-0.00826113,-0.139911,0.0491098,-0.0168023,-0.147543,-0.145238,-0.0930942,-0.0873878,-0.0373566,0.191087,0.104592,0.12689,-0.0959326,-0.0574395,-0.103266,-0.00988748,-0.076547,-0.0571298,-0.0191394,-0.0821275,-0.0577527,-0.0796795,0.0447496,0.156776,0.0580142,0.128377,-0.122195,-0.104026,0.098754,0.188772,0.00428439,0.0119557,0.0761349,0.0418906,0.0700449,-0.0466408,-0.039495,0.0206026,0.0566888,0.041535,-0.00785707,-0.0152308,-0.00578966,0.0495804,-0.145189,-0.152715,-0.0596587,-0.108056,-0.100829,0.0719636,-0.0546151,-0.198227,-0.188879,0.0627121,0.0439276,-0.00343211,0.00722993,-0.00312032,-0.0236544,0.107238,-0.0498624
would 0.0574076,0.261532,-0.130509,0.0568263,-0.0225463,0.0674311,-0.0132191,0.0172851,0.0382643,0.0232253,-0.141338,-0.154943,-0.217129,-0.0293309,-0.0620104,0.132238,0.094683,0.0392033,-0.0706919,0.00470785,-0.0623412,-0.16964,0.0121901,0.24224,0.121185,-0.116429,0.0100036,0.0761639,0.00353729,-0.0130844,-0.127105,0.17146,-0.0471973,-0.0105883,-0.0509585,0.125124,-0.0013584,0.186698,0.0459682,-0.0191119,-0.0832799,-0.00372136,-0.00757821,-0.142713,-0.148967,-0.0329996,-0.112218,-0.0643689,0.147348,0.0605392,0.10517,-0.0791665,-0.0845243,-0.112004,-0.0390866,-0.127123,-0.04101,-0.030993,-0.0230149,0.00146477,-0.0911341,0.0489381,0.228113,0.118351,0.111491,-0.0885068,-0.0390274,0.102191,0.184355,-0.0443769,0.0226609,0.0757757,0.028434,0.10663,-0.0615653,-0.0335876,0.0719265,0.0744669,0.0461143,-0.0244484,-0.0325925,0.0369672,0.0383176,-0.167034,-0.187931,-0.037354,-0.0643217,-0.150687,0.0755944,-0.0494861,-0.227112,-0.159208,0.0552503,-0.0106881,-0.0296498,0.0183994,-0.00483277,-0.0339348,0.147316,-0.047853
geisha 0.105841,0.224755,-0.00227044,0.002307,-0.0954254,-0.00678439,-0.108097,-0.0482606,-0.00119434,-0.0285171,-0.0611153,-0.121922,-0.236994,-0.0661752,0.00247292,0.15957,0.0622899,-0.0137907,-0.034263,-0.0205601,-0.0341647,-0.0631732,-0.00693678,0.269018,0.194116,-0.113015,-0.065018,0.0434808,0.0928806,-0.0868195,-0.12653,0.16166,0.0498132,0.0254974,-0.0619592,0.180185,0.00521578,0.21443,-0.0135772,-0.0891747,-0.140555,0.0369851,0.0805952,-0.028845,-0.162428,-0.12473,-0.163921,0.00204321,0.0931811,0.0376383,0.0624699,-0.0393818,-0.147313,-0.131462,0.058476,-0.157394,-0.0406646,0.0360487,-0.0150191,0.0573273,-0.062628,0.0483021,0.0756547,0.0291734,0.179286,-0.155084,-0.00173718,0.162302,0.113704,-0.0273739,-0.0798149,0.0475468,0.104509,0.0119839,-0.0189345,0.0324731,0.0933838,0.0274722,0.0818082,-0.0540395,0.0243024,0.0577205,0.0132514,-0.119127,-0.137919,-0.0629233,-0.0581718,-0.0192233,0.107909,-0.0171146,-0.192513,-0.210963,0.105002,-0.065899,0.0733416,0.114599,-0.0788205,-0.0420393,0.0358832,0.024365
music 0.0573145,0.235912,-0.128943,0.0550769,-0.024152,0.0747455,-0.0323233,0.0221858,0.0180463,0.00239725,-0.153649,-0.147106,-0.213167,-0.0211456,-0.0628636,0.131388,0.0939488,0.0187248,-0.0960875,-0.0130683,-0.0474129,-0.181524,0.00535821,0.252332,0.146006,-0.106089,0.0216978,0.0651689,0.000192016,-0.0264247,-0.153125,0.189343,-0.0319612,-0.00869339,-0.0660964,0.128267,0.0181333,0.160585,0.0426501,-0.00875038,-0.0841255,-0.00565747,0.0042769,-0.135626,-0.154375,-0.0550691,-0.119884,-0.0617115,0.151267,0.0788579,0.11309,-0.0923786,-0.076997,-0.108644,-0.0470316,-0.107198,-0.053683,-0.0228362,-0.0459263,-0.0155493,-0.102684,0.0455812,0.225172,0.103336,0.138543,-0.0852972,-0.0430175,0.0969041,0.175113,-0.0339141,0.0130181,0.0567438,0.0427492,0.0971394,-0.070844,-0.02432,0.0690328,0.054612,0.0277626,-0.0188623,-0.0302427,0.0222266,0.0210325,-0.1737,-0.17421,-0.0435563,-0.0837984,-0.139507,0.0601768,-0.0645386,-0.231533,-0.172446,0.0380115,0.00805302,-0.0322452,0.00871162,0.00366102,-0.0261622,0.135901,-0.0423552
type 0.0834371,0.231205,-0.123542,0.0818122,-0.0561725,0.10137,-0.0194073,0.0214643,0.0726522,0.0207896,-0.175803,-0.18083,-0.200797,-0.0579926,-0.0512421,0.107319,0.0911265,0.0111796,-0.0470777,-0.00204761,-0.0948903,-0.196872,0.00346032,0.214801,0.114823,-0.0941196,0.0108588,0.0499359,-0.00518681,-0.0149095,-0.114767,0.169764,-0.0589925,0.0167955,-0.068647,0.11456,0.0221875,0.182625,0.0692755,-0.0149806,-0.0871179,0.00858171,0.0189792,-0.108865,-0.140104,-0.0579621,-0.0860322,-0.072848,0.125849,0.0437654,0.099918,-0.056818,-0.0722884,-0.131081,-0.078165,-0.103248,-0.0489029,-0.0670056,-0.0596264,0.0254919,-0.100643,0.0632792,0.196498,0.116249,0.113662,-0.100026,-0.0196555,0.103698,0.188488,-0.00967921,0.0574638,0.0620259,0.0314212,0.0863906,-0.0923379,-0.0420553,0.0364282,0.0426909,0.0573893,-0.00908712,-0.00795009,0.066672,0.0155153,-0.179146,-0.210955,-0.0106178,-0.0817517,-0.176887,0.0931563,-0.0876745,-0.227734,-0.143919,0.0638045,0.00412945,-0.0673207,-0.00335331,0.00995795,-0.05903,0.134655,-0.0201655
until 0.0649064,0.261252,-0.135449,0.0542371,-0.0218677,0.0767211,-0.00372403,0.0108139,0.0300805,0.0274668,-0.138589,-0.142823,-0.224809,-0.0338507,-0.0646646,0.125831,0.0961125,0.0350144,-0.0596071,0.00108295,-0.0525041,-0.171796,0.0126308,0.242004,0.115274,-0.123366,0.00305933,0.0792801,-0.00818864,-0.0147991,-0.123856,0.163567,-0.0502689,-0.0236255,-0.0476215,0.119422,-0.0115549,0.188539,0.0513821,-0.0146283,-0.0946872,-0.0166136,-0.0124546,-0.147076,-0.154108,-0.0376336,-0.11353,-0.0606831,0.154102,0.0609805,0.0970095,-0.0800356,-0.0766085,-0.122561,-0.0486304,-0.13253,-0.0320024,-0.0270151,-0.0296344,0.00967462,-0.0949588,0.0433528,0.219831,0.119517,0.107569,-0.0793905,-0.0321126,0.0986707,0.191394,-0.0483871,0.0105683,0.0729336,0.0421518,0.100027,-0.0515002,-0.0220913,0.0655773,0.0713826,0.0500481,-0.0152826,-0.033612,0.048716,0.0353828,-0.161094,-0.192076,-0.0457669,-0.0540296,-0.144572,0.0805778,-0.0434971,-0.229882,-0.165938,0.04916,-0.0185699,-0.0163273,0.00366461,-0.0120214,-0.0378377,0.158422,-0.0352851
oscar 0.0541841,0.26218,-0.124999,0.0493876,-0.0141538,0.0604929,-0.010307,0.0217109,0.0354672,0.00843005,-0.14237,-0.149807,-0.227475,-0.0202666,-0.0486613,0.140386,0.101752,0.0452289,-0.0763591,-0.0040311,-0.0669474,-0.166325,0.00938024,0.237257,0.122775,-0.111513,0.0165592,0.0688121,0.00264075,-0.0147046,-0.140304,0.182277,-0.0432377,-0.0271111,-0.0584737,0.12483,0.00960316,0.172736,0.0457577,-0.0314776,-0.0879834,0.0116207,-0.0151484,-0.154576,-0.143678,-0.0473227,-0.1007,-0.0692254,0.157768,0.0710015,0.111068,-0.0792236,-0.082444,-0.105407,-0.0432429,-0.11615,-0.0464476,-0.0313811,-0.0349544,-0.0147711,-0.0975933,0.0523646,0.213246,0.113754,0.113685,-0.0977022,-0.0437209,0.0968344,0.183163,-0.0377262,0.0197631,0.0772793,0.023097,0.104271,-0.0598724,-0.0230258,0.0737939,0.0671381,0.0434659,-0.0151014,-0.0315625,0.0261331,0.0254457,-0.171998,-0.187506,-0.0459379,-0.0802299,-0.14637,0.0646377,-0.0598699,-0.222623,-0.167389,0.0524182,0.00205482,-0.0166377,0.0215039,0.0012107,-0.0266499,0.147173,-0.0518531
yahoo 0.049782,0.242242,-0.112468,0.0656318,-0.026571,0.0523728,-0.0163129,0.0280018,0.0228228,0.0304324,-0.157924,-0.161443,-0.208535,-0.0291676,-0.0592922,0.137714,0.0938966,0.0374179,-0.0767971,-0.00641467,-0.0705671,-0.175049,0.0143299,0.241668,0.122285,-0.100815,0.0148562,0.0564398,-0.0219372,-0.0244731,-0.140672,0.190101,-0.039006,-0.0178856,-0.055185,0.109489,0.0152581,0.164171,0.0572205,-0.0352898,-0.0937063,0.0052451,-0.0148922,-0.136211,-0.13883,-0.0583233,-0.0840731,-0.0637905,0.169639,0.0677393,0.0968656,-0.0736791,-0.0931435,-0.113893,-0.0475009,-0.123358,-0.0288829,-0.0363194,-0.0262778,-0.0292506,-0.0891575,0.0509901,0.19471,0.115806,0.117498,-0.105311,-0.0492132,0.0921669,0.187117,-0.0483389,0.0281959,0.0520167,0.0224203,0.105525,-0.066076,-0.0158117,0.0585113,0.0508013,0.0437342,0.00249578,-0.0541976,0.0260795,0.0457512,-0.184716,-0.201727,-0.0554745,-0.0806056,-0.159086,0.057425,-0.0774019,-0.235159,-0.188043,0.0575804,0.0114791,-0.0217269,0.0401445,-0.0155608,-0.0173553,0.125125,-0.0377669
award 0.0808636,0.243515,-0.109826,0.062582,-0.0103221,0.0847846,-0.0337824,0.0271329,0.013108,0.0175707,-0.168039,-0.173244,-0.218695,-0.0138378,-0.0592246,0.125435,0.119178,0.0337128,-0.104052,-0.00517063,-0.0662032,-0.162344,-0.0110061,0.225541,0.124061,-0.102628,0.0202053,0.054295,-0.00551796,-0.011804,-0.152676,0.207054,-0.0220796,-0.0169171,-0.0611368,0.113192,-0.0051784,0.155879,0.0568946,-0.0281384,-0.104805,0.00891264,-0.0263423,-0.135162,-0.135819,-0.0675845,-0.102792,-0.0684507,0.144585,0.0793172,0.088496,-0.0854302,-0.0795322,-0.109064,-0.0392266,-0.134385,-0.0169534,-0.0137245,-0.0392414,-0.00952631,-0.0914776,0.064275,0.208493,0.113373,0.121621,-0.0975158,-0.0479554,0.10996,0.165119,-0.0385233,0.0417142,0.0719531,0.0138181,0.115593,-0.0591328,-0.011115,0.0828606,0.051209,0.0245113,-0.000490503,-0.0458372,0.035807,0.0102297,-0.155749,-0.168208,-0.0498701,-0.0621404,-0.151086,0.0704065,-0.0654621,-0.242142,-0.192027,0.0378736,-0.00531945,-0.00895151,0.0235874,0.022868,-0.0325727,0.119745,-0.0694061
phone 0.045711,0.261453,-0.138215,0.0650894,-0.0277037,0.0592714,-0.00876353,0.00958732,0.0484795,0.0262179,-0.149036,-0.158542,-0.226832,-0.016384,-0.053963,0.141933,0.0914509,0.0299067,-0.0807453,0.0120373,-0.0520593,-0.170646,0.0123408,0.248432,0.109873,-0.106552,0.0180591,0.079242,0.00166375,-0.0104053,-0.119007,0.165451,-0.0501686,-0.00861213,-0.0485856,0.136686,0.00678714,0.176889,0.040462,-0.00896987,-0.0749265,-0.0132853,0.00391539,-0.133066,-0.160714,-0.036055,-0.106058,-0.0651611,0.15822,0.0484888,0.0990827,-0.0762442,-0.090451,-0.109099,-0.0413224,-0.132776,-0.0424201,-0.0353317,-0.0216232,0.0065751,-0.0836783,0.0491249,0.22405,0.111488,0.107763,-0.0814172,-0.0407631,0.0997656,0.179157,-0.0373875,0.0261699,0.0765899,0.0377365,0.103555,-0.0571021,-0.0437949,0.0707728,0.0707041,0.0402925,-0.0161606,-0.0364647,0.0451618,0.0329439,-0.165588,-0.200781,-0.0351795,-0.0629916,-0.149448,0.070789,-0.0631029,-0.221556,-0.16598,0.0544193,-0.0195607,-0.0174264,0.0264713,0.0014971,-0.0349951,0.145561,-0.0565317
adult 0.050533,0.263127,-0.118589,0.0615291,-0.0145549,0.0524292,-0.000566932,0.0155165,0.0230247,0.0305709,-0.145368,-0.133932,-0.224242,-0.0175834,-0.0430107,0.140503,0.0879627,0.0514824,-0.0514367,0.014215,-0.0706891,-0.175942,0.0128266,0.246654,0.110119,-0.111626,0.0182584,0.0610701,0.0179168,0.00174223,-0.110981,0.150511,-0.0676969,0.00429834,-0.0519362,0.114632,0.0139522,0.204255,0.0272173,-0.0212565,-0.080832,-0.0252015,-0.0143975,-0.122438,-0.132725,-0.035325,-0.114461,-0.0583704,0.123555,0.0597729,0.113094,-0.0951421,-0.102401,-0.11145,-0.0543345,-0.130328,-0.0422462,-0.035862,-0.0261977,0.000842449,-0.0926511,0.0467816,0.215309,0.11764,0.118273,-0.0970852,-0.0454323,0.113349,0.185244,-0.057787,0.00796107,0.0630369,0.035362,0.0938598,-0.0583251,-0.0467174,0.061667,0.0940137,0.0468644,-0.014569,-0.0190341,0.0424496,0.046703,-0.181579,-0.192958,-0.0312465,-0.0654548,-0.167674,0.0861515,-0.0631157,-0.227762,-0.164313,0.0767267,-0.0178148,-0.0237838,0.0155162,-0.00746932,-0.0479987,0.144702,-0.0392553
excellent -0.026647,0.135463,-0.049602,0.0483267,-0.0512292,-0.00471604,0.161114,-0.108463,0.0664813,0.0868244,0.0779974,0.0648731,0.0688118,-0.0885951,-0.061362,-0.102164,-0.0719742,0.0881763,0.14846,0.0877936,0.0550797,-0.0195938,0.0951276,-0.0193923,-0.154439,-0.118051,0.0334424,0.0181091,0.0683701,-0.0133034,0.0927554,-0.207802,-0.134083,0.0946593,0.0749287,-0.00188654,-0.0822144,0.127889,0.0393789,0.105877,0.148761,-0.177767,0.0351173,0.0963101,-0.0604409,0.184063,-0.109321,-0.0308946,-0.174448,-0.0921385,-0.0431347,-0.00813124,-0.0575815,-0.0669141,-0.0760721,-0.0870814,-0.0573955,-0.0629891,0.207093,0.14868,0.0786376,0.023053,0.15279,0.12202,-0.110945,0.0638521,0.162078,0.0226099,0.0365844,-0.131616,-0.0405247,0.0768591,0.0370671,0.126777,0.0983844,-0.0414094,0.0711037,0.0863082,0.04907,-0.170214,0.0397659,0.15601,0.0695998,0.0620285,-0.0602961,0.0842528,0.176735,-0.0673182,0.0684368,0.165345,0.0177145,0.143331,0.0492385,-0.180725,-0.129456,-0.104274,-0.110578,-0.0870121,0.10361,0.0603918
hold 0.0600742,0.257738,-0.11891,0.053357,-0.00399596,0.0853692,-0.0206728,0.0205065,0.0292159,0.0142185,-0.141364,-0.144497,-0.213282,-0.0191154,-0.0602419,0.141471,0.0825132,0.0549075,-0.0583364,0.00433687,-0.0756555,-0.158581,0.0165939,0.23182,0.113923,-0.115976,0.0154308,0.0724408,0.00942768,-0.0304164,-0.142165,0.150038,-0.06998,-0.00695208,-0.0673729,0.124156,-0.0118046,0.190128,0.0283814,-0.0309216,-0.0854059,-0.0124432,-0.0119125,-0.142448,-0.142064,-0.0163866,-0.101249,-0.0679042,0.138445,0.0517132,0.120612,-0.0680271,-0.0787201,-0.112075,-0.0394826,-0.140453,-0.0450224,-0.0436188,-0.0107574,0.000747685,-0.106295,0.0466095,0.22216,0.109753,0.099406,-0.0796151,-0.0469159,0.094594,0.1994,-0.0321487,0.00789745,0.0881456,0.0485655,0.105337,-0.074896,-0.0175996,0.067013,0.0838847,0.0591226,-0.0163619,-0.0364469,0.0563043,0.0227457,-0.168436,-0.200653,-0.0492226,-0.0563576,-0.142121,0.0889919,-0.0422267,-0.21402,-0.170538,0.0755982,-0.0210914,-0.0312936,-0.00563869,-0.00519561,-0.0531596,0.163777,-0.0442657
must 0.0533445,0.249758,-0.131948,0.0546279,-0.0233546,0.0626077,-0.0279427,0.015855,0.0285265,0.0110377,-0.147867,-0.162813,-0.227065,-0.0181682,-0.0476718,0.142519,0.108138,0.0329539,-0.0825877,0.000222053,-0.0616756,-0.175066,-0.00379648,0.240258,0.12688,-0.111041,0.00375383,0.069493,-0.00669911,-0.0225812,-0.13808,0.178044,-0.0350451,-0.0232859,-0.0573601,0.130439,0.00921355,0.176613,0.0426529,-0.0213445,-0.0980014,0.00807863,-0.00940752,-0.143589,-0.137799,-0.0498193,-0.0950478,-0.0661358,0.164112,0.0676986,0.0998083,-0.0829264,-0.0899686,-0.111691,-0.0384925,-0.112674,-0.0422115,-0.0190222,-0.0360661,-0.00194935,-0.0893025,0.0460217,0.220546,0.107118,0.122723,-0.0865836,-0.0446442,0.103462,0.176128,-0.0286485,0.0206077,0.0646253,0.0337268,0.0912506,-0.0579465,-0.0287214,0.0647344,0.0642505,0.0483618,-0.0117165,-0.0383474,0.0322393,0.0279432,-0.174391,-0.181441,-0.0393169,-0.0753394,-0.151772,0.0674246,-0.0663217,-0.231802,-0.170301,0.056965,0.00178995,-0.0160431,0.0232643,-0.000116759,-0.0231705,0.135945,-0.057591
me 0.0540707,0.263148,-0.127144,0.0565611,-0.0208899,0.0697033,-0.00854725,0.0143202,0.0414928,0.0228111,-0.141693,-0.152438,-0.217277,-0.0282034,-0.0601112,0.130718,0.093789,0.0413777,-0.0691045,0.00907404,-0.0630459,-0.165878,0.0116717,0.24238,0.116798,-0.115749,0.0131426,0.0743018,0.00257185,-0.014701,-0.12673,0.167313,-0.0500713,-0.00928892,-0.0506037,0.126515,-0.00320249,0.188425,0.0443469,-0.0165647,-0.0833631,-0.00916687,-0.00422372,-0.140835,-0.149552,-0.0286566,-0.111848,-0.0674673,0.147514,0.0561141,0.103551,-0.0803996,-0.0872285,-0.114373,-0.0423089,-0.127229,-0.0413988,-0.0322804,-0.0221275,0.00251457,-0.0899238,0.0478203,0.228937,0.118615,0.112742,-0.0865186,-0.0373381,0.103211,0.18639,-0.0469417,0.0203361,0.0785999,0.0295999,0.106238,-0.0600879,-0.0327597,0.0757031,0.0752036,0.044152,-0.0237243,-0.0344411,0.0406768,0.0379999,-0.165687,-0.191748,-0.0361279,-0.0613689,-0.153581,0.077559,-0.0511105,-0.226486,-0.157319,0.0575231,-0.0144323,-0.0310761,0.0150413,-0.00915426,-0.0359921,0.150046,-0.0446961
royally 0.0250526,0.114175,0.0551288,0.0463636,0.155842,0.0977915,-0.0524507,0.150653,-0.0536167,-0.117077,0.0443265,-0.0791951,0.102825,0.141274,0.155922,0.0834472,0.163069,-0.0953683,0.0985933,0.145586,0.066906,-0.0783904,-0.0954508,0.14265,0.0456775,-0.0918017,-0.0330183,-0.113219,0.128224,-0.0252127,-0.11509,-0.0647099,-0.122076,-0.0444803,-0.100426,-0.0630339,0.0200149,0.175929,-0.11047,0.0233894,-0.114092,-0.0927975,-0.129411,0.0909741,0.0655622,0.0473502,0.0547604,0.0794108,0.0528099,0.186678,-0.00354181,-0.0768868,-0.00487119,0.122783,0.035434,0.0469733,-0.0678925,0.0835938,-0.170414,-0.177684,0.110629,-0.0146545,-4.93551e-05,-0.142872,-0.0186227,0.00460075,-0.180469,0.0834477,-0.0729477,-0.0763968,0.0847752,-0.137598,0.167341,0.164795,-0.0985824,-0.0379168,-0.0339778,-0.0455584,0.0418395,0.123177,-0.0911493,-0.100049,-0.163961,0.0237641,0.133663,0.117255,0.115476,-0.155204,0.0366487,0.108937,0.128173,-0.0160906,0.105022,0.175928,-0.0239232,0.0827627,-0.072906,0.0127023,0.0273437,0.0298914
word 0.0590996,0.258797,-0.123923,0.0430122,-0.0135927,0.0626551,-0.0185717,0.01693,0.0432827,0.00958631,-0.140171,-0.146494,-0.224847,-0.0279175,-0.061541,0.137608,0.0981632,0.0484759,-0.0864791,0.00352934,-0.0526642,-0.15972,0.00723861,0.245528,0.144642,-0.113076,0.0124383,0.066526,-0.00816258,-0.00858802,-0.146055,0.181163,-0.0328818,-0.0214463,-0.0485018,0.13448,0.0104859,0.168819,0.0439683,-0.0228488,-0.104942,0.010243,0.00244619,-0.146945,-0.139908,-0.0464363,-0.114063,-0.0572716,0.166321,0.0735548,0.106036,-0.0826355,-0.0759358,-0.118797,-0.0474883,-0.118065,-0.0361534,-0.0235928,-0.0477263,-0.00882141,-0.105151,0.0508502,0.216933,0.0958942,0.117609,-0.0915729,-0.0454237,0.0876434,0.17237,-0.0387946,0.0179146,0.0652069,0.0344297,0.0833318,-0.0583478,-0.0307898,0.0672728,0.0785247,0.0511281,0.00283506,-0.0495639,0.0385723,0.019522,-0.179774,-0.197759,-0.0474481,-0.0665387,-0.142982,0.0704785,-0.0568341,-0.221804,-0.163797,0.0549976,-0.000721636,-0.0179498,0.00884598,0.00486125,-0.0315695,0.127081,-0.0584147
room 0.049641,0.253868,-0.114286,0.0659331,0.000766732,0.0720993,-0.0416205,0.0408154,0.0358243,0.0082178,-0.136265,-0.162851,-0.209279,-0.0107406,-0.0488986,0.153937,0.105479,0.0154061,-0.0974261,0.00946098,-0.0654722,-0.158687,-0.0032803,0.238403,0.124905,-0.0999453,0.0134363,0.053043,-0.0211737,-0.031508,-0.146576,0.195843,-0.032477,-0.0220446,-0.0489722,0.131408,0.022922,0.180181,0.026288,-0.031865,-0.0941225,0.0126039,-0.00366115,-0.160369,-0.121907,-0.0543168,-0.100866,-0.0494423,0.173115,0.0569288,0.104051,-0.0678766,-0.0626578,-0.0940821,-0.0499637,-0.133973,-0.0296688,-0.0323569,-0.0476483,0.00162906,-0.0860192,0.0543689,0.218453,0.100634,0.117487,-0.110961,-0.0723324,0.0940326,0.164249,-0.0305183,0.0101213,0.0758601,0.0103011,0.0942887,-0.0729718,-0.0438781,0.0688397,0.0758476,0.047097,-0.0027723,-0.0265937,0.0156882,0.0322193,-0.162026,-0.172365,-0.0668961,-0.0723162,-0.131579,0.0570714,-0.0721113,-0.245829,-0.192674,0.0354308,-0.00840164,-0.00236993,0.0383384,0.0228428,-0.0384654,0.127338,-0.0569367
work 0.0614013,0.221641,-0.0687,-0.0196299,-0.0449043,0.0541752,-0.093152,0.0585251,0.0618087,-0.0350457,-0.16099,-0.136007,-0.214637,0.00654442,0.0100504,0.189824,0.0806088,0.0794579,-0.113371,0.0115509,-0.0750343,-0.210702,0.0250313,0.247859,0.191366,-0.0246448,0.00902042,0.0645585,-0.0659626,-0.0109779,-0.140806,0.188329,0.0121671,-0.0534263,-0.00845531,0.184933,-0.0385842,0.160232,0.0535374,-0.0889781,-0.15492,0.0373287,-0.0147427,-0.1301,-0.137251,-0.104968,-0.0987981,-0.00703484,0.140338,0.0568704,0.100598,-0.0275512,-0.112282,-0.0950512,-0.0484335,-0.123821,0.0235013,0.0472683,-0.0851062,-0.021397,-0.089925,0.0619804,0.18084,0.110614,0.0658344,-0.0424949,-0.110352,0.0902423,0.174911,-0.0423207,0.0193215,0.0262053,0.0376403,0.0410693,-0.0936169,-0.0275654,-0.00240231,-0.00838851,0.0359781,-0.0411754,-0.0706803,-0.0151391,0.0811843,-0.143462,-0.210596,-0.00743241,-0.112911,-0.0766531,-0.00559441,-0.010595,-0.220893,-0.110347,0.0656111,0.012686,-0.0289776,-0.0256823,0.0190598,-0.046679,0.123601,-0.0166579
mi 0.060505,0.267871,-0.125136,0.0666881,-0.0302604,0.065103,-0.023281,0.00939085,0.034547,0.0217184,-0.154461,-0.143929,-0.215297,-0.0322627,-0.052463,0.136235,0.092007,0.0505782,-0.0693211,-0.00127434,-0.0522467,-0.16357,-0.000199561,0.247522,0.126411,-0.101492,0.00612732,0.0710597,-0.00476192,-0.0191054,-0.121456,0.167305,-0.0489888,-0.00643617,-0.0634481,0.127209,0.00692281,0.177263,0.0385895,-0.0104769,-0.0900035,0.00217695,-0.00381049,-0.14128,-0.144614,-0.0336512,-0.110734,-0.0579157,0.159574,0.0511322,0.113519,-0.0864364,-0.0941511,-0.124625,-0.0466144,-0.120511,-0.0341853,-0.0227693,-0.0180963,0.00572707,-0.100615,0.0380829,0.214412,0.119883,0.10742,-0.0940085,-0.0459911,0.101299,0.178846,-0.037059,0.0155683,0.082753,0.0288373,0.0960428,-0.0612099,-0.0411328,0.0777126,0.0753068,0.0388964,-0.0132556,-0.0450417,0.0303344,0.0349512,-0.166636,-0.181273,-0.0357299,-0.0618216,-0.16182,0.0787375,-0.0534735,-0.233426,-0.158003,0.0464743,-0.00410381,-0.0201259,0.0243293,-0.0153965,-0.0292011,0.153514,-0.0565255
theories 0.0186087,0.0411811,0.035407,-0.0297519,0.00969633,-0.027537,-0.0913801,0.109317,-0.0131609,-0.099299,-0.189111,-0.0327301,-0.170683,0.0321705,0.0656161,0.0924536,0.0876511,-0.032789,-0.157567,-0.119078,-0.0674936,-0.0931536,-0.100172,0.151995,0.144736,0.155749,-0.100226,-0.0706658,-0.0336957,-0.00108863,-0.10999,0.253263,0.126542,-0.0991857,-0.129649,0.13442,0.12436,0.0317463,-0.00217829,-0.0299898,-0.120289,0.202622,-0.0153429,-0.064308,-0.0106178,-0.147942,0.015724,-0.0558111,0.182174,0.0653646,0.0477062,-0.0379607,0.0913582,-0.0401811,-0.0417181,0.0808982,-0.0573869,-0.018188,-0.174416,-0.0706652,-0.0342,-0.0502905,-0.123221,-0.0071936,0.187321,-0.053046,-0.176241,-0.0718979,-0.0103135,0.0400906,-0.0443751,-0.0437659,-0.0437478,-0.0203438,-0.0778308,0.0733114,-0.0190659,-0.0964814,0.0263216,0.119285,0.0118569,-0.145751,-0.0259623,-0.174071,-0.046299,-0.145369,-0.202907,0.0228201,-0.104468,-0.157834,-0.0770878,-0.216993,-0.0115049,0.072861,0.0583605,0.0621094,0.150523,0.0606541,-0.0810096,-0.0489357
movies 0.0465154,0.278187,-0.130239,0.0638299,-0.0267806,0.0702158,0.00919906,-0.000802147,0.0510218,0.0335262,-0.12482,-0.144287,-0.206279,-0.041676,-0.0686098,0.113109,0.0829378,0.0486286,-0.0452715,0.01986,-0.0602016,-0.163561,0.0271208,0.237667,0.0935191,-0.13108,0.0207795,0.0754993,0.0143283,-0.0141928,-0.109773,0.141003,-0.0642084,0.00849675,-0.0372274,0.122171,-0.0158147,0.199919,0.0465476,-0.00343217,-0.0619018,-0.0302556,0.00618704,-0.129947,-0.158971,0.000903425,-0.122499,-0.0708429,0.127386,0.041499,0.0945314,-0.0807325,-0.0933162,-0.125376,-0.0494696,-0.138888,-0.0440936,-0.0410579,0.00190214,0.0224738,-0.0815611,0.0456674,0.246854,0.133915,0.0985271,-0.0749745,-0.0110802,0.107801,0.190053,-0.0583898,0.0153077,0.0838295,0.0379364,0.119683,-0.0486475,-0.038016,0.0868808,0.083772,0.050409,-0.0435134,-0.024973,0.0575438,0.0432006,-0.160436,-0.193373,-0.0203737,-0.0403227,-0.165288,0.0865396,-0.0313984,-0.222217,-0.135536,0.0672473,-0.0377531,-0.0429384,0.00335288,-0.0196072,-0.0534834,0.166653,-0.0333878
erm 0.0750736,0.222255,-0.151682,0.0633007,-0.059735,0.0859787,-0.00402871,-0.0520753,0.0431554,0.0807752,-0.0845974,-0.0886227,-0.226803,-0.0593762,-0.0765341,0.0753025,0.123835,0.0763015,-0.00585467,0.0529379,-0.0348959,-0.113737,-0.00765902,0.24532,0.0906935,-0.191487,-0.0295764,0.0717221,-0.0309497,-0.0487499,-0.106176,0.146443,-0.105656,0.0476227,-0.0407902,0.0813555,0.00371825,0.181012,0.00648444,0.0211762,-0.0421493,-0.0619425,0.0193299,-0.119735,-0.11265,0.0411473,-0.0767383,-0.0718535,0.0984485,0.0775926,0.102493,-0.120696,-0.0955004,-0.102231,-0.0996682,-0.188744,-0.0789081,-0.0933132,0.0665464,0.016855,-0.0797363,0.0228048,0.216151,0.1444,0.102016,-0.0786513,0.00567005,0.14346,0.209635,-0.109336,-0.0325073,0.104399,0.0404617,0.105299,-0.0677597,-0.0525516,0.0693774,0.109673,-0.00950666,-0.0908004,-0.0315172,0.0407331,0.0738549,-0.107213,-0.212402,0.00228201,-0.0207037,-0.112053,0.0505638,-0.0447424,-0.223664,-0.11003,0.0210188,0.00914225,-0.0864077,0.000481704,0.0185464,-0.0809421,0.134282,-0.02516
my 0.0527926,0.263715,-0.128682,0.0591786,-0.0217715,0.0704603,-0.00600295,0.0126329,0.042401,0.0246891,-0.139942,-0.152431,-0.213504,-0.0293385,-0.0606925,0.127183,0.0944803,0.0420125,-0.0656238,0.0092334,-0.0618524,-0.167524,0.0155683,0.242997,0.111875,-0.118094,0.0123321,0.0752194,0.00465506,-0.0141959,-0.123441,0.165072,-0.051686,-0.0072635,-0.0492042,0.126785,-0.00288149,0.190734,0.0451176,-0.0151854,-0.0802475,-0.0130399,-0.00447423,-0.139605,-0.151223,-0.0234102,-0.115169,-0.066517,0.143051,0.0545732,0.102059,-0.0788243,-0.0886281,-0.117223,-0.0420386,-0.128963,-0.0413077,-0.0331117,-0.0164179,0.00641861,-0.0899048,0.0477487,0.231821,0.122612,0.110099,-0.0837176,-0.032916,0.103953,0.185482,-0.0496897,0.0201465,0.0795173,0.0319613,0.109533,-0.0581909,-0.0341611,0.0788956,0.0775393,0.0468867,-0.0281291,-0.0326548,0.0431961,0.0374243,-0.166841,-0.19125,-0.0336793,-0.057452,-0.156077,0.079499,-0.0475614,-0.226494,-0.153015,0.0602864,-0.0173111,-0.0309636,0.0116641,-0.00874417,-0.0381739,0.151595,-0.044527
example 0.0497355,0.236509,-0.128704,0.0572858,-0.00297128,0.0693858,-0.0478388,0.0508402,0.0284764,-0.0107617,-0.143341,-0.148713,-0.232924,-0.0036198,-0.0375359,0.157938,0.099282,0.0217906,-0.098835,0.00494248,-0.0665853,-0.181405,-0.00306127,0.23275,0.136012,-0.098839,0.00634755,0.0521086,-0.0262953,-0.017389,-0.154469,0.20648,-0.0162021,-0.0473943,-0.0626724,0.119074,0.0216624,0.162619,0.0288645,-0.0205551,-0.121741,0.012529,-0.0142223,-0.170353,-0.14263,-0.0835195,-0.101906,-0.0532427,0.18471,0.0660146,0.113852,-0.0719334,-0.0657036,-0.0892257,-0.0441389,-0.0932452,-0.0359308,-0.00264303,-0.0517016,-0.041104,-0.109553,0.0516348,0.193078,0.0896579,0.137196,-0.0858338,-0.0813811,0.107775,0.181314,-0.0186626,0.0275171,0.049987,0.0144453,0.072078,-0.0571905,-0.0257373,0.0692778,0.0634656,0.0548375,0.0180281,-0.0358134,0.0169421,0.0186443,-0.161195,-0.165888,-0.0576463,-0.102008,-0.150232,0.0497093,-0.0726064,-0.212216,-0.177444,0.0261507,0.0147838,-0.0188561,0.0387271,0.0159103,-0.00242734,0.120728,-0.0547277
mindedness 0.06941,0.269123,-0.116066,0.0576668,0.00386547,0.0750036,-0.00250021,0.0100937,0.0283908,0.0308394,-0.135413,-0.137458,-0.218192,-0.0277234,-0.068967,0.132811,0.0919401,0.0505686,-0.0676393,0.0132527,-0.0813313,-0.155993,0.00309762,0.226772,0.113341,-0.0889661,0.018023,0.076751,0.000243786,-2.29222e-05,-0.140558,0.204186,-0.0611298,-0.0293553,-0.0733337,0.12333,0.02029,0.165701,0.0462665,-0.00837489,-0.113496,-0.000276756,0.00841926,-0.15027,-0.144697,-0.0372507,-0.124257,-0.0798834,0.144651,0.0518055,0.1,-0.069979,-0.0813771,-0.129178,-0.0429905,-0.144392,-0.0426017,-0.0173094,-0.0359222,-0.0251517,-0.117661,0.0375069,0.203599,0.13399,0.1416,-0.0687412,-0.0477247,0.106822,0.161771,-0.0401528,0.0392343,0.0935389,0.0128592,0.109304,-0.0794754,-0.0534173,0.0553073,0.0649005,0.0273158,0.00760157,-0.0144075,0.0271339,0.0435319,-0.183695,-0.165399,-0.0569229,-0.0599233,-0.150505,0.0646002,-0.0417559,-0.211498,-0.14792,0.0577396,-0.0150503,-0.00857636,0.0408229,0.0065985,-0.0446242,0.160032,-0.0306492
give 0.0542325,0.25137,-0.126284,0.0560491,-0.0184121,0.0668047,-0.0145538,0.0231724,0.0336227,0.0202064,-0.149323,-0.155201,-0.215661,-0.0230876,-0.0560866,0.128808,0.101253,0.0344232,-0.0838965,-0.000923017,-0.0689778,-0.167384,0.0104232,0.242062,0.129545,-0.108166,0.0131485,0.078582,0.00416555,-0.020523,-0.133963,0.1802,-0.0467558,-0.0143352,-0.0551265,0.124228,0.00450127,0.182482,0.042633,-0.0220162,-0.0854765,-0.00271321,-0.00557036,-0.150948,-0.146954,-0.0406906,-0.108773,-0.0589729,0.160137,0.0625609,0.108128,-0.0735281,-0.0869339,-0.109208,-0.0440528,-0.127503,-0.0463703,-0.0242281,-0.036093,-0.0105574,-0.0872739,0.0433627,0.216801,0.116077,0.122107,-0.0881928,-0.0513174,0.102414,0.186608,-0.0420813,0.0188332,0.078869,0.0257976,0.0996167,-0.0611898,-0.0333158,0.0675811,0.0729185,0.0399048,-0.0117204,-0.0412061,0.0314582,0.0310747,-0.16347,-0.183015,-0.0383916,-0.0631532,-0.144782,0.076598,-0.0620418,-0.230424,-0.162328,0.0574215,-0.0100613,-0.0179932,0.0221614,-0.00376816,-0.0360657,0.149346,-0.0438719
dragons 0.0105697,0.310753,-0.13114,0.11553,0.0140123,0.0699665,0.0691742,0.0234401,0.0704649,0.0243099,-0.115413,-0.0785257,-0.16087,-0.0944956,-0.12226,0.120612,0.0854048,0.0739213,0.0266452,-0.00728274,-0.00104368,-0.14944,0.0363744,0.217148,0.0706847,-0.165284,0.0699689,0.031834,0.0743415,-0.00258876,-0.0656423,0.124145,-0.0287507,0.0164985,0.014219,0.0753018,-0.044836,0.170887,0.0485319,0.00248073,0.0121797,-0.0986653,-0.00625936,-0.126101,-0.160885,0.0531779,-0.150682,-0.0462534,0.0760788,0.0118385,0.112919,-0.0346585,-0.136635,-0.154588,-0.0863354,-0.124787,-0.088351,-0.0638585,0.0262324,0.07671,-0.101985,0.0233002,0.236669,0.0996043,0.030982,-0.0506681,-0.0187357,0.086104,0.198943,-0.0445838,0.000743753,0.0989293,0.0441609,0.176573,-0.00958564,-0.0448111,0.0565361,0.0586672,0.0724538,-0.0176208,-0.00832628,0.0534337,0.0086549,-0.145287,-0.222518,-0.00342468,-0.0418513,-0.148767,0.109908,0.0411116,-0.193259,-0.0792564,0.0439509,-0.0729019,-0.104906,-0.0263126,-0.0317246,-0.0947733,0.165551,-0.0559807
involve 0.0756553,0.267079,-0.119688,0.0567719,-0.0295801,0.0480291,-0.0390786,0.0285062,0.0169747,0.0171342,-0.154542,-0.173045,-0.226176,-0.0056221,-0.0405068,0.127879,0.110584,0.0357031,-0.0631866,-0.0132868,-0.0579534,-0.146219,0.0172145,0.225876,0.124028,-0.098724,0.00337409,0.0793293,0.00994637,-0.0197437,-0.149571,0.203244,-0.0301494,-0.016325,-0.0388134,0.137008,-0.00423298,0.177667,0.0274245,-0.0350306,-0.0811533,-0.00634532,-0.0198532,-0.151313,-0.133368,-0.0505486,-0.119319,-0.08071,0.145289,0.0842565,0.0906652,-0.0623341,-0.0838534,-0.0933552,-0.0272665,-0.112057,-0.0183496,-0.0143846,-0.0486495,0.0111663,-0.0836047,0.052451,0.199917,0.109744,0.105472,-0.0762902,-0.0506383,0.0895258,0.182838,-0.0398846,0.00365428,0.0779531,0.0173046,0.0819927,-0.0452514,-0.020612,0.0752566,0.076669,0.0242204,-0.0298571,-0.0361266,0.0220779,0.0436965,-0.186401,-0.20254,-0.0530831,-0.0645693,-0.16716,0.0508522,-0.0454276,-0.242269,-0.163915,0.0547422,-0.020048,-0.00965406,0.0243138,0.0162635,-0.0241504,0.148869,-0.0626832
want 0.0551239,0.252904,-0.126799,0.0504493,-0.0206489,0.0672878,-0.0174573,0.0212713,0.0329486,0.0145577,-0.147295,-0.156621,-0.219638,-0.0212041,-0.0520237,0.136814,0.100067,0.0354336,-0.0783191,0.00269126,-0.0629696,-0.165733,0.00902585,0.240119,0.126626,-0.107943,0.00842393,0.0759183,-0.000403389,-0.0168579,-0.129029,0.182389,-0.0451904,-0.0172021,-0.0586407,0.128688,0.00697721,0.180063,0.0443192,-0.021759,-0.093959,0.00492565,-0.00681002,-0.149001,-0.145486,-0.0416864,-0.109396,-0.0682062,0.154061,0.0653299,0.104734,-0.0811238,-0.0809676,-0.110903,-0.0343419,-0.123209,-0.0378971,-0.0301979,-0.032015,-0.0087657,-0.0916184,0.0501356,0.220119,0.108322,0.116397,-0.0872218,-0.0472001,0.0976267,0.185592,-0.0365509,0.024272,0.072451,0.0260598,0.10282,-0.0609603,-0.0298907,0.0705409,0.0718616,0.044044,-0.0132554,-0.0355286,0.0315161,0.03188,-0.168156,-0.190874,-0.0456474,-0.072411,-0.148321,0.0739478,-0.0618677,-0.229752,-0.167458,0.0538578,-0.00279862,-0.0257694,0.0224409,0.00121044,-0.03041,0.14197,-0.0480421
